svm_type c_svc
kernel_type rbf
gamma 0.1
nr_class 5
total_sv 405
rho 0.893733591921037 0.7790667850374805 0.700634065591254 0.1817463283261195 -0.3911242285333548 -0.5223648547987098 -0.8720304153606575 -0.17427089538893512 -0.7373508116247663 -0.6469931394199527
label 1 2 3 4 5
nr_sv 19 188 100 74 24
SV
0.0 0.0 0.0 1.0 1:3.0933 2:-0.37824 3:-1.5699 4:-0.20984 5:0.093264 6:0.13472 7:0.15544 8:-0.2228 9:-0.19171 10:0.072539 
0.0 0.0 0.0 1.0 1:3.5363 2:1.1062 3:-2.0389 4:-0.90415 5:-0.049223 6:0.0025907 7:0.007772 8:0.11917 9:0.13731 10:0.093264 
0.18209849270134063 0.18190763213889335 0.18207720856806026 0.0 1:0.085492 2:-1.1503 3:-0.27202 4:0.48446 5:0.46114 6:-0.072539 7:0.051813 8:0.10881 9:0.18135 10:0.080311 
0.476290272088652 0.45280449987573507 0.4357428911594382 0.0 1:0.23057 2:2.7979 3:-0.65285 4:-0.45855 5:-0.42228 6:-0.36269 7:-0.15285 8:0.11658 9:-0.0051813 10:0.023316 
0.6487368580636819 0.585850336955476 0.5607557268127781 1.0 1:4.3575 2:-1.4041 3:-1.3005 4:0.088083 5:0.36269 6:0.020725 7:0.041451 8:0.041451 9:-0.031088 10:0.07513 
0.0 0.0 0.0 0.9530308198197487 1:2.513 2:-1.7927 3:-0.79534 4:-0.03886 5:0.1399 6:0.088083 7:0.26425 8:0.023316 9:0.028497 10:0.13731 
0.0 0.0 0.0 0.46114656884259847 1:2.8731 2:-0.47409 3:-2.0725 4:-0.55181 5:0.13212 6:0.26684 7:0.39637 8:0.18653 9:0.041451 10:0.13212 
0.5432834285999547 0.5151187993367942 0.49668953240085123 0.1957597949182432 1:-0.6658 2:-0.54922 3:1.2332 4:0.48964 5:0.07513 6:-0.028497 7:-0.14508 8:-0.23834 9:-0.18135 10:0.13731 
0.20490569228472094 0.19862867655455632 0.19479333841016364 0.0 1:1.4689 2:2.3549 3:-1.4067 4:-0.99741 5:-0.23057 6:0.0051813 7:-0.085492 8:-0.16839 9:0.23575 10:-0.051813 
1.0 1.0 1.0 0.7616376393467582 1:-3.8549 2:2.3083 3:-0.10881 4:0.16062 5:0.19171 6:0.14767 7:-0.010363 8:-0.1943 9:-0.059585 10:-0.15026 
0.0 0.0 0.0 1.0 1:3.285 2:-0.054404 3:-1.4534 4:-0.041451 5:-0.21503 6:-0.17617 7:-0.082902 8:0.090674 9:-0.12694 10:0.1399 
1.0 0.9274894895905179 0.8850367499435279 1.0 1:3.1321 2:1.987 3:-3.2953 4:-0.96891 5:0.43264 6:0.52332 7:0.30052 8:0.1943 9:0.11658 10:0.088083 
0.22382827783394227 0.20069167703999527 0.18540335938236382 0.0 1:0.78497 2:-1.0233 3:-0.8342 4:0.65803 5:0.21244 6:0.010363 7:-0.025907 8:0.007772 9:0.0051813 10:0.0051813 
0.5637416047054911 0.4953072389851779 0.4508775496641164 0.42938343575586335 1:-1.1192 2:2.8523 3:-1.0855 4:-0.97409 5:-0.31606 6:0.082902 7:0.19171 8:-0.012953 9:0.0 10:0.088083 
0.1588594117420736 0.15930985435718711 0.15755173216552576 0.11231584596175877 1:-0.25389 2:3.0492 3:-0.95078 4:-0.3342 5:-0.11917 6:-0.098446 7:-0.067358 8:0.24093 9:0.13212 10:0.098446 
0.0 0.0 0.0 1.0 1:3.943 2:-0.53886 3:-1.4663 4:-0.1658 5:-0.12176 6:0.046632 7:0.051813 8:0.17358 9:0.015544 10:-0.023316 
0.7978268174884937 0.7592715320124781 0.7253550435564025 0.27479131456527267 1:2.772 2:-1.6762 3:-0.21762 4:-0.13731 5:-0.1658 6:-0.041451 7:-0.015544 8:-0.051813 9:0.082902 10:-0.036269 
1.0 0.9856978519751177 0.9425457933348623 1.0 1:5.2565 2:0.14508 3:-3.1477 4:-1.2668 5:-0.041451 6:0.082902 7:0.2228 8:0.3057 9:0.30311 10:0.10363 
0.866160800732351 0.7911000978689311 0.7393367006185125 0.6147183013736977 1:-2.5415 2:-0.54145 3:0.79016 4:0.11658 5:0.14508 6:0.19948 7:0.13212 8:0.25648 9:0.0051813 10:0.1943 
-0.10616484193846004 0.6084825069540039 0.4777128652911608 0.12825841427548612 1:41.2712 2:42.7707 3:-0.86049 4:-5.1412 5:-5.4983 6:-4.8235 7:-4.315 8:-3.9908 9:-3.9191 10:-3.3448 
-0.04703427708405453 0.27034551253386213 0.21182557529856125 0.057034040528019324 1:13.0281 2:30.425 3:6.1983 4:-3.5014 5:-5.8419 6:-5.5616 7:-4.5886 8:-4.5891 9:-3.6399 10:-3.3218 
-0.008593496534457297 0.04635761105766333 0.03294381287673491 0.009070739397492266 1:3.4764 2:36.6286 3:10.7833 4:-1.9795 5:-4.8935 6:-4.9673 7:-4.7847 8:-4.5369 9:-3.9416 10:-3.4228 
-0.04888149179431863 0.28170215182656533 0.22085046154823237 0.05895609803669513 1:-0.37475 2:36.4528 3:9.2856 4:-2.7613 5:-4.1312 6:-5.1141 7:-4.8893 8:-4.0405 9:-4.2243 10:-3.0801 
-0.02668118406450036 0.15254144413814935 0.12273844003506018 0.033156313598231985 1:2.6282 2:36.0844 3:10.6406 4:-0.99231 5:-5.0818 6:-5.0719 7:-5.0648 8:-4.269 9:-3.7761 10:-3.0602 
-0.06264924270510695 0.3601227227146559 0.2826890703578122 0.0760485917358619 1:14.3839 2:24.3233 3:7.7716 4:-0.98721 5:-4.2574 6:-5.9958 7:-6.4338 8:-5.3571 9:-5.6595 10:-4.5962 
-0.03535008867601628 0.20340534385560335 0.15937665559038983 0.042582396081685035 1:19.0098 2:28.9645 3:10.0946 4:-1.2009 5:-3.9017 6:-4.954 7:-4.4128 8:-4.6479 9:-4.0322 10:-3.6987 
-0.045004156880219526 0.25564802249507074 0.200665068886816 0.05390291717513766 1:-0.76287 2:35.9995 3:11.7903 4:-0.64053 5:-4.3574 6:-4.4493 7:-4.2671 8:-3.7426 9:-3.4088 10:-3.4693 
-0.025547980143751377 0.1402513256572703 0.11022588018612338 0.02905501042750889 1:21.7415 2:24.1771 3:6.4992 4:-1.3271 5:-3.4959 6:-4.0325 7:-3.7866 8:-3.4408 9:-3.3368 10:-2.9366 
-0.06028997825259562 0.3416108028385675 0.2684767048372659 0.07214314417802958 1:24.3133 2:24.7026 3:8.6655 4:-1.1118 5:-4.4831 6:-5.839 7:-6.2255 8:-5.9451 9:-4.9456 10:-4.7128 
-0.016458599772863833 0.09621893847325456 0.07619341974600267 0.01971964824189741 1:27.815 2:20.3636 3:3.0591 4:-3.2414 5:-4.1243 6:-4.0928 7:-3.5356 8:-3.0966 9:-2.6793 10:-2.7027 
-0.0341721693428416 0.19252431471434778 0.15116548345652375 0.040622611997200644 1:23.8385 2:28.5857 3:6.0334 4:-3.2475 5:-4.8035 6:-5.4122 7:-5.1372 8:-4.5497 9:-4.3997 10:-3.5803 
-0.08850456122812557 0.5063965482308325 0.39743469887717364 0.10651284674956185 1:33.7913 2:18.7305 3:6.1902 4:-2.042 5:-5.8517 6:-6.1477 7:-6.2523 8:-5.5482 9:-5.2391 10:-4.4019 
-0.014674613904138205 0.08683099680295323 0.0695721336896435 0.01809654374285495 1:6.3942 2:34.8138 3:11.0563 4:-2.3414 5:-4.841 6:-5.1461 7:-5.1406 8:-4.9137 9:-4.2198 10:-4.3475 
-0.07899375857461577 0.45568546322599845 0.3577442368389118 0.09617948251135888 1:28.0557 2:22.4164 3:10.2041 4:-1.6957 5:-4.7855 6:-5.2078 7:-5.4325 8:-4.2318 9:-4.1179 10:-3.8304 
-0.04823753037511119 0.2760337612165032 0.21673597026798025 0.05812128386987469 1:25.3446 2:23.8081 3:7.1895 4:-0.034485 5:-2.9136 6:-4.0736 7:-4.5876 8:-4.5167 9:-4.1465 10:-3.494 
-0.08955175020297906 0.5128617765103005 0.4021659710797647 0.10736930750473378 1:5.4116 2:33.8101 3:12.8547 4:0.63694 5:-4.6687 6:-5.236 7:-5.2907 8:-5.1791 9:-5.1312 10:-4.7874 
-0.046178930443519235 0.26273558274406117 0.20450149638031553 0.0543087862686479 1:18.967 2:32.1946 3:10.8659 4:-2.0789 5:-6.0249 6:-6.1336 7:-5.9393 8:-5.8284 9:-5.4167 10:-4.176 
-0.05015394379460497 0.2851052202894261 0.22476411888082665 0.06035010617007679 1:17.0176 2:32.1586 3:11.6569 4:-1.577 5:-5.4895 6:-5.7925 7:-6.6676 8:-5.937 9:-5.0693 10:-4.4439 
-0.021057034558099944 0.12450315354767579 0.09817551942866717 0.026672140336074526 1:19.0411 2:33.1569 3:9.6962 4:-2.1604 5:-4.6767 6:-5.4633 7:-5.3694 8:-4.9725 9:-4.679 10:-4.2537 
-0.05290421444031136 0.3019514505683285 0.23669682475925502 0.0636840744361139 1:16.821 2:26.3955 3:11.7015 4:-0.025144 5:-4.7576 6:-5.5745 7:-5.0205 8:-4.9643 9:-4.8295 10:-4.4491 
-0.008043477145857049 0.04977340983740379 0.03873876622353734 0.009998062474333635 1:22.2018 2:25.7836 3:9.0134 4:-0.67491 5:-4.2164 6:-4.8383 7:-4.6676 8:-4.8119 9:-3.9361 10:-3.8819 
-0.10358806057616271 0.5956154036847847 0.4673331967542396 0.12528567050047862 1:21.2749 2:27.2747 3:13.3385 4:-1.1321 5:-6.4872 6:-7.4561 7:-7.3746 8:-7.2539 9:-6.8664 10:-5.5732 
-0.06969433882424372 0.39848803871912364 0.3122544736510633 0.08338861624309303 1:25.7624 2:32.8178 3:2.0143 4:-4.4966 5:-4.7349 6:-4.531 7:-4.5023 8:-3.9464 9:-3.4233 10:-3.0846 
-0.015139237507601872 0.0881298943310267 0.0691972409744607 0.019841582907326058 1:29.2431 2:25.8805 3:3.5261 4:-2.6254 5:-4.8415 6:-5.0132 7:-4.7829 8:-4.4573 9:-3.8149 10:-3.237 
-0.006628314994105298 0.03694309016364807 0.029987904710334308 0.007682016640815192 1:24.4746 2:17.4776 3:4.6706 4:-1.659 5:-3.1505 6:-3.4168 7:-3.6269 8:-3.1373 9:-2.9264 10:-2.8537 
-0.02512702708425455 0.14455330345867257 0.11255408535557954 0.030771479941459744 1:30.4609 2:18.6746 3:4.6264 4:-2.1318 5:-3.3695 6:-4.0994 7:-3.3813 8:-3.7573 9:-3.0582 10:-2.9029 
-0.007241500976237037 0.04476001238508412 0.035192374092643613 0.009670923015106844 1:14.7365 2:31.4417 3:4.1311 4:-2.6737 5:-4.6284 6:-4.802 7:-4.5042 8:-4.1241 9:-3.6662 10:-3.0858 
-0.06988005315437859 0.40179795785282985 0.31483898063664767 0.08422093460947686 1:33.357 2:17.0844 3:5.796 4:-1.4904 5:-4.4029 6:-4.3459 7:-4.183 8:-4.0415 9:-3.5328 10:-3.184 
-0.018581426836102175 0.11024611491440943 0.08677375967593369 0.02228001602614686 1:13.0311 2:22.1567 3:6.2004 4:-2.3288 5:-3.9381 6:-4.266 7:-4.2387 8:-3.7963 9:-3.7101 10:-2.8444 
-0.023012515459007624 0.12868798144513377 0.09802482526770834 0.026883893029989826 1:4.1836 2:31.7307 3:9.3865 4:-2.2958 5:-4.5526 6:-4.0944 7:-4.1261 8:-3.6212 9:-3.1798 10:-2.9835 
-0.08245654722917908 0.47179443986688074 0.37053589252381597 0.09935336997128984 1:-2.2321 2:31.339 3:10.899 4:0.18205 5:-3.6375 6:-4.3027 7:-3.9318 8:-4.1442 9:-3.7695 10:-3.3068 
-0.019403863983648982 0.11468877674638078 0.09048861539572499 0.02523947265064917 1:2.3668 2:34.5309 3:8.2647 4:-2.7113 5:-4.1496 6:-4.3029 7:-3.5297 8:-3.5416 9:-3.2675 10:-2.8054 
-0.029380299868046567 0.165610368837832 0.13058680756511126 0.035386582303063706 1:19.8675 2:19.9282 3:6.8757 4:-2.9565 5:-4.6467 6:-4.7367 7:-4.6352 8:-3.3979 9:-3.5485 10:-3.0239 
-0.04505091994684096 0.25697936086098405 0.20143628053724222 0.05440727166966942 1:27.0181 2:20.7563 3:5.2466 4:-2.7808 5:-5.3528 6:-5.3663 7:-5.4271 8:-4.2623 9:-3.4887 10:-3.1445 
-0.010251698317183021 0.06384363165381339 0.049724941535062184 0.012974539888363876 1:16.7104 2:35.0808 3:5.7814 4:-3.0507 5:-5.304 6:-5.4603 7:-4.248 8:-4.0104 9:-3.7277 10:-3.5369 
-0.03305491590320972 0.18407366621793395 0.14649397562081615 0.04049454753825481 1:18.5559 2:27.4504 3:4.6209 4:-3.0012 5:-3.9783 6:-3.9207 7:-3.4512 8:-3.261 9:-2.7882 10:-2.3675 
-0.039875131044776475 0.22920198118196403 0.1798010552684075 0.04822555548314745 1:36.3642 2:17.7675 3:2.3226 4:-3.9649 5:-4.7484 6:-4.5516 7:-4.2355 8:-3.8913 9:-3.2179 10:-2.7262 
-0.05645448119286055 0.32178784945380373 0.2525689712837494 0.06739862059665302 1:38.787 2:20.6688 3:2.3868 4:-3.8431 5:-5.6972 6:-5.3949 7:-5.1445 8:-4.443 9:-3.8976 10:-3.7065 
-0.04362095196929014 0.24957470664909442 0.19576798566153822 0.052213609926000826 1:39.5849 2:18.5235 3:3.2862 4:-2.5198 5:-4.4929 6:-4.5423 7:-4.71 8:-4.2806 9:-3.2758 10:-3.1205 
-0.023575544048207844 0.1354385470647407 0.10671950257243938 0.028453277421637387 1:13.278 2:29.1194 3:10.1369 4:-2.0019 5:-4.8797 6:-5.7593 7:-5.2681 8:-4.7745 9:-3.7591 10:-3.1344 
-0.021455166087517585 0.12571844853842137 0.09894744368787221 0.02630580009073187 1:17.0092 2:28.2563 3:8.7688 4:-1.4584 5:-4.2559 6:-5.8278 7:-5.1093 8:-5.1003 9:-4.888 10:-4.7886 
-0.012764700467124976 0.07531000760293996 0.059399518750092146 0.01507698913637395 1:10.9306 2:37.8219 3:6.0043 4:-2.7385 5:-4.2992 6:-4.6239 7:-4.5029 8:-4.1883 9:-3.7828 10:-3.5971 
-0.004984075860055863 0.03658497736585233 0.026177212318337147 0.004936364216471006 1:18.6019 2:28.4526 3:4.7457 4:-2.3285 5:-3.699 6:-4.4443 7:-4.0292 8:-3.4686 9:-3.3041 10:-3.1786 
-0.04709087922140962 0.26948989844616367 0.21142231365481182 0.056919007668719955 1:30.1084 2:22.3958 3:1.3226 4:-3.2221 5:-4.4752 6:-4.168 7:-3.7664 8:-3.1895 9:-3.2385 10:-2.2074 
-0.07361305046082411 0.4226360576127459 0.3314409996709077 0.08920754491829352 1:36.7985 2:12.2455 3:1.9991 4:-2.1153 5:-3.2664 6:-3.8372 7:-3.9462 8:-3.5012 9:-3.7091 10:-2.9233 
-0.08428199216267648 0.48401942055008756 0.3796355588858797 0.10152329518152071 1:27.0276 2:15.6585 3:3.8769 4:-2.7813 5:-3.7262 6:-4.0918 7:-4.1982 8:-3.5019 9:-2.8894 10:-2.9278 
-0.05180242505923674 0.2977720039468852 0.2324255441288786 0.06239475545180982 1:24.3008 2:18.5496 3:3.475 4:-1.3665 5:-3.1926 6:-3.6652 7:-3.1736 8:-3.5142 9:-3.2381 10:-3.0745 
-0.018035320725050836 0.10308917270246495 0.08032067736721576 0.021176878800953886 1:0.63778 2:34.3287 3:10.5312 4:-0.88462 5:-3.2575 6:-4.2103 7:-3.9969 8:-3.7008 9:-3.3522 10:-2.7565 
-0.08123463760488264 0.4680032830963237 0.3668751301271952 0.09871181271527102 1:12.9829 2:30.1777 3:11.2706 4:-0.89814 5:-5.2516 6:-6.931 7:-7.0217 8:-5.8484 9:-5.1245 10:-4.7791 
-0.06982469415545553 0.39871126410497737 0.31285637337360067 0.0835506995495276 1:16.5507 2:30.8181 3:3.9902 4:-4.6623 5:-4.8026 6:-3.8683 7:-3.5317 8:-3.4749 9:-2.476 10:-2.1374 
-0.03919646216642948 0.2216132439619793 0.1736646984128946 0.04706178761467454 1:18.165 2:34.7728 3:7.0562 4:-3.9404 5:-5.5637 6:-5.0047 7:-4.3468 8:-3.7722 9:-3.5916 10:-2.8487 
-6.905354538100664E-4 0.0077198511035695555 0.005379778927451498 0.0021837199696063377 1:30.6331 2:21.4675 3:4.1607 4:-4.1531 5:-4.1213 6:-4.1023 7:-3.9292 8:-3.0868 9:-3.0956 10:-2.7297 
-0.037039902681534766 0.2133284397338615 0.16787174028925353 0.04477317763995064 1:34.0984 2:23.9876 3:1.3751 4:-3.4438 5:-4.5379 6:-3.7762 7:-3.6431 8:-3.3289 9:-2.9081 10:-2.7988 
-0.038122069485916774 0.21742973816404948 0.17091088425863338 0.04578117377428272 1:36.8363 2:20.3333 3:0.52166 4:-4.3687 5:-4.885 6:-4.868 7:-3.9783 8:-4.0113 9:-3.0634 10:-2.8166 
-0.00681944062957935 0.03488140939957155 0.026991557307639608 0.00684870770924026 1:16.5345 2:23.2454 3:4.5787 4:-2.3381 5:-3.3485 6:-3.2477 7:-3.879 8:-2.7752 9:-2.8155 10:-2.3221 
-0.03599959145864083 0.20749921621159925 0.16279113125465858 0.04342682055555691 1:1.4845 2:30.4684 3:11.4635 4:-0.72208 5:-3.8221 6:-4.2532 7:-3.7791 8:-3.0379 9:-3.2308 10:-2.9588 
-0.0312591245698132 0.17736221658243032 0.1399341918993656 0.03775998733927772 1:10.3983 2:28.2639 3:9.75 4:-2.4387 5:-3.7737 6:-3.9912 7:-3.6868 8:-3.4852 9:-3.0845 10:-2.9254 
-0.009380632333310936 0.06319880747356339 0.04637560321183937 0.011866893995180696 1:17.8887 2:25.9317 3:7.1875 4:-2.0277 5:-3.6263 6:-3.915 7:-3.6204 8:-2.9115 9:-2.6239 10:-2.5312 
-0.010958392272050144 0.059474632417813686 0.046853764847751014 0.012227514203437047 1:22.2042 2:24.6077 3:7.3926 4:-2.4925 5:-5.3691 6:-5.4703 7:-4.6217 8:-4.4094 9:-3.6042 10:-2.9167 
-0.02613844211068959 0.1506780060303391 0.11813341639620367 0.03151833652614164 1:13.1083 2:23.5878 3:11.0934 4:-1.1535 5:-4.9268 6:-5.4161 7:-5.4104 8:-4.6592 9:-3.7357 10:-3.5709 
-0.05045180108768059 0.2897957272448405 0.22724681933940996 0.06126123883077732 1:12.7886 2:27.4481 3:4.4858 4:-2.913 5:-5.0485 6:-5.0617 7:-4.1853 8:-3.7355 9:-3.5113 10:-3.0666 
-0.04947206589257863 0.2853490039502375 0.22344128334012395 0.059730284840083026 1:17.3586 2:21.4141 3:9.3228 4:-1.5685 5:-4.4698 6:-5.0119 7:-5.3992 8:-4.954 9:-4.3158 10:-3.6616 
-0.024647196349838814 0.13765267027846506 0.10769126013572522 0.02796159706778638 1:28.6286 2:24.1326 3:5.5724 4:-3.4221 5:-4.9282 6:-4.5016 7:-4.0445 8:-3.51 9:-3.2169 10:-2.5814 
-0.07926225583760518 0.45362542248518734 0.35548356834632916 0.09515411646071815 1:9.3348 2:23.8515 3:5.1566 4:-2.9648 5:-2.9328 6:-3.6441 7:-3.5618 8:-2.8555 9:-2.7049 10:-2.2275 
-0.016085099443134535 0.09008805321521768 0.0699644783919475 0.018423088115968343 1:19.8626 2:19.9668 3:7.0175 4:-0.65568 5:-3.2713 6:-3.6718 7:-3.763 8:-3.605 9:-2.7221 10:-2.7955 
-0.022833226016435705 0.12450968412134955 0.0977654639694107 0.026476077448725176 1:6.8325 2:34.9945 3:9.0022 4:-1.9534 5:-3.6565 6:-4.192 7:-3.9009 8:-3.3515 9:-2.9871 10:-2.9443 
-0.04357405049862223 0.25161004095185374 0.19742053475126659 0.05276984447034764 1:33.1284 2:20.8071 3:3.0435 4:-4.2216 5:-5.1965 6:-5.4116 7:-4.2695 8:-3.9089 9:-3.2308 10:-2.885 
-0.05257338565546499 0.3002508291401927 0.23537984040187687 0.06362873621290724 1:9.9989 2:34.829 3:6.0079 4:-2.5763 5:-3.5762 6:-3.9936 7:-4.0094 8:-3.3162 9:-2.9046 10:-2.6725 
-0.040578793799958005 0.22813541643363403 0.17938392768926378 0.04871072107526814 1:8.9566 2:29.4861 3:6.2165 4:-1.5065 5:-3.8971 6:-4.12 7:-3.8123 8:-3.2995 9:-3.0833 10:-2.6459 
-0.031495579137121664 0.1791839774047119 0.1408537949380076 0.03829717118853893 1:13.2406 2:21.9538 3:6.7686 4:0.18388 5:-2.4092 6:-3.735 7:-4.2789 8:-3.7853 9:-3.8027 10:-3.7839 
-0.0 9.678711401499562E-4 6.640420907960374E-4 0.0 1:17.7144 2:21.0047 3:4.909 4:-2.3242 5:-3.7181 6:-4.2778 7:-3.9237 8:-3.8272 9:-3.2296 10:-2.9649 
-0.009763991379852198 0.05656239270700706 0.04490533987749557 0.011492871949808693 1:8.442 2:31.8586 3:7.2668 4:-2.9896 5:-4.4705 6:-4.2176 7:-4.0353 8:-3.7679 9:-3.1106 10:-2.7159 
-0.01698824401967299 0.09183854009619373 0.07193406183490794 0.018821378130302234 1:20.8337 2:27.3785 3:5.0819 4:-3.6095 5:-4.4277 6:-4.6239 7:-4.2599 8:-3.895 9:-3.7605 10:-3.3434 
-0.0332894829500621 0.19124024307313287 0.15036095305419378 0.04112334050054533 1:25.3405 2:21.4306 3:2.7451 4:-2.5487 5:-3.7369 6:-3.778 7:-3.9664 8:-3.4769 9:-3.1328 10:-2.8718 
-0.05488969971487582 0.310147771659705 0.2422307139658835 0.0653209969975789 1:5.7458 2:31.4412 3:7.1339 4:-1.5007 5:-3.0967 6:-4.1356 7:-3.7373 8:-4.0671 9:-3.8037 10:-3.2599 
-0.05510930388477327 0.3171659371608332 0.24903493681220074 0.06650655271934447 1:20.7269 2:20.1521 3:8.1788 4:0.28168 5:-3.0854 6:-4.1986 7:-4.4693 8:-4.1535 9:-3.7024 10:-3.2345 
-0.07912468749522879 0.4549811177815153 0.3576054612541403 0.09592584213398883 1:17.9177 2:21.9831 3:3.5098 4:-2.6864 5:-2.7683 6:-3.4985 7:-3.2757 8:-2.6806 9:-2.4953 10:-2.1259 
-0.002176545721189918 0.01849233593767538 0.015173428407129312 0.0031755519582024818 1:14.3704 2:26.1639 3:5.9359 4:-3.3175 5:-3.8007 6:-4.1543 7:-3.8521 8:-3.8223 9:-3.2574 10:-2.8974 
-0.00216324985685837 0.014856676965825369 0.01274383452142687 0.001987260512426774 1:25.7802 2:30.4695 3:5.37 4:-3.5278 5:-4.7652 6:-5.1261 7:-5.2491 8:-4.3259 9:-3.5357 10:-3.0288 
-0.0044172195040455805 0.028608888724601676 0.022729374541705608 0.0059067475640553115 1:21.5131 2:26.3616 3:6.169 4:-2.8652 5:-4.8756 6:-5.6003 7:-5.57 8:-4.8296 9:-4.2244 10:-3.8612 
-0.06828755641625674 0.3913562756083139 0.30647886893410264 0.08208530094377953 1:39.8871 2:16.8221 3:1.1902 4:-3.6226 5:-4.4224 6:-4.3385 7:-4.4714 8:-3.5324 9:-3.2388 10:-3.4662 
-0.013542699845616646 0.0789687553857392 0.062326828730160364 0.016307515004816156 1:28.3049 2:25.0864 3:2.5837 4:-3.3156 5:-3.65 6:-4.1955 7:-4.0388 8:-3.451 9:-3.2272 10:-3.1288 
-0.026346392399238566 0.14827803736163764 0.11681114323538797 0.030973754185889615 1:30.256 2:20.0548 3:3.7782 4:-2.7156 5:-3.1601 6:-3.5502 7:-3.3134 8:-3.3837 9:-2.9837 10:-2.2965 
-0.02745341712312041 0.1594516672249345 0.12454703751495114 0.032818424532466306 1:11.1951 2:27.1923 3:5.6113 4:-1.3496 5:-3.1132 6:-3.85 7:-3.5941 8:-3.6113 9:-3.5317 10:-3.4164 
-0.0395759088705206 0.22696823343441455 0.177340724715007 0.048387510968622045 1:24.5119 2:30.7634 3:3.2253 4:-2.8843 5:-4.983 6:-4.6457 7:-4.9079 8:-4.143 9:-3.6189 10:-3.4804 
-0.02474627441399264 0.14276338531305188 0.11249216956854771 0.03069893098732149 1:14.1479 2:27.1659 3:6.3189 4:-0.91622 5:-2.993 6:-4.103 7:-4.2152 8:-3.9255 9:-3.9495 10:-3.0976 
-0.02022541856872667 0.11868827557444585 0.092816434263625 0.024981217944483748 1:7.7014 2:33.71 3:6.8364 4:-2.5037 5:-3.7902 6:-4.6507 7:-4.9101 8:-4.3552 9:-4.0316 10:-3.21 
-0.003839744959286405 0.031440213291235704 0.024514038618373295 0.006091450368714023 1:7.7275 2:28.6279 3:7.6017 4:-1.5405 5:-2.9813 6:-3.4222 7:-3.8156 8:-3.397 9:-3.1961 10:-3.0562 
-0.05876624290356307 0.3366891860386659 0.26383281700224426 0.07131433898697094 1:13.8615 2:34.4492 3:4.6087 4:-2.8101 5:-4.1538 6:-4.0645 7:-3.9161 8:-3.8156 9:-3.0859 10:-2.4498 
-0.09098952240213234 0.5184435520006492 0.40676656992270094 0.10894472381013526 1:1.0213 2:44.1714 3:7.5875 4:-3.3205 5:-4.7778 6:-4.6346 7:-4.4582 8:-4.1397 9:-3.3808 10:-3.0115 
-0.035223887063159515 0.20028505168119295 0.15684492433364355 0.040954127592448 1:2.2277 2:35.1063 3:7.9689 4:-1.8855 5:-4.7067 6:-3.8634 7:-3.8789 8:-3.1761 9:-3.2459 10:-2.9627 
-0.03790020092750895 0.2240908015596032 0.17653391737465535 0.047643364536389274 1:14.7947 2:31.482 3:8.5127 4:-2.5291 5:-4.4818 6:-4.2531 7:-3.9216 8:-3.5164 9:-3.0891 10:-2.8282 
-0.10632409933581354 0.6088498171409473 0.4771231573130777 0.12801351495435556 1:42.2841 2:30.3145 3:1.0628 4:-3.7569 5:-4.6048 6:-4.0571 7:-3.9255 8:-3.704 9:-3.0008 10:-3.3634 
-0.013712525290024397 0.07931053714270346 0.06237276523054084 0.016051898852086684 1:18.8361 2:32.4315 3:7.6628 4:-2.6293 5:-5.356 6:-5.6074 7:-5.6653 8:-4.4342 9:-3.7483 10:-3.4202 
-0.0036430766173547856 0.02568341312986626 0.01899285532166572 0.004634480237851222 1:19.8448 2:29.7626 3:7.2064 4:-2.9557 5:-4.9413 6:-4.5808 7:-3.8758 8:-3.6639 9:-3.5557 10:-3.1916 
-0.04662295452576693 0.26553016080668385 0.20782216507267637 0.05663463572696014 1:10.6681 2:39.4428 3:5.6017 4:-3.797 5:-4.9417 6:-4.8325 7:-4.3946 8:-3.9469 9:-3.5057 10:-3.2231 
-0.0729469370236632 0.41620729886278185 0.32629849797350774 0.08799834846905721 1:14.2752 2:21.6594 3:11.5962 4:1.5569 5:-2.9758 6:-4.1108 7:-4.3255 8:-4.3221 9:-3.783 10:-3.3979 
-0.023000814463477917 0.13338308107352514 0.10493651406518283 0.028329233450937467 1:9.1126 2:33.5188 3:8.726 4:-2.6712 5:-5.2231 6:-4.8462 7:-5.1948 8:-4.5572 9:-4.3047 10:-3.7084 
-0.017426931507001694 0.10347420256867644 0.0813720303716422 0.022551006573865114 1:28.6118 2:25.5751 3:5.668 4:-2.2027 5:-4.5411 6:-4.076 7:-3.9563 8:-3.5551 9:-3.2571 10:-3.0 
-0.03197468162840187 0.17856016366638705 0.14015664584963644 0.03794839537675973 1:6.6318 2:36.8474 3:9.5159 4:-1.8049 5:-5.0261 6:-5.2544 7:-5.0535 8:-5.0312 9:-4.5892 10:-3.6346 
-0.0030463091878936387 0.012536068865110625 0.008765907740084474 0.002184942987610951 1:15.5548 2:29.8886 3:8.6737 4:-2.389 5:-4.3736 6:-4.4565 7:-4.5694 8:-3.9837 9:-3.4556 10:-3.249 
-0.009138347549335074 0.04555240224836931 0.03490702068022939 0.009644061363316704 1:14.759 2:26.6087 3:4.8855 4:-2.1478 5:-3.7738 6:-3.917 7:-3.868 8:-4.2802 9:-3.3492 10:-3.245 
-0.025006540126498555 0.1474634155786265 0.11495240758889491 0.030791951122752077 1:9.6778 2:22.5808 3:9.1491 4:0.83893 5:-2.55 6:-3.5014 7:-3.4836 8:-3.4188 9:-2.8572 10:-2.8809 
-0.08091035528939561 0.46092970595632854 0.3615176561247875 0.09707993341625724 1:14.6875 2:41.8466 3:7.0329 4:-4.6076 5:-5.4971 6:-5.3487 7:-4.5677 8:-3.9463 9:-3.654 10:-3.2331 
-0.008627332475116063 0.05423079144790656 0.04598137476576924 0.011144205294184098 1:4.2395 2:31.2558 3:9.2188 4:-2.2177 5:-3.5427 6:-4.0507 7:-3.6516 8:-3.6978 9:-3.3729 10:-3.2166 
-0.03813145894174104 0.22118670768869905 0.17324614044605402 0.04686230305387979 1:5.3203 2:26.1729 3:13.178 4:0.12166 5:-4.297 6:-4.9305 7:-4.5833 8:-4.2582 9:-4.2679 10:-3.6357 
-0.02857038989521054 0.16411220217146752 0.12926376504165682 0.03417658534651873 1:8.4572 2:31.689 3:10.5614 4:-1.4036 5:-4.3314 6:-4.3168 7:-4.3948 8:-3.8802 9:-3.6692 10:-3.14 
-0.028775336526082697 0.15987522760941725 0.12489027528179214 0.03379837768312216 1:17.6824 2:32.8703 3:4.9322 4:-2.6017 5:-4.4878 6:-4.4134 7:-4.3222 8:-4.4275 9:-3.6636 10:-3.6873 
-0.06180302087257838 0.35386175092056693 0.27766949150246906 0.07427641577137838 1:16.7256 2:25.0742 3:8.4739 4:-2.581 5:-6.2017 6:-6.6177 7:-5.7722 8:-5.7172 9:-4.3428 10:-4.2948 
-0.013211520262955748 0.07121291598811122 0.05564989163393575 0.014417624221141316 1:13.0933 2:32.5601 3:6.8552 4:-3.7453 5:-4.233 6:-4.325 7:-4.1015 8:-3.0458 9:-2.7875 10:-2.6692 
-0.01202020277531336 0.07520704735137275 0.05865870875320447 0.016866407417630062 1:22.6441 2:25.058 3:5.3117 4:-3.2299 5:-4.6592 6:-4.4039 7:-3.8278 8:-3.1605 9:-3.2044 10:-2.4613 
-0.03046423718358726 0.17641358202149796 0.1389071374424597 0.037746762323052074 1:17.7083 2:24.89 3:4.531 4:-1.824 5:-4.2674 6:-4.1372 7:-3.6707 8:-3.8047 9:-3.6745 10:-3.3186 
-0.03407371328938224 0.19548425563408128 0.1527389784994018 0.040944412635916694 1:35.6813 2:21.8288 3:1.6075 4:-2.8706 5:-3.2782 6:-3.6104 7:-3.9229 8:-3.648 9:-2.869 10:-3.2255 
-0.018504734766686435 0.10295336377353707 0.08272947011988907 0.02219215041519688 1:17.4891 2:24.3815 3:7.8001 4:-0.26371 5:-3.5748 6:-4.0658 7:-3.9589 8:-3.6041 9:-3.237 10:-2.8976 
-0.055535895768663544 0.31669864767194605 0.24855444925256925 0.06671370481698786 1:36.0305 2:23.5915 3:3.2994 4:-2.728 5:-4.523 6:-4.4308 7:-3.8339 8:-3.3927 9:-3.0596 10:-2.5879 
-0.028215107732267018 0.16011947155309467 0.12508706919272689 0.03353526624805515 1:29.4859 2:21.6121 3:5.3902 4:-1.3631 5:-3.3542 6:-3.9791 7:-4.251 8:-4.0441 9:-3.4795 10:-3.2434 
-0.0380022166744459 0.21580760139747732 0.16908057601466095 0.045222398530034 1:24.1771 2:17.9849 3:6.2938 4:-1.4779 5:-3.3464 6:-4.541 7:-4.2474 8:-3.7976 9:-3.901 10:-3.7862 
-0.0 0.0029596794079959168 0.00215409756280584 0.0 1:7.9644 2:36.0999 3:7.4559 4:-2.5638 5:-4.672 6:-4.572 7:-4.0201 8:-3.8905 9:-3.3411 10:-3.3091 
-0.1026439460120452 0.5867813755936631 0.4603690240987253 0.1232926430892296 1:-1.4227 2:28.5239 3:16.0145 4:0.20254 5:-4.0425 6:-4.7812 7:-4.8147 8:-3.9117 9:-3.4347 10:-3.0751 
-0.03861288204377263 0.22124986860815918 0.17364071951098817 0.04664653615982429 1:13.5425 2:40.1356 3:6.8504 4:-3.0198 5:-5.3821 6:-5.7204 7:-5.6707 8:-4.8797 9:-4.3409 10:-3.8076 
-0.09016911272529152 0.517729255166935 0.40608780312289927 0.10885944190001479 1:-4.8648 2:38.8142 3:10.7707 4:-1.3442 5:-3.8249 6:-3.8666 7:-3.7995 8:-3.6538 9:-3.5854 10:-3.4769 
-0.04714273714031919 0.26693840441744504 0.21002089467463966 0.05588074560228725 1:5.8344 2:27.6549 3:11.9647 4:-0.83108 5:-4.0317 6:-3.7072 7:-3.8214 8:-3.3226 9:-3.2389 10:-2.6344 
-0.002096152611817418 0.014470231594857105 0.012278628757141894 0.0031456875108246923 1:18.6065 2:33.1253 3:4.8958 4:-3.1435 5:-4.8195 6:-4.5511 7:-3.8474 8:-3.8441 9:-3.1218 10:-2.9564 
-0.00441669889450009 0.027820668500418994 0.021221931867739983 0.005986125515998869 1:21.5537 2:28.0108 3:7.0616 4:-2.054 5:-4.0296 6:-4.3616 7:-4.7454 8:-4.3637 9:-3.6657 10:-3.4389 
-0.08776657496742067 0.5022043614820615 0.39409880296395344 0.10561475929653467 1:-1.7758 2:41.3299 3:12.3894 4:-0.42475 5:-4.6896 6:-5.1092 7:-4.6997 8:-5.0511 9:-4.4047 10:-3.7167 
-0.04750870767810715 0.2745153824913362 0.21449216378663238 0.05877051355893379 1:26.4093 2:29.6207 3:6.5424 4:-2.5789 5:-4.2041 6:-5.033 7:-4.4698 8:-4.4067 9:-4.0875 10:-3.4821 
-0.048255199263909 0.27995517499431205 0.2197314437110544 0.058534893578607576 1:24.5101 2:35.7488 3:4.4131 4:-4.1399 5:-5.1203 6:-5.2858 7:-4.745 8:-3.9338 9:-3.8478 10:-3.4673 
-0.051610901663093574 0.29105293236567215 0.2285292733923051 0.060175182291283734 1:28.3566 2:28.1644 3:5.231 4:-2.0682 5:-4.3698 6:-4.9175 7:-4.099 8:-4.0348 9:-3.4589 10:-3.3352 
-0.05133227956335926 0.28904201704307086 0.22658229167300936 0.06100598235909165 1:21.5164 2:33.6492 3:5.5492 4:-3.5429 5:-4.5485 6:-4.2661 7:-4.2157 8:-4.0248 9:-3.6079 10:-3.1763 
-0.006107976009630717 0.03663631833507436 0.029081886247541322 0.007880857535593542 1:12.1964 2:35.0366 3:8.026 4:-1.6537 5:-4.0621 6:-4.4231 7:-4.0809 8:-3.9729 9:-3.5617 10:-3.1211 
-0.03252663341023422 0.17908138263009213 0.14293776082361787 0.03889016672882548 1:19.1369 2:27.6585 3:7.347 4:-1.8731 5:-3.7115 6:-3.72 7:-3.3166 8:-3.2159 9:-3.1735 10:-2.6087 
-0.06937987949923344 0.3980315555040257 0.3119758302164836 0.08365903656525299 1:21.3793 2:23.1402 3:6.2041 4:-3.0013 5:-5.6197 6:-5.5122 7:-5.8613 8:-5.4081 9:-5.057 10:-4.5679 
-0.020860742285685088 0.11703014251430423 0.09169804296881565 0.02411664188062953 1:14.8601 2:35.833 3:9.7759 4:-2.0206 5:-4.5859 6:-5.3015 7:-5.4086 8:-4.9756 9:-4.4416 10:-4.4293 
-0.03154022837622936 0.1759071299505634 0.13781101724864311 0.03680413704267933 1:11.5746 2:33.6343 3:9.4866 4:-1.2175 5:-4.2956 6:-5.2642 7:-4.8118 8:-4.0931 9:-3.8202 10:-3.3979 
-0.05459424004649892 0.3130415186063878 0.2459966817199663 0.0652628815380257 1:23.7496 2:25.2789 3:2.9405 4:-3.8307 5:-4.6602 6:-4.6927 7:-3.8641 8:-3.717 9:-3.173 10:-2.9902 
-0.03176384054710399 0.18034752969523196 0.14250232864015663 0.037698331550434803 1:32.1734 2:20.3349 3:6.0898 4:-2.7289 5:-4.6932 6:-4.5404 7:-4.0902 8:-3.9141 9:-3.8299 10:-3.2904 
-0.03462071621163968 0.20092897847114485 0.15723869525391015 0.04207464388446377 1:16.0743 2:25.1068 3:10.2562 4:0.83294 5:-3.3328 6:-4.2165 7:-4.2355 8:-4.2834 9:-3.8922 10:-3.2922 
-0.08241431119413747 0.47267714102619446 0.3715365834169972 0.0995258001739702 1:20.3276 2:15.9482 3:6.0678 4:0.32561 5:-2.9733 6:-4.3235 7:-4.1349 8:-3.4203 9:-3.7222 10:-3.0818 
-0.016752196553562 0.09866186134342127 0.0777461235917029 0.02077156621464519 1:22.1882 2:32.0414 3:5.9211 4:-3.5502 5:-5.3372 6:-4.8711 7:-4.7635 8:-4.4137 9:-3.7726 10:-3.2239 
-0.03968192857271787 0.22084194638440616 0.17322793213336965 0.046567800194938114 1:7.3616 2:26.8716 3:8.15 4:-1.2348 5:-3.5682 6:-3.6914 7:-3.748 8:-3.5873 9:-2.9609 10:-2.7432 
-0.040432337632452436 0.2284038023315166 0.1795575758538668 0.04840350234718399 1:19.9873 2:29.4825 3:7.0981 4:-2.8733 5:-5.1002 6:-5.7633 7:-5.1274 8:-5.2614 9:-4.6084 10:-3.834 
-0.00965170354579875 0.04980142804592998 0.03911136658507218 0.010338497759262114 1:14.2525 2:26.4309 3:7.6833 4:-2.2039 5:-4.3005 6:-4.2768 7:-3.6025 8:-3.2625 9:-2.9178 10:-2.687 
-0.009193811829756642 0.05094935229001995 0.041191419788735896 0.012606556738260881 1:18.4855 2:29.1694 3:5.4766 4:-2.307 5:-5.1529 6:-4.595 7:-4.8935 8:-4.1223 9:-3.6658 10:-3.5013 
-0.035332741247028426 0.20788109673234378 0.16360927257611993 0.04354787550714359 1:5.7113 2:37.7071 3:9.8635 4:-2.9207 5:-5.038 6:-4.5848 7:-4.567 8:-3.8445 9:-3.1219 10:-3.1665 
-0.041402109340991894 0.2339432322482111 0.18311145160281928 0.04855992808211356 1:31.0895 2:25.2383 3:2.5249 4:-3.1143 5:-4.397 6:-4.235 7:-3.99 8:-3.7174 9:-3.041 10:-2.9992 
-0.027863840543486975 0.15641071314600857 0.12254773785684944 0.03226524375682229 1:22.3507 2:22.6725 3:3.939 4:-2.7065 5:-3.8836 6:-4.6151 7:-3.8988 8:-3.5894 9:-3.1632 10:-2.6593 
-0.031167691180504976 0.17771708529868252 0.13904382688967717 0.038125397140751124 1:14.2562 2:23.7866 3:7.0119 4:-2.2924 5:-3.5884 6:-3.3143 7:-3.4426 8:-2.9273 9:-3.0487 10:-2.4476 
-0.07142176075971055 0.40587155368864136 0.3183965181596673 0.08522988772035978 1:6.2578 2:41.9024 3:9.8476 4:-2.8694 5:-5.199 6:-5.0492 7:-4.575 8:-4.5983 9:-4.1872 10:-3.628 
-0.022490253352125737 0.13333618121919985 0.10422419891904658 0.02765347537943926 1:26.0001 2:23.282 3:6.6253 4:-1.5229 5:-4.6359 6:-5.493 7:-6.2391 8:-5.5801 9:-4.6106 10:-4.1624 
-0.001794846617412887 0.01578381502061171 0.01217935022513559 0.003390652355706591 1:22.0565 2:22.0155 3:6.3498 4:-1.4731 5:-3.8356 6:-3.4962 7:-4.3496 8:-3.9153 9:-3.2122 10:-3.4044 
-0.040956008260473395 0.23368235197252427 0.18290205357994294 0.04875288987351694 1:26.5827 2:24.255 3:2.7636 4:-3.5315 5:-4.894 6:-5.0264 7:-5.4379 8:-4.3496 9:-4.1126 10:-3.2923 
-0.04328116389274406 0.2481907265869454 0.19510005434632033 0.051937489995943165 1:-0.095526 2:39.1774 3:11.0447 4:-1.3891 5:-4.3415 6:-4.2338 7:-4.1696 8:-3.5028 9:-2.8409 10:-2.8293 
-0.05393359056454672 0.3077516443551542 0.24155253373766172 0.06485577102161377 1:8.6826 2:22.1297 3:6.8627 4:0.56143 5:-2.2022 6:-3.5818 7:-3.9988 8:-3.3672 9:-3.0749 10:-3.0758 
-0.06598990822921898 0.37730602466351987 0.29602702079367704 0.07984600355666695 1:26.5101 2:34.7575 3:5.471 4:-3.2239 5:-5.2363 6:-5.6683 7:-4.476 8:-4.5598 9:-4.0977 10:-3.9586 
-0.019770522586762013 0.11253910419437366 0.0885250864167971 0.023159977545314087 1:13.9986 2:30.6967 3:5.7473 4:-1.5476 5:-3.5319 6:-4.1926 7:-4.0662 8:-3.3113 9:-3.1828 10:-2.7362 
-0.04433395175870612 0.2557377191945709 0.19951928926350915 0.053875496392871036 1:11.004 2:29.4078 3:10.8487 4:0.00764 5:-3.8723 6:-4.5487 7:-4.602 8:-4.1335 9:-3.533 10:-3.2866 
-0.04071654820213731 0.2382898390513734 0.1868517219227014 0.05010945301685024 1:4.5891 2:42.5501 3:7.9086 4:-2.6202 5:-4.5549 6:-4.825 7:-4.4182 8:-3.9305 9:-3.4695 10:-3.2271 
-0.04186606997615084 0.24267191610354535 0.190558112689434 0.050794002935061866 1:10.1418 2:40.7518 3:7.7266 4:-3.1641 5:-4.9027 6:-4.9749 7:-4.5008 8:-4.1161 9:-3.6638 10:-3.3453 
-0.03892963268467117 0.2229200410021197 0.17471831827142137 0.046891336238875876 1:10.5745 2:19.6717 3:9.3842 4:-0.21313 5:-3.1253 6:-3.9474 7:-4.2703 8:-3.4935 9:-3.3786 10:-2.7424 
-0.0721467613394429 0.4112789242089085 0.3230059840718317 0.0865533975796799 1:2.3193 2:39.4304 3:7.2976 4:-3.2389 5:-3.7699 6:-3.8759 7:-3.7345 8:-3.4157 9:-3.0663 10:-2.8705 
-0.06444830761672231 0.3671730295410387 0.287613715368722 0.07758331729113016 1:0.81052 2:29.721 3:9.9542 4:-2.5199 5:-4.4375 6:-4.2452 7:-3.7338 8:-3.6302 9:-3.0195 10:-2.7375 
-0.06882590266025579 0.3935485747660916 0.30876278076364366 0.08231012152753431 1:17.5074 2:37.5615 3:6.5982 4:-3.3019 5:-4.9608 6:-5.7695 7:-5.4667 8:-5.1514 9:-4.7924 10:-3.9975 
-0.022041534912272166 0.12375325252013984 0.0953243154750987 0.027107188220174043 1:7.5812 2:34.7893 3:11.4949 4:-1.7344 5:-4.5119 6:-4.9443 7:-4.8848 8:-4.2518 9:-4.179 10:-3.6502 
-0.06147616052875216 0.34915341506456377 0.27396549379126744 0.07316173919175062 1:26.2519 2:20.2394 3:8.5134 4:0.25706 5:-3.8274 6:-4.1829 7:-4.7243 8:-4.0658 9:-3.5658 10:-3.4212 
-0.09787452525333179 0.5628602704012318 0.44156954255216424 0.11837705469122707 1:11.926 2:17.68 3:5.3731 4:-0.87666 5:-1.7835 6:-1.9813 7:-2.7514 8:-2.6083 9:-2.2067 10:-2.3577 
-0.01951735308557626 0.11179519229724408 0.0883939990420004 0.02345522711808812 1:12.6775 2:25.5253 3:11.0239 4:-0.61782 5:-3.5097 6:-4.6631 7:-4.1162 8:-3.9485 9:-3.6037 10:-3.3611 
-0.06324318336930536 0.364463891760073 0.2859846842595377 0.07730304577516273 1:17.2678 2:36.6771 3:10.5391 4:-2.0658 5:-5.3681 6:-6.0313 7:-5.5314 8:-4.6486 9:-4.4641 10:-3.8387 
-0.06752201993707109 0.3860666109430856 0.3027146431954117 0.0816705458993307 1:20.9324 2:25.6458 3:11.1307 4:-1.147 5:-4.2222 6:-4.7056 7:-5.0501 8:-4.14 9:-3.8269 10:-3.656 
-0.018113796458054197 0.10096477828305586 0.07924903576284005 0.02119207438223343 1:8.909 2:37.8329 3:7.3399 4:-2.9153 5:-4.9872 6:-5.0758 7:-4.4008 8:-4.3276 9:-3.8238 10:-3.3771 
-0.04308721444134002 0.24464492297843865 0.19188146198334144 0.051537443176077516 1:11.6532 2:22.1539 3:9.7377 4:-2.1352 5:-4.39 6:-4.601 7:-4.1728 8:-3.4243 9:-2.9461 10:-2.9557 
-0.0 0.004436362097992158 0.003658003992993089 0.0 1:6.7901 2:35.582 3:11.0847 4:-1.2356 5:-4.055 6:-4.5498 7:-4.7201 8:-3.8764 9:-3.9557 10:-3.7811 
-0.07560028666485559 0.433130399684558 0.34026459889627636 0.09080324876284139 1:8.4145 2:27.3277 3:13.5855 4:0.80144 5:-4.505 6:-6.2011 7:-5.8262 8:-5.6235 9:-4.8126 10:-4.5198 
-0.05815149697432662 0.3350833095417261 0.2631298746623174 0.07065303796501633 1:12.5345 2:36.8951 3:10.0135 4:-2.0905 5:-4.9244 6:-5.5054 7:-5.0872 8:-4.5783 9:-4.071 10:-3.7823 
-0.057216206839249606 0.3277975919105658 0.2567278229119827 0.06888436121524016 1:8.2778 2:23.2092 3:13.0755 4:0.010152 5:-4.004 6:-4.6246 7:-4.7324 8:-4.6499 9:-4.7197 10:-4.0672 
-0.08410471764416118 0.4810788078513242 0.37701250732346725 0.10139909837180465 1:3.8739 2:20.9691 3:11.5063 4:1.697 5:-2.0458 6:-2.9579 7:-3.6722 8:-3.4173 9:-3.0765 10:-2.9102 
-0.020000125819497862 0.11396162727621117 0.0891761440260821 0.023494416844721727 1:13.0672 2:20.8015 3:8.5304 4:1.0298 5:-3.1754 6:-4.6919 7:-4.6384 8:-4.2089 9:-3.7661 10:-3.7793 
-0.10596238625561638 0.6083289859223088 0.4776574177598054 0.1280468911512826 1:-7.3273 2:22.4104 3:14.3613 4:2.239 5:-1.7503 6:-3.2466 7:-3.2445 8:-3.5145 9:-3.3832 10:-3.1799 
-0.08482586334324566 0.4882596392714926 0.38301314823949906 0.10256729003879339 1:19.9933 2:16.531 3:7.2788 4:-3.4534 5:-5.3904 6:-5.5 7:-5.0045 8:-4.1395 9:-3.8298 10:-3.2324 
-0.07669192636922928 0.437579811273938 0.3433077454748538 0.09188672524004574 1:35.3844 2:11.6326 3:3.3708 4:-2.1293 5:-4.3624 6:-5.2344 7:-5.1353 8:-4.0864 9:-3.8154 10:-3.6334 
-0.09914859300546483 0.5670728436258833 0.44498494242052217 0.11922938089048177 1:9.6959 2:15.4296 3:9.3394 4:1.3129 5:-3.2418 6:-3.3634 7:-3.8212 8:-3.8153 9:-3.5762 10:-2.888 
-0.034584145921494516 0.19634477030209738 0.1539012509858002 0.04151150503276721 1:10.6615 2:25.6555 3:12.0431 4:-0.30196 5:-4.8975 6:-5.6721 7:-5.5646 8:-5.1675 9:-4.3879 10:-4.0903 
-0.018257461671301115 0.10729535289364839 0.0835395374765585 0.022084123424874005 1:9.9472 2:26.2805 3:8.8682 4:-1.7582 5:-4.3197 6:-4.7402 7:-5.0318 8:-4.2097 9:-3.3167 10:-3.1835 
-0.05904755219458206 0.3387979754828975 0.265414925665693 0.07096414515429353 1:3.7746 2:26.0001 3:10.8713 4:0.26902 5:-2.8845 6:-3.4255 7:-4.1053 8:-3.6255 9:-3.9707 10:-3.4011 
-0.05051147578159626 0.28639203887838127 0.2249125788233263 0.06060416596796483 1:15.7924 2:20.0152 3:6.2818 4:-1.3591 5:-3.7878 6:-4.1445 7:-4.5909 8:-3.972 9:-3.5696 10:-2.8261 
-0.10538297988820672 0.6029044215776637 0.4731669479026339 0.12722186279216752 1:-1.278 2:16.8591 3:11.3353 4:1.1056 5:-2.1298 6:-3.7008 7:-3.9102 8:-3.2647 9:-2.466 10:-2.7798 
-0.044419567522224576 0.25657151572688297 0.20144151355703643 0.05403337051102911 1:5.932 2:22.3936 3:9.387 4:-0.55262 5:-3.428 6:-3.9662 7:-4.0036 8:-4.04 9:-3.597 10:-3.1286 
-0.03788616368386283 0.21580844792823634 0.16967217981287364 0.04525921487990282 1:5.7828 2:21.7874 3:12.3797 4:0.48265 5:-3.6495 6:-4.6288 7:-4.4545 8:-4.3031 9:-3.6053 10:-3.2755 
-0.17363101529519065 -1.0 0.6481035870913961 0.20530501324518527 1:67.5389 2:-18.2358 3:-7.2876 4:-4.4119 5:-1.0259 6:-1.4197 7:-1.9378 8:-1.1477 9:-0.85233 10:-1.1762 
-0.023551168970373997 -0.13840522804606706 0.08521760369867655 0.02739219787963688 1:68.2073 2:-21.9715 3:-9.3964 4:-3.8472 5:-0.87824 6:0.23057 7:-0.4171 8:0.73057 9:-0.4456 10:-0.25648 
-0.17582010139443588 -1.0 0.6569389987159604 0.20921942982789382 1:77.0881 2:-23.1995 3:-20.9326 4:-5.8057 5:1.0622 6:3.8394 7:2.4767 8:1.158 9:0.73057 10:0.45855 
-0.18395194177763174 -1.0 0.6876762254038454 0.21880000953164774 1:88.8005 2:-26.2591 3:-23.5026 4:-7.9663 5:2.3679 6:4.101 7:1.456 8:1.1451 9:0.57513 10:0.28756 
-0.047672008183200124 -0.2932695592393048 0.17669457927425888 0.056750509011302755 1:80.0725 2:-27.2461 3:-15.3601 4:-4.2617 5:1.4741 6:1.5492 7:0.70725 8:0.43782 9:0.10881 10:-0.20725 
-0.19807879079598661 -1.0 0.7409869811181575 0.2356611323559158 1:91.5544 2:-29.5492 3:-24.1321 4:-7.9819 5:5.2176 6:4.2902 7:1.671 8:1.4171 9:0.5544 10:0.088083 
-0.0021451139907735063 -0.01874113450413948 0.012366345811126268 0.003939962607287095 1:76.943 2:-22.4922 3:-15.1632 4:-5.6606 5:-0.81347 6:1.2642 7:0.18135 8:0.75907 9:0.080311 10:-0.062176 
-0.12667842460182166 -0.7902107861592531 0.4723989946541382 0.15078511904593583 1:73.3368 2:-21.4715 3:-16.8472 4:-5.8653 5:-0.38601 6:1.8109 7:1.0751 8:0.14767 9:-0.090674 10:0.12694 
-0.14953713873314156 -0.9436795858368053 0.5586395532073719 0.17763393174121372 1:81.2902 2:-20.9741 3:-18.1451 4:-8.5466 5:-0.83679 6:1.7902 7:0.61917 8:0.51813 9:0.20466 10:-0.19948 
-0.07466128550204262 -0.47703091962223665 0.28119200140402756 0.08992336722458211 1:78.8394 2:-21.6036 3:-18.4016 4:-7.0881 5:0.93782 6:1.399 7:0.37565 8:0.79534 9:0.34715 10:-0.2487 
-0.1675860457348285 -1.0 0.6273302872834374 0.1993293264511308 1:84.7953 2:-24.3083 3:-19.1321 4:-7.2098 5:0.38083 6:2.2642 7:-0.082902 8:1.0674 9:0.51295 10:-0.18394 
-0.10890360774800634 -0.6899647465844573 0.4065299777124707 0.12903789623317258 1:83.3523 2:-25.3057 3:-15.3031 4:-6.7824 5:-1.1062 6:0.84974 7:0.095855 8:0.018135 9:0.12435 10:0.049223 
-0.0743625050227307 -0.46571283816435305 0.2760403099940922 0.08771786731065948 1:78.6088 2:-21.557 3:-18.0285 4:-7.7591 5:-0.78497 6:1.6658 7:1.3679 8:0.45078 9:0.52332 10:-0.27461 
-0.18078427414254827 -1.0 0.6747456580324416 0.2143943744125621 1:96.5492 2:-28.3187 3:-27.9845 4:-9.101 5:2.7591 6:5.0466 7:2.6295 8:1.5052 9:0.73316 10:0.34715 
-6.036424417842521E-4 -0.0044824869025217986 0.0038756544368059413 0.0010000560344770803 1:73.0389 2:-24.6917 3:-15.1295 4:-4.7409 5:1.5078 6:2.3575 7:0.50777 8:0.049223 9:0.43523 10:-0.18135 
-0.011942384924043523 -0.06958702013795155 0.04301070862216184 0.013489593542410788 1:74.2876 2:-25.8187 3:-13.0933 4:-4.5881 5:0.99482 6:2.0104 7:0.54922 8:0.40933 9:-0.051813 10:-0.37565 
-0.045134374729864764 -0.27588830754172716 0.17395416472094483 0.056668714733715014 1:75.3394 2:-23.8679 3:-16.9275 4:-4.8523 5:2.1503 6:2.0699 7:-0.13212 8:0.90674 9:0.2487 10:-0.3886 
-0.09948200624442462 -0.663886385657216 0.3733148549231988 0.11930536502079182 1:58.4404 2:-17.0155 3:-13.6399 4:-3.8264 5:-0.21762 6:1.6503 7:0.45078 8:0.31865 9:0.21762 10:-0.18135 
-0.13997426573186156 -0.8829133609439602 0.5238579451614422 0.16678710895761767 1:72.2591 2:-27.2176 3:-13.2332 4:-1.9767 5:2.2047 6:1.443 7:0.50777 8:-0.020725 9:-0.19948 10:-0.1114 
-0.017075745641156617 -0.10939577272633927 0.06499125713726542 0.0200470259973309 1:75.4404 2:-27.0907 3:-13.9637 4:-3.9974 5:1.7047 6:1.4119 7:0.11658 8:1.228 9:0.20466 10:0.10104 
-0.04986505420690051 -0.31314091817302026 0.18633548708571013 0.05911696062310029 1:67.3161 2:-20.3187 3:-13.8834 4:-5.7513 5:-0.70984 6:0.98187 7:-0.0051813 8:0.40415 9:0.48446 10:0.041451 
-0.011312525492920033 -0.0723158423928117 0.04365606997570429 0.012309784183483382 1:64.956 2:-21.5725 3:-12.4948 4:-3.6632 5:1.0026 6:0.82902 7:0.28756 8:0.37565 9:0.20466 10:-0.20466 
-0.05704640899592149 -0.3643270404384591 0.21616760890321768 0.06853582218260738 1:66.9896 2:-22.1295 3:-15.4404 4:-4.5855 5:0.46632 6:2.5596 7:1.2772 8:1.0026 9:0.32902 10:0.29016 
-0.026796010347034216 -0.15427554915662284 0.09364582953856103 0.029648530549929455 1:66.2176 2:-22.4585 3:-13.5181 4:-3.2228 5:1.114 6:1.3549 7:-0.28756 8:1.0233 9:0.33938 10:-0.090674 
-0.004594092314515856 -0.033299051337441384 0.01722628537342821 0.004868880690415797 1:63.0544 2:-20.3057 3:-11.8031 4:-4.2539 5:-0.015544 6:1.0907 7:0.29793 8:0.10881 9:0.50259 10:-0.069948 
-0.10820077330915544 -0.7033860627015848 0.404075421778586 0.12791222318995585 1:87.1062 2:-26.7332 3:-21.0311 4:-4.9637 5:2.4275 6:2.6451 7:1.1218 8:0.73316 9:0.42487 10:-0.18653 
-0.14067562724301805 -0.8853255062058829 0.5254661504053393 0.166745716641664 1:66.3497 2:-23.8394 3:-6.4171 4:-1.9741 5:-0.21762 6:-0.0025907 7:-1.3109 8:-0.028497 9:-0.73834 10:-0.54145 
-0.024657161108528666 -0.16000111101366296 0.09364401492802787 0.029966844251992582 1:75.5699 2:-25.5415 3:-14.5725 4:-4.9845 5:0.44301 6:2.7306 7:0.13472 8:0.45078 9:0.4171 10:-0.15285 
-0.12279022983148521 -0.7971061196930798 0.45974335742499156 0.14571715716614603 1:57.9663 2:-18.0078 3:-10.487 4:-4.2565 5:-0.27202 6:0.97927 7:0.31088 8:0.40415 9:0.095855 10:-0.14508 
-0.0 -0.0 0.0011480580486845594 7.789680277073274E-4 1:64.6813 2:-20.3083 3:-11.5622 4:-4.0622 5:0.54922 6:0.8342 7:-0.54663 8:0.69171 9:0.12694 10:-0.1943 
-0.05207634624267391 -0.3237478671945434 0.19279702619877234 0.06235521230254717 1:60.7254 2:-20.6503 3:-9.2461 4:-2.4637 5:-0.91192 6:-0.033679 7:-0.60104 8:0.10622 9:-0.3886 10:-0.47409 
-0.0993271626578157 -0.6266523558626919 0.3727831315021687 0.11877817328313495 1:71.3446 2:-24.1943 3:-14.8083 4:-2.0466 5:0.97409 6:0.92746 7:0.12176 8:0.3057 9:0.13212 10:-0.14767 
-0.07964009313509754 -0.509177340134078 0.2953510411527546 0.09372145317761178 1:60.2798 2:-18.5751 3:-13.9249 4:-2.9974 5:0.73834 6:1.5518 7:0.088083 8:0.28756 9:0.26943 10:-0.19171 
-0.14492380004240818 -0.9105138093917866 0.5408953516932349 0.17199045382603478 1:67.7668 2:-20.0285 3:-17.6891 4:-4.9922 5:2.1088 6:2.7565 7:0.2513 8:0.65544 9:0.22539 10:0.0025907 
-0.07225730756348704 -0.45080743931086664 0.2708348464467212 0.08640983445680998 1:61.5337 2:-20.8083 3:-11.8264 4:-2.8627 5:0.33161 6:0.73575 7:0.50259 8:0.58549 9:0.15544 10:-0.080311 
-0.08588224848443596 -0.5413625603309562 0.3179625825252426 0.10252872005413786 1:63.4508 2:-18.8368 3:-12.8446 4:-3.9741 5:0.45337 6:1.4974 7:-0.13212 8:0.67098 9:0.2772 10:-0.36528 
-0.07623978826791605 -0.4662969378794148 0.2816085568555699 0.08840104719914163 1:63.1347 2:-17.9611 3:-9.4611 4:-4.0855 5:-0.75389 6:0.60881 7:-0.93782 8:0.12176 9:-0.34456 10:-0.55959 
-0.009608831077657792 -0.04450317652670523 0.036938743386843116 0.011091428606859858 1:60.7124 2:-17.9404 3:-11.6839 4:-3.8938 5:-0.1114 6:-0.18653 7:0.082902 8:-0.11917 9:0.32642 10:-0.42228 
-0.09567509815666889 -0.6035136169642764 0.3579061994991299 0.11434797357486674 1:66.6839 2:-19.3161 3:-16.5415 4:-4.614 5:-0.093264 6:1.8653 7:0.97668 8:1.0 9:0.5544 10:-0.044041 
-0.03859394926368633 -0.24011127561146262 0.14242799424548871 0.04575158787041422 1:68.6554 2:-22.9741 3:-15.3575 4:-3.3705 5:0.67617 6:2.0622 7:0.68135 8:0.77979 9:0.26425 10:-0.10622 
-0.05185373792876929 -0.32273543308899266 0.19230873092994683 0.062018776722131116 1:67.7513 2:-21.7358 3:-10.8938 4:-3.0466 5:1.2487 6:0.025907 7:-0.54663 8:0.1114 9:-0.041451 10:-0.6658 
-0.011019268590387023 -0.07420035768198481 0.04314828675867496 0.013541735303071933 1:73.9922 2:-24.6347 3:-11.5207 4:-3.5492 5:1.0855 6:0.36528 7:0.088083 8:-0.1943 9:-0.25648 10:-0.54663 
-0.09722338896801211 -0.6116173372422469 0.3633191776833849 0.11608122322778469 1:64.5881 2:-23.601 3:-9.5984 4:-1.7642 5:0.71244 6:0.60622 7:-0.56995 8:0.16839 9:-0.20984 10:-0.43264 
-0.010966960451105625 -0.0625383889567477 0.03772105339153677 0.01227009628346209 1:77.715 2:-25.1399 3:-15.4326 4:-5.5259 5:1.8964 6:1.6839 7:-0.53368 8:0.73575 9:0.29793 10:-0.10881 
-0.10419500578443766 -0.6544534043008311 0.38840668085930075 0.12460104558596753 1:75.842 2:-27.2047 3:-14.5933 4:-3.044 5:1.785 6:3.1684 7:0.46632 8:0.34715 9:-0.031088 10:0.1943 
-0.008453086385992918 -0.05892009751361915 0.03440985421034403 0.009998998725050813 1:78.1062 2:-27.6451 3:-14.6736 4:-3.5233 5:1.2539 6:1.886 7:0.056995 8:0.26943 9:0.19689 10:0.085492 
-0.026184914805152042 -0.1619430483941745 0.09597346038264239 0.029935486068944687 1:69.5466 2:-24.6788 3:-11.4301 4:-2.171 5:0.42487 6:0.60104 7:-0.095855 8:0.12435 9:0.072539 10:-0.38083 
-0.12119160686377191 -0.7649508761744901 0.45363469599677964 0.14481661883901467 1:70.2461 2:-25.9585 3:-8.9482 4:-3.1425 5:0.72021 6:0.69171 7:-0.76166 8:0.35233 9:-0.16062 10:-0.58031 
-0.04543985275102267 -0.2867349586490659 0.16985131891128083 0.05399389197448504 1:70.7021 2:-21.4326 3:-15.7772 4:-4.8782 5:1.3161 6:2.3057 7:0.12435 8:0.26943 9:0.12435 10:-0.64508 
-0.08712430942306425 -0.556306218600768 0.326978943554525 0.10489879992234911 1:61.2461 2:-18.2098 3:-9.0803 4:-3.4534 5:-0.15285 6:-0.15544 7:-1.4948 8:-0.55181 9:-0.26943 10:-0.72539 
-0.012115964960108909 -0.08406710863303835 0.044907306114473654 0.013768249156350599 1:67.544 2:-21.0777 3:-7.9249 4:-2.5207 5:-0.59585 6:-0.53368 7:-1.3342 8:-0.4715 9:-0.61399 10:-0.66062 
-0.05333395223905683 -0.3311759016832303 0.19970024237071274 0.06277895513421214 1:67.8523 2:-19.0725 3:-10.5363 4:-3.329 5:-1.3368 6:-0.6658 7:-1.2772 8:-0.79534 9:-0.63472 10:-1.1373 
-0.009055156936770054 -0.058637371725817046 0.03521473022727762 0.01135106562504641 1:69.1269 2:-21.5337 3:-8.7617 4:-3.4275 5:-1.0207 6:0.62694 7:-1.1632 8:-0.23834 9:-0.27202 10:-0.36269 
-0.045865560355120336 -0.27922088705355225 0.16905558890843753 0.053478316288874686 1:80.3212 2:-24.8472 3:-16.2409 4:-4.6269 5:1.4275 6:1.4275 7:-0.054404 8:0.29016 9:0.10363 10:-0.49741 
-0.059025178790040746 -0.36963534255672553 0.21456443287348206 0.07049633447436272 1:70.7409 2:-20.7591 3:-9.4145 4:-4.0052 5:-1.2124 6:-0.36788 7:-1.0699 8:-0.65544 9:-0.30052 10:-1.0959 
-0.0047800614076504025 -0.04535345618010192 0.022674760878760785 0.00706564673458584 1:73.2591 2:-21.2953 3:-14.6192 4:-4.1788 5:-0.49223 6:0.41451 7:0.43005 8:0.49223 9:-0.046632 10:-0.31088 
-0.10279361683578087 -0.6416271903009944 0.38390622122760615 0.12225282051690108 1:64.1658 2:-21.386 3:-6.9067 4:-2.7021 5:-1.2383 6:-0.32902 7:-1.2539 8:-0.32383 9:-0.22021 10:-0.55959 
-0.02770398061753546 -0.17447616336627111 0.10346544949015629 0.03244231862497182 1:73.6218 2:-23.1658 3:-14.7902 4:-5.8342 5:1.1813 6:0.86528 7:0.87306 8:0.82124 9:0.27202 10:-0.42228 
-0.0010629789095436188 -0.017184827267295023 0.008469528778821999 0.002120103713283663 1:67.2694 2:-21.8083 3:-13.3523 4:-3.114 5:1.3057 6:0.8342 7:0.16321 8:0.51036 9:-0.31865 10:-0.51813 
-0.0180683372137755 -0.11525462431115228 0.06640143974960926 0.022838113255114867 1:71.8886 2:-23.5181 3:-12.7902 4:-5.0699 5:1.5104 6:1.0 7:-0.29793 8:0.054404 9:0.31347 10:-0.26425 
-0.06816128198135404 -0.4285157091043792 0.25550021264750006 0.08028038933779963 1:70.9534 2:-23.2332 3:-13.1554 4:-5.5181 5:0.85751 6:2.0078 7:0.37565 8:0.45337 9:0.19689 10:-0.046632 
-0.03665661182096359 -0.23924983218728701 0.13244754267301678 0.0413426147524832 1:74.8316 2:-24.6269 3:-16.7202 4:-4.4016 5:2.3523 6:2.3679 7:0.93523 8:0.59845 9:0.17617 10:-0.15544 
-0.01360692592278512 -0.0919198540367627 0.055291849764251194 0.016591253354647662 1:70.3109 2:-22.3161 3:-8.9223 4:-4.0 5:-1.1269 6:-0.64508 7:-0.39378 8:-0.26943 9:-0.10622 10:-0.83161 
-0.015072676033650978 -0.1014090734265174 0.05687852433523454 0.016740559864427837 1:67.8135 2:-18.3057 3:-12.8886 4:-5.4482 5:-1.4093 6:0.68394 7:-0.93782 8:0.085492 9:-0.36788 10:-0.38342 
-0.06941105230920112 -0.4368531707836335 0.2587572768098648 0.08181115632773801 1:78.3575 2:-23.4301 3:-12.8782 4:-4.3264 5:-0.23057 6:0.6114 7:-0.97927 8:-0.33161 9:-0.46114 10:-0.37824 
-0.007670449043424681 -0.03947127613254062 0.024147477660324455 0.010003877840117255 1:68.9974 2:-18.4611 3:-12.9715 4:-4.658 5:-0.68135 6:0.41192 7:-0.67876 8:0.095855 9:-0.088083 10:-0.29793 
-0.13017504641992575 -0.8250368008699289 0.48685200513695903 0.15369082770641404 1:67.0725 2:-17.2642 3:-12.6503 4:-5.013 5:-1.8601 6:-0.033679 7:-0.11917 8:-0.23834 9:0.37565 10:-0.36528 
-0.022338822699049795 -0.1267027802728179 0.08113023183307003 0.02741317768125726 1:67.1632 2:-17.544 3:-11.2435 4:-4.9326 5:-1.6917 6:0.49741 7:-0.88342 8:-0.21244 9:0.049223 10:-0.60104 
-0.0026251776153331666 -0.01656106153103435 0.013313490066456156 0.004017640721016567 1:65.6373 2:-18.4326 3:-11.7746 4:-4.7358 5:-1.0881 6:0.0025907 7:-0.41192 8:0.095855 9:-0.54663 10:-0.46373 
-0.08527483477139045 -0.5333133217440564 0.31674865446959877 0.10094561970399706 1:74.4896 2:-22.6917 3:-11.2876 4:-3.5389 5:-0.79534 6:0.37047 7:-1.057 8:-0.41192 9:-0.40155 10:-0.99482 
-0.18181962523384915 -1.0 0.6795232955301551 0.21631692033519145 1:99.3212 2:-30.544 3:-26.9223 4:-8.7979 5:2.2409 6:5.9689 7:1.9352 8:1.1218 9:0.87306 10:0.19689 
-0.061980686661071614 -0.3962236929612113 0.23404420318731026 0.07345747380728374 1:61.7098 2:-21.013 3:-8.8161 4:-1.671 5:-0.4715 6:0.71762 7:-0.72539 8:0.069948 9:-0.36788 10:-0.34974 
-0.04392865161860683 -0.2843492520119975 0.16815733726933169 0.05364899548820118 1:79.3627 2:-25.4171 3:-13.2953 4:-5.1969 5:1.1269 6:0.96891 7:-0.25907 8:-0.15285 9:0.15544 10:-0.70984 
-0.040768572186029896 -0.2405888012040111 0.14964115607619594 0.04703027740525472 1:77.5881 2:-23.2798 3:-16.6062 4:-5.7668 5:0.86528 6:2.7642 7:-0.1399 8:0.48964 9:0.62176 10:-0.10104 
-0.20129511513465156 -1.0 0.7522185486575695 0.23947186611589305 1:60.2228 2:-15.8705 3:-17.3394 4:-4.7927 5:1.0622 6:2.6813 7:0.99482 8:0.44819 9:0.41451 10:0.044041 
-0.018452913688699852 -0.13156537482626 0.07158217610786848 0.02331126259509529 1:81.6813 2:-25.5363 3:-17.4223 4:-4.9249 5:1.2565 6:2.1477 7:0.3057 8:0.95596 9:0.42487 10:-0.19948 
-0.02531499996926477 -0.16255668334626933 0.09718663663768651 0.030683696876618982 1:73.1554 2:-21.5725 3:-10.9326 4:-3.728 5:-0.85492 6:-0.028497 7:-1.3212 8:-0.43264 9:-0.42487 10:-0.95855 
-0.038111021003378084 -0.24571889379747458 0.1454058889281251 0.0460481257869348 1:67.6088 2:-23.7487 3:-10.8731 4:-1.9145 5:-0.16062 6:1.2617 7:-0.27979 8:0.18912 9:0.088083 10:-0.29534 
-0.02579851399736535 -0.15892871981500864 0.0954606077504495 0.029421878881502432 1:72.8472 2:-22.2902 3:-9.6943 4:-4.1813 5:-0.48705 6:-0.090674 7:-1.1166 8:-0.38601 9:-0.38601 10:-0.58031 
-0.03656930879918054 -0.21367680392989807 0.13332212219523448 0.041619670233203954 1:80.7902 2:-26.6943 3:-18.6917 4:-4.0311 5:2.2953 6:3.342 7:1.0699 8:0.57254 9:0.20725 10:0.036269 
-0.2024122806777648 -1.0 0.7567080602690429 0.2406218960114728 1:53.6839 2:-16.6036 3:-11.2228 4:-3.4119 5:0.59585 6:1.487 7:0.14249 8:0.27461 9:-0.028497 10:-0.20725 
-0.01857045460826987 -0.11459390409115988 0.06947624020658287 0.02084078546308281 1:71.886 2:-20.0803 3:-12.5699 4:-4.4482 5:-0.13731 6:0.7487 7:-0.14767 8:0.059585 9:-0.26425 10:-0.67358 
-0.09036004893210885 -0.5660748832545712 0.33652000208222754 0.10704713245086526 1:71.1865 2:-24.2487 3:-8.2487 4:-3.386 5:-0.59067 6:-0.42228 7:-1.4534 8:-0.30311 9:-0.50259 10:-0.70207 
-0.0030991178806095794 -0.07918598535461034 0.013416823910826863 0.00551209120206361 1:66.3705 2:-18.5622 3:-8.6477 4:-3.7073 5:-1.557 6:-0.43005 7:-1.2565 8:-0.48187 9:-0.34456 10:-1.1839 
-0.09834452660667105 -0.6127888332069702 0.363385886939406 0.115412808110976 1:78.601 2:-27.2539 3:-12.6632 4:-3.9016 5:1.2202 6:0.7513 7:-0.38342 8:0.1399 9:-0.13472 10:-0.34456 
-0.09108033266969896 -0.57285735539192 0.34053345504098836 0.10844818206880584 1:83.5337 2:-25.3705 3:-14.943 4:-4.8497 5:-1.0155 6:1.3031 7:-0.020725 8:-0.088083 9:-0.14249 10:-0.58808 
-0.15123399259293888 -0.9509303370641529 0.5638862462315832 0.17980154999279788 1:77.5259 2:-21.8731 3:-13.2927 4:-6.0181 5:-1.5984 6:0.27202 7:-1.0078 8:-0.38601 9:0.28497 10:-0.49223 
-0.088414239036298 -0.5432715764745375 0.3228877864849418 0.10518268824888671 1:71.4301 2:-19.9508 3:-12.5855 4:-5.2332 5:-0.81088 6:0.23575 7:-0.25648 8:0.68394 9:0.031088 10:-0.28756 
-0.1538633277318752 -0.9689671822129903 0.5752311742246179 0.1830931456728843 1:75.5181 2:-27.0415 3:-10.7021 4:-2.4093 5:0.14767 6:0.25648 7:-0.88601 8:0.07772 9:0.38342 10:-0.54922 
-0.21045436444743687 -1.0 0.7878641292727517 0.2503679260088518 1:95.399 2:-30.5078 3:-21.5104 4:-7.6632 5:2.228 6:3.6373 7:1.6114 8:1.5777 9:0.6114 10:0.064767 
-0.018833562665508844 -0.13763075048045514 0.08092821480815338 0.022869646176062932 1:70.2435 2:-19.3575 3:-11.5622 4:-4.9249 5:-0.93005 6:-0.3886 7:-1.0829 8:0.15544 9:-0.10881 10:-0.56477 
-0.005169106818032702 -0.06724724313246011 0.020184492125161536 0.006455081803208542 1:76.0363 2:-23.0026 3:-17.9352 4:-5.386 5:0.10622 6:2.4611 7:0.60881 8:0.68394 9:0.52332 10:0.11917 
-0.059329315774706175 -0.3573587410252485 0.21664666949425726 0.06845052253984754 1:74.5233 2:-22.7254 3:-15.8523 4:-4.2202 5:-0.6399 6:0.75389 7:0.41192 8:1.1736 9:-0.088083 10:-0.31606 
-0.17664920281511873 -1.0 0.6613463018357698 0.21051572246516478 1:75.4534 2:-26.987 3:-20.2746 4:-3.1554 5:1.5544 6:3.658 7:1.8472 8:0.96891 9:0.48187 10:0.37306 
-0.137873107443218 -0.8779475305427465 0.5169129080528385 0.16540689013936583 1:80.1813 2:-28.2513 3:-18.7772 4:-3.8342 5:2.4793 6:3.5648 7:0.51813 8:0.6943 9:0.45855 10:0.27202 
-0.15980223063025661 -1.0 0.5964935435015559 0.1899054242353745 1:84.4016 2:-28.399 3:-16.0984 4:-4.8109 5:0.72798 6:2.9223 7:0.23834 8:0.47927 9:0.2228 10:0.051813 
-0.06802059655870715 -0.46107700700363263 0.2564831319809019 0.08116499047455979 1:77.9534 2:-25.7047 3:-18.4093 4:-5.1114 5:3.0389 6:2.544 7:1.1477 8:0.98187 9:0.55181 10:0.2487 
-0.08538149209475854 -0.542208842712113 0.32053521318024764 0.1032776928193419 1:65.8472 2:-23.4974 3:-12.7176 4:-3.1736 5:0.45855 6:1.5259 7:0.50518 8:0.60363 9:0.16062 10:-0.26425 
-0.11005883023343267 -0.6931318330505408 0.40974581400986543 0.13126197139199325 1:86.2332 2:-27.8627 3:-20.2927 4:-5.9093 5:2.9404 6:3.2098 7:0.94819 8:1.0311 9:0.56218 10:-0.11658 
-0.0 -0.006614582217441206 9.806503010316714E-4 0.0 1:83.4793 2:-27.9093 3:-16.5829 4:-5.2642 5:1.671 6:2.9793 7:0.13212 8:0.71762 9:0.33938 10:0.007772 
-0.2991067567249684 -1.0 -1.0 0.35294273043841146 1:39.9793 2:-18.3005 3:-3.215 4:-1.2409 5:-0.095855 6:0.61658 7:-0.23834 8:0.23057 9:-0.48964 10:-0.051813 
-0.21990637389165468 -1.0 -0.8599269012411584 0.25953561603670244 1:50.2798 2:-30.8964 3:1.5544 4:0.63472 5:0.32902 6:1.101 7:0.067358 8:0.4171 9:-0.32642 10:-0.041451 
-0.19823362659968444 -1.0 -0.7795367877362772 0.23491033713907133 1:57.0984 2:-37.8497 3:6.3497 4:0.43264 5:-0.12953 6:0.89119 7:0.17358 8:0.041451 9:-0.025907 10:0.0025907 
-0.02425846048879011 -0.11251066258623224 -0.09335479489066091 0.028300147810865837 1:77.4016 2:-49.5415 3:5.7772 4:1.5492 5:0.29275 6:0.98964 7:0.54145 8:0.33679 9:-0.11917 10:-0.049223 
-0.15906592615213525 -0.8101263949187794 -0.6242749824935021 0.18780872653314043 1:74.0233 2:-49.9249 3:5.7876 4:2.3782 5:0.56477 6:0.54145 7:-0.0025907 8:0.11917 9:-0.48187 10:0.3342 
-0.017759587655701476 -0.10604158837992804 -0.08061774983451538 0.024983593666721787 1:65.2124 2:-39.9715 3:3.899 4:-0.95596 5:0.76166 6:1.1917 7:-0.16839 8:0.40674 9:-0.35751 10:-0.15803 
-0.04666602823994502 -0.24292752322179756 -0.18720772258390292 0.05479993243708015 1:68.0311 2:-43.1477 3:5.2642 4:-1.2124 5:0.67876 6:0.74611 7:0.12694 8:0.57254 9:-0.44301 10:-0.072539 
-0.13599522687637186 -0.6929321345145052 -0.5355226223093751 0.16078832143968516 1:74.9456 2:-46.6399 3:5.4404 4:-1.0104 5:0.14249 6:1.2927 7:-0.095855 8:0.4171 9:-0.23575 10:0.21244 
-0.0769223650530246 -0.4973469288767511 -0.3021172698004663 0.09078033934851287 1:85.0777 2:-59.0725 3:10.1943 4:0.81865 5:0.12435 6:1.2927 7:0.080311 8:0.07513 9:0.025907 10:-0.15026 
-0.11073452173161624 -0.5636855483083095 -0.4359728772893615 0.12988440795848344 1:68.9145 2:-45.715 3:5.2383 4:2.0052 5:0.74352 6:0.67876 7:-0.0025907 8:0.085492 9:0.080311 10:-0.16321 
-0.08502316839291373 -0.4232226799756483 -0.3242630340568426 0.09876061337602518 1:71.8005 2:-45.6684 3:2.1736 4:1.9223 5:0.59845 6:0.94041 7:0.041451 8:0.20207 9:-0.13731 10:0.34456 
-0.026085162814037995 -0.20332670484512913 -0.10687432693270826 0.03062769233526056 1:50.9611 2:-32.6477 3:2.8497 4:-0.70984 5:0.4456 6:0.50777 7:0.38083 8:0.19689 9:-0.24611 10:-0.020725 
-0.01277860818361273 -0.06569986136452058 -0.05072017004481011 0.01650869272066735 1:62.8964 2:-39.6917 3:2.7642 4:-0.044041 5:1.5363 6:0.60622 7:0.20984 8:0.34715 9:-0.18135 10:0.17876 
-0.1411871342342091 -0.7259493102185026 -0.5518359426014704 0.16538566013567174 1:75.6995 2:-49.6762 3:7.7539 4:-0.31606 5:1.0674 6:0.48964 7:0.10363 8:0.49741 9:-0.16062 10:-0.072539 
-0.08724721344750058 -0.4467658641873968 -0.345834506691128 0.10321555892570217 1:77.956 2:-51.1658 3:4.3834 4:2.2979 5:1.0933 6:1.1865 7:0.03886 8:0.42487 9:0.18135 10:0.1399 
-0.05582146675869059 -0.28158601636860064 -0.21732725686013613 0.0665479056025615 1:58.7539 2:-36.6373 3:1.5363 4:0.72798 5:0.03886 6:0.49741 7:-0.020725 8:0.54922 9:-0.46114 10:0.090674 
-0.0640705738005164 -0.3421307779667438 -0.267841355392405 0.07645166485694907 1:58.0259 2:-34.513 3:0.4456 4:0.86269 5:0.73575 6:0.78756 7:0.12176 8:0.18135 9:-0.093264 10:-0.018135 
-0.012448152116968281 -0.07111298685196793 -0.05850852507833288 0.016984279495919505 1:53.7539 2:-34.0389 3:2.0984 4:0.18653 5:0.18912 6:0.75648 7:-0.28497 8:0.22539 9:-0.34456 10:-0.007772 
-0.11081891021003656 -0.5635683695292893 -0.43412841645202505 0.1295407200689412 1:54.0415 2:-35.5933 3:3.9715 4:-0.18135 5:0.65026 6:0.5544 7:0.025907 8:0.26943 9:-0.15803 10:-0.3057 
-0.09453019846646125 -0.4852181878981229 -0.37554766447978205 0.11156997691400813 1:63.2824 2:-41.4352 3:3.785 4:1.3912 5:0.82642 6:0.94041 7:-0.3057 8:0.11399 9:-0.049223 10:0.22798 
-0.14476051356527714 -0.7331457495337039 -0.5654566165303374 0.17068719189752413 1:64.7332 2:-40.6503 3:1.1684 4:2.3212 5:0.30829 6:1.0907 7:0.41192 8:0.093264 9:-0.10881 10:0.32642 
-0.18211042996648344 -0.9216202307664851 -0.7100466069474872 0.21438086640266465 1:65.3057 2:-44.3342 3:8.1218 4:-0.58549 5:0.16321 6:0.79793 7:0.10881 8:0.81606 9:-0.0025907 10:0.0025907 
-0.09276389643010782 -0.47281689763704116 -0.3648658652809644 0.1088460212025062 1:60.0389 2:-38.1347 3:4.7824 4:-0.31606 5:1.272 6:0.91451 7:0.049223 8:0.10622 9:-0.18653 10:-0.080311 
-0.08083622520936579 -0.41288668529558714 -0.3173883889309705 0.09582805660008047 1:71.057 2:-47.2876 3:5.2358 4:2.1451 5:0.7513 6:1.2306 7:0.46373 8:0.27461 9:-0.069948 10:-0.049223 
-0.15010688379790424 -0.756050024314153 -0.5870317256824475 0.1767104822154823 1:79.2124 2:-50.7513 3:4.0622 4:1.3575 5:1.2642 6:0.97409 7:0.16062 8:0.29534 9:-0.40933 10:0.21244 
-0.1701669919270565 -0.8670365165516853 -0.6700784236325521 0.20082635889291056 1:45.6788 2:-25.6425 3:-1.0104 4:-0.53368 5:0.18135 6:0.40933 7:0.31347 8:0.77979 9:-0.43264 10:0.14249 
-0.16006891669854287 -0.8134371030254218 -0.6256097943003055 0.18860887755208425 1:46.5751 2:-26.0907 3:-0.31088 4:-1.0181 5:0.23057 6:0.61658 7:-0.13472 8:0.30052 9:-0.41192 10:0.21762 
-0.13729261716537844 -0.7014779338388792 -0.5419642725500377 0.1622069744251171 1:61.5751 2:-35.5259 3:-0.31606 4:1.1425 5:-0.2513 6:0.51813 7:0.093264 8:0.35751 9:-0.2487 10:0.056995 
-0.12472252857717905 -0.633365888640534 -0.4885250203986912 0.14720612919651457 1:69.7409 2:-44.8601 3:6.5881 4:-0.42746 5:0.31347 6:0.37306 7:-0.044041 8:0.16321 9:-0.30052 10:-0.0051813 
-0.0671959719347879 -0.35237728938922397 -0.27313512400259343 0.08030857465930706 1:56.5363 2:-32.4482 3:-0.23316 4:-0.58549 5:0.39378 6:0.49741 7:-0.088083 8:0.39637 9:-0.031088 10:-0.12176 
-0.017832812467810724 -0.1064552571683933 -0.07935062600610045 0.02387564937580977 1:56.0907 2:-33.9922 3:3.1865 4:-0.43523 5:0.093264 6:0.76943 7:0.020725 8:0.38342 9:-0.20207 10:-0.046632 
-0.11224272258438084 -0.5630976964996822 -0.43555241843285525 0.13182268745423045 1:67.7979 2:-41.2073 3:3.8031 4:-0.8886 5:0.53886 6:0.65803 7:-0.10363 8:0.76943 9:0.07772 10:-0.21244 
-0.005276159406484369 -0.026867144212602473 -0.02131915505120325 0.00579871244342293 1:63.4016 2:-39.9896 3:5.0803 4:-0.59326 5:0.66062 6:0.54663 7:-0.19948 8:0.37824 9:-0.19171 10:-0.015544 
-0.08512337720006612 -0.43081547388039293 -0.32897971429434675 0.09937787110859111 1:60.5233 2:-38.2746 3:4.5984 4:1.0078 5:-0.13212 6:0.82642 7:0.0 8:0.19689 9:-0.093264 10:0.12953 
-0.17215999404538043 -0.8725317656913523 -0.6740471222935968 0.20290591476743158 1:69.4041 2:-42.2513 3:1.4793 4:2.2927 5:0.12176 6:0.098446 7:0.14249 8:0.45337 9:-0.30052 10:0.12694 
-0.01810547008170395 -0.07535599866017685 -0.0524725763477222 0.020486150721321768 1:58.2487 2:-33.9534 3:0.30052 4:0.30829 5:0.62176 6:0.34197 7:0.16062 8:0.10363 9:-0.40415 10:-0.36788 
-0.05325146635963223 -0.2619431367562931 -0.20257890487623947 0.06021650391111716 1:54.8756 2:-33.1528 3:2.5389 4:0.63472 5:0.29534 6:0.18653 7:-0.036269 8:0.23575 9:-0.19689 10:0.19689 
-0.11848281747188591 -0.5971606673755554 -0.4608113086886101 0.13902038439415093 1:63.4119 2:-38.6891 3:3.9896 4:-0.85233 5:0.085492 6:1.2565 7:0.26425 8:-0.007772 9:-0.21244 10:0.10881 
-0.01507977472849039 -0.0685529789735927 -0.051100735463318565 0.016404307909992158 1:55.0803 2:-34.4352 3:2.0544 4:0.049223 5:1.1762 6:0.56995 7:0.10104 8:0.35492 9:-0.35233 10:0.036269 
-0.03046524839980334 -0.16361182183244105 -0.13072955818962423 0.03642199710889188 1:59.5415 2:-34.9482 3:1.6062 4:-1.0725 5:0.6658 6:0.44041 7:0.23575 8:-0.0051813 9:-0.12694 10:0.046632 
-0.1969637163563766 -1.0 -0.7727008748327623 0.232479569365451 1:64.3705 2:-37.4404 3:-0.70207 4:0.75389 5:1.101 6:0.40155 7:-0.1114 8:0.62435 9:-0.56995 10:0.27202 
-0.09793035172359214 -0.5078237963236243 -0.3880426130257295 0.1159339052041343 1:53.8394 2:-30.1788 3:0.26166 4:-0.7513 5:0.28756 6:0.56477 7:-0.35751 8:0.73316 9:-0.18653 10:0.028497 
-0.25273973860847704 -1.0 -0.9911904433891724 0.2978655032331741 1:87.8135 2:-59.5699 3:9.0155 4:1.5751 5:1.4301 6:0.94041 7:0.27979 8:0.19171 9:-0.20466 10:0.010363 
-0.04411370793487991 -0.2230694035186118 -0.17223590818309795 0.05262214831161449 1:67.0959 2:-44.228 3:4.8187 4:0.75907 5:1.2668 6:0.52073 7:0.3057 8:0.46373 9:-0.28238 10:0.093264 
-0.031334501297274546 -0.16616618364711852 -0.13026482215440982 0.03781478454445422 1:73.7047 2:-46.2591 3:3.0285 4:2.1762 5:0.75648 6:0.86269 7:0.023316 8:0.24093 9:-0.34715 10:-0.22539 
-0.033565619026244234 -0.16953680460970177 -0.13047533734580413 0.03943689410778864 1:65.9093 2:-41.7228 3:5.3601 4:0.40674 5:-0.5829 6:0.77202 7:0.21762 8:0.32383 9:-0.28238 10:0.020725 
-0.08381960376217105 -0.4285354395268949 -0.3275717579808194 0.09852465091066355 1:56.0259 2:-36.6503 3:4.4016 4:0.56218 5:1.3005 6:0.25389 7:0.15544 8:0.23575 9:-0.2487 10:0.12176 
-0.007593195004742782 -0.04765613590078913 -0.03933816454743895 0.010504904561625644 1:61.2953 2:-37.5933 3:3.2202 4:-0.59326 5:-0.31865 6:0.94819 7:-0.10622 8:0.68135 9:-0.52073 10:0.13472 
-0.0 -0.0015479912212131852 -8.998442846002229E-4 0.0 1:63.9741 2:-39.2228 3:0.73057 4:0.07513 5:0.82124 6:1.2176 7:-0.53368 8:0.62694 9:-0.18912 10:0.3057 
-0.0028847221245458625 -0.020572053156165962 -0.013565223942220091 0.004242778332069153 1:76.7176 2:-50.0984 3:6.5026 4:0.31606 5:0.76166 6:1.7979 7:-0.26166 8:0.1943 9:-0.44819 10:0.11399 
-0.012690744580617204 -0.06855082438922892 -0.05185557525221146 0.014769781833654174 1:67.7383 2:-42.8342 3:1.9948 4:1.7176 5:1.0104 6:0.96891 7:-0.22021 8:0.71503 9:-0.22798 10:-0.046632 
-0.1859155355155342 -0.9202542370318753 -0.7255583300848942 0.21933248807644526 1:51.715 2:-33.0181 3:4.6762 4:-0.48705 5:0.35233 6:0.74611 7:-0.12953 8:0.18912 9:-0.0051813 10:-0.069948 
-0.08767770531586079 -0.4371526734633609 -0.33604816597632325 0.10193452960075289 1:57.9093 2:-33.7617 3:1.3472 4:-0.90674 5:0.26166 6:0.69948 7:-0.8057 8:0.49482 9:-0.015544 10:0.07772 
-0.008520907914106198 -0.0236627959469024 -0.028927850442767314 0.009726316068823584 1:53.8368 2:-32.9585 3:1.956 4:-0.71762 5:0.20725 6:0.48446 7:-0.65803 8:0.65544 9:-0.32124 10:-0.24093 
-0.18161046508753118 -0.9072469064269775 -0.7068278607695759 0.21334582601935084 1:55.057 2:-30.3187 3:-1.0751 4:0.031088 5:-0.49223 6:0.85751 7:0.031088 8:0.2487 9:-0.1943 10:0.054404 
-0.0 -0.029192396468542877 -0.0 0.0 1:53.1477 2:-31.0933 3:0.80311 4:0.067358 5:-0.60622 6:0.73575 7:-0.085492 8:-0.064767 9:-0.40674 10:0.3601 
-0.10623761719177745 -0.546936576847235 -0.4235993028846343 0.12600888389615167 1:72.2487 2:-44.0648 3:1.8135 4:0.48964 5:1.215 6:0.57772 7:-0.22798 8:0.53627 9:-0.14767 10:-0.062176 
-0.1195058450887623 -0.6087215223145017 -0.4694305663538993 0.14118389383342747 1:67.2565 2:-40.8316 3:0.7772 4:0.049223 5:0.59326 6:1.2098 7:0.14249 8:0.33679 9:-0.6114 10:0.24352 
-0.01793769058852697 -0.07852503310123453 -0.06057992482127829 0.01707547989754487 1:65.0881 2:-39.2409 3:3.0389 4:-0.56477 5:1.1451 6:0.81088 7:0.049223 8:0.46632 9:-0.32383 10:0.34715 
-0.024487682712661604 -0.11562887615750866 -0.08601931580551966 0.028068220400606237 1:60.7539 2:-35.9404 3:2.5155 4:-0.51813 5:1.0104 6:0.49223 7:-0.10104 8:0.049223 9:-0.064767 10:-0.1658 
-0.16735529182172856 -0.8480057737385881 -0.6519400682374216 0.19692658275412597 1:75.614 2:-45.9715 3:3.1269 4:0.62176 5:1.272 6:0.74093 7:-0.044041 8:0.80311 9:-0.3057 10:-0.17617 
-0.08716585444299987 -0.4400009516954775 -0.33804637538836374 0.10170020067929178 1:61.285 2:-35.899 3:0.72021 4:-0.95596 5:0.29534 6:1.3705 7:0.13472 8:0.7772 9:-0.17098 10:-0.16839 
-0.18624702818292305 -0.8721785847050765 -0.7263406045487784 0.21886384585544255 1:83.987 2:-57.5544 3:11.5052 4:0.80052 5:0.25648 6:0.70725 7:0.17358 8:0.21244 9:-0.23057 10:-0.27979 
-0.06336075097200025 -0.3197071265150922 -0.2452807427068457 0.0748802914695915 1:71.8679 2:-43.4637 3:4.0311 4:0.17876 5:1.0259 6:0.46373 7:-0.031088 8:0.40155 9:-0.085492 10:-0.015544 
-0.06720313779190427 -0.3529496513197459 -0.2746841884506303 0.08072005587278798 1:64.0078 2:-42.9145 3:7.5803 4:-0.31088 5:0.082902 6:0.80311 7:0.27979 8:0.18912 9:-0.17098 10:0.098446 
-0.2224962652429534 -1.0 -0.8745443003529166 0.2626526288062886 1:77.0907 2:-53.456 3:9.4611 4:0.76943 5:1.1088 6:1.0699 7:0.03886 8:0.51295 9:-0.24352 10:0.082902 
-0.05994009473877485 -0.3062113488953732 -0.23696731930742826 0.07129000171583072 1:80.101 2:-52.8135 3:7.3161 4:0.93523 5:1.7409 6:0.54404 7:0.067358 8:0.27461 9:-0.11658 10:0.036269 
-0.13731073066709476 -0.7181947458779551 -0.5369661981226082 0.16114916445461608 1:81.3031 2:-53.601 3:5.7461 4:1.544 5:0.98964 6:1.1373 7:0.53886 8:0.067358 9:-0.24352 10:0.11658 
-0.12567185930854508 -0.6351676846648961 -0.4915200530605842 0.14799608214417215 1:72.386 2:-47.9352 3:7.4534 4:0.43782 5:0.47927 6:1.1762 7:-0.21762 8:0.47668 9:-0.26425 10:0.054404 
-0.06868301506032425 -0.3564668771275125 -0.26708457953326625 0.08053307796012527 1:78.6554 2:-51.899 3:7.8031 4:1.5285 5:-0.11399 6:1.2073 7:0.0 8:0.6399 9:-0.32383 10:-0.018135 
-0.0 -0.05961519718892872 -0.0 0.0 1:78.0959 2:-52.886 3:8.5207 4:2.0881 5:1.0466 6:0.8886 7:0.16839 8:0.51813 9:-0.11917 10:0.025907 
-0.08947540805816528 -0.4440945412823978 -0.34042487442579256 0.1042694365307685 1:63.443 2:-42.4534 3:6.2021 4:0.067358 5:0.8342 6:0.42487 7:0.018135 8:0.33161 9:-0.07513 10:-0.054404 
-0.05457039121208629 -0.3360788554860955 -0.2170527256965203 0.06488228259427974 1:84.8238 2:-56.7513 3:10.1036 4:1.2047 5:1.0466 6:0.72798 7:0.1114 8:0.31347 9:-0.090674 10:-0.046632 
-0.2144521688268598 -1.0 -0.8419265537809266 0.25364686810460285 1:82.3472 2:-55.7591 3:7.7435 4:3.1088 5:0.59585 6:1.0181 7:0.12176 8:0.26943 9:-0.31088 10:0.082902 
-0.0 -0.5898776368428933 -0.548592284463004 -0.5106740093946084 1:6.8472 2:-3.0777 3:-1.2824 4:-0.35233 5:0.30052 6:-0.23575 7:0.080311 8:0.31347 9:-0.43523 10:0.14508 
-1.0 -0.16471763230182856 -0.14388919215084175 -0.1417692795209721 1:4.3497 2:1.0078 3:-2.9896 4:0.24093 5:-0.13212 6:-0.53368 7:-0.072539 8:0.2513 9:0.1114 10:0.095855 
-0.0 -0.343612207784184 -0.31641438449549386 -0.304708539889103 1:4.3212 2:-0.43264 3:-4.8782 4:0.52073 5:0.6943 6:-0.23834 7:-0.30311 8:0.07772 9:-0.24093 10:0.16062 
-1.0 -0.0 -0.0 -0.0 1:4.0415 2:-1.5933 3:-1.5518 4:0.10881 5:-0.012953 6:-0.07772 7:-0.21244 8:-0.020725 9:-0.10363 10:0.056995 
-0.05285895045590812 -0.33069158767032025 -0.2694541674538401 -0.22833902305229836 1:11.8368 2:-3.772 3:-3.8912 4:0.12953 5:0.35492 6:-0.1399 7:-0.23057 8:0.27461 9:-0.22798 10:0.14249 
-0.537244265107449 -1.0 -1.0 -0.9951500971510686 1:10.9922 2:-1.2798 3:-4.8627 4:-0.61658 5:0.3601 6:-0.30829 7:0.13731 8:0.28756 9:-0.23316 10:0.10881 
-0.052384971290650936 -0.12885134727532663 -0.10243858106354986 -0.0842505705038785 1:10.2876 2:-1.9948 3:-2.8238 4:0.38083 5:-0.018135 6:-0.51554 7:-0.4171 8:0.088083 9:-0.082902 10:-0.064767 
-0.0 -0.3064155140834996 -0.23447711997951903 -0.1853959967775808 1:11.7772 2:-5.6373 3:-1.7617 4:-0.10622 5:-0.16062 6:-0.21503 7:-0.26425 8:-0.23316 9:-0.35751 10:-0.031088 
-0.7442777073049835 -0.1015699264066898 -0.032369645087781784 -0.03032225380332436 1:3.7798 2:-2.4896 3:-1.8264 4:0.31865 5:0.12694 6:-0.59585 7:-0.24093 8:0.098446 9:-0.3057 10:0.16062 
-0.09153579648938784 -0.2830403115147862 -0.25237117501916567 -0.22843329663803635 1:8.8342 2:-3.3057 3:-4.2668 4:-0.10104 5:0.73834 6:0.10881 7:0.023316 8:0.21503 9:-0.30311 10:-0.023316 
-1.0 -0.0 -0.0 -0.0 1:4.3964 2:-0.25389 3:-2.3212 4:-0.90415 5:-0.051813 6:-0.20725 7:-0.29534 8:0.21244 9:-0.30829 10:-0.069948 
-0.04193351552617131 -0.0 -0.004858475211215 -0.013997237288964497 1:9.6762 2:-3.5622 3:-4.2694 4:0.40933 5:0.29016 6:-0.45855 7:0.067358 8:0.036269 9:-0.22798 10:0.13212 
-1.0 -0.0 -0.0 -0.0 1:4.5855 2:-0.48705 3:-1.544 4:-0.65803 5:-0.27461 6:-0.28238 7:-0.10881 8:-0.15803 9:-0.49223 10:0.21762 
-0.0 -0.19359133651571456 -0.1835964375732082 -0.18339523144281716 1:7.1269 2:-2.2254 3:-1.1295 4:-0.033679 5:0.30829 6:-0.17876 7:-0.26684 8:0.03886 9:-0.26425 10:0.1399 
-1.0 -0.0 -0.0 -0.0 1:4.0984 2:-0.007772 3:-2.6321 4:-0.14508 5:0.34197 6:-0.3342 7:-0.4456 8:0.12694 9:-0.37047 10:0.11658 
-0.247957326966404 -0.27332434812181206 -0.26222803773585557 -0.2559140044365962 1:8.8912 2:-3.9404 3:-1.544 4:-0.93782 5:0.40155 6:-0.18912 7:-0.34715 8:0.21503 9:-0.36528 10:0.13731 
-0.2870058808089178 -1.0 -0.9491337467385231 -0.8976862771757672 1:7.5518 2:0.36528 3:-5.3264 4:0.69171 5:0.54663 6:-0.17876 7:-0.29793 8:-0.028497 9:-0.4171 10:0.082902 
-0.6022104891712945 -1.0 -1.0 -1.0 1:12.8575 2:-5.5751 3:-2.1762 4:-0.15285 5:0.80052 6:-0.19689 7:0.020725 8:0.13472 9:-0.43005 10:-0.036269 
-0.1208580056970536 -0.3392028217040754 -0.2843216080503144 -0.2584745360876811 1:8.2902 2:-0.19171 3:-3.8782 4:-1.1295 5:0.51554 6:0.18394 7:0.020725 8:0.22798 9:-0.18394 10:-0.028497 
-0.45977558912178856 -0.6941516923093737 -0.6420784539178435 -0.6015603948882385 1:3.6736 2:0.59326 3:-3.8912 4:0.9171 5:0.12435 6:-0.52073 7:-0.07513 8:0.069948 9:-0.32383 10:0.15285 
-0.16956238943191906 -0.0 -0.0 -0.0 1:4.6632 2:0.70725 3:-3.2746 4:-0.33679 5:0.29793 6:-0.3601 7:-0.1399 8:0.049223 9:-0.19948 10:0.085492 
-1.0 -0.6506162448991984 -0.6170516834716325 -0.5843679223014486 1:4.8342 2:-0.34715 3:-2.456 4:-1.4145 5:-0.34197 6:-0.090674 7:0.044041 8:0.18394 9:-0.054404 10:0.051813 
-1.0 -1.0 -0.994123964550969 -0.9428080320645451 1:3.4948 2:-2.0933 3:-1.7383 4:1.0907 5:0.14508 6:-0.21503 7:-0.23834 8:0.1399 9:-0.018135 10:-0.012953 
-0.3951788332120129 -0.8336380986865979 -0.7869978443269224 -0.7554010042022596 1:9.5933 2:-5.2383 3:-1.5544 4:0.89637 5:0.25389 6:0.17358 7:-0.14767 8:0.28238 9:-0.10881 10:0.080311 
