svm_type c_svc
kernel_type rbf
gamma 0.1
nr_class 5
total_sv 1145
rho 0.21588942806228373 -0.6491423817214502 -0.10137255382702476 -0.7884707605794755 -0.2858328081674504 -0.17428483720889326 -0.30150284047598735 0.23547719102444462 0.09737724344660616 -0.3184592993398756
label 1 2 3 4 5
nr_sv 280 27 278 280 280
SV
0.0 1.0 1.0 1.0 1:1.4003 2:-0.74607 3:0.10682 4:0.32784 5:-0.1848 6:0.015015 7:0.042242 8:-0.02572 9:0.11126 10:-0.02313 
0.0 1.0 1.0 1.0 1:3.6403 2:-1.7079 3:0.032699 4:0.040021 5:-0.20177 6:0.024319 7:-0.044383 8:0.03558 9:0.013825 10:0.090246 
0.0 1.0 1.0 1.0 1:0.88816 2:-1.9072 3:-0.24592 4:0.16521 5:0.16952 6:0.11406 7:-0.039043 8:-0.004811 9:0.1019 10:-0.068834 
0.2684826913980526 1.0 1.0 1.0 1:1.9049 2:-0.29326 3:-1.3731 4:-0.17238 5:0.082897 6:-0.22083 7:0.16667 8:0.15498 9:0.12255 10:0.091118 
0.0 1.0 1.0 1.0 1:1.5376 2:-0.75966 3:0.16289 4:0.17914 5:-0.34779 6:0.10915 7:0.16764 8:0.062675 9:0.035554 10:-0.068596 
0.20596774837286763 1.0 1.0 1.0 1:-0.97433 2:-0.8125 3:0.38736 4:0.49997 5:0.021121 6:-0.041739 7:0.089453 8:-0.035977 9:-0.12974 10:-0.13579 
0.0 1.0 1.0 1.0 1:2.4669 2:-1.5784 3:-0.13143 4:0.40476 5:-0.029738 6:-0.0039651 7:0.301 8:0.0057098 9:0.12265 10:-0.0017711 
0.0 1.0 1.0 1.0 1:1.2073 2:-1.3232 3:-0.020143 4:0.19151 5:0.14414 6:-0.1341 7:-0.10148 8:-0.06212 9:-0.021649 10:0.080174 
0.0 1.0 1.0 1.0 1:2.1791 2:-1.1094 3:0.40658 4:-0.060798 5:0.12398 6:-0.22099 7:0.18797 8:-0.091647 9:0.015015 10:0.10619 
0.0 1.0 1.0 1.0 1:2.2747 2:-0.31348 3:-0.20997 4:-0.060005 5:-0.0057626 6:-0.26045 7:-0.21094 8:0.039757 9:-0.063812 10:-0.028284 
0.0 1.0 1.0 1.0 1:2.0683 2:-2.2384 3:0.010732 4:0.022813 5:-0.0089347 6:-0.12276 7:0.1778 8:-0.16342 9:0.1742 10:0.096511 
0.0 1.0 1.0 1.0 1:1.7466 2:-0.58596 3:-0.58784 4:0.35131 5:0.2175 6:0.092096 7:-0.13003 8:0.17547 9:-0.016416 10:-0.021782 
0.0 1.0 1.0 1.0 1:3.6975 2:-1.7484 3:-0.41229 4:-0.38744 5:-0.36928 6:0.37669 7:0.26474 8:0.04692 9:0.051044 10:0.02387 
0.0 1.0 1.0 1.0 1:3.1369 2:-2.0981 3:0.075522 4:-0.079672 5:0.24303 6:-0.086862 7:0.1719 8:0.093391 9:-0.01097 10:-0.10465 
0.0 1.0 1.0 1.0 1:2.6379 2:-0.86749 3:-0.98742 4:-0.2792 5:-0.12271 6:0.01594 7:0.30656 8:0.16521 9:-0.23185 10:-0.02202 
0.0 1.0 1.0 1.0 1:1.3648 2:-1.2929 3:-0.62699 4:0.040629 5:-0.17547 6:-0.011816 7:0.027491 8:0.12339 9:0.075681 10:0.090114 
0.0 1.0 1.0 1.0 1:1.9828 2:-1.1957 3:-1.0674 4:0.24335 5:0.22292 6:0.33542 7:0.224 8:0.15044 9:-0.072059 10:-0.052683 
0.0 1.0 1.0 1.0 1:2.3255 2:-1.0759 3:0.042057 4:0.24795 5:0.20645 6:0.12411 7:0.044356 8:0.21708 9:-0.061459 10:-0.078192 
0.0 1.0 0.0 1.0 1:4.0923 2:-1.0185 3:-0.81821 4:-0.23534 5:1.8504E-4 6:0.051441 7:-0.14161 8:0.082686 9:-0.13955 10:0.11139 
0.0 1.0 1.0 1.0 1:3.3225 2:-2.0364 3:-0.35493 4:-0.019746 5:-0.067222 6:-0.1286 7:0.12628 8:0.16001 9:-0.051943 10:0.0085646 
0.0 1.0 1.0 1.0 1:2.2421 2:-0.98493 3:0.13019 4:0.001216 5:-0.28721 6:0.099313 7:-0.27928 8:-0.10058 9:0.077055 10:-0.078033 
0.0 1.0 1.0 1.0 1:1.7142 2:-1.6435 3:0.10256 4:0.23907 5:0.070552 6:-0.15987 7:0.10999 8:-0.10272 9:-0.047026 10:0.0295 
0.0 1.0 1.0 1.0 1:2.1403 2:-1.828 3:-0.14814 4:0.11079 5:0.23132 6:0.092731 7:0.15139 8:0.077716 9:-0.021438 10:0.095612 
0.0 1.0 1.0 1.0 1:3.3733 2:-1.7591 3:-0.23989 4:-0.11829 5:-0.26778 6:-0.17489 7:0.043563 8:0.093206 9:-9.2519E-4 10:0.028892 
0.0 1.0 1.0 1.0 1:2.1396 2:-0.79432 3:0.62665 4:-0.074835 5:-0.058234 6:-0.093497 7:0.011446 8:-0.062226 9:-0.042559 10:0.028707 
0.0 1.0 1.0 1.0 1:3.0823 2:-1.885 3:-0.62033 4:-0.22205 5:0.10658 6:0.029765 7:0.25311 8:0.071636 9:0.11639 10:0.1161 
0.0 1.0 1.0 1.0 1:-0.45149 2:0.96624 3:-0.7212 4:-0.21663 5:-0.068649 6:-0.18176 7:0.067565 8:0.18921 9:-0.027544 10:0.08488 
0.0 1.0 1.0 1.0 1:0.88641 2:0.24581 3:-0.54029 4:0.10148 5:-0.098599 6:-0.027306 7:-0.095586 8:0.12797 9:0.060243 10:0.090537 
0.0 1.0 1.0 1.0 1:2.0772 2:-2.0384 3:-0.59463 4:0.46294 5:0.11314 6:0.05041 7:0.063442 8:0.24134 9:-0.052709 10:0.034021 
0.0 1.0 1.0 1.0 1:2.2715 2:-1.1452 3:-0.79001 4:-0.10309 5:-0.036585 6:0.040603 7:0.15633 8:-0.010336 9:0.071028 10:-0.048295 
0.0 1.0 1.0 1.0 1:1.8474 2:-0.35123 3:0.10716 4:-0.25173 5:-0.12482 6:-0.14978 7:-0.07539 8:-0.0047581 9:-0.063151 10:0.064896 
0.0 1.0 1.0 1.0 1:1.0728 2:0.56743 3:-0.059767 4:0.42392 5:-0.14592 6:0.029844 7:-0.16289 8:0.1442 9:0.14248 10:0.15237 
0.0 1.0 1.0 1.0 1:1.2738 2:-1.6647 3:-0.76127 4:0.32054 5:0.20732 6:0.078298 7:0.065292 8:0.062992 9:0.15437 10:0.16854 
0.0 0.0 0.21217068124079133 1.0 1:3.6499 2:-0.44092 3:-0.6313 4:-0.34993 5:-0.023315 6:-0.080386 7:-0.18639 8:-0.024451 9:5.2868E-4 10:0.0038594 
0.0 1.0 1.0 1.0 1:2.9601 2:-0.74708 3:-0.98242 4:-0.21879 5:-0.30217 6:-0.039545 7:-0.13513 8:0.022152 9:0.015702 10:0.0042294 
0.0 1.0 1.0 1.0 1:2.9554 2:-1.6795 3:-0.36127 4:-0.39313 5:0.15044 6:-0.0085382 7:0.19384 8:0.25358 9:0.13881 10:-0.026963 
0.0 1.0 1.0 1.0 1:2.3515 2:-0.17875 3:-0.97087 4:-0.083452 5:0.26778 6:-0.16326 7:0.35247 8:-0.13695 9:-0.1489 10:0.0041766 
1.0 1.0 0.26971540939398103 1.0 1:4.7805 2:-1.5761 3:-0.8752 4:0.062014 5:0.15432 6:0.025773 7:0.043193 8:-0.10174 9:0.035607 10:0.0043087 
0.0 1.0 1.0 1.0 1:2.4054 2:-0.65549 3:-0.51689 4:-0.30555 5:-0.16188 6:-0.11737 7:0.070526 8:0.073698 9:0.12308 10:-0.011578 
0.0 1.0 1.0 1.0 1:0.45927 2:0.47026 3:0.16326 4:-0.18895 5:-0.14676 6:0.04351 7:-0.021464 8:-0.044647 9:-0.050621 10:0.10222 
0.0 1.0 1.0 1.0 1:1.0518 2:0.4391 3:-0.0030135 4:-0.41594 5:-0.066852 6:-0.1171 7:0.19847 8:0.28419 9:0.13862 10:-0.011208 
0.0 1.0 1.0 1.0 1:1.5523 2:-1.2196 3:-0.66328 4:0.16106 5:-0.099524 6:0.35083 7:-0.17608 8:0.14563 9:0.062279 10:-0.036875 
0.0 1.0 1.0 1.0 1:2.522 2:-0.97721 3:-0.050595 4:0.22649 5:-0.10613 6:-0.27671 7:0.034047 8:-0.15829 9:0.015913 10:-0.047449 
0.0 1.0 1.0 1.0 1:1.3798 2:-1.3831 3:-0.55046 4:0.16521 5:0.047132 6:-0.040391 7:0.054163 8:0.077478 9:-0.062305 10:-0.047528 
0.0 1.0 1.0 1.0 1:3.2395 2:-2.4945 3:0.14885 4:-0.0090933 5:0.14911 6:-0.055564 7:0.12131 8:-0.10204 9:0.1087 10:0.0093577 
0.0 1.0 1.0 1.0 1:2.679 2:-0.61607 3:-0.47145 4:-0.11642 5:-0.060349 6:0.18139 7:-0.03262 8:-0.019085 9:-2.9077E-4 10:0.20434 
0.0 1.0 1.0 0.0 1:0.16257 2:0.99678 3:0.39524 4:-0.023526 5:-0.0040973 6:-0.25498 7:0.21509 8:-0.049802 9:0.15488 10:0.061301 
0.0 1.0 1.0 1.0 1:2.3617 2:-2.1812 3:-0.23304 4:0.32834 5:-0.065001 6:-0.079857 7:-0.050938 8:0.050278 9:0.054904 10:-0.02268 
0.0 1.0 1.0 1.0 1:2.9755 2:-0.89678 3:-0.54475 4:-0.19728 5:0.10949 6:0.0066085 7:-0.017869 8:-0.17415 9:-0.015755 10:-0.017182 
0.0 1.0 1.0 1.0 1:2.8629 2:-0.89228 3:-0.52511 4:-0.4907 5:0.206 6:-0.020196 7:0.059212 8:-0.045942 9:0.045546 10:-0.027095 
0.0 1.0 1.0 1.0 1:3.2374 2:-1.2799 3:-0.46952 4:-0.013534 5:-0.079672 6:-0.034787 7:0.0032514 8:0.19617 9:-0.031668 10:0.070632 
0.0 1.0 1.0 1.0 1:0.65908 2:-0.63854 3:0.36238 4:0.35913 5:-0.13886 6:-0.067645 7:-0.044515 8:0.13436 9:0.13286 10:0.04967 
0.0 1.0 1.0 1.0 1:2.2222 2:-1.9021 3:0.076659 4:0.19376 5:0.43714 6:0.22144 7:0.37835 8:0.299 9:-0.097198 10:0.092043 
0.0 1.0 1.0 1.0 1:0.76003 2:0.28805 3:-0.028496 4:0.062702 5:-0.1572 6:-0.2092 7:-0.10938 8:-0.018028 9:-0.034919 10:0.081734 
0.0 1.0 1.0 1.0 1:2.5896 2:-0.92041 3:-0.41227 4:0.25104 5:0.031509 6:-0.25165 7:0.079672 8:-0.32818 9:0.12281 10:-0.04248 
0.0 1.0 1.0 1.0 1:2.7401 2:-0.32596 3:-0.17135 4:-0.38179 5:0.11568 6:0.03751 7:-0.18126 8:-0.029421 9:0.13381 10:0.081205 
0.0 1.0 1.0 1.0 1:2.5922 2:-0.19617 3:-0.36497 4:-0.072271 5:0.17909 6:0.18459 7:-0.17272 8:0.041158 9:-0.2323 10:-0.027518 
0.0 1.0 1.0 1.0 1:1.3889 2:-0.042638 3:-0.3636 4:-0.15823 5:0.20048 6:-0.1442 7:-0.0083267 8:0.016574 9:-0.11895 10:-0.032646 
1.0 0.5987424491744296 0.0 1.0 1:4.3677 2:-0.86006 3:-0.91137 4:0.046339 5:0.18525 6:-0.15985 7:-0.070394 8:-0.077055 9:-0.20666 10:0.028866 
0.0 1.0 1.0 1.0 1:1.7424 2:-0.44539 3:-0.33175 4:0.19101 5:0.056833 6:-0.20473 7:0.090061 8:-0.10161 9:-0.010415 10:0.1626 
0.0 1.0 1.0 1.0 1:1.8629 2:-0.50648 3:-0.17642 4:-0.20423 5:-0.09659 6:-0.040418 7:0.29598 8:-0.070764 9:-0.087761 10:0.08139 
0.0 1.0 1.0 1.0 1:-0.9134 2:-0.11028 3:0.59995 4:-0.067275 5:0.21525 6:0.27684 7:-0.095956 8:0.1391 9:-0.13479 10:0.06479 
0.0 1.0 1.0 1.0 1:0.6116 2:-1.6235 3:0.086757 4:0.050463 5:0.066032 6:0.12368 7:-0.15189 8:-0.030426 9:0.061274 10:0.096352 
0.0 1.0 0.5803154743772503 0.0 1:-0.40523 2:0.18395 3:0.82268 4:-0.015252 5:0.082659 6:-0.035157 7:-0.24888 8:-0.22004 9:0.040629 10:-0.053 
0.0 1.0 1.0 1.0 1:2.5504 2:-2.4202 3:-0.17592 4:0.034179 5:0.086307 6:0.10262 7:0.02239 8:-0.060798 9:0.051044 10:-0.0019561 
0.0 1.0 1.0 1.0 1:3.6031 2:-2.4665 3:-0.43608 4:0.3208 5:-0.19437 6:-0.020434 7:0.0023526 8:0.18023 9:-0.01586 10:-0.053503 
0.0 1.0 1.0 1.0 1:2.6511 2:-1.171 3:-1.1354 4:0.20188 5:-0.23513 6:-0.18969 7:0.11589 8:-0.0095691 9:0.20021 10:0.0089083 
0.0 1.0 1.0 1.0 1:0.9392 2:0.67224 3:-0.39323 4:-0.078218 5:-0.10703 6:-0.24541 7:-0.0067407 8:0.15075 9:-0.1337 10:-0.015993 
0.0 1.0 1.0 1.0 1:1.4121 2:-1.4145 3:-0.059847 4:-0.11094 5:0.1069 6:0.015252 7:0.20801 8:-0.12807 9:0.12329 10:0.19942 
0.0 0.19506233929250896 1.0 1.0 1:3.4221 2:-1.849 3:0.28504 4:0.013904 5:-0.20653 6:0.035316 7:-0.14185 8:0.10862 9:0.0765 10:-0.022072 
0.0 1.0 1.0 1.0 1:0.40426 2:-1.2239 3:0.32033 4:-0.075258 5:0.15247 6:-0.082289 7:-0.14198 8:0.036215 9:0.19445 10:-0.089241 
0.0 1.0 1.0 1.0 1:2.6017 2:-1.9601 3:0.11227 4:0.34568 5:-0.020143 6:0.20024 7:0.017526 8:0.11858 9:0.10693 10:0.0028813 
0.0 1.0 1.0 1.0 1:1.673 2:-0.19426 3:-6.8729E-4 4:-0.17058 5:-0.016733 6:-0.33957 7:-0.012847 8:-0.087179 9:-0.011102 10:0.013878 
0.0 0.0 1.0 1.0 1:3.559 2:-1.5547 3:0.040761 4:-0.56741 5:-0.04322 6:-0.013138 7:0.004203 8:0.17632 9:0.24713 10:0.02461 
0.0 1.0 1.0 1.0 1:2.9976 2:-2.0813 3:0.037034 4:-0.10936 5:0.11597 6:-0.13154 7:-0.15049 8:0.23838 9:0.26244 10:0.025192 
0.0 1.0 1.0 1.0 1:1.1675 2:-0.97232 3:-0.35646 4:0.36831 5:0.048084 6:-0.075416 7:-0.14565 8:0.1245 9:0.097806 10:-0.13468 
0.0 1.0 1.0 1.0 1:2.8382 2:-1.6255 3:0.295 4:-0.0068729 5:-0.037087 6:0.16886 7:0.027412 8:-7.9302E-5 9:0.065715 10:-0.068781 
1.0 1.0 1.0 1.0 1:5.3388 2:-2.4554 3:-0.41874 4:-0.34642 5:0.068015 6:0.062754 7:0.013481 8:-0.0341 9:0.16952 10:-0.01179 
0.0 1.0 1.0 1.0 1:2.5851 2:-0.82633 3:-0.75927 4:-0.036558 5:-0.25636 6:-0.20019 7:-0.16056 8:0.068385 9:0.16979 10:-0.072324 
0.0 1.0 1.0 1.0 1:2.1213 2:-0.51475 3:-0.085488 4:-0.33661 5:0.2184 6:0.022733 7:-0.078139 8:-0.095453 9:0.010785 10:-0.093259 
0.0 1.0 1.0 1.0 1:0.19746 2:0.59371 3:0.057309 4:0.030584 5:-0.025059 6:5.5511E-4 7:0.10663 8:-0.30701 9:0.020936 10:-0.14962 
0.0 1.0 1.0 1.0 1:4.0525 2:-1.8981 3:-0.52612 4:0.27423 5:-0.17227 6:-0.089109 7:0.099233 8:0.17457 9:0.055036 10:-0.13537 
0.0 1.0 1.0 1.0 1:3.231 2:-1.8462 3:-0.42358 4:-0.30957 5:0.14185 6:0.084087 7:-0.083849 8:0.068517 9:0.077214 10:-0.015966 
0.0 1.0 1.0 1.0 1:1.6796 2:-0.97938 3:0.12889 4:0.20243 5:0.05834 6:-0.076024 7:0.13711 8:-0.024531 9:-0.041369 10:-0.0059741 
0.0 1.0 1.0 1.0 1:0.4944 2:0.18351 3:0.21541 4:-0.15784 5:0.15916 6:-0.10233 7:0.084906 8:0.078113 9:0.076897 10:0.014512 
0.0 1.0 1.0 1.0 1:1.632 2:-0.66101 3:-0.065398 4:-0.25591 5:0.31353 6:-0.014909 7:0.022813 8:0.016574 9:-0.021412 10:0.086016 
1.0 0.0 1.0 1.0 1:5.076 2:-2.5242 3:0.1369 4:-0.44967 5:0.078773 6:0.11356 7:-0.23891 8:-0.050965 9:0.050648 10:-0.099207 
0.0 1.0 1.0 0.9261446966772521 1:1.2893 2:0.53722 3:-0.10825 4:-0.30693 5:0.11914 6:-0.23574 7:-0.12495 8:-0.14795 9:-0.025932 10:-0.062675 
0.0 1.0 1.0 1.0 1:2.2504 2:-1.7566 3:0.46445 4:0.26014 5:-0.1368 6:-0.0035686 7:-0.14555 8:-0.014142 9:-0.17473 10:-0.083479 
0.0 1.0 1.0 1.0 1:2.0089 2:-1.0393 3:-1.1164 4:-0.50447 5:-0.02268 6:0.20812 7:0.13777 8:0.037669 9:-0.004811 10:0.14837 
0.0 1.0 1.0 1.0 1:0.6516 2:-0.68887 3:0.095533 4:0.043484 5:-0.060798 6:0.098308 7:0.10098 8:0.021544 9:-0.046815 10:0.13769 
0.0 1.0 1.0 1.0 1:-0.51813 2:-0.21388 3:0.015755 4:0.27663 5:-0.1742 6:0.33925 7:-0.064975 8:-0.03032 9:0.061168 10:-0.20738 
0.4459318877994222 0.1656850672347041 0.0 0.10448230708642253 1:-1.3473 2:0.4291 3:0.92075 4:-0.071319 5:0.079514 6:0.14671 7:0.124 8:0.014433 9:0.09051 10:-0.05382 
0.0 1.0 1.0 0.0 1:0.86252 2:0.4305 3:0.01964 4:0.32527 5:0.10989 6:-0.053238 7:-0.22474 8:-2.6434E-4 9:0.0087232 10:0.074888 
0.0 1.0 1.0 0.0 1:0.89379 2:0.62183 3:0.42992 4:-0.26299 5:0.070605 6:0.02802 7:-0.052445 8:0.17068 9:-0.030822 10:0.13265 
0.0 1.0 1.0 1.0 1:2.4268 2:-0.33809 3:-0.73836 4:-0.17777 5:0.20663 6:0.11459 7:-0.043193 8:-0.18906 9:-0.066429 10:0.05041 
0.0 1.0 1.0 1.0 1:-1.3002 2:-0.024108 3:0.2521 4:0.47436 5:0.051256 6:-0.087497 7:0.13664 8:-0.055115 9:0.04092 10:-0.072932 
0.0 1.0 1.0 1.0 1:0.85599 2:-0.78462 3:-0.38824 4:0.19255 5:0.0068464 6:0.11359 7:0.059186 8:0.031483 9:0.086836 10:0.18898 
0.0 1.0 1.0 1.0 1:0.65815 2:-0.46505 3:0.5926 4:0.076712 5:-0.076447 6:-0.13378 7:0.039096 8:-0.17362 9:0.041131 10:-0.11417 
0.0 1.0 1.0 1.0 1:2.6808 2:-1.0079 3:-0.046497 4:-0.022865 5:0.15511 6:0.036823 7:0.084827 8:-0.010204 9:-0.036875 10:0.095929 
0.0 1.0 1.0 1.0 1:2.3313 2:-1.3089 3:-0.62443 4:0.32892 5:-0.021094 6:0.11753 7:0.16619 8:0.15953 9:0.029791 10:-0.078958 
0.0 1.0 1.0 1.0 1:1.4933 2:-1.4626 3:0.53191 4:0.14811 5:-0.045519 6:-0.035025 7:0.054031 8:0.15504 9:0.025007 10:0.039942 
0.0 1.0 1.0 1.0 1:2.4958 2:-0.44325 3:-0.5235 4:0.13135 5:-0.086624 6:-0.087153 7:0.13577 8:0.20611 9:0.019535 10:0.11655 
1.0 1.0 1.0 1.0 1:5.9545 2:-2.6899 3:-0.75768 4:0.016283 5:-0.32305 6:-0.014486 7:0.23357 8:-0.12776 9:0.0917 10:0.05456 
0.0 1.0 1.0 1.0 1:1.5526 2:-0.312 3:-0.73299 4:-0.022046 5:0.342 6:-0.18744 7:-0.08858 8:0.037986 9:-0.061036 10:-0.11901 
0.0 1.0 0.0 1.0 1:4.2603 2:-1.4045 3:-0.5669 4:0.1769 5:-0.17713 6:-0.068729 7:-0.1944 8:0.051414 9:-0.0068464 10:-0.027835 
0.0 1.0 1.0 1.0 1:3.6321 2:-2.8302 3:-0.3309 4:0.01253 5:-0.24877 6:0.018583 7:0.22255 8:0.004996 9:0.10185 10:0.039598 
0.0 1.0 1.0 1.0 1:2.9013 2:-2.4495 3:-0.081761 4:-0.24169 5:0.20912 6:0.022813 7:-0.093999 8:-0.096273 9:0.015385 10:-0.0061591 
0.0 1.0 1.0 1.0 1:1.3787 2:-0.16474 3:0.005604 4:0.016231 5:0.088475 6:0.036135 7:-0.27959 8:-0.055221 9:0.061565 10:0.081232 
0.0 1.0 1.0 1.0 1:2.102 2:-0.63735 3:-0.43 4:0.14026 5:-0.11071 6:0.016389 7:-0.27938 8:0.2746 9:0.0099656 10:-0.026883 
0.0 1.0 1.0 1.0 1:2.2013 2:-1.2812 3:-0.086968 4:-0.054745 5:0.23212 6:0.027306 7:-0.042665 8:0.26902 9:0.041184 10:-0.0059212 
0.0 1.0 1.0 1.0 1:1.2725 2:-1.9167 3:-0.11573 4:0.11887 5:-0.060878 6:0.021094 7:0.10515 8:0.20648 9:-0.082342 10:-0.042294 
0.0 1.0 1.0 1.0 1:0.20701 2:-0.16944 3:0.36262 4:0.35123 5:0.18689 6:0.074015 7:0.17888 8:-0.21996 9:0.020777 10:0.040259 
0.0 1.0 1.0 1.0 1:2.5914 2:-0.70592 3:-0.41618 4:-0.18858 5:0.10397 6:-0.1589 7:0.003595 8:-0.12694 9:0.041211 10:-0.06775 
0.0 1.0 1.0 1.0 1:3.7371 2:-2.0589 3:-0.22609 4:-0.069707 5:0.2272 6:-0.11758 7:0.043431 8:0.097912 9:-0.037193 10:-0.0071372 
0.0 1.0 1.0 1.0 1:0.54718 2:-0.36114 3:0.54261 4:-0.039466 5:0.093788 6:-0.25538 7:0.17716 8:-0.20944 9:0.045784 10:-0.23772 
0.0 1.0 1.0 1.0 1:0.91287 2:0.086942 3:-0.29841 4:0.12371 5:0.28462 6:0.078298 7:-0.1411 8:-0.039334 9:0.057309 10:-0.098335 
0.0 1.0 1.0 1.0 1:2.7649 2:-1.2428 3:-0.6512 4:0.059979 5:0.12591 6:-0.24483 7:0.034867 8:-0.18343 9:0.092519 10:-0.016336 
0.0 1.0 1.0 1.0 1:0.25982 2:-0.36238 3:-0.03677 4:-0.22421 5:0.14589 6:0.27415 7:0.09659 8:0.073936 9:0.072641 10:0.0095956 
0.0 1.0 1.0 1.0 1:2.7859 2:-0.95549 3:-0.29564 4:-0.24203 5:-0.057203 6:0.023896 7:-0.056569 8:0.12556 9:0.0576 10:0.071583 
1.0 0.0 1.0 1.0 1:5.8933 2:-3.1074 3:0.037801 4:-0.22593 5:-0.066984 6:-0.13939 7:0.33167 8:-0.1483 9:0.019746 10:0.054718 
0.0 1.0 1.0 1.0 1:2.6267 2:-1.0696 3:-0.24404 4:-0.06701 5:-0.15932 6:-0.071425 7:-0.037959 8:0.13444 9:0.097542 10:0.060613 
0.0 1.0 1.0 1.0 1:2.0765 2:-1.7117 3:-0.10936 4:-0.075311 5:0.14161 6:0.052709 7:0.24526 8:0.089215 9:0.2216 10:-9.2519E-4 
0.0 1.0 1.0 1.0 1:2.3589 2:-0.95562 3:-1.2308 4:-0.050833 5:0.063177 6:0.23201 7:0.39905 8:0.078298 9:-0.0049167 10:0.1839 
0.0 1.0 1.0 1.0 1:3.0891 2:-1.149 3:-0.56727 4:0.51427 5:0.016151 6:0.021227 7:0.085329 8:-0.090933 9:0.071848 10:-0.072694 
1.0 1.0 1.0 1.0 1:3.6691 2:-1.1687 3:-1.1093 4:-0.29384 5:0.18493 6:0.11813 7:0.096061 8:-0.045308 9:-0.082342 10:0.15842 
0.0 1.0 1.0 1.0 1:1.8195 2:-0.72109 3:-0.67341 4:-0.37034 5:-0.0057626 6:-0.13867 7:-0.095189 8:-0.045837 9:-0.031615 10:0.18908 
0.0 1.0 1.0 1.0 1:2.097 2:-0.71631 3:-0.28808 4:0.23304 5:-0.19733 6:-0.10584 7:0.10182 8:0.011948 9:-0.071134 10:0.18425 
0.0 1.0 1.0 1.0 1:2.9133 2:-1.2366 3:-0.93614 4:-0.048136 5:-0.073381 6:-0.1396 7:0.043061 8:0.1285 9:0.086466 10:0.023632 
0.0 1.0 1.0 1.0 1:3.1734 2:-0.76326 3:-0.93286 4:0.042083 5:-0.018583 6:0.12561 7:0.055062 8:0.038171 9:-0.019826 10:0.11805 
0.0 1.0 1.0 1.0 1:1.1561 2:-0.47021 3:-0.083241 4:0.0056569 5:0.19574 6:0.20537 7:0.094185 8:-0.0095691 9:0.066032 10:-0.17618 
0.0 1.0 1.0 1.0 1:2.7717 2:-1.6155 3:-0.57803 4:0.087497 5:0.55089 6:0.17037 7:-0.039017 8:0.02654 9:-0.12342 10:0.12236 
0.0 0.7404166837429316 1.0 1.0 1:1.8801 2:-1.2973 3:1.2266 4:0.22855 5:-0.019376 6:0.14462 7:-0.048824 8:0.20119 9:0.0098335 10:0.0035686 
1.0 1.0 1.0 1.0 1:4.911 2:-2.2013 3:-0.6663 4:-0.19411 5:0.17045 6:-0.11761 7:-0.1156 8:0.011605 9:0.010071 10:-0.068253 
0.0 1.0 1.0 1.0 1:0.24541 2:-1.0042 3:0.28771 4:0.35998 5:0.056939 6:0.21102 7:-0.24393 8:0.032223 9:-0.097727 10:-0.15567 
0.0 1.0 1.0 1.0 1:1.7731 2:-1.9823 3:0.3203 4:-0.38504 5:-0.12223 6:0.092889 7:-0.13122 8:0.11385 9:-0.062094 10:-0.04248 
0.0 1.0 1.0 1.0 1:2.0996 2:-0.60148 3:-0.27494 4:-0.30642 5:0.05908 6:-0.14734 7:-0.042638 8:0.04203 9:-0.020513 10:-0.027095 
0.0 0.0 1.0 1.0 1:4.2541 2:-2.6082 3:0.54872 4:0.11782 5:0.030003 6:0.15823 7:0.14496 8:0.14301 9:-0.099894 10:-0.079831 
0.0 1.0 1.0 1.0 1:2.8556 2:-0.56746 3:-0.32746 4:0.14259 5:-0.028496 6:-0.086149 7:0.35284 8:0.047185 9:-9.7806E-4 10:-0.047581 
0.0 1.0 1.0 1.0 1:1.9444 2:-1.8084 3:0.16093 4:0.27547 5:0.23777 6:-0.024504 7:-0.0075601 8:0.0060534 9:0.025509 10:-0.042612 
0.751921260449819 1.0 1.0 1.0 1:2.9747 2:-2.3635 3:-0.60523 4:0.058525 5:0.14454 6:0.38229 7:0.023949 8:-0.0083003 9:0.010521 10:0.040074 
0.0 1.0 1.0 1.0 1:0.78771 2:-1.0549 3:0.33331 4:0.012583 5:0.16624 6:0.0318 7:0.048718 8:-0.10761 9:-0.021649 10:-0.13064 
0.0 1.0 1.0 1.0 1:3.2355 2:-0.89728 3:-0.50835 4:-0.10248 5:-0.061644 6:-0.11782 7:-0.16722 8:-0.035104 9:-0.1654 10:-0.1405 
0.0 1.0 1.0 1.0 1:2.4487 2:-0.44055 3:-0.32609 4:0.13177 5:0.39384 6:-0.14153 7:0.13727 8:0.042453 9:0.11367 10:0.12276 
0.0 1.0 1.0 1.0 1:3.0011 2:-1.908 3:0.16471 4:0.50611 5:0.14533 6:8.9876E-4 7:-0.15683 8:-0.024848 9:-0.056913 10:0.029818 
0.0 1.0 1.0 1.0 1:2.5006 2:-1.042 3:-0.80693 4:0.15176 5:0.094528 6:-0.086915 7:-0.12572 8:0.02646 9:-0.072456 10:0.044251 
0.0 1.0 1.0 1.0 1:1.7817 2:-0.89273 3:-0.28847 4:-0.041105 5:-0.19585 6:-0.082368 7:-0.14663 8:-0.25689 9:-0.067883 10:-0.16114 
0.0 1.0 1.0 1.0 1:2.3355 2:-1.1731 3:-0.53783 4:0.05834 5:0.00682 6:0.26339 7:-0.10529 8:0.17021 9:0.25163 10:0.14755 
0.0 1.0 1.0 1.0 1:2.1152 2:-1.6792 3:-0.048982 4:0.25488 5:-0.21953 6:-0.019112 7:-0.10441 8:-0.065979 9:-0.045942 10:0.17409 
0.0 1.0 1.0 1.0 1:1.6846 2:-0.68189 3:-0.30299 4:-0.02884 5:0.063151 6:0.015993 7:-0.19181 8:-0.045176 9:0.050859 10:-0.14044 
0.0 1.0 1.0 1.0 1:1.3344 2:-0.21845 3:0.036188 4:0.067063 5:5.2868E-4 6:0.02083 7:0.04322 8:-0.045493 9:0.055908 10:0.060481 
0.0 1.0 1.0 1.0 1:2.9412 2:-0.75519 3:-0.48459 4:-0.046868 5:-0.26764 6:0.10222 7:-0.070103 8:-0.20066 9:0.034285 10:-0.14076 
0.0 1.0 1.0 1.0 1:3.0966 2:-2.0633 3:-0.29141 4:-0.048454 5:0.18097 6:0.34491 7:0.17817 8:-0.0034893 9:-0.0053132 10:0.050093 
0.0 1.0 1.0 1.0 1:3.328 2:-2.4798 3:0.52858 4:0.46733 5:0.066376 6:0.18512 7:-0.20878 8:-0.087444 9:-0.0576 10:-0.023262 
0.0 1.0 1.0 1.0 1:-1.0889 2:0.89556 3:0.24359 4:0.0064235 5:0.35054 6:0.11927 7:-0.094898 8:0.01171 9:0.025509 10:-0.099207 
0.0 1.0 1.0 1.0 1:1.3104 2:-0.42231 3:-0.52001 4:0.22231 5:0.046497 6:-0.33492 7:-0.13164 8:0.11827 9:0.065794 10:-0.11002 
0.0 1.0 1.0 1.0 1:3.1356 2:-1.4466 3:-0.098916 4:-0.026831 5:-0.23201 6:-0.052022 7:-0.13672 8:-0.015067 9:-2.9077E-4 10:-0.14518 
0.0 1.0 1.0 1.0 1:1.4303 2:-1.156 3:-0.45633 4:0.40693 5:0.1245 6:-0.035554 7:-0.05945 8:0.082765 9:0.21557 10:0.014407 
0.0 1.0 1.0 1.0 1:1.9454 2:-0.76606 3:-0.12046 4:-0.14142 5:-0.2562 6:-0.21464 7:-0.084536 8:0.072376 9:0.019746 10:-0.021861 
0.0 1.0 1.0 1.0 1:2.2048 2:-0.20375 3:0.17338 4:0.15599 5:-0.12813 6:-0.1752 7:-0.079461 8:0.041264 9:-0.031589 10:0.029104 
0.0 1.0 1.0 1.0 1:2.5125 2:-0.86175 3:0.015755 4:-0.32651 5:0.016653 6:-0.0045995 7:-0.028311 8:0.022205 9:0.16363 10:-0.11451 
0.0 1.0 1.0 1.0 1:0.95884 2:-0.65734 3:0.34547 4:0.5761 5:0.31343 6:0.092387 7:0.13619 8:-0.066112 9:-0.026566 10:-0.043035 
0.0 1.0 1.0 1.0 1:1.8462 2:-0.97764 3:-0.3474 4:-0.248 5:-0.026328 6:0.16455 7:-0.15223 8:0.13354 9:0.17351 10:0.03899 
0.0 1.0 1.0 1.0 1:2.4008 2:-1.3606 3:0.18366 4:-0.057706 5:0.13072 6:0.14039 7:0.0705 8:0.18123 9:-0.0053397 10:0.091356 
0.0 1.0 1.0 1.0 1:0.47637 2:0.10431 3:0.092678 4:0.25694 5:0.067803 6:-0.11166 7:0.13209 8:0.073513 9:-0.025245 10:-0.006027 
0.0 1.0 1.0 1.0 1:1.4542 2:-1.278 3:-0.14399 4:0.24245 5:0.16466 6:0.10394 7:0.364 8:0.032408 9:0.11306 10:-0.016257 
0.0 1.0 1.0 1.0 1:2.235 2:-2.1251 3:-0.56799 4:-0.31901 5:0.13421 6:-0.050621 7:-0.073857 8:0.072905 9:0.061856 10:0.17891 
0.0 1.0 1.0 1.0 1:1.4336 2:-0.34745 3:0.22604 4:0.047211 5:-0.065609 6:-0.0033043 7:-0.20767 8:-0.06027 9:0.020486 10:-0.047079 
0.0 1.0 1.0 1.0 1:2.1722 2:-1.2663 3:0.31385 4:0.25411 5:-0.11174 6:0.079117 7:-0.10981 8:0.26886 9:-0.015702 10:0.029712 
0.0 1.0 1.0 1.0 1:0.0056569 2:-0.80267 3:1.074 4:0.17439 5:-0.2876 6:-0.26193 7:-0.0077187 8:0.13415 9:-0.0061063 10:0.1221 
0.0 1.0 1.0 1.0 1:0.94687 2:0.41274 3:-0.66268 4:0.079302 5:0.12498 6:-0.18353 7:-0.19667 8:-0.064975 9:-0.061644 10:-5.2868E-4 
0.0 1.0 1.0 1.0 1:3.8099 2:-1.4266 3:-0.62892 4:-0.024134 5:-0.12712 6:0.0062649 7:0.28625 8:0.26831 9:-0.041343 10:0.045149 
0.0 1.0 1.0 1.0 1:2.064 2:-0.48216 3:-0.75652 4:-0.66196 5:0.17111 6:0.12432 7:-0.043061 8:0.047872 9:0.020275 10:-0.082897 
0.0 0.0 1.0 1.0 1:4.8251 2:-2.0284 3:-0.39281 4:-0.058763 5:-0.19315 6:-0.09585 7:0.18929 8:-0.16326 9:0.13344 10:-0.047053 
0.0 1.0 1.0 1.0 1:1.9803 2:-0.64528 3:-0.40687 4:-0.059847 5:0.052657 6:-0.10574 7:-0.17113 8:0.18705 9:0.067328 10:-0.10888 
0.0 1.0 1.0 1.0 1:1.5341 2:-1.0948 3:-0.29596 4:-0.13444 5:0.061988 6:-0.030135 7:-0.0076923 8:0.041898 9:-0.11324 10:-0.13965 
0.0 1.0 1.0 1.0 1:2.5606 2:-1.4834 3:-0.24052 4:-0.09014 5:-0.0067407 6:-0.021015 7:-0.19305 8:0.092466 9:-0.0011367 10:-0.0017975 
0.0 1.0 1.0 1.0 1:1.9697 2:-0.97248 3:-0.4493 4:0.13529 5:0.22757 6:-0.075496 7:0.16746 8:-0.0091462 9:0.015041 10:-0.011578 
0.0 1.0 1.0 1.0 1:2.1883 2:-1.3048 3:-0.81745 4:-0.15197 5:-0.045176 6:0.16595 7:0.065451 8:0.021412 9:0.01512 10:-0.026831 
0.0 1.0 1.0 1.0 1:1.5721 2:0.17444 3:-0.96823 4:-0.16442 5:0.19109 6:3.4364E-4 7:0.04433 8:-0.040206 9:-0.067222 10:0.049749 
0.0 1.0 1.0 0.0 1:1.4643 2:0.35374 3:-0.19749 4:0.013904 5:0.012821 6:-0.31697 7:0.029315 8:0.078509 9:0.025826 10:0.014354 
0.0 0.16463962122855128 1.0 1.0 1:3.2118 2:-1.4823 3:0.23069 4:0.18134 5:-0.092228 6:-0.11901 7:0.15599 8:-0.08221 9:0.10648 10:0.10547 
0.0 1.0 1.0 1.0 1:2.5895 2:-1.0604 3:0.28546 4:-0.26973 5:0.17079 6:0.10883 7:-0.11697 8:0.005419 9:-0.057864 10:0.23962 
0.0 1.0 1.0 1.0 1:0.76701 2:-0.076474 3:-0.22863 4:-0.13955 5:-0.089823 6:-0.0095163 7:0.044171 8:-0.019958 9:0.040629 10:0.034232 
0.0 1.0 1.0 1.0 1:2.1637 2:-0.25221 3:-0.28686 4:-0.21927 5:0.16207 6:-0.013878 7:-0.022575 8:-0.092123 9:-0.0055511 10:-0.093735 
0.0 1.0 1.0 0.11304196977027978 1:3.3332 2:0.12884 3:-0.25514 4:-0.05649 5:-0.11353 6:0.040946 7:-0.13111 8:-0.025245 9:0.10661 10:0.054428 
0.3027650037767343 1.0 1.0 0.3883235881577588 1:-0.91903 2:1.3832 3:-0.0447 4:0.42252 5:0.035897 6:-0.19614 7:-0.15771 8:-0.11295 9:-0.031694 10:-0.032487 
0.0 1.0 1.0 1.0 1:1.7127 2:-0.40019 3:0.38797 4:0.56371 5:-0.48575 6:0.048057 7:0.014354 8:0.042876 9:-0.06664 10:0.12752 
0.829641819213315 1.0 1.0 1.0 1:3.1295 2:-2.7462 3:-0.2166 4:0.18068 5:0.11335 6:-0.11911 7:0.10938 8:0.20024 9:0.029606 10:-0.017526 
0.0 1.0 1.0 1.0 1:1.3647 2:-0.45905 3:-0.14666 4:-0.20952 5:0.021491 6:-0.010812 7:-0.0075601 8:0.20108 9:0.056357 10:0.10656 
0.0 1.0 1.0 1.0 1:0.4747 2:-0.65609 3:0.21094 4:0.11538 5:-0.21494 6:0.18565 7:-0.11065 8:0.051388 9:0.13796 10:-0.12569 
0.0 1.0 1.0 1.0 1:3.2443 2:-2.1255 3:0.098863 4:-0.36323 5:-0.013957 6:-0.19022 7:-0.074993 8:0.17013 9:-0.1142 10:0.023606 
0.0 1.0 1.0 1.0 1:1.1102 2:-1.4472 3:-0.0099921 4:0.027412 5:0.066957 6:0.14404 7:0.18144 8:0.10756 9:0.065081 10:0.018319 
0.12176794218055928 1.0 1.0 1.0 1:4.2386 2:-2.6071 3:-0.21628 4:0.40211 5:0.04129 6:-0.2115 7:0.089321 8:0.051916 9:0.086624 10:0.2142 
0.0 1.0 1.0 1.0 1:2.4067 2:0.33423 3:-0.1899 4:0.027835 5:0.12826 6:0.15961 7:-0.16735 8:0.066667 9:0.0040444 10:-0.11007 
0.0 1.0 1.0 1.0 1:2.6755 2:-1.0315 3:-1.0292 4:-0.17452 5:-0.41121 6:-0.082104 7:0.15704 8:0.098097 9:0.060878 10:0.0084853 
0.0 1.0 1.0 1.0 1:1.0487 2:0.15731 3:-0.21885 4:0.1816 5:0.54066 6:8.7232E-4 7:0.09014 8:0.067513 9:0.20494 10:0.0341 
0.0 1.0 1.0 1.0 1:0.75168 2:-0.5101 3:-0.58247 4:0.29715 5:0.37021 6:0.26175 7:0.13077 8:-0.055855 9:-0.15488 10:0.044515 
0.0 1.0 1.0 1.0 1:0.43606 2:-0.34676 3:-0.2041 4:-0.49305 5:0.20502 6:0.11689 7:-0.1014 8:0.020222 9:0.25535 10:0.12604 
0.7131538800403111 1.0 1.0 1.0 1:2.8339 2:-1.0377 3:-0.92863 4:-0.37513 5:0.23553 6:-0.11314 7:-0.014592 8:0.13867 9:0.10682 10:-0.023156 
0.0 0.0 1.0 1.0 1:2.4173 2:-1.2841 3:0.42672 4:-0.23188 5:0.17481 6:-0.41589 7:0.059424 8:0.0059212 9:-0.026804 10:0.10106 
0.0 1.0 1.0 1.0 1:1.2191 2:-1.1362 3:-0.58295 4:-0.14676 5:-0.26476 6:0.21779 7:0.13246 8:0.18726 9:0.10846 10:0.14327 
0.0 1.0 1.0 1.0 1:1.7902 2:-1.3936 3:-0.464 4:0.21229 5:-0.0038329 6:0.016283 7:-0.053159 8:0.2792 9:0.077293 10:0.01512 
0.0 1.0 1.0 1.0 1:0.71742 2:0.22892 3:-0.5669 4:-0.33851 5:0.080888 6:0.16418 7:-0.065398 8:-0.020513 9:-0.057468 10:-0.022733 
0.0 1.0 1.0 1.0 1:2.2766 2:-1.2982 3:0.10568 4:0.26141 5:-0.07732 6:-0.26709 7:-0.16236 8:-0.1027 9:-0.021491 10:-0.058102 
0.0 0.0 0.9470034351979962 1.0 1:3.4948 2:-1.5372 3:0.75194 4:0.09088 5:-0.21055 6:0.15607 7:-1.586E-4 8:-0.0017711 9:-0.079408 10:0.11515 
0.0 1.0 1.0 1.0 1:2.4566 2:-1.232 3:-0.3737 4:-0.11092 5:0.41295 6:0.1958 7:0.2437 8:0.020909 9:0.0092784 10:-0.079091 
0.0 1.0 1.0 1.0 1:4.4752 2:-1.8977 3:-0.49775 4:-0.066244 5:-0.050568 6:0.15456 7:-0.095268 8:-0.13254 9:-0.077663 10:-0.027095 
0.0 1.0 1.0 1.0 1:2.272 2:-1.0978 3:-0.78684 4:0.44904 5:-0.16413 6:0.067698 7:0.054507 8:-0.07539 9:-0.087999 10:0.19918 
0.0 1.0 1.0 1.0 1:-0.80833 2:0.80711 3:0.1526 4:0.083849 5:0.39186 6:0.045652 7:0.05419 8:0.010944 9:-0.016468 10:-0.14081 
0.0 0.10203737452954888 1.0 0.0 1:2.7916 2:-0.057494 3:-0.054904 4:-0.3549 5:-0.13262 6:-0.17542 7:0.013164 8:0.29397 9:0.055802 10:0.065001 
0.0 1.0 1.0 1.0 1:3.1297 2:-1.3888 3:-0.27542 4:-0.0030663 5:-0.064631 6:0.047343 7:-0.052947 8:0.22802 9:0.087655 10:0.066006 
0.0 1.0 1.0 1.0 1:1.3066 2:-1.3198 3:-0.82559 4:-0.033307 5:-0.058525 6:0.18739 7:0.096511 8:0.063495 9:0.18007 10:0.055723 
0.0 1.0 1.0 1.0 1:2.809 2:-0.30928 3:-0.87446 4:-0.36344 5:-0.10079 6:-0.049405 7:-0.02654 8:-0.069125 9:-0.0093312 10:-0.010468 
0.0 1.0 1.0 1.0 1:2.1703 2:-0.85993 3:-0.82236 4:0.13452 5:-0.014803 6:0.093286 7:0.085831 8:0.11956 9:0.24137 10:-0.062569 
0.0 1.0 1.0 1.0 1:1.8233 2:-0.37158 3:-0.29429 4:0.15929 5:0.13933 6:0.0053397 7:0.20846 8:0.2428 9:0.13836 10:-0.021887 
0.0 1.0 1.0 1.0 1:1.6647 2:-0.85477 3:-0.29334 4:-0.18943 5:0.098282 6:-0.33341 7:-0.012926 8:-0.1636 9:-0.13362 10:-0.022152 
0.0 1.0 1.0 1.0 1:3.6857 2:-1.6983 3:-0.73365 4:0.17526 5:-0.060798 6:0.31303 7:-0.16741 8:-0.010283 9:-0.21118 10:0.034496 
0.0 1.0 1.0 1.0 1:3.2125 2:-0.71216 3:-0.87449 4:0.0894 5:-0.075786 6:0.022337 7:-0.088158 8:0.083955 9:-0.22572 10:0.030082 
0.0 1.0 1.0 1.0 1:3.8457 2:-2.2911 3:0.13278 4:-0.034867 5:-0.0044674 6:0.10846 7:0.018213 8:0.08295 9:-0.12905 10:0.019165 
0.0 1.0 1.0 1.0 1:1.8678 2:-0.63077 3:-0.49535 4:0.042744 5:0.078562 6:0.0062384 7:0.22001 8:-0.075178 9:0.22643 10:0.056093 
0.0 1.0 1.0 1.0 1:1.7483 2:-0.21145 3:-0.44325 4:0.26825 5:-0.10259 6:-0.055432 7:-0.12559 8:0.10434 9:-0.025747 10:-0.10346 
0.0 1.0 1.0 1.0 1:2.5457 2:-1.6679 3:-0.35218 4:-0.0033043 5:-0.096193 6:0.026725 7:0.20394 8:0.001586 9:-0.13354 10:0.014354 
0.0 1.0 1.0 1.0 1:2.7531 2:-1.3748 3:-0.47119 4:0.13172 5:0.1461 6:-0.16809 7:0.1369 8:-0.10124 9:-0.08184 10:0.050278 
0.0 1.0 1.0 1.0 1:3.2471 2:-1.1802 3:-0.39736 4:0.1041 5:0.068438 6:-0.024399 7:0.25464 8:0.099392 9:-0.010204 10:-0.13944 
0.0 1.0 1.0 1.0 1:1.6804 2:-1.7861 3:0.25086 4:-0.33148 5:0.10423 6:0.26326 7:-0.017869 8:-0.029712 9:0.17478 10:0.19907 
0.0 1.0 1.0 1.0 1:2.5373 2:-1.9613 3:-0.68298 4:-0.24362 5:0.079196 6:0.027201 7:0.32813 8:0.018134 9:0.062569 10:0.066429 
0.0 1.0 1.0 1.0 1:1.4753 2:0.66376 3:-0.53164 4:-0.03825 5:-0.22889 6:-0.26048 7:-0.28422 8:0.12501 9:-0.015623 10:-0.026936 
0.0 1.0 1.0 1.0 1:3.116 2:-1.4272 3:-0.023976 4:-0.1627 5:-0.21549 6:-0.17983 7:-0.079699 8:-0.0049167 9:-0.03714 10:-0.042982 
0.0 1.0 1.0 1.0 1:1.9064 2:-0.84044 3:-0.66154 4:0.10632 5:-0.25797 6:-0.27811 7:0.16622 8:-0.036109 9:-0.0063177 10:-0.037589 
0.0 1.0 1.0 1.0 1:3.8266 2:-1.5849 3:-0.41583 4:-0.22429 5:0.10539 6:0.016971 7:0.09125 8:-0.27068 9:0.08755 10:0.12791 
0.0 1.0 1.0 1.0 1:1.843 2:-1.5017 3:-0.22561 4:0.016336 5:0.0061856 6:0.0062649 7:0.11137 8:0.093391 9:0.15921 10:0.065319 
0.0 1.0 1.0 1.0 1:0.64404 2:-0.057653 3:0.0060005 4:0.035712 5:-0.080862 6:-0.075681 7:0.09125 8:0.022733 9:-0.02009 10:0.11758 
0.0 1.0 1.0 1.0 1:1.913 2:-1.3276 3:-0.12104 4:-0.33883 5:0.16479 6:-0.0040444 7:-0.089188 8:0.042691 9:-0.020592 10:0.091515 
0.0 1.0 1.0 1.0 1:2.1196 2:-0.86381 3:-0.7004 4:-0.083373 5:-0.025112 6:-0.11213 7:-0.19704 8:0.083796 9:-0.020381 10:-0.12403 
1.0 1.0 1.0 1.0 1:5.447 2:-2.7318 3:-0.3253 4:-0.4189 5:-0.1558 6:0.2046 7:0.027227 8:-0.025165 9:0.050304 10:0.013006 
1.0 1.0 1.0 1.0 1:4.0844 2:-2.2442 3:-0.50172 4:-0.053873 5:0.093894 6:0.062702 7:0.20325 8:0.43283 9:0.009807 10:0.21938 
0.0 0.0 1.0 1.0 1:4.0437 2:-1.8468 3:-0.070579 4:-0.17528 5:-0.13278 6:0.017605 7:-0.025826 8:0.030056 9:-0.012133 10:-0.028496 
0.0 1.0 1.0 1.0 1:1.5395 2:-0.83513 3:-0.40833 4:0.26312 5:0.087232 6:-0.15432 7:-0.12141 8:-0.26233 9:0.019746 10:0.074782 
0.0 1.0 1.0 1.0 1:2.7711 2:-1.7481 3:-0.35464 4:-0.20349 5:0.3982 6:0.099445 7:0.14169 8:0.15015 9:0.0050225 10:0.050172 
0.0 1.0 1.0 1.0 1:2.4366 2:-1.0399 3:-0.354 4:-0.26408 5:0.18668 6:0.015887 7:0.13661 8:0.093259 9:0.0095691 10:0.033783 
0.0 1.0 1.0 1.0 1:2.4224 2:-1.3303 3:-1.0454 4:0.023764 5:0.27396 6:0.13936 7:-0.03336 8:-0.025192 9:-0.083003 10:0.12157 
0.0 1.0 1.0 1.0 1:0.30008 2:-0.83386 3:-0.28388 4:0.019218 5:0.16556 6:-0.071874 7:-0.15152 8:0.01586 9:-0.1396 10:-0.02276 
0.0 1.0 1.0 1.0 1:2.311 2:-1.8056 3:-0.47394 4:-0.018504 5:0.066931 6:0.12916 7:-0.1161 8:-0.0044674 9:0.055591 10:-0.14095 
0.0 1.0 1.0 1.0 1:2.0292 2:-1.2022 3:-0.1839 4:0.27404 5:0.17632 6:-0.076897 7:0.049907 8:-0.0090669 9:0.13339 10:0.050251 
0.0 1.0 1.0 1.0 1:0.84917 2:0.80145 3:-0.27055 4:0.0071372 5:-0.096749 6:-0.0047053 7:-0.13555 8:0.042215 9:-0.031113 10:0.10658 
0.0 1.0 1.0 1.0 1:2.491 2:-1.4669 3:0.074015 4:0.059107 5:0.22754 6:0.052392 7:-0.14626 8:6.0798E-4 9:0.061036 10:0.044594 
0.0 1.0 1.0 1.0 1:-1.0676 2:1.1961 3:-0.25297 4:-0.076474 5:-0.19627 6:0.004996 7:-0.065927 8:0.046207 9:0.050066 10:-0.022601 
0.0 1.0 1.0 1.0 1:1.9084 2:-1.3746 3:-0.09355 4:0.16746 5:0.032408 6:0.2272 7:-0.069257 8:0.083188 9:0.097172 10:-0.0068729 
0.0 1.0 1.0 1.0 1:1.6197 2:-0.97462 3:-0.092889 4:-0.037378 5:-0.054824 6:-0.1332 7:-0.14631 8:0.010759 9:0.055511 10:0.00341 
0.0 1.0 1.0 1.0 1:2.7706 2:-1.2627 3:-0.3281 4:-0.26505 5:-0.20944 6:-0.066032 7:0.065001 8:-0.055036 9:-0.020566 10:0.0043087 
0.0 1.0 1.0 1.0 1:2.6113 2:-2.5385 3:0.61959 4:-0.39487 5:0.28356 6:0.010626 7:0.12062 8:-0.070711 9:-0.042057 10:0.054401 
0.0 1.0 1.0 1.0 1:1.7847 2:-1.1528 3:-0.51887 4:0.25268 5:-0.13339 6:0.47846 7:-0.095982 8:-0.015464 9:0.0038858 10:0.0954 
0.0 1.0 1.0 1.0 1:1.7376 2:-0.26373 3:0.59918 4:-0.67119 5:0.021702 6:0.11845 7:-0.20349 8:-0.0097542 9:-0.052551 10:-0.038224 
0.0 1.0 1.0 1.0 1:1.6999 2:-0.30954 3:0.86053 4:-0.82168 5:-0.096511 6:-0.081893 7:0.028602 8:0.06709 9:-0.14983 10:-0.10944 
0.0 1.0 1.0 1.0 1:2.8357 2:-0.78448 3:-0.78195 4:-0.153 5:-0.12694 6:0.0017446 7:0.17256 8:0.098943 9:-0.18052 10:0.10185 
0.0 1.0 1.0 1.0 1:2.9497 2:-1.8161 3:-0.61282 4:-0.17314 5:0.21071 6:-0.046709 7:0.21274 8:-0.051546 9:0.1013 10:-0.069204 
0.0 1.0 1.0 1.0 1:1.8325 2:-1.3643 3:-0.1161 4:0.36537 5:-0.23164 6:0.16434 7:0.017499 8:0.11316 9:0.070975 10:-0.012424 
0.0 1.0 1.0 1.0 1:2.7428 2:-1.8251 3:-0.66844 4:0.090642 5:-0.087497 6:0.072297 7:-0.10061 8:0.16035 9:-0.12453 10:0.17803 
0.0 1.0 1.0 1.0 1:3.2199 2:-1.0285 3:-0.17074 4:0.07005 5:0.034417 6:0.21332 7:0.22498 8:-0.034021 9:0.26794 10:-0.041528 
0.0 1.0 1.0 1.0 1:0.26897 2:0.041951 3:0.14396 4:-0.087814 5:-0.26204 6:0.21121 7:-0.12625 8:-0.035104 9:-0.20098 10:0.039625 
0.0 1.0 1.0 1.0 1:1.9696 2:-1.3353 3:-0.41253 4:0.24822 5:-0.073302 6:-0.042559 7:0.032725 8:0.060878 9:0.11663 10:0.058869 
0.0 1.0 1.0 1.0 1:1.9714 2:-1.4586 3:-0.4322 4:0.41232 5:0.066878 6:0.0047053 7:-0.002617 8:0.20108 9:0.035131 10:0.12702 
0.0 1.0 1.0 1.0 1:0.3194 2:0.39857 3:-0.59469 4:-0.11308 5:-0.077716 6:-0.067169 7:0.053503 8:-0.061353 9:-0.19146 10:0.0031457 
0.0 1.0 1.0 1.0 1:2.7876 2:-1.1542 3:-0.55845 4:0.2437 5:0.11398 6:-0.18536 7:-0.044303 8:0.041501 9:-0.1143 10:0.059503 
0.0 1.0 1.0 1.0 1:1.862 2:-1.1378 3:-0.39749 4:0.33957 5:0.21126 6:-0.066429 7:0.20851 8:0.031747 9:0.11784 10:-0.047898 
0.0 0.0 0.0 1.0 1:3.637 2:-1.0409 3:-0.11422 4:-0.25533 5:-0.09696 6:-0.040973 7:-0.0235 8:0.010944 9:-0.098546 10:-0.12487 
1.0 1.0 1.0 1.0 1:5.7781 2:-2.7793 3:-1.0382 4:0.16733 5:0.14753 6:-6.0798E-4 7:-0.0091726 8:-0.020196 9:0.14803 10:-0.017288 
0.0 1.0 1.0 1.0 1:-0.24021 2:0.67061 3:-0.31515 4:-0.1207 5:0.10063 6:-0.11998 7:0.1649 8:0.014565 9:-0.073989 10:-0.03907 
0.0 1.0 1.0 1.0 1:3.0167 2:-1.8989 3:-0.57024 4:-0.37058 5:0.058763 6:0.049564 7:0.04248 8:-0.10322 9:-0.1143 10:0.034153 
0.0 1.0 1.0 1.0 1:0.63881 2:-0.20066 3:0.27383 4:-0.031166 5:-0.15757 6:0.39992 7:-0.21911 8:-0.092546 9:-0.010574 10:0.0034364 
0.0 1.0 1.0 1.0 1:0.55755 2:-0.71959 3:0.51367 4:0.065953 5:-0.13947 6:0.23616 7:0.16701 8:0.12437 9:-0.1138 10:-0.011763 
0.0 1.0 1.0 1.0 1:0.73095 2:-1.2793 3:0.045784 4:0.12868 5:-0.086915 6:-0.066878 7:0.15118 8:-0.050912 9:-0.08295 10:0.049379 
0.0 1.0 1.0 1.0 1:2.7229 2:-2.0438 3:-0.13722 4:0.40283 5:0.34116 6:0.059212 7:0.039255 8:0.03254 9:-0.082131 10:-0.0061327 
0.0 1.0 1.0 1.0 1:1.1611 2:-1.2972 3:-0.46564 4:-0.15353 5:0.093339 6:-0.1585 7:-0.12575 8:0.17658 9:0.015517 10:-0.0061327 
0.0 1.0 1.0 1.0 1:2.007 2:-0.92157 3:-0.033968 4:0.19003 5:0.077795 6:0.1378 7:0.0062913 8:0.13389 9:-0.27869 10:0.19849 
0.2835580975276217 1.0 1.0 1.0 1:-0.28057 2:1.6074 3:0.11626 4:-0.35279 5:-0.10923 6:0.040973 7:-0.044568 8:0.1036 9:-0.016019 10:0.02987 
1.0 0.35530525148091685 1.0 1.0 1:4.5902 2:-3.1766 3:0.49709 4:0.46537 5:0.070235 6:-0.3249 7:0.011234 8:0.066376 9:-0.032091 10:-0.0073487 
0.0 1.0 1.0 1.0 1:2.1107 2:-0.23391 3:-0.75533 4:-0.15485 5:-0.13267 6:0.0053661 7:0.26513 8:-0.066244 9:0.13857 10:0.01935 
0.0 1.0 0.0 1.0 1:4.6382 2:-1.6038 3:-0.69606 4:-0.49334 5:-0.36913 6:-0.085778 7:0.049617 8:-0.14814 9:0.097727 10:0.039757 
-1.0 0.9894133017165898 1.0 1.0 1:6.4388 2:-2.8659 3:-0.31469 4:-0.029525 5:0.31604 6:-0.25324 7:-0.010204 8:0.045426 9:-0.094478 10:-0.05835 
-0.5269905323384161 0.47129899261860353 0.5508280319221595 0.4707213115089024 1:11.3072 2:-8.4939 3:0.68714 4:-0.69093 5:0.36525 6:0.24935 7:0.052678 8:0.34689 9:-0.12361 10:-0.0778 
-0.6851318097908586 0.17832076226972884 0.0 0.0 1:5.262 2:-1.9741 3:-1.4862 4:-0.72244 5:0.40065 6:-0.41661 7:0.24301 8:0.27725 9:-0.28002 10:0.25391 
-1.0 1.0 1.0 1.0 1:3.4039 2:-0.77287 3:-1.2215 4:-1.0021 5:0.49485 6:-0.030794 7:0.1513 8:0.43411 9:-0.32135 10:0.070781 
-0.0 1.0 1.0 1.0 1:4.4564 2:-2.5262 3:-1.6262 4:-0.4569 5:0.56314 6:0.0067855 7:0.11061 8:0.20564 9:-0.056304 10:0.12162 
-1.0 1.0 1.0 1.0 1:4.4081 2:-3.3816 3:-1.2675 4:-0.11745 5:0.36294 6:0.1485 7:0.059178 8:0.24068 9:-0.052056 10:0.10598 
-1.0 1.0 0.8176989092114719 1.0 1:6.5135 2:-1.9723 3:-0.98091 4:-0.08588 5:0.094453 6:0.0010618 7:-0.14879 8:0.20015 9:-0.081141 10:0.05563 
-1.0 1.0 1.0 1.0 1:4.5554 2:-3.3824 3:-0.79558 4:0.10665 5:0.48039 6:0.047498 7:0.036284 8:0.25409 9:0.0033409 10:0.063659 
-0.34979901645549866 0.27488823600730705 0.23350858841262573 0.2370521479818844 1:10.3802 2:-4.0268 3:-2.009 4:-0.1787 5:0.74972 6:-0.081969 7:0.0072516 8:0.02046 9:-0.037113 10:-0.11887 
-1.0 1.0 1.0 1.0 1:5.1602 2:-3.327 3:-0.36025 4:-0.24544 5:0.53434 6:-0.30625 7:0.12405 8:0.41301 9:-0.22004 10:0.033953 
-1.0 1.0 1.0 1.0 1:4.1372 2:-1.9783 3:-0.74707 4:-0.31322 5:0.8992 6:0.094168 7:-0.040868 8:0.26582 9:-0.39234 10:0.1924 
-0.3794667599450441 0.0 0.0 0.0 1:5.9692 2:-3.2626 3:-0.46053 4:-0.0144 5:0.65301 6:-0.38654 7:0.0080286 8:0.14389 9:-0.26075 10:0.075495 
-1.0 0.0 1.0 1.0 1:6.4667 2:-4.0992 3:-0.21452 4:0.30752 5:0.082772 6:0.30625 7:0.37967 8:0.067026 9:-0.11263 10:0.024112 
-0.0 0.0 0.9937666662219933 0.7040164325765152 1:5.247 2:-3.4542 3:-1.0781 4:0.11131 5:0.57614 6:-0.14705 7:0.11473 8:0.041826 9:-0.11253 10:0.055061 
-0.1504531027835691 0.16865369481680298 0.14023146351630372 0.18011745775571544 1:10.2303 2:-6.5523 3:-1.4041 4:0.9172 5:0.092614 6:-0.085699 7:0.20191 8:0.33189 9:-0.14897 10:0.21734 
-1.0 1.0 1.0 1.0 1:4.0997 2:-2.1453 3:-0.83899 4:-0.35929 5:0.79771 6:-0.22268 7:0.3149 8:0.43922 9:-0.16889 10:-0.16909 
-0.0 0.0 0.4973811678199474 0.11023612151504195 1:6.9053 2:-4.184 3:-0.91606 4:1.0296 5:-0.096524 6:0.42194 7:0.42044 8:0.097224 9:0.013908 10:0.11041 
-0.0 0.019746039749238085 0.0 0.0 1:5.5651 2:-2.3689 3:-1.626 4:0.16018 5:0.49788 6:0.077592 7:-0.1535 8:0.36937 9:-0.31104 10:0.13649 
-0.08565661230545694 0.07359777832049859 0.08069195739910659 0.06597548743118303 1:12.0955 2:-7.7454 3:0.10629 4:0.028255 5:0.61771 6:0.12939 7:0.16847 8:0.10541 9:0.0027194 10:0.21107 
-1.0 1.0 1.0 1.0 1:4.4225 2:-2.2582 3:-1.5395 4:0.27629 5:0.54232 6:0.0044546 7:0.078758 8:0.29102 9:-0.10782 10:0.12064 
-0.0 0.0 0.04708018940168973 0.5849564851804506 1:5.096 2:-4.1041 3:-0.95701 4:-0.40045 5:0.51611 6:0.36173 7:0.069279 8:0.35756 9:0.091189 10:0.13584 
-0.0 0.05396492198303227 0.0 0.0 1:8.4397 2:-6.7309 3:-0.40619 4:0.30369 5:0.76435 6:-0.066793 7:0.24635 8:0.33642 9:-0.23544 10:0.0086761 
-0.24493997824312316 0.21688790237353012 0.3057644075800485 0.21808817295534183 1:11.3775 2:-7.1114 3:-1.5396 4:-0.32645 5:1.1058 6:0.32454 7:0.42899 8:0.41241 9:-0.11403 10:0.27276 
-0.5007525188967364 1.0 0.12558092813729183 0.8051154803530943 1:4.7764 2:-1.9728 3:-2.0404 4:-0.12491 5:0.42702 6:0.049544 7:0.33241 8:0.16241 9:-0.17018 10:0.11465 
-1.0 1.0 1.0 1.0 1:4.4352 2:-1.582 3:-0.57436 4:-0.63268 5:0.2572 6:-0.31205 7:0.15956 8:0.1231 9:-0.11846 10:-0.047369 
-1.0 1.0 1.0 1.0 1:3.6339 2:-2.2446 3:-1.3673 4:-0.082073 5:0.47488 6:0.11175 7:0.18569 8:0.10279 9:-0.31161 10:-0.07262 
-1.0 1.0 1.0 1.0 1:5.6694 2:-3.0193 3:-0.55897 4:-0.27958 5:0.371 6:-0.0013985 7:-0.11054 8:0.21913 9:-0.1693 10:0.17132 
-1.0 -0.0 1.0 1.0 1:1.8822 2:-0.80484 3:0.019984 4:-0.17692 5:0.03291 6:-0.28382 7:0.032197 8:0.050568 9:-0.0067671 10:-0.033888 
-1.0 -0.0 1.0 1.0 1:2.8859 2:-1.7256 3:-0.070209 4:-0.21808 5:-0.11996 6:-0.02691 7:0.063098 8:-0.09815 9:0.065556 10:-0.079276 
-1.0 -0.0 1.0 1.0 1:-0.086016 2:-1.3974 3:0.20632 4:-0.020143 5:0.010574 6:-7.1372E-4 7:0.1617 8:0.13962 9:0.0553 10:-0.0018239 
-1.0 -0.0 0.028574103625992855 1.0 1:-0.22408 2:0.27756 3:-0.40148 4:0.19099 5:0.082421 6:-0.04055 7:-0.20285 8:0.067645 9:0.13304 10:-0.1351 
-1.0 -0.0 1.0 1.0 1:1.3145 2:-1.3306 3:-0.067539 4:0.58884 5:-0.048506 6:0.17013 7:0.059635 8:0.04203 9:-0.12376 10:0.069865 
-1.0 -0.0 1.0 1.0 1:1.7318 2:-2.2963 3:-0.12575 4:0.088316 5:0.11887 6:-0.16474 7:0.0064499 8:0.016072 9:-8.4589E-4 10:0.0031721 
-1.0 -0.0 1.0 1.0 1:1.4647 2:-0.86151 3:0.017103 4:0.3277 5:0.047634 6:0.041898 7:-0.007005 8:0.23706 9:0.2207 10:0.02913 
-1.0 -0.0 1.0 1.0 1:3.0531 2:-2.611 3:-0.50595 4:0.35469 5:-0.010336 6:0.0049167 7:0.088898 8:-0.061459 9:0.10085 10:0.16257 
-1.0 -0.0 1.0 1.0 1:1.1727 2:-0.79952 3:0.086994 4:0.063257 5:0.31901 6:0.087735 7:-0.18726 8:0.2115 9:0.22561 10:-0.016786 
-1.0 -0.0 1.0 1.0 1:-0.81488 2:1.3737 3:-0.77388 4:-0.024161 5:-0.10804 6:-0.12183 7:-0.098017 8:-0.14018 9:-0.084563 10:-0.048559 
-1.0 -0.0 1.0 1.0 1:1.8687 2:-0.96141 3:-0.13587 4:0.078958 5:0.041766 6:-0.16381 7:0.012741 8:0.052154 9:0.060825 10:-0.088898 
-1.0 -0.0 1.0 1.0 1:3.1411 2:-1.3939 3:-0.38573 4:-0.73243 5:0.1041 6:0.25726 7:0.17267 8:0.062596 9:-0.0058684 10:0.17798 
-1.0 -0.0 1.0 1.0 1:3.1967 2:-1.5671 3:-0.12466 4:-0.58689 5:0.11946 6:0.18543 7:0.23896 8:0.046841 9:0.17954 10:-0.026989 
-1.0 -0.0 1.0 1.0 1:3.1944 2:-1.2613 3:-0.64692 4:-0.44898 5:-0.20917 6:0.27317 7:0.15184 8:0.17518 9:-0.18586 10:0.085593 
-1.0 -1.0 1.0 1.0 1:3.8682 2:-2.8084 3:-0.86178 4:-0.097885 5:0.14243 6:0.050436 7:-0.018847 8:-0.010785 9:-0.053238 10:0.084959 
-1.0 -0.0 1.0 1.0 1:2.608 2:-0.5733 3:-0.6249 4:-0.012821 5:0.19096 6:0.026963 7:0.21414 8:0.067803 9:0.020222 10:0.039836 
-1.0 -0.0 1.0 1.0 1:3.2517 2:-1.7366 3:-0.72865 4:0.41692 5:0.25794 6:-0.13294 7:0.2603 8:-0.10708 9:0.035977 10:-0.042215 
-1.0 -0.0 1.0 1.0 1:3.4284 2:-0.090219 3:-0.84882 4:-0.30291 5:0.025667 6:-0.078165 7:-0.054322 8:0.082448 9:-0.0060005 10:0.0033836 
-1.0 -0.0 1.0 1.0 1:2.3402 2:-2.4295 3:-0.43209 4:0.031219 5:-0.072799 6:-0.22606 7:-0.19276 8:0.1139 9:0.17439 10:0.21449 
-1.0 -0.0 1.0 1.0 1:2.4911 2:-0.93011 3:-0.63487 4:-0.18943 5:0.20682 6:-0.11155 7:0.14713 8:-0.086069 9:0.0055511 10:-0.12437 
-1.0 -0.0 1.0 1.0 1:1.4124 2:-0.8194 3:-0.33251 4:-0.12146 5:-0.18678 6:-0.042109 7:-0.013904 8:0.02083 9:-0.010891 10:-0.032302 
-1.0 -0.0 1.0 1.0 1:0.080492 2:-0.8046 3:0.17103 4:-0.17727 5:0.23732 6:0.097859 7:0.048533 8:0.072033 9:0.12715 10:-0.017658 
-1.0 -0.0 1.0 1.0 1:3.1787 2:-1.3635 3:-0.71911 4:0.43069 5:0.10227 6:-0.15477 7:-0.069442 8:-0.05115 9:0.01438 10:0.0083267 
-1.0 -0.0 1.0 1.0 1:2.9354 2:-1.6977 3:-0.54137 4:0.11168 5:0.18292 6:0.045202 7:0.24755 8:-0.036453 9:-0.05797 10:-0.0023791 
-1.0 -0.0 1.0 1.0 1:2.8648 2:-1.7989 3:-0.636 4:0.07079 5:0.23547 6:-0.037087 7:0.072984 8:0.17906 9:0.1424 10:0.084668 
-1.0 -0.0 1.0 1.0 1:1.8759 2:-0.094264 3:-0.45868 4:-0.12456 5:-0.32633 6:-0.01179 7:0.036823 8:0.030082 9:-0.06368 10:0.053899 
-1.0 -0.0 1.0 1.0 1:0.76455 2:-0.58073 3:0.39458 4:-0.32614 5:-0.0066085 6:0.055168 7:0.021702 8:-0.077584 9:0.029712 10:0.074914 
-1.0 -0.0 1.0 1.0 1:2.992 2:-2.2479 3:-0.91449 4:0.46791 5:0.21993 6:-0.10909 7:-0.085646 8:0.14911 9:0.0035157 10:0.075046 
-1.0 -0.0 1.0 1.0 1:2.2555 2:-1.521 3:-0.88176 4:-0.073354 5:0.50299 6:-0.031166 7:0.084272 8:-0.051731 9:0.1632 10:-0.022654 
-1.0 -0.0 1.0 1.0 1:1.3172 2:0.10021 3:-0.24359 4:-0.19051 5:0.22546 6:-0.29379 7:-0.13238 8:-0.030663 9:0.050251 10:0.023632 
-1.0 -0.0 1.0 1.0 1:2.2879 2:-0.52006 3:-0.61557 4:0.023579 5:0.22456 6:0.096193 7:-0.21425 8:-0.082025 9:0.055617 10:0.064869 
-0.0 -0.0 1.0 1.0 1:1.2879 2:-1.3807 3:-0.78115 4:-0.36302 5:0.15057 6:0.30938 7:0.1267 8:0.088766 9:-0.0258 10:0.096458 
-1.0 -0.0 1.0 1.0 1:3.2197 2:-0.983 3:-0.71285 4:0.091383 5:0.0078509 6:-0.10669 7:-0.09881 8:-0.06019 9:0.087761 10:-9.5163E-4 
-1.0 -0.0 1.0 1.0 1:2.5426 2:-1.1123 3:-0.65823 4:-0.26059 5:0.40225 6:-0.024742 7:0.065081 8:-0.15255 9:0.05641 10:0.029633 
-1.0 -0.0 1.0 1.0 1:3.5412 2:-1.3957 3:-0.61887 4:-0.12027 5:-0.069997 6:-0.066085 7:0.25511 8:0.20701 9:0.051123 10:0.19926 
-0.0 -0.0 0.8773903434169422 0.0 1:-0.090114 2:0.15879 3:-0.82051 4:0.38319 5:0.092942 6:0.10859 7:0.13154 8:-0.039598 9:0.036109 10:-0.047158 
-1.0 -0.0 1.0 1.0 1:2.2228 2:-1.5142 3:-0.45813 4:0.35895 5:-0.0044409 6:-0.1701 7:-0.1157 8:0.10849 9:0.10759 10:0.065266 
-1.0 -0.0 1.0 1.0 1:2.9546 2:-1.1899 3:-0.59437 4:-0.50703 5:0.0067407 6:0.11457 7:-0.10505 8:0.18676 9:-0.23656 10:-0.067565 
-1.0 -0.0 1.0 1.0 1:1.2303 2:-0.062384 3:-0.15987 4:-0.23999 5:0.25882 6:-0.069654 7:0.039863 8:-0.19844 9:0.041607 10:0.055987 
-1.0 -0.0 1.0 1.0 1:0.19117 2:0.81004 3:-0.29471 4:-0.1088 5:-0.11721 6:-0.13246 7:0.018847 8:0.13423 9:-1.8504E-4 10:-0.0063706 
-1.0 -0.0 1.0 1.0 1:2.4275 2:-1.0489 3:-0.57 4:-0.1834 5:0.1305 6:-0.049511 7:0.014142 8:-0.054666 9:0.051811 10:-0.016759 
-1.0 -0.0 1.0 1.0 1:2.9 2:-0.96233 3:-0.6203 4:-0.087179 5:-0.22509 6:-0.014433 7:-0.01179 8:-0.02461 9:0.20534 10:-0.078113 
-0.8144174031987356 -0.0 1.0 1.0 1:2.1573 2:-1.5381 3:-0.96032 4:0.15036 5:-0.11229 6:0.13428 7:0.079672 8:-0.12794 9:0.13368 10:0.18369 
-1.0 -0.0 1.0 1.0 1:2.0416 2:-2.5138 3:0.10227 4:0.26828 5:-0.20999 6:-0.02535 7:0.32725 8:0.15522 9:-0.0054454 10:-0.047317 
-1.0 -0.0 1.0 1.0 1:2.4593 2:-0.85916 3:-0.24066 4:0.19204 5:-0.0089347 6:0.0054983 7:0.18277 8:-0.019297 9:0.097727 10:-0.026751 
-1.0 -0.0 1.0 1.0 1:0.87121 2:0.3958 3:0.30299 4:-0.0659 5:-0.085831 6:-0.23066 7:0.13772 8:0.043881 9:0.051758 10:0.086492 
-0.0 -0.0 0.0 1.0 1:0.31438 2:-1.0425 3:-0.61303 4:0.30854 5:-0.22017 6:0.033518 7:-0.097224 8:0.11227 9:-0.011975 10:0.064552 
-1.0 -1.0 1.0 1.0 1:4.0755 2:-2.5278 3:-0.78065 4:-0.069284 5:-0.17864 6:0.24256 7:-0.099577 8:-0.070605 9:0.030188 10:0.096114 
-1.0 -0.0 1.0 1.0 1:3.262 2:-2.3264 3:-0.2701 4:-0.28607 5:0.0065821 6:0.14999 7:0.17164 8:0.10322 9:-0.11903 10:0.03973 
-1.0 -0.0 1.0 1.0 1:2.288 2:-0.40441 3:-0.81261 4:0.13016 5:0.027148 6:-0.039836 7:-0.10011 8:-0.045546 9:0.15882 10:-0.043167 
-1.0 -0.0 1.0 1.0 1:2.0231 2:-0.72405 3:-0.72329 4:0.17489 5:0.24615 6:0.10751 7:0.20674 8:0.22696 9:-0.073143 10:0.0032514 
-1.0 -0.0 1.0 1.0 1:1.9128 2:-0.31256 3:-0.12371 4:0.0093048 5:0.056807 6:0.18044 7:-0.0072694 8:0.052657 9:0.21086 10:0.060402 
-1.0 -0.0 1.0 1.0 1:1.3753 2:-0.38882 3:0.046788 4:-0.080677 5:-0.086572 6:-0.064208 7:0.024425 8:0.0015067 9:-0.071028 10:0.030505 
-1.0 -0.0 1.0 1.0 1:0.90634 2:-0.23722 3:-0.25744 4:-0.061882 5:0.045784 6:0.10307 7:-0.17772 8:-0.035369 9:-0.062014 10:-0.011446 
-1.0 -0.0 1.0 1.0 1:3.4986 2:-1.5203 3:-0.75276 4:0.22873 5:0.12041 6:-0.13185 7:0.065054 8:0.20188 9:-0.01586 10:-0.062675 
-1.0 -0.0 1.0 1.0 1:1.3978 2:-0.57542 3:-0.50233 4:0.37933 5:-0.4479 6:0.20518 7:-0.14214 8:-0.10307 9:0.075839 10:0.00341 
-1.0 -0.0 1.0 0.0 1:0.94856 2:0.56577 3:-0.21988 4:-0.35517 5:0.1383 6:-0.05678 7:-0.10087 8:0.05686 9:0.081708 10:0.029395 
-1.0 -0.6187653228947434 1.0 1.0 1:3.2037 2:-0.5793 3:-0.7171 4:-0.51412 5:0.2829 6:-0.098705 7:-0.2093 8:-0.046286 9:0.0039122 10:0.064658 
-1.0 -0.0 1.0 1.0 1:2.0836 2:-0.21557 3:-0.32625 4:0.017473 5:-0.30819 6:-0.12308 7:-0.0077452 8:0.036743 9:0.17409 10:0.19897 
-1.0 -0.0 1.0 1.0 1:1.3494 2:-0.2987 3:-0.21338 4:0.05189 5:0.2018 6:0.21673 7:-0.089691 8:0.06249 9:0.081919 10:-0.098943 
-1.0 -0.0 1.0 1.0 1:0.45837 2:-0.69693 3:-0.025747 4:0.018795 5:0.20471 6:0.082131 7:-0.065107 8:0.076579 9:0.086624 10:0.018927 
-1.0 -0.0 0.2626790040285654 1.0 1:-0.41287 2:-0.60402 3:0.10478 4:0.15747 5:-0.13394 6:0.14896 7:-0.13629 8:0.021385 9:-0.092942 10:0.1111 
-1.0 -0.0 1.0 1.0 1:1.2637 2:-0.9884 3:0.53986 4:-0.17375 5:0.092969 6:0.12889 7:0.084906 8:-0.20476 9:-0.015808 10:0.0038329 
-1.0 -0.0 1.0 1.0 1:2.6898 2:-1.7874 3:-0.49749 4:-0.17727 5:0.024584 6:0.092519 7:-0.10558 8:0.077452 9:-0.026566 10:0.07576 
-1.0 -0.0 1.0 1.0 1:2.4348 2:-0.84428 3:-1.069 4:-0.11663 5:0.031113 6:-0.1696 7:0.079646 8:0.1858 9:-0.068041 10:0.13706 
-1.0 -0.0 1.0 1.0 1:2.6441 2:-1.2645 3:-0.6428 4:0.067539 5:-0.004203 6:-0.029976 7:0.05419 8:0.13941 9:0.097568 10:0.16831 
-1.0 -0.0 1.0 1.0 1:1.6609 2:0.46595 3:-1.1241 4:-0.10246 5:-0.22014 6:0.0212 7:-0.11507 8:0.073592 9:-0.040973 10:0.081232 
-1.0 -0.0 1.0 0.0 1:0.033888 2:-0.10574 3:-0.096088 4:0.20264 5:-0.016759 6:0.14917 7:0.23849 8:-0.11287 9:-0.051467 10:0.17423 
-1.0 -0.0 1.0 1.0 1:2.074 2:-1.1683 3:0.46968 4:0.07539 5:-0.068358 6:-0.072694 7:0.1253 8:0.005604 9:-0.015675 10:-0.083769 
-1.0 -0.0 1.0 1.0 1:-0.46497 2:-0.377 3:0.32482 4:0.0022733 5:-0.063495 6:0.014565 7:-0.085356 8:0.15932 9:-0.10941 10:-0.073698 
-1.0 -0.0 1.0 1.0 1:2.167 2:-1.9001 3:-0.26907 4:-0.14798 5:0.22186 6:0.17446 7:-0.11134 8:0.13368 9:0.070843 10:-0.0070843 
-1.0 -0.0 1.0 1.0 1:1.9327 2:0.14985 3:0.31858 4:-0.35059 5:-0.16556 6:-0.0057891 7:-0.11079 8:0.092863 9:-0.036505 10:0.039968 
-1.0 -0.0 1.0 1.0 1:2.8038 2:-1.7149 3:-0.10923 4:-0.062649 5:-0.22337 6:0.048295 7:0.12715 8:-0.11092 9:3.7008E-4 10:0.25094 
-1.0 -0.0 1.0 1.0 1:1.9986 2:-1.2632 3:-0.22072 4:0.24444 5:0.11615 6:0.10003 7:-0.048057 8:0.042955 9:0.15995 10:-0.05263 
-1.0 -0.0 1.0 1.0 1:0.79873 2:-1.0292 3:-0.29048 4:0.26024 5:-0.039043 6:-0.25089 7:0.038673 8:0.073513 9:0.16418 10:0.076262 
-1.0 -0.0 1.0 1.0 1:2.537 2:-1.6087 3:-0.3964 4:0.11639 5:0.20399 6:-0.23204 7:-0.09088 8:0.030796 9:0.17325 10:-0.037959 
-1.0 -0.0 1.0 1.0 1:2.456 2:-0.41264 3:-0.53981 4:0.044013 5:-0.12181 6:-0.034893 7:-0.068834 8:0.058102 9:-0.11364 10:-0.0016918 
-1.0 -0.0 1.0 1.0 1:1.7312 2:-0.74803 3:-0.49696 4:-0.15424 5:-0.076209 6:-0.0039122 7:-0.07917 8:0.10415 9:-0.030663 10:-0.026751 
-1.0 -0.0 1.0 1.0 1:2.41 2:-0.27076 3:0.043458 4:0.46582 5:-0.10066 6:0.083796 7:-0.19077 8:-0.20917 9:-0.061301 10:-0.011102 
-1.0 -0.0 1.0 1.0 1:2.2241 2:0.050806 3:0.082236 4:0.10182 5:6.0798E-4 6:0.021332 7:0.024372 8:-0.0092784 9:0.087417 10:-0.14962 
-1.0 -0.0 1.0 1.0 1:2.2495 2:-1.4909 3:-0.24941 4:0.19796 5:-0.2337 6:0.044277 7:0.34087 8:0.12789 9:-0.0013217 10:0.044118 
-1.0 -0.0 1.0 1.0 1:3.6634 2:-2.179 3:-0.60397 4:0.43867 5:-0.054745 6:-0.023976 7:-0.047211 8:-0.10137 9:0.25683 10:-0.026698 
-1.0 -0.0 1.0 1.0 1:2.6712 2:-2.1411 3:0.16453 4:0.21285 5:-0.055644 6:0.11417 7:-0.094079 8:0.11409 9:0.0053397 10:-0.021702 
-1.0 -0.0 1.0 1.0 1:0.26019 2:0.44229 3:0.19445 4:0.15522 5:-0.29675 6:0.015015 7:0.028681 8:0.083162 9:0.14372 10:0.014274 
-1.0 -0.0 1.0 1.0 1:-0.12641 2:0.40489 3:0.063732 4:0.32895 5:0.10785 6:-0.071636 7:0.033386 8:-0.077002 9:0.12778 10:-0.048057 
-1.0 -1.0 1.0 1.0 1:5.2925 2:-2.2234 3:-0.61287 4:-0.26006 5:0.26838 6:0.031932 7:-0.090193 8:0.026011 9:-8.7232E-4 10:0.1369 
-1.0 -0.0 1.0 1.0 1:2.1476 2:-1.4229 3:-0.4622 4:-0.018425 5:-0.23537 6:0.016838 7:0.16262 8:0.10412 9:-0.061935 10:0.0089611 
-1.0 -0.0 1.0 1.0 1:1.6788 2:-0.95419 3:-0.13259 4:0.22297 5:0.2894 6:-0.27076 7:-0.016944 8:-0.1424 9:-0.06212 10:-0.098916 
-1.0 -0.0 1.0 1.0 1:2.1853 2:-0.78303 3:-1.1774 4:-0.16075 5:0.054005 6:0.15657 7:0.11192 8:0.012371 9:0.0051282 10:-0.067539 
-1.0 -0.0 1.0 1.0 1:1.8181 2:-0.43206 3:-0.69458 4:-0.12273 5:0.13418 6:-0.035157 7:-0.022865 8:-0.055564 9:-0.082976 10:0.07087 
-1.0 -0.0 1.0 1.0 1:-0.25091 2:0.16838 3:-0.091938 4:-0.08295 5:-0.10322 6:0.16439 7:-0.18197 8:-0.097357 9:-0.11348 10:-0.058366 
-1.0 -0.0 1.0 1.0 1:0.47772 2:-0.46553 3:0.3036 4:0.051916 5:-0.10616 6:0.11554 7:0.036373 8:0.071319 9:0.034285 10:-0.053978 
-1.0 -0.0 1.0 1.0 1:-0.81552 2:1.1373 3:-0.073857 4:0.17055 5:0.017129 6:0.11628 7:0.042374 8:-0.072218 9:0.065768 10:-0.0073487 
-1.0 -0.0 1.0 0.0 1:1.1423 2:-0.07309 3:0.0095427 4:0.14274 5:0.31094 6:-0.11602 7:-0.19619 8:0.099128 9:-0.072112 10:0.11665 
-1.0 -0.0 1.0 1.0 1:1.538 2:-0.81277 3:-0.3884 4:-0.0020619 5:0.35044 6:0.041845 7:-0.073592 8:0.16553 9:-2.3791E-4 10:0.045176 
-1.0 -0.0 1.0 1.0 1:-0.48937 2:0.034946 3:0.35919 4:-0.087259 5:0.21094 6:-0.076579 7:0.044013 8:-0.045017 9:0.030346 10:0.029448 
-0.8924918229344132 -0.0 1.0 0.0 1:0.29527 2:0.24293 3:-0.429 4:0.27539 5:-0.13801 6:0.15453 7:0.11562 8:4.4938E-4 9:-0.087893 10:0.20394 
-1.0 -0.0 1.0 1.0 1:0.44256 2:-0.70288 3:0.34388 4:-0.2926 5:0.11909 6:-0.17425 7:-0.13532 8:-0.11718 9:0.11835 10:-0.063257 
-1.0 -0.0 1.0 1.0 1:2.7003 2:-0.49992 3:-0.22606 4:0.0029606 5:-0.014935 6:0.24718 7:0.054348 8:-0.014697 9:-0.047158 10:0.013349 
-1.0 -0.0 1.0 1.0 1:3.4154 2:-1.5601 3:-0.41745 4:-0.088263 5:-0.11388 6:0.11784 7:0.18686 8:0.041316 9:0.081205 10:0.018557 
-1.0 -0.0 1.0 1.0 1:1.173 2:-0.3834 3:-0.17716 4:0.0048374 5:0.072139 6:0.2268 7:0.11631 8:-0.040418 9:0.17957 10:0.02913 
-1.0 -0.0 1.0 1.0 1:2.0703 2:-1.0131 3:-0.45728 4:0.17248 5:0.10782 6:0.056807 7:0.0072694 8:0.021782 9:0.11261 10:0.029104 
-1.0 -1.0 1.0 1.0 1:4.7875 2:-1.627 3:-1.3796 4:-0.030188 5:-0.036082 6:-0.051864 7:0.11565 8:0.12413 9:0.035052 10:-0.048057 
-1.0 -0.0 1.0 1.0 1:2.826 2:-0.97127 3:-0.21462 4:-0.20243 5:-0.24396 6:-0.17777 7:0.076421 8:0.053317 9:-0.080967 10:-0.13907 
-1.0 -0.0 1.0 1.0 1:2.1072 2:-0.40674 3:-0.014803 4:0.058366 5:-0.074491 6:0.22477 7:0.0010838 8:0.045704 9:-0.011842 10:-0.0022205 
-1.0 -1.0 1.0 1.0 1:4.473 2:-3.4146 3:-0.58882 4:-0.0038329 5:0.32178 6:0.039413 7:0.016548 8:0.061644 9:0.034576 10:-0.0018768 
-1.0 -0.0 1.0 1.0 1:1.6924 2:-1.747 3:-0.34531 4:0.29104 5:-0.017394 6:0.31486 7:-0.0011631 8:0.011578 9:5.2868E-5 10:0.040391 
-1.0 -0.0 1.0 1.0 1:1.9911 2:-0.40851 3:0.16947 4:-0.18459 5:-0.092413 6:0.010917 7:-0.19157 8:0.057917 9:0.1179 10:-0.022072 
-1.0 -0.0 1.0 1.0 1:3.5076 2:-0.96653 3:-0.44578 4:-0.039122 5:-0.23614 6:-0.081126 7:0.19326 8:-0.12186 9:-0.035924 10:-0.001216 
-1.0 -0.0 1.0 1.0 1:2.0216 2:-1.5684 3:0.29775 4:-0.0032514 5:-0.092598 6:0.23302 7:0.075258 8:0.11451 9:-0.087259 10:0.0089876 
-1.0 -0.0 1.0 1.0 1:1.6206 2:-2.6242 3:0.1351 4:-0.32271 5:0.19609 6:0.18105 7:0.17296 8:0.10362 9:0.10769 10:0.024769 
-1.0 -0.0 1.0 1.0 1:1.3967 2:-0.60362 3:0.37639 4:-0.16225 5:0.44531 6:0.22255 7:0.12712 8:-0.15313 9:0.031457 10:-0.067777 
-1.0 -0.1009049102467913 1.0 1.0 1:2.5789 2:-0.78871 3:-1.1889 4:-0.43 5:0.052339 6:-0.065477 7:-0.011631 8:0.10875 9:0.13368 10:0.040206 
-1.0 -0.9337735759431071 1.0 1.0 1:4.3891 2:-2.3622 3:-0.057573 4:0.22768 5:0.17986 6:0.31369 7:-0.21911 8:0.051784 9:-0.16572 10:0.024002 
-1.0 -0.0 1.0 1.0 1:-0.4162 2:-0.013719 3:0.43574 4:-0.31105 5:-0.10714 6:0.098546 7:-0.073857 8:-0.055379 9:-0.046524 10:0.0089611 
-0.0 -0.0 1.0 1.0 1:0.40066 2:-1.1773 3:-0.067962 4:-0.081443 5:0.08903 6:0.30962 7:0.018504 8:0.032038 9:0.030875 10:0.1838 
-1.0 -0.0 1.0 1.0 1:1.9955 2:-0.93952 3:-0.069072 4:0.079461 5:-0.32146 6:-0.27584 7:-0.19699 8:-0.059688 9:-0.10814 10:0.029685 
-1.0 -0.0 1.0 1.0 1:1.2416 2:-1.6172 3:-0.23243 4:0.39907 5:-0.039017 6:0.078271 7:0.19376 8:-0.0040444 9:-0.19984 10:-0.12424 
-1.0 -0.0 1.0 1.0 1:3.3504 2:-1.1308 3:-0.89025 4:-0.07235 5:-0.16492 6:0.01327 7:-0.12916 8:0.043061 9:-0.07613 10:0.14856 
-1.0 -0.0 1.0 1.0 1:1.6279 2:-1.1259 3:0.37275 4:-0.22651 5:0.10238 6:-0.12844 7:-0.10603 8:-0.1585 9:-0.13434 10:0.074914 
-1.0 -0.0 1.0 1.0 1:1.5839 2:-0.86434 3:0.033651 4:-0.037246 5:-0.22046 6:0.11388 7:0.023209 8:-0.086201 9:0.15414 10:0.096881 
-1.0 -0.0 1.0 1.0 1:2.5395 2:-2.2739 3:-0.25189 4:0.19151 5:0.10999 6:0.09355 7:0.25554 8:0.017209 9:0.11364 10:0.081708 
-0.0 -0.0 1.0 1.0 1:2.1789 2:-0.77692 3:-1.277 4:-0.12329 5:0.14483 6:0.32514 7:-0.11499 8:-0.02921 9:0.25213 10:0.034946 
-1.0 -0.0 1.0 1.0 1:1.8887 2:-0.74491 3:-0.032567 4:0.17444 5:0.03632 6:0.026196 7:0.028945 8:-0.034391 9:0.14388 10:-0.088633 
-1.0 -0.0 1.0 1.0 1:2.9809 2:-1.3369 3:-0.51879 4:0.1793 5:0.041634 6:-0.0042559 7:0.043986 8:-0.096828 9:-0.015226 10:-0.0058948 
-1.0 -0.0 1.0 1.0 1:3.6307 2:-1.7564 3:-0.5646 4:-0.29376 5:-0.042136 6:-0.16453 7:-0.10608 8:-0.040285 9:0.050965 10:0.024293 
-1.0 -0.0 1.0 1.0 1:2.2445 2:-1.1681 3:-0.3185 4:0.17658 5:0.26979 6:-0.20407 7:0.076421 8:0.032302 9:0.11837 10:0.091753 
-1.0 -0.0 1.0 1.0 1:1.8603 2:-1.2614 3:-0.19043 4:0.16201 5:0.086281 6:0.23595 7:-0.11113 8:0.16479 9:-0.016706 10:-0.058578 
-1.0 -1.0 0.3519868367597053 1.0 1:4.9149 2:-1.1259 3:-1.4416 4:-0.049194 5:0.16056 6:-0.10568 7:0.030214 8:0.25887 9:0.072826 10:-0.066799 
-1.0 -0.0 1.0 1.0 1:2.5749 2:-1.4587 3:0.085303 4:0.020539 5:0.046683 6:0.071398 7:0.1097 8:-0.061459 9:0.060534 10:0.22437 
-1.0 -0.0 1.0 1.0 1:3.53 2:-2.1729 3:-0.25826 4:0.23172 5:0.22659 6:0.1036 7:0.079937 8:-0.10735 9:0.14348 10:0.0295 
-1.0 -0.0 1.0 1.0 1:0.36262 2:0.50196 3:0.55689 4:0.0020619 5:-0.15416 6:0.052419 7:0.2235 8:0.05752 9:0.055829 10:-0.037298 
-1.0 -0.6117277549740185 1.0 1.0 1:4.4529 2:-2.2533 3:-0.72942 4:0.26894 5:-0.095929 6:0.015623 7:-0.017817 8:-0.21501 9:0.036003 10:0.28665 
-1.0 -0.0 1.0 1.0 1:2.5612 2:-1.7209 3:0.025852 4:0.22699 5:-0.061459 6:0.03632 7:-0.0026698 8:-0.08636 9:-0.21113 10:-0.037219 
-1.0 -0.0 1.0 1.0 1:3.3048 2:-2.4164 3:-0.4544 4:-0.054877 5:-0.12813 6:0.24639 7:-0.13098 8:-0.065953 9:0.035818 10:0.0090669 
-1.0 -0.0 1.0 1.0 1:1.895 2:-0.5949 3:0.064684 4:0.19804 5:-0.013164 6:0.0064499 7:0.13735 8:-0.013931 9:0.015173 10:0.18914 
-1.0 -0.0 1.0 1.0 1:3.2487 2:-1.555 3:0.37357 4:0.15408 5:-0.15522 6:0.26075 7:0.07798 8:0.0043352 9:-0.022654 10:-0.028469 
-1.0 -0.0 1.0 1.0 1:3.092 2:-0.96106 3:-0.018187 4:-0.063019 5:-0.013508 6:0.14533 7:0.090193 8:0.093444 9:0.12265 10:0.10127 
-1.0 -0.0 1.0 1.0 1:2.7154 2:-2.4004 3:-0.034523 4:0.38744 5:0.18144 6:-0.096564 7:0.044118 8:0.12961 9:0.040814 10:-0.057996 
-1.0 -0.0 1.0 1.0 1:2.5058 2:-1.8354 3:-0.70708 4:0.52625 5:0.20204 6:0.33016 7:0.014116 8:0.10423 9:0.072191 10:0.040338 
-1.0 -0.0 1.0 1.0 1:0.90402 2:-0.93119 3:0.2157 4:-0.33236 5:-0.29786 6:0.14467 7:0.03328 8:-0.071451 9:0.034549 10:-0.048533 
-1.0 -0.0 1.0 1.0 1:4.4451 2:-1.7568 3:-0.3033 4:-0.13349 5:-0.46281 6:-0.051044 7:-0.043881 8:-0.10719 9:-0.057573 10:-0.094079 
-1.0 -0.0 1.0 1.0 1:2.5729 2:-0.28261 3:0.05945 4:0.12606 5:0.301 6:0.012345 7:0.029633 8:0.078906 9:-0.086783 10:0.25112 
-1.0 -0.0 1.0 1.0 1:1.8961 2:-0.58797 3:-0.90584 4:0.32643 5:-0.0088554 6:0.078033 7:0.11565 8:-0.045017 9:0.10764 10:0.065715 
-1.0 -0.0 1.0 1.0 1:2.9482 2:-2.0647 3:0.35422 4:-0.17238 5:-0.22509 6:-0.11248 7:-0.069442 8:0.12934 9:0.071134 10:0.054586 
-0.0 -0.0 1.0 1.0 1:0.90132 2:-0.68813 3:-0.70531 4:0.051467 5:-0.13933 6:0.10798 7:-0.075681 8:-0.12858 9:0.0093841 10:0.0086439 
-1.0 -0.0 1.0 1.0 1:2.1486 2:-0.76762 3:-0.53233 4:0.18139 5:0.1613 6:-0.10716 7:-0.079804 8:0.26376 9:0.16915 10:-0.021729 
-1.0 -0.0 1.0 1.0 1:2.2511 2:-1.7658 3:-0.49654 4:0.074306 5:-0.060217 6:-0.0041237 7:0.049405 8:-0.0034364 9:0.16439 10:0.11229 
-1.0 -0.0 1.0 1.0 1:2.1975 2:-1.3449 3:-0.44584 4:-0.37423 5:-0.12741 6:0.031509 7:0.013323 8:0.072905 9:-0.13428 10:0.080624 
-1.0 -0.0 1.0 1.0 1:1.7485 2:0.17824 3:-0.31832 4:-0.051123 5:-0.040999 6:0.10875 7:-0.069654 8:0.098705 9:0.0042559 10:0.075575 
-1.0 -0.0 1.0 1.0 1:2.6023 2:-2.3391 3:-0.14103 4:-0.078694 5:-0.20663 6:0.16349 7:-0.065583 8:-0.010494 9:0.10669 10:0.095691 
-0.6086864242903056 -0.0 1.0 1.0 1:1.3196 2:-1.6709 3:-0.50582 4:0.044198 5:0.29905 6:0.083479 7:0.19868 8:0.037034 9:0.010019 10:0.1839 
-1.0 -0.0 1.0 1.0 1:2.3089 2:-1.7974 3:0.36672 4:-0.29358 5:-0.1498 6:0.13294 7:-0.0080624 8:0.015517 9:-0.0012953 10:-0.11063 
-1.0 -0.0 1.0 0.0 1:1.2316 2:0.12699 3:-0.74454 4:0.33095 5:0.12813 6:0.088237 7:-0.0071108 8:0.032012 9:0.11813 10:-0.016733 
-1.0 -0.0 1.0 1.0 1:1.5393 2:-0.983 3:-0.11774 4:0.0066878 5:-0.025694 6:-0.030875 7:-0.13669 8:-0.14935 9:-0.006212 10:-0.094687 
-1.0 -0.0 1.0 1.0 1:3.1105 2:-2.8001 3:0.5073 4:0.13254 5:-0.11872 6:-0.072852 7:-0.080148 8:-0.18467 9:-0.031747 10:-0.048084 
-0.786735749123223 -0.0 1.0 1.0 1:1.4047 2:-0.85461 3:-0.97528 4:0.33495 5:0.37576 6:-0.1023 7:0.079276 8:0.12416 9:0.16934 10:-0.0067671 
-1.0 -0.0 1.0 1.0 1:1.5525 2:0.031985 3:-0.76698 4:-0.66624 5:-0.15366 6:0.28834 7:0.048665 8:-0.10727 9:-0.13413 10:-0.027201 
-1.0 -0.0 1.0 1.0 1:1.6533 2:-0.21147 3:0.25406 4:0.1345 5:-0.16413 6:-0.071716 7:-0.03907 8:-0.040841 9:-0.021544 10:0.19379 
-1.0 -0.0 1.0 1.0 1:2.7159 2:-0.79329 3:-0.022099 4:0.059159 5:-0.013508 6:0.11887 7:-0.049194 8:-0.086968 9:-0.010997 10:0.0083796 
-1.0 -0.0 1.0 1.0 1:1.4167 2:-0.37222 3:-0.12514 4:0.40566 5:0.019429 6:0.066323 7:0.099498 8:-0.17383 9:0.050595 10:-0.0066878 
-1.0 -0.0 1.0 1.0 1:0.64081 2:-1.0546 3:-0.31118 4:0.12223 5:-0.16505 6:-0.18033 7:0.027544 8:0.13859 9:-0.047634 10:0.065451 
-1.0 -0.0 1.0 1.0 1:1.5819 2:-0.55956 3:-0.54631 4:0.44536 5:0.085356 6:-0.091171 7:0.13725 8:0.24335 9:0.14901 10:0.10137 
-1.0 -0.0 1.0 1.0 1:0.44306 2:0.0083267 3:-0.22503 4:0.098255 5:8.9876E-4 6:0.083347 7:0.19379 8:-0.11676 9:0.14959 10:0.004811 
-1.0 -0.0 1.0 1.0 1:0.93701 2:-0.18657 3:-0.25279 4:0.1198 5:0.18615 6:-0.091647 7:0.13175 8:0.048057 9:0.046101 10:-0.057653 
-1.0 -0.0 1.0 1.0 1:2.0637 2:-1.9052 3:0.043775 4:-0.03069 5:-0.0046788 6:-0.087153 7:0.018292 8:0.14092 9:0.035818 10:-0.021623 
-1.0 -0.0 1.0 0.6354732545612207 1:1.034 2:0.93973 3:-0.62646 4:-0.39929 5:-0.27074 6:-0.020169 7:-0.17132 8:-0.065345 9:-0.036294 10:0.065583 
-1.0 -0.0 1.0 1.0 1:1.4291 2:-1.2128 3:-0.20399 4:0.011023 5:0.032593 6:0.11438 7:0.15131 8:-0.060217 9:0.010283 10:-0.027439 
-1.0 -0.0 1.0 1.0 1:1.3202 2:-1.6584 3:0.21007 4:0.16442 5:-0.082897 6:0.07198 7:0.11533 8:0.10896 9:0.11253 10:0.013508 
-1.0 -0.0 1.0 1.0 1:2.574 2:-1.0498 3:-0.37045 4:0.017235 5:0.2489 6:-0.13688 7:-0.068121 8:-0.028945 9:0.11803 10:-0.046709 
-1.0 -1.0 1.0 1.0 1:4.0546 2:-1.899 3:-0.73738 4:0.01631 5:0.041845 6:0.078113 7:0.23423 8:0.027042 9:0.010098 10:-0.072905 
-1.0 -0.0 1.0 1.0 1:1.3655 2:-0.91327 3:-0.26796 4:-0.62643 5:-0.03936 6:0.22686 7:0.085303 8:0.088448 9:-0.0097806 10:0.08636 
-1.0 -0.0 1.0 1.0 1:3.424 2:-2.35 3:-0.28419 4:-0.2958 5:0.042982 6:0.14063 7:0.039334 8:0.088871 9:-0.11343 10:0.060428 
-1.0 -0.17149587195062072 1.0 1.0 1:2.8322 2:0.38245 3:-1.2135 4:-0.064552 5:0.011314 6:-0.039836 7:-0.16579 8:-0.22424 9:0.12868 10:0.076051 
-1.0 -0.0 1.0 1.0 1:1.0517 2:0.23783 3:-0.82025 4:-0.23685 5:-0.37441 6:-0.15369 7:-0.013032 8:0.14996 9:0.015252 10:-0.011763 
-1.0 -0.0 1.0 1.0 1:0.7328 2:-0.29302 3:-0.1798 4:-0.23521 5:0.055089 6:0.045255 7:0.14015 8:0.0 9:0.039889 10:0.023711 
-1.0 -0.0 1.0 1.0 1:1.8521 2:0.088052 3:-0.58253 4:0.017632 5:0.25321 6:-0.34853 7:-0.048903 8:-0.11684 9:0.1027 10:0.039572 
-1.0 -0.0 1.0 1.0 1:2.479 2:-0.42181 3:-0.90449 4:-0.18932 5:0.24872 6:-0.091541 7:0.090827 8:-0.045017 9:-0.062094 10:-0.10383 
-1.0 -0.0 1.0 0.0 1:0.043933 2:0.2964 3:-0.40796 4:-0.20547 5:0.49944 6:0.025985 7:-0.11063 8:-0.040418 9:0.045995 10:0.12152 
-1.0 -0.0 1.0 1.0 1:2.2609 2:-1.7672 3:0.24602 4:0.435 5:-0.11026 6:-0.091277 7:0.014195 8:0.19178 9:0.23103 10:0.10677 
-1.0 -0.0 1.0 1.0 1:2.3922 2:-0.68094 3:0.096352 4:0.011631 5:0.22131 6:0.21536 7:-0.034602 8:-0.062067 9:0.21964 10:-0.038329 
-1.0 -0.0 1.0 1.0 1:1.9284 2:-1.5703 3:0.84515 4:0.084827 5:-0.097542 6:-0.17473 7:0.12548 8:-0.041026 9:0.060455 10:0.10127 
-1.0 -0.0 1.0 1.0 1:0.16717 2:0.88644 3:-0.7682 4:-0.057573 5:-0.15229 6:-0.091673 7:0.069812 8:-0.035342 9:-0.010944 10:0.013614 
-1.0 -0.0 1.0 1.0 1:3.0739 2:-1.661 3:-0.47634 4:0.15723 5:0.22236 6:0.20137 7:0.12117 8:0.14967 9:-0.036479 10:-0.13013 
-1.0 -0.0 1.0 1.0 1:0.9562 2:-0.074306 3:0.13606 4:0.23614 5:0.015464 6:0.025456 7:0.13587 8:0.010336 9:-0.032012 10:0.070024 
-0.0 -0.0 1.0 0.0 1:0.34634 2:-0.056463 3:-0.56299 4:-0.24237 5:0.17904 6:0.030637 7:0.0069786 8:-0.056278 9:0.15845 10:-0.073857 
-1.0 -0.0 1.0 0.8802321170382729 1:0.5843 2:-0.026672 3:0.28543 4:0.40886 5:-0.23957 6:-0.12125 7:-0.093894 8:0.26384 9:0.19027 10:0.12752 
-1.0 -0.0 1.0 1.0 1:1.6204 2:-1.2224 3:-0.027597 4:0.40082 5:-0.29334 6:0.17909 7:0.062834 8:-0.077478 9:-0.14555 10:0.074597 
-1.0 -0.0 1.0 1.0 1:2.8997 2:-1.7889 3:-0.15802 4:-0.049775 5:0.011129 6:-0.035977 7:0.04848 8:0.093233 9:-0.011129 10:0.054956 
-0.0 -0.0 1.0 1.0 1:0.41517 2:-0.25009 3:-0.37563 4:-0.15324 5:-0.066059 6:0.056146 7:0.20785 8:-0.035633 9:0.060402 10:-0.0023791 
-1.0 -0.0 1.0 1.0 1:3.1842 2:-2.8616 3:-0.61692 4:0.29971 5:-0.09133 6:0.030558 7:0.074068 8:-0.066957 9:0.16334 10:0.034153 
-1.0 -0.0 1.0 1.0 1:2.3739 2:-1.8391 3:-0.96122 4:0.027544 5:0.10328 6:0.21478 7:0.094211 8:0.014644 9:0.075416 10:0.094819 
-1.0 -0.0 1.0 1.0 1:1.3619 2:-0.38242 3:-0.22059 4:-0.023923 5:0.0044674 6:0.040523 7:-0.15252 8:0.041422 9:0.11697 10:0.096088 
-1.0 -0.0 1.0 1.0 1:2.7598 2:0.55464 3:-0.27314 4:-0.11163 5:0.015966 6:0.004203 7:0.13569 8:-0.087391 9:-0.0014539 10:-0.10486 
-1.0 -0.0 1.0 1.0 1:2.6804 2:-1.0992 3:-0.4641 4:-0.23661 5:-0.18459 6:-0.11832 7:-0.043748 8:0.10309 9:-8.7232E-4 10:0.096352 
-1.0 -0.0 1.0 0.6376152655591827 1:1.0692 2:-0.091092 3:0.11052 4:0.36553 5:0.28884 6:0.12873 7:0.053925 8:-0.014803 9:0.055855 10:0.064843 
-1.0 -0.0 1.0 1.0 1:0.75686 2:-0.80008 3:-0.3013 4:0.24584 5:0.11798 6:0.071689 7:0.29524 8:-0.13339 9:-0.078218 10:0.070658 
-0.21955738713691386 -0.0 1.0 1.0 1:1.3021 2:-0.22025 3:-1.0524 4:0.18964 5:0.071345 6:-0.051784 7:0.17616 8:0.2 9:-0.08369 10:0.013085 
-1.0 -0.0 1.0 1.0 1:1.1615 2:-0.60587 3:-0.30505 4:0.15937 5:-0.036717 6:0.036056 7:-0.038409 8:0.13976 9:0.081417 10:0.054586 
-1.0 -0.0 1.0 1.0 1:2.4732 2:-1.5131 3:-0.27983 4:-0.2124 5:0.012583 6:0.063521 7:-0.16032 8:0.12464 9:0.14917 10:-0.041951 
-1.0 -0.0 1.0 1.0 1:1.8275 2:-1.1625 3:-0.30999 4:0.067962 5:0.17031 6:-0.14245 7:-0.011472 8:0.099154 9:0.077293 10:-0.16558 
-1.0 -0.0 1.0 1.0 1:2.028 2:-0.16669 3:-0.41798 4:-0.49241 5:-0.15966 6:0.1945 7:0.089215 8:-0.056675 9:0.12231 10:-0.012371 
-1.0 -0.0 1.0 1.0 1:1.1494 2:-0.08073 3:-0.47999 4:-0.12908 5:-0.20093 6:0.23621 7:0.0075601 8:-0.050701 9:-0.12918 10:0.013614 
-1.0 -0.0 1.0 1.0 1:1.5071 2:-0.63027 3:0.29477 4:-0.094422 5:-0.041872 6:-0.1267 7:0.015041 8:0.039704 9:0.090325 10:0.073804 
-1.0 -0.0 1.0 1.0 1:2.2173 2:-0.98528 3:-0.30214 4:0.028126 5:0.20674 6:0.30899 7:0.13095 8:0.097965 9:0.040153 10:-0.03299 
-1.0 -0.0 1.0 1.0 1:1.8535 2:-0.01742 3:-0.76053 4:-0.3636 5:0.098282 6:0.2056 7:-0.012821 8:0.021121 9:0.024927 10:-0.063257 
-1.0 -0.0 1.0 1.0 1:1.7017 2:-0.35451 3:-0.25237 4:0.18126 5:-0.10711 6:0.11396 7:-0.11546 8:-0.050542 9:-0.08258 10:0.25057 
-1.0 -0.0 1.0 0.0 1:0.30431 2:-0.4185 3:-0.10626 4:0.35033 5:0.26815 6:0.11375 7:-0.15266 8:0.062173 9:-0.0057362 10:0.075443 
-1.0 -0.0 1.0 1.0 1:2.7621 2:0.14256 3:-1.0273 4:-0.17431 5:-0.19966 6:-0.13849 7:0.06368 8:0.18578 9:0.035369 10:0.1014 
-1.0 -0.0 1.0 1.0 1:2.4538 2:-1.1602 3:-0.41089 4:0.11018 5:0.34568 6:-0.019006 7:0.14227 8:0.016627 9:0.062358 10:0.13817 
-1.0 -0.0 1.0 1.0 1:3.1106 2:-1.0018 3:-0.79506 4:-0.1815 5:-0.30584 6:-0.28065 7:-0.08903 8:0.12532 9:0.015649 10:0.0045995 
-1.0 -0.0 1.0 1.0 1:3.1912 2:-1.4813 3:-0.14988 4:-0.4927 5:-0.13706 6:-0.090378 7:0.055274 8:-0.18253 9:0.021808 10:0.071716 
-0.0 -0.0 1.0 1.0 1:1.5191 2:-0.90735 3:-0.50441 4:-0.20497 5:0.15506 6:0.55556 7:0.14206 8:0.0065028 9:0.04626 10:0.11216 
-1.0 -0.0 1.0 1.0 1:3.5135 2:-1.4806 3:-0.38636 4:-0.2305 5:0.19606 6:0.10338 7:0.038805 8:0.1705 9:0.18462 10:0.014036 
-1.0 -0.0 1.0 1.0 1:1.0489 2:-0.89262 3:-0.16934 4:-0.082368 5:-0.32892 6:0.025773 7:-0.22326 8:0.067883 9:-0.041924 10:-0.068173 
-1.0 -0.0 1.0 1.0 1:3.4409 2:-1.9344 3:-0.48834 4:0.3553 5:0.20056 6:0.0093841 7:-0.022998 8:-0.13851 9:0.035369 10:0.096088 
-1.0 -0.0 1.0 1.0 1:1.2918 2:-0.53545 3:-0.50095 4:0.13582 5:-0.023791 6:0.0074015 7:0.1526 8:0.022337 9:0.07732 10:-0.010706 
-1.0 -0.0 1.0 1.0 1:1.6052 2:-0.91948 3:0.40005 4:-0.020143 5:0.18937 6:0.17531 7:-0.099974 8:-0.16849 9:0.02543 10:-0.052577 
-1.0 -0.0 1.0 1.0 1:2.0468 2:-0.83555 3:-0.4904 4:0.079302 5:0.25311 6:-0.075707 7:0.28073 8:0.083584 9:0.2936 10:0.26164 
-1.0 -0.0 1.0 1.0 1:1.9364 2:-0.78784 3:-0.21142 4:0.057256 5:-0.12799 6:-0.076209 7:0.15255 8:0.006212 9:-0.1954 10:0.055247 
-1.0 -0.0 1.0 1.0 1:2.433 2:-0.79553 3:-0.3475 4:-0.25422 5:-0.07124 6:0.0063177 7:0.044462 8:0.05797 9:-0.036479 10:0.21028 
-1.0 -0.0 1.0 1.0 1:3.4514 2:-1.2367 3:-0.72194 4:0.059794 5:0.26934 6:-0.091488 7:-0.15057 8:0.22202 9:0.16971 10:0.045255 
-1.0 -0.0 1.0 1.0 1:2.928 2:-1.7923 3:0.43505 4:-0.22411 5:-0.07576 6:-0.07576 7:-0.27967 8:0.12982 9:-0.17481 10:0.024954 
-1.0 -0.0 1.0 1.0 1:0.44298 2:-1.2519 3:-0.084007 4:0.10473 5:0.5719 6:0.10354 7:-0.16212 8:-0.091303 9:0.10259 10:-0.0064235 
-1.0 -0.6731937599483795 1.0 1.0 1:1.8662 2:-2.1072 3:-0.84158 4:-0.32046 5:0.099656 6:-0.064816 7:0.20457 8:0.22337 9:0.23183 10:0.0098863 
-1.0 -0.0 1.0 1.0 1:1.7377 2:0.21874 3:-0.36149 4:-0.044462 5:-0.15178 6:-0.12741 7:-0.0848 8:-0.034602 9:-7.9302E-5 10:-0.0010838 
-1.0 -0.0 1.0 1.0 1:2.9878 2:-1.5284 3:-0.18068 4:-0.21938 5:0.16455 6:0.11383 7:-0.014063 8:-0.061274 9:-0.037008 10:-0.063521 
-1.0 -0.0 1.0 1.0 1:1.2751 2:-1.4034 3:-0.38927 4:0.18951 5:0.0090933 6:0.0092255 7:-0.018583 8:0.041316 9:0.24055 10:0.085435 
-1.0 -0.0 1.0 1.0 1:3.4369 2:-1.4395 3:-0.53925 4:0.064896 5:-0.024504 6:0.23286 7:0.19381 8:0.09429 9:-0.076791 10:-0.026196 
-0.0 -0.0 1.0 1.0 1:0.97076 2:-1.7602 3:-0.55541 4:0.41771 5:-0.12662 6:0.33503 7:0.19307 8:0.07843 9:0.077135 10:0.13275 
-1.0 -0.0 0.0 0.0 1:-0.014354 2:-0.063891 3:-0.23466 4:0.28766 5:-0.035131 6:-0.15784 7:-0.15065 8:0.19767 9:0.18559 10:0.076976 
-1.0 -0.0 1.0 1.0 1:2.2524 2:-1.8799 3:-0.35237 4:0.067195 5:-0.096405 6:-0.19411 7:0.06434 8:0.18628 9:0.066931 10:0.019138 
-1.0 -0.0 1.0 1.0 1:2.3977 2:-1.4288 3:-0.2429 4:-0.19672 5:-0.32831 6:0.0066349 7:-0.054507 8:0.027676 9:-0.17986 10:-0.093603 
-1.0 -1.0 1.0 1.0 1:5.7179 2:-2.6423 3:-1.1316 4:-0.095506 5:-0.01816 6:0.19897 7:-0.060375 8:0.26215 9:0.0040444 10:0.12625 
-1.0 -0.0 1.0 1.0 1:2.7401 2:-1.6677 3:-0.8355 4:-0.28451 5:0.063257 6:0.34592 7:0.16225 8:0.082897 9:0.17957 10:0.080888 
-1.0 -0.0 1.0 1.0 1:2.7366 2:-1.598 3:-0.4258 4:-0.067354 5:-0.025059 6:0.027544 7:-0.10254 8:-9.7806E-4 9:-0.10478 10:0.089638 
-1.0 -0.0 1.0 1.0 1:1.2608 2:-0.45607 3:-0.41874 4:0.253 5:-0.27272 6:-0.19614 7:0.089083 8:-0.10235 9:-0.093999 10:0.033571 
-1.0 -0.0 1.0 1.0 1:2.3367 2:-1.8354 3:-0.68961 4:0.019165 5:0.0070579 6:0.33087 7:0.16231 8:0.17082 9:-0.051679 10:-0.0011895 
-1.0 -0.0 1.0 1.0 1:3.4832 2:-1.9078 3:-0.80719 4:0.084906 5:0.037695 6:-0.014671 7:0.15646 8:-0.0095427 9:-0.067407 10:0.12168 
-1.0 -0.0 1.0 1.0 1:1.614 2:-1.3154 3:-0.1046 4:-0.4493 5:0.32559 6:-0.076685 7:0.002617 8:-0.0093841 9:-0.0064499 10:0.11602 
-1.0 -0.0 1.0 1.0 1:1.2128 2:-0.67904 3:-0.5336 4:0.083849 5:0.037695 6:-0.13841 7:0.033043 8:-0.061168 9:-0.026698 10:-0.0020883 
-1.0 -0.0 1.0 1.0 1:3.2615 2:-1.1554 3:-0.97219 4:-0.033571 5:-0.045149 6:-0.27238 7:-0.095321 8:-0.036003 9:0.025139 10:0.0033571 
-1.0 -0.0 1.0 1.0 1:1.924 2:-0.15805 3:-0.49791 4:0.23822 5:0.098388 6:-0.21018 7:-0.11499 8:0.1761 9:0.07161 10:0.065636 
-1.0 -0.0 1.0 1.0 1:-0.1894 2:0.95062 3:-0.34018 4:-0.44134 5:0.052022 6:-0.035237 7:-0.21784 8:8.9876E-4 9:-0.11353 10:0.0093048 
-1.0 -0.0 1.0 1.0 1:2.1804 2:-1.6477 3:0.06516 4:0.0028813 5:0.14526 6:0.07235 7:0.012503 8:-0.11734 9:0.025271 10:0.039175 
-1.0 -0.0 1.0 0.0 1:1.2025 2:0.57568 3:-0.50949 4:0.0047317 5:-0.18655 6:-0.072667 7:-0.0094105 8:0.030373 9:0.070738 10:0.054348 
-1.0 -0.0 1.0 1.0 1:2.1446 2:-2.1608 3:-0.0066614 4:0.20904 5:0.16038 6:0.12413 7:0.039122 8:0.046656 9:0.0097013 10:-0.048189 
-1.0 -0.0 1.0 1.0 1:1.5836 2:-0.62736 3:0.26754 4:0.059424 5:-0.17375 6:-0.081179 7:-0.02387 8:-0.066587 9:-0.011367 10:-0.19215 
-1.0 -0.0 1.0 1.0 1:2.0074 2:-0.58948 3:-0.63177 4:-0.20338 5:-0.19429 6:-0.26595 7:0.023949 8:0.0014803 9:-0.097832 10:-0.011102 
-1.0 -0.0 1.0 1.0 1:0.59387 2:-0.69381 3:0.3018 4:-0.23111 5:0.13489 6:-0.13809 7:-0.1005 8:7.9302E-4 9:-0.016098 10:-0.01208 
-1.0 -1.0 1.0 1.0 1:4.2755 2:-2.2165 3:-0.58641 4:0.087708 5:0.015649 6:0.077029 7:0.03788 8:0.15932 9:0.07079 10:0.013111 
-1.0 -0.0 1.0 1.0 1:1.0465 2:-1.0324 3:0.090378 4:0.088898 5:-0.082051 6:0.37071 7:0.0017182 8:0.12371 9:0.019323 10:-0.043246 
-1.0 -0.0 1.0 1.0 1:4.4289 2:-1.9042 3:-0.21893 4:-0.19955 5:-0.11771 6:0.010045 7:-0.070024 8:-0.21494 9:-0.19072 10:-0.032752 
-0.0 -0.0 1.0 0.0 1:0.40608 2:0.47042 3:-0.90441 4:-0.27111 5:-0.090616 6:0.08369 7:0.090589 8:0.057758 9:0.014856 10:-0.0060798 
-1.0 -0.0 1.0 1.0 1:2.481 2:-0.9516 3:-0.53452 4:-0.22009 5:0.17473 6:0.2563 7:-0.1474 8:-0.061671 9:0.029236 10:0.10058 
-1.0 -0.0 1.0 1.0 1:1.2976 2:-1.7481 3:-0.51153 4:0.20537 5:0.39099 6:0.17449 7:-0.0079831 8:0.19059 9:-0.10862 10:-0.00682 
-1.0 -0.0 1.0 1.0 1:2.4076 2:-1.5287 3:-0.067063 4:-0.42926 5:0.37053 6:0.3189 7:0.027544 8:0.072033 9:0.050357 10:0.10624 
-1.0 -0.0 1.0 1.0 1:1.9104 2:-0.347 3:-0.063759 4:-0.21174 5:0.075971 6:-0.013825 7:0.14824 8:0.20248 9:0.020989 10:0.14845 
-1.0 -0.0 1.0 1.0 1:1.0456 2:-1.1291 3:0.56125 4:0.01972 5:0.077505 6:0.055882 7:-0.16712 8:0.042083 9:-0.06212 10:0.10645 
-1.0 -0.0 1.0 1.0 1:2.5143 2:-1.9569 3:-0.4825 4:0.31832 5:0.19894 6:0.024637 7:0.19125 8:0.11213 9:0.034206 10:-0.0024848 
-1.0 -0.0 1.0 1.0 1:2.2358 2:-0.99611 3:0.31441 4:-0.024795 5:0.19524 6:0.1277 7:-0.033756 8:0.13391 9:-0.026646 10:0.029262 
-1.0 -0.0 1.0 0.6061944987967216 1:-0.26265 2:0.14319 3:-0.38549 4:0.11824 5:-0.15496 6:-0.045863 7:-0.002987 8:0.13389 9:-0.016495 10:-0.012688 
-1.0 -0.0 1.0 1.0 1:2.1353 2:-0.8834 3:0.4733 4:0.12998 5:-0.013693 6:-0.0152 7:0.017526 8:-0.030849 9:0.09622 10:0.069865 
-1.0 -0.0 1.0 1.0 1:2.2722 2:-1.5253 3:-0.21531 4:-0.12287 5:0.24642 6:0.15942 7:0.35757 8:-0.019905 9:0.024637 10:-0.058023 
-1.0 -0.0 1.0 1.0 1:2.4477 2:-0.86109 3:-0.073592 4:0.40259 5:-0.010336 6:0.020883 7:-0.09511 8:-0.071663 9:-0.093365 10:-0.0015332 
-1.0 -0.0 1.0 1.0 1:2.7046 2:-1.2252 3:-0.14718 4:0.059662 5:0.044674 6:0.0082739 7:0.027544 8:0.12868 9:-0.14541 10:0.028681 
-1.0 -0.520235913316262 1.0 1.0 1:-0.22554 2:1.3612 3:-0.82913 4:-0.013006 5:0.18245 6:0.054163 7:0.067592 8:0.055591 9:-0.084219 10:-0.0079566 
-1.0 -0.0 1.0 1.0 1:0.58499 2:-0.91216 3:0.39437 4:-0.04055 5:0.17137 6:0.16783 7:-0.09088 8:-0.026408 9:-0.073434 10:0.034153 
-1.0 -0.0 1.0 1.0 1:0.17254 2:-0.24785 3:0.48617 4:0.10679 5:0.14613 6:-0.088792 7:-0.049775 8:0.010362 9:-0.23717 10:0.10122 
-1.0 -0.0 1.0 1.0 1:2.5812 2:-1.1168 3:-0.7765 4:0.32215 5:-0.047158 6:-0.097674 7:-0.018557 8:-0.04996 9:-0.092651 10:0.034496 
-1.0 -0.0 1.0 1.0 1:2.6148 2:-1.3425 3:-0.72485 4:0.11858 5:0.43682 6:0.041316 7:-0.01327 8:-0.045625 9:0.060957 10:0.075549 
-1.0 -0.0 1.0 1.0 1:2.0507 2:-1.3874 3:0.12564 4:0.23799 5:0.10933 6:0.26402 7:0.060613 8:-0.024531 9:0.16476 10:-0.016442 
-1.0 -0.0 1.0 1.0 1:2.0472 2:-1.3242 3:-0.95636 4:-0.046286 5:-0.076976 6:-0.16905 7:0.069204 8:-0.14771 9:-0.036082 10:0.12228 
-1.0 -0.0 1.0 1.0 1:1.4773 2:-1.1425 3:-0.2604 4:-0.13947 5:0.21065 6:0.18448 7:-0.0085911 8:0.18015 9:0.14782 10:0.013455 
-1.0 -0.8166745205814085 1.0 1.0 1:-1.7322 2:0.48982 3:0.2005 4:0.11919 5:-0.032302 6:0.061221 7:-0.095586 8:-0.08636 9:0.040629 10:-0.083426 
-1.0 -1.0 1.0 1.0 1:4.2535 2:-2.7042 3:-0.21491 4:-0.080307 5:-0.017605 6:0.15771 7:0.042585 8:0.020116 9:0.0038858 10:-0.048454 
-1.0 -0.0 1.0 1.0 1:1.8152 2:-0.54647 3:-0.776 4:-0.18089 5:-0.28229 6:0.13407 7:-0.24407 8:0.16019 9:0.2875 10:0.055274 
-1.0 -1.0 1.0 1.0 1:5.1753 2:-1.9165 3:-0.9069 4:-0.09207 5:0.068253 6:-0.33304 7:-0.12535 8:0.11953 9:-0.16497 10:0.054877 
-1.0 -0.0 -1.0 1.0 1:1.6395 2:-0.22416 3:-0.1701 4:-0.19225 5:0.041766 6:0.20003 7:0.073196 8:-0.11922 9:-0.1198 10:0.017605 
-1.0 -0.0 -1.0 1.0 1:2.5462 2:-2.6505 3:0.18131 4:-0.19225 5:0.070103 6:0.16897 7:0.093999 8:0.035765 9:-0.042902 10:-0.094502 
-1.0 -0.5316018619321478 -1.0 1.0 1:-0.94023 2:-1.3002 3:-0.13373 4:0.0056833 5:0.061909 6:0.24684 7:0.37735 8:0.12376 9:-0.062622 10:-0.099709 
-1.0 -0.0 -1.0 1.0 1:1.7937 2:-1.0422 3:-0.55059 4:0.19693 5:0.14959 6:0.14978 7:-0.11073 8:0.18594 9:0.035448 10:-0.0068464 
-1.0 -0.0 -1.0 1.0 1:2.7513 2:-0.90587 3:-0.23069 4:0.14734 5:0.26918 6:-0.071213 7:0.049141 8:-0.19968 9:0.066244 10:0.10658 
-1.0 -0.0 -1.0 1.0 1:0.015728 2:-0.032038 3:-0.2156 4:0.19212 5:0.093074 6:-0.31869 7:0.033016 8:-0.051441 9:0.035237 10:-0.0072165 
-1.0 -0.0 -1.0 1.0 1:0.95842 2:-0.33241 3:0.26273 4:0.31731 5:0.14644 6:0.011182 7:0.16172 8:0.11388 9:-0.0010045 10:0.085144 
-1.0 -0.0 -1.0 1.0 1:2.9636 2:-3.0492 3:0.0086968 4:0.1442 5:-0.010415 6:0.26656 7:-0.013825 8:-0.010494 9:0.1687 10:0.074941 
-1.0 -0.0 -1.0 1.0 1:2.2197 2:-1.3781 3:-0.26709 4:0.32458 5:0.14991 6:0.11795 7:-0.043458 8:-0.13333 9:-0.061856 10:0.013878 
-1.0 -0.0 -1.0 1.0 1:1.9427 2:-0.94985 3:0.0072694 4:-0.14782 5:0.071451 6:-0.12654 7:-0.12384 8:-0.016838 9:-0.007428 10:-0.12099 
-0.0 -0.0 -1.0 1.0 1:0.58139 2:-0.19812 3:-0.88366 4:0.023183 5:-0.085831 6:0.23788 7:-0.079646 8:-0.0095691 9:0.035527 10:0.10663 
-1.0 -0.0 -1.0 1.0 1:2.6094 2:-1.0606 3:-0.46934 4:0.27933 5:-0.013349 6:-0.035818 7:-0.080042 8:0.16476 9:-0.077637 10:0.080518 
-1.0 -0.0 -1.0 1.0 1:2.6272 2:-0.69902 3:-0.96601 4:0.080703 5:-0.0038594 6:0.056305 7:0.18258 8:-0.13291 9:0.12773 10:0.0085911 
-1.0 -0.0 -1.0 1.0 1:3.1398 2:-1.3873 3:-0.96735 4:-0.080016 5:-0.096511 6:0.0010574 7:0.095189 8:0.062543 9:-0.04737 10:-0.094211 
-1.0 -0.0 -1.0 1.0 1:2.6838 2:-0.64002 3:-0.99791 4:-0.18234 5:0.25237 6:-0.0095163 7:0.21864 8:-0.055697 9:-0.036585 10:-0.0017182 
-1.0 -0.0 -1.0 1.0 1:1.3444 2:-2.0326 3:-0.38834 4:0.32334 5:0.10687 6:-0.078351 7:-0.04996 8:0.081787 9:-0.0067936 10:0.038726 
-1.0 -0.0 -1.0 1.0 1:1.9508 2:-1.3311 3:-1.0621 4:0.26868 5:0.3249 6:-0.060534 7:0.23973 8:0.29955 9:-0.03595 10:0.27616 
-1.0 -0.0 -1.0 1.0 1:1.624 2:-1.4574 3:-0.12279 4:0.23228 5:0.32947 6:0.20637 7:0.16262 8:0.021649 9:-0.036056 10:-0.10418 
-1.0 -0.0 -1.0 1.0 1:3.5812 2:-1.3869 3:-0.5931 4:0.32958 5:-0.046127 6:0.11697 7:-0.12598 8:0.10872 9:0.060904 10:-0.021993 
-1.0 -0.0 -1.0 1.0 1:3.2006 2:-2.3305 3:-0.35638 4:0.041607 5:-0.020883 6:-0.14882 7:-0.1359 8:0.2678 9:0.081575 10:0.013984 
-1.0 -0.0 -1.0 1.0 1:1.8832 2:-0.25855 3:-0.044198 4:-0.066112 5:-0.035263 6:0.10938 7:-0.34605 8:0.037933 9:-0.036003 10:0.034999 
-1.0 -0.0 -0.6772597554044939 1.0 1:2.6318 2:-2.6139 3:0.43672 4:0.090246 5:-0.14555 6:0.04544 7:0.078932 8:-0.071795 9:0.035342 10:0.064948 
-1.0 -0.0 -1.0 1.0 1:0.66503 2:-0.27713 3:-0.4497 4:0.042427 5:0.056939 6:0.11885 7:-0.10568 8:0.056437 9:-0.027148 10:0.054692 
-1.0 -0.0 -1.0 1.0 1:3.105 2:-1.3402 3:-0.092017 4:-0.026275 5:-0.2526 6:-0.2217 7:0.11039 8:0.046762 9:0.0043087 10:-0.04285 
-1.0 -0.0 -1.0 1.0 1:3.5355 2:-1.2294 3:-0.15033 4:-0.16635 5:-0.063732 6:0.11713 7:0.15059 8:0.020301 9:-0.032012 10:0.0028813 
-1.0 -0.0 -1.0 1.0 1:2.4472 2:-1.6234 3:-0.54814 4:-0.36051 5:0.17343 6:0.38422 7:-0.039545 8:0.076368 9:0.070235 10:0.24465 
-1.0 -0.0 -1.0 1.0 1:-0.70809 2:0.51187 3:-0.40658 4:-0.16989 5:-0.16759 6:-0.011895 7:-0.040576 8:0.14816 9:0.11116 10:0.028417 
-1.0 -0.0 -1.0 1.0 1:1.6938 2:-0.69561 3:-0.10367 4:-0.042797 5:0.11187 6:-0.05263 7:0.011816 8:-0.056992 9:0.11163 10:0.13701 
-1.0 -0.0 -1.0 1.0 1:2.8718 2:-1.7222 3:-1.0007 4:0.34391 5:0.061644 6:0.18919 7:-0.014169 8:0.02572 9:-0.0064763 10:0.11642 
-1.0 -0.0 -1.0 1.0 1:2.5724 2:-1.4468 3:-0.5853 4:-0.24703 5:-0.021042 6:0.1798 7:0.09466 8:0.14412 9:0.045044 10:0.044303 
-1.0 -0.0 -1.0 1.0 1:3.9474 2:-1.2065 3:-0.40735 4:-0.38121 5:-0.088025 6:-0.073011 7:0.12038 8:-0.030214 9:-0.10407 10:0.049432 
-1.0 -0.0 -1.0 1.0 1:1.8932 2:-0.59323 3:-0.26038 4:0.1563 5:0.1318 6:0.18916 7:-0.12144 8:0.05641 9:0.044885 10:0.039122 
-0.2924530670303026 -0.0 -1.0 1.0 1:0.86141 2:-1.3873 3:-0.32405 4:-0.033809 5:0.49448 6:0.088845 7:0.12197 8:0.011763 9:0.13376 10:0.0039122 
-1.0 -1.0 -1.0 1.0 1:3.4124 2:-0.32173 3:-0.94578 4:-0.25282 5:0.15657 6:-0.19839 7:-0.073037 8:-0.029183 9:0.010045 10:-0.1299 
-1.0 -0.0 -1.0 1.0 1:3.0921 2:-1.1619 3:-0.79815 4:0.21739 5:-0.40436 6:0.11478 7:-0.047872 8:-0.1064 9:-0.13894 10:0.14763 
-1.0 -0.0 -1.0 1.0 1:3.8399 2:-2.7558 3:0.069733 4:-0.56759 5:-0.065424 6:0.3973 7:0.065001 8:0.22754 9:0.20568 10:0.096299 
-1.0 -0.0 -1.0 1.0 1:2.2328 2:-0.459 3:-0.55498 4:0.095744 5:0.20642 6:0.12873 7:0.13685 8:0.00682 9:0.04663 10:0.1429 
-1.0 -0.0 -1.0 1.0 1:3.5792 2:-1.5281 3:-0.5927 4:-0.092889 5:0.27293 6:0.14433 7:0.028232 8:-0.13259 9:0.014644 10:-0.048031 
-1.0 -0.0 -1.0 1.0 1:1.9526 2:-0.69876 3:-0.40859 4:-0.31023 5:-0.075786 6:-0.019112 7:0.029104 8:-0.014116 9:-0.17454 10:-0.0063177 
-0.7295097832706199 -0.0 -1.0 1.0 1:0.76231 2:0.58015 3:-1.0292 4:0.22717 5:-0.42945 6:0.21295 7:0.16323 8:-0.13143 9:0.14946 10:-0.010812 
-1.0 -0.0 -1.0 0.0 1:1.1869 2:0.57618 3:-0.49725 4:-0.2368 5:-0.14853 6:-0.086572 7:0.1013 8:0.01668 9:0.010045 10:0.061116 
-1.0 -0.0 -1.0 1.0 1:1.2185 2:-0.084219 3:-0.52461 4:-0.01438 5:0.013455 6:-0.044489 7:0.075734 8:-0.17795 9:0.15443 10:0.040603 
-1.0 -0.0 -1.0 1.0 1:3.4265 2:-1.53 3:-0.52139 4:-0.029791 5:-0.18419 6:-0.019878 7:0.003225 8:-0.09088 9:0.097647 10:0.091568 
-1.0 -0.0 -1.0 1.0 1:2.1498 2:-1.7195 3:0.036585 4:-0.06064 5:-0.23048 6:0.12871 7:-0.14161 8:0.088025 9:0.17441 10:-0.083479 
-1.0 -0.0 -1.0 1.0 1:4.0425 2:-2.7347 3:0.035052 4:-0.095665 5:0.30891 6:0.026566 7:-0.088766 8:-0.02995 9:0.14414 10:0.0091726 
-1.0 -0.0 -1.0 1.0 1:2.6345 2:-1.0416 3:-0.18395 4:0.52992 5:-0.19413 6:0.14486 7:0.26511 8:-0.065662 9:0.010045 10:0.096564 
-1.0 -0.16264815512796943 -1.0 1.0 1:-0.14335 2:0.35311 3:0.99167 4:-0.19434 5:-0.19815 6:-0.34792 7:-0.10436 8:0.1563 9:0.13354 10:0.24615 
-1.0 -0.0 -1.0 1.0 1:3.2438 2:-2.2383 3:-0.18036 4:0.071398 5:-0.086572 6:-0.069495 7:0.15464 8:0.019773 9:0.075178 10:-0.0072958 
-1.0 -0.0 -1.0 1.0 1:0.58943 2:-0.12646 3:-0.60574 4:-0.017552 5:0.12009 6:0.10365 7:-0.12049 8:-0.10703 9:-0.12376 10:-0.053053 
-1.0 -0.0 -1.0 1.0 1:2.9463 2:-1.6531 3:-0.8904 4:0.0424 5:0.031509 6:-0.010415 7:0.32638 8:-0.18435 9:0.12762 10:0.11668 
-1.0 -0.0 -1.0 1.0 1:3.036 2:-0.78049 3:-0.7106 4:-0.018187 5:-0.14171 6:0.093841 7:-0.023288 8:-0.0046788 9:0.11266 10:-0.0012953 
-1.0 -0.0 -1.0 1.0 1:1.7321 2:-1.2984 3:0.42384 4:-0.0051018 5:0.12263 6:0.14888 7:-0.11097 8:-0.0048639 9:0.13262 10:-0.0019561 
-1.0 -0.0 -1.0 1.0 1:2.1822 2:-1.4907 3:0.31385 4:-0.12376 5:-0.010019 6:0.21673 7:0.34266 8:0.016786 9:0.27248 10:0.18411 
-1.0 -0.0 -1.0 1.0 1:1.3486 2:0.14092 3:-0.13764 4:0.10397 5:-0.10597 6:-0.075469 7:-0.083267 8:-0.033941 9:-0.066799 10:-0.08784 
-1.0 -0.0 -1.0 1.0 1:1.5483 2:-0.39847 3:-0.73587 4:0.35908 5:-0.056331 6:-0.15921 7:0.10024 8:0.12889 9:0.066508 10:0.055194 
-1.0 -0.0 -1.0 1.0 1:2.7579 2:-0.5549 3:-0.5424 4:-0.47449 5:0.0066614 6:0.027148 7:0.1013 8:-0.0037272 9:0.1387 10:0.045255 
-1.0 -0.0 -1.0 1.0 1:2.3706 2:0.045017 3:-0.99257 4:-0.18512 5:0.14325 6:-0.026355 7:0.012424 8:-0.17444 9:-0.083188 10:0.064763 
-1.0 -0.0 -1.0 1.0 1:1.8416 2:-0.25921 3:0.10859 4:-0.19477 5:-0.13325 6:-0.35979 7:-0.003225 8:0.12945 9:0.17394 10:-0.14573 
-1.0 -0.0 -1.0 1.0 1:2.3298 2:0.31795 3:-0.47719 4:-0.37462 5:0.17024 6:-0.14454 7:-0.16809 8:0.020328 9:0.081073 10:0.12659 
-1.0 -0.0 -1.0 1.0 1:2.4396 2:-1.1257 3:-0.50753 4:0.23288 5:0.26199 6:0.047185 7:-0.084827 8:0.2687 9:0.030478 10:0.20962 
-1.0 -0.0 -1.0 1.0 1:2.0108 2:-0.89249 3:-0.12963 4:0.035527 5:0.17547 6:0.088237 7:-0.043378 8:0.093709 9:-0.19508 10:-0.037113 
-1.0 -0.0 -1.0 1.0 1:-0.052287 2:-0.97988 3:0.45001 4:0.23952 5:0.045599 6:-0.078668 7:-0.028892 8:-0.11287 9:-0.083135 10:0.059847 
-1.0 -0.0 -1.0 1.0 1:1.1762 2:-1.5566 3:-0.1646 4:-0.21285 5:0.07198 6:0.15469 7:-0.21385 8:0.036347 9:0.20552 10:0.008829 
-1.0 -0.0 -1.0 1.0 1:0.77946 2:-0.5589 3:0.067645 4:0.010864 5:0.19099 6:0.025694 7:-0.084615 8:0.13428 9:0.0098863 10:-0.11951 
-1.0 -0.0 -1.0 1.0 1:1.0448 2:-1.5227 3:0.2429 4:-0.17129 5:-0.052419 6:-0.0058419 7:-0.023685 8:0.010336 9:-0.10352 10:0.24473 
-1.0 -0.0 -1.0 1.0 1:3.5456 2:-1.5652 3:-0.43677 4:0.32038 5:-0.17988 6:-0.030822 7:-0.16749 8:-0.18469 9:-7.6659E-4 10:0.060032 
-1.0 -0.0 -1.0 1.0 1:1.9505 2:-1.7784 3:0.2566 4:-0.0084853 5:0.057415 6:0.0042823 7:0.21998 8:-0.024848 9:0.13851 10:0.039704 
-1.0 -0.0 -1.0 1.0 1:0.71951 2:0.41417 3:-0.8369 4:1.586E-4 5:-0.32331 6:0.12487 7:0.028866 8:-0.10719 9:-0.071874 10:-0.057653 
-1.0 -0.0 -1.0 1.0 1:0.83399 2:-1.7248 3:0.11959 4:0.18158 5:0.055591 6:0.009622 7:-0.012979 8:0.11361 9:0.0095956 10:0.096564 
-1.0 -0.0 -1.0 1.0 1:2.4183 2:-1.4311 3:-0.21427 4:0.14663 5:-0.017499 6:-0.26305 7:0.094766 8:0.10346 9:0.076421 10:-0.047898 
-1.0 -0.0 -1.0 1.0 1:0.79046 2:-0.68826 3:0.36149 4:-0.29646 5:0.0037536 6:-0.12881 7:-0.028496 8:2.9077E-4 9:0.024769 10:0.075549 
-1.0 -0.0 -1.0 1.0 1:2.5297 2:-2.3811 3:-0.1751 4:0.31467 5:-0.082104 6:-0.22125 7:0.022971 8:0.14433 9:0.045334 10:-0.027888 
-1.0 -0.0 -1.0 1.0 1:1.6817 2:-0.39574 3:0.2055 4:-0.11055 5:-0.25245 6:-0.021332 7:-0.069548 8:-0.07613 9:-0.067856 10:0.055089 
-1.0 -1.0 -1.0 1.0 1:4.5002 2:-2.6812 3:-0.50566 4:0.21398 5:-0.10481 6:-0.0084853 7:-0.032276 8:-0.028469 9:0.092836 10:0.060613 
-1.0 -0.0 -1.0 1.0 1:3.5147 2:-2.2676 3:-0.58496 4:-0.17692 5:0.03373 6:0.03751 7:0.28158 8:0.017235 9:-0.015332 10:0.12284 
-1.0 -0.0 -1.0 1.0 1:1.376 2:-0.87092 3:-0.25942 4:0.3669 5:0.18121 6:-0.044753 7:-0.20167 8:0.14507 9:0.0098599 10:0.055485 
-1.0 -0.0 -1.0 1.0 1:3.2648 2:-1.3819 3:0.049299 4:0.26524 5:0.081179 6:-0.026434 7:-0.2193 8:0.16979 9:-0.16587 10:0.0081946 
-1.0 -1.0 -1.0 1.0 1:5.5742 2:-3.322 3:-0.78107 4:0.26458 5:-0.0091197 6:0.021755 7:0.01853 8:0.037589 9:-0.015437 10:-0.026883 
-1.0 -0.2792380525700506 -1.0 1.0 1:2.5265 2:-1.1388 3:-0.64668 4:-0.24689 5:0.42181 6:-0.33791 7:-0.022469 8:0.15089 9:-0.22598 10:-4.7581E-4 
-1.0 -0.0 -1.0 1.0 1:1.068 2:-0.4673 3:-0.12744 4:0.0078509 5:0.053132 6:-0.064526 7:0.035157 8:-0.023473 9:-0.061591 10:0.13275 
-1.0 -0.0 -1.0 0.0 1:1.5655 2:0.26217 3:-0.016389 4:0.18451 5:0.17008 6:-0.14787 7:0.044356 8:0.017156 9:-0.13317 10:-0.067645 
-1.0 -0.0 -1.0 1.0 1:2.5591 2:-2.0209 3:0.0072694 4:0.27975 5:0.038435 6:0.054216 7:0.0894 8:0.07161 9:0.075549 10:-0.0071372 
-1.0 -0.0 -1.0 1.0 1:1.5543 2:-0.56352 3:-0.96336 4:-0.10973 5:0.17727 6:0.027121 7:0.15818 8:-0.070209 9:-0.082025 10:0.055617 
-1.0 -0.0 -1.0 1.0 1:2.6951 2:-1.2365 3:0.16016 4:-0.45559 5:0.078615 6:0.24333 7:0.033756 8:0.021464 9:-0.12852 10:-0.12982 
-1.0 -0.0 -1.0 1.0 1:1.6328 2:-0.45533 3:0.30777 4:0.037721 5:-0.025271 6:0.030769 7:0.064948 8:0.18586 9:0.020196 10:0.024531 
-1.0 -0.0 -1.0 0.0 1:0.49767 2:0.33283 3:-0.47669 4:-0.010441 5:0.31356 6:-0.03603 7:-0.064103 8:0.035977 9:-0.021359 10:0.12683 
-1.0 -1.0 -0.31191921327522076 1.0 1:5.3588 2:-3.2573 3:-0.24761 4:-0.0082474 5:-0.12371 6:0.13888 7:0.084668 8:-0.05078 9:-0.08295 10:0.13711 
-1.0 -0.0 -1.0 1.0 1:1.5416 2:-0.81097 3:0.17531 4:-0.1327 5:-0.029685 6:-0.22064 7:-0.16624 8:-0.13265 9:-0.21089 10:-0.047819 
-1.0 -0.0 -1.0 1.0 1:2.6311 2:-1.6988 3:0.11919 4:0.095083 5:0.1253 6:0.027544 7:-0.10994 8:-0.17399 9:-0.077002 10:-0.021914 
-1.0 -0.0 -1.0 1.0 1:1.667 2:-0.11126 3:-0.94787 4:-0.31491 5:-0.52572 6:0.079223 7:0.18945 8:0.032963 9:-0.0053925 10:-0.12934 
-1.0 -0.0 -1.0 1.0 1:2.5231 2:-1.1325 3:-0.027359 4:-0.29099 5:0.124 6:-0.03558 7:0.080069 8:0.077822 9:0.0096749 10:0.21969 
-1.0 -0.0 -1.0 1.0 1:0.70344 2:-0.2512 3:0.16516 4:-0.041369 5:-0.14417 6:-0.11298 7:-0.064631 8:0.10817 9:-0.21692 10:-0.047661 
-1.0 -0.0 -1.0 1.0 1:-0.42509 2:-0.29077 3:0.6949 4:-0.020909 5:0.088977 6:0.068993 7:0.005604 8:0.1124 9:0.0085911 10:0.028284 
-1.0 -0.0 -1.0 1.0 1:0.54251 2:-0.71726 3:0.73238 4:0.087893 5:-0.079804 6:-0.078588 7:0.058049 8:-0.015966 9:-0.047819 10:0.049326 
-1.0 -0.0 -1.0 1.0 1:1.6886 2:-0.43428 3:-0.093947 4:0.33283 5:0.1678 6:-0.065213 7:0.029157 8:-0.065266 9:0.25197 10:-0.052947 
-0.11180649076297601 -0.0 -1.0 0.0 1:1.2479 2:0.5617 3:-1.2262 4:-0.044277 5:0.15059 6:0.057811 7:0.19865 8:0.16056 9:0.091938 10:-0.14999 
-1.0 -0.0 -1.0 1.0 1:-0.6972 2:-0.77269 3:0.21692 4:0.34555 5:0.055855 6:0.082368 7:0.20333 8:0.21227 9:-0.056886 10:-0.11443 
-1.0 -0.0 -1.0 1.0 1:0.93955 2:-0.43746 3:-0.3732 4:-0.058155 5:0.13547 6:0.031219 7:0.1516 8:-0.030241 9:-0.047053 10:0.039889 
-1.0 -0.0 -1.0 1.0 1:0.92342 2:-0.55802 3:0.51702 4:-0.14377 5:-0.22035 6:0.062226 7:-0.079778 8:-0.075734 9:-0.0053925 10:-0.083426 
-1.0 -0.0 -1.0 1.0 1:2.451 2:-1.9575 3:0.081787 4:0.24837 5:0.10486 6:0.13878 7:0.19231 8:0.093206 9:-0.2166 10:0.054533 
-1.0 -0.0 -1.0 1.0 1:2.0386 2:-0.38945 3:-0.29971 4:0.030056 5:-0.041501 6:0.019958 7:0.21858 8:-0.010256 9:-0.042321 10:-0.06368 
-1.0 -0.0 -1.0 1.0 1:2.7309 2:-1.4823 3:0.076844 4:-0.020645 5:-0.061882 6:0.093497 7:-0.13138 8:0.22746 9:0.16376 10:0.091092 
-1.0 -0.0 -1.0 1.0 1:1.5362 2:-0.41628 3:-0.057494 4:-0.229 5:0.016574 6:0.13365 7:0.11002 8:0.19051 9:-0.011023 10:0.080756 
-1.0 -1.0 -1.0 1.0 1:5.1496 2:-3.0099 3:-0.66027 4:0.28319 5:-0.17449 6:-0.086915 7:-0.089691 8:-0.025377 9:-0.04692 10:0.039255 
-1.0 -0.0 -1.0 1.0 1:2.69 2:-0.67811 3:-0.44256 4:0.11716 5:-0.25408 6:0.012688 7:0.055855 8:-0.070711 9:-0.056093 10:-0.072482 
-1.0 -0.0 -1.0 1.0 1:2.7334 2:0.027994 3:-1.1321 4:-0.3314 5:-0.063891 6:-0.063389 7:-0.11208 8:-0.05678 9:-0.088263 10:0.095242 
-1.0 -1.0 -1.0 1.0 1:5.2039 2:-3.2684 3:-0.9954 4:-0.0043087 5:0.14163 6:0.065001 7:0.21671 8:0.010547 9:-0.021835 10:-0.011816 
-1.0 -0.0 -1.0 1.0 1:2.9979 2:-2.6334 3:-0.57587 4:-0.29315 5:0.29072 6:0.063891 7:0.055168 8:-0.11686 9:0.17486 10:0.076183 
-1.0 -0.0 -1.0 1.0 1:2.9599 2:-0.40878 3:0.060005 4:-0.1286 5:-0.10254 6:-0.24058 7:0.080465 8:8.7232E-4 9:-1.586E-4 10:-0.016627 
-1.0 -0.0 -1.0 1.0 1:3.3944 2:-0.31153 3:-0.62522 4:-0.21314 5:-0.061327 6:-0.11716 7:0.003595 8:0.0065821 9:-0.072324 10:-0.0060798 
-1.0 -0.0 -1.0 1.0 1:2.7004 2:-1.3748 3:0.24671 4:0.017182 5:0.14462 6:0.22752 7:0.029474 8:-0.23505 9:-0.0052868 10:-0.037166 
-0.0 -0.0 -1.0 1.0 1:1.1713 2:-1.5343 3:-0.21401 4:0.052709 5:-0.12284 6:0.23669 7:0.12107 8:-0.08139 9:-0.10283 10:0.055168 
-1.0 -0.0 -1.0 1.0 1:1.1678 2:-0.87375 3:0.71649 4:0.29968 5:0.34803 6:-0.13222 7:-0.16059 8:-0.0041237 9:-0.051467 10:0.045704 
-1.0 -0.0 -1.0 1.0 1:1.496 2:-0.96878 3:-0.31335 4:0.057283 5:0.19149 6:-0.081523 7:-0.0022998 8:0.052577 9:0.082316 10:0.11713 
-1.0 -0.0 -1.0 1.0 1:3.9251 2:-2.6008 3:-0.30872 4:0.0063706 5:0.18062 6:-0.041528 7:0.13095 8:-0.12831 9:0.2354 10:-0.089559 
-1.0 -0.0 -1.0 0.0 1:-0.1839 2:0.34504 3:-0.4968 4:-0.028972 5:0.43339 6:-0.19522 7:0.10605 8:-0.0095163 9:-0.12392 10:0.060296 
-1.0 -0.0 -1.0 1.0 1:1.0335 2:-0.81821 3:0.051282 4:-0.27148 5:0.22691 6:0.25755 7:-0.058684 8:-0.018636 9:0.21589 10:-0.036875 
-1.0 -0.0 -1.0 1.0 1:1.5851 2:-0.85697 3:-0.17325 4:-0.11575 5:-0.053899 6:-0.018266 7:-0.016812 8:-0.18898 9:-0.12376 10:0.0089611 
-1.0 -0.0 -1.0 1.0 1:0.54843 2:-0.42115 3:-0.35884 4:0.23341 5:0.0070843 6:0.23759 7:0.15768 8:-0.029025 9:0.11372 10:-0.13973 
-1.0 -0.0 -1.0 1.0 1:2.9988 2:-1.2651 3:-0.41012 4:-0.024372 5:-0.34515 6:0.039995 7:0.086624 8:-0.074597 9:-0.05567 10:0.030346 
-1.0 -0.0 -0.0 1.0 1:4.3629 2:-2.7117 3:0.16762 4:-0.062094 5:0.097383 6:0.025615 7:-0.23442 8:-0.030161 9:0.020248 10:-0.032752 
-1.0 -0.0 -1.0 1.0 1:1.9408 2:-1.2271 3:-0.31018 4:-0.55511 5:0.25749 6:0.26815 7:-0.069204 8:-0.11737 9:0.24169 10:0.060745 
-1.0 -0.0 -1.0 1.0 1:1.9773 2:-2.4042 3:-0.19128 4:0.021676 5:0.0072429 6:0.012688 7:0.14758 8:0.1511 9:0.15411 10:0.030426 
-1.0 -0.0 -1.0 1.0 1:1.7111 2:-1.1623 3:-0.87642 4:0.083584 5:0.12408 6:0.072958 7:0.16273 8:0.28916 9:0.092757 10:0.039651 
-1.0 -0.0 -1.0 1.0 1:1.6233 2:-0.77095 3:-0.074967 4:0.040233 5:0.083135 6:0.031377 7:0.065292 8:-0.065319 9:-0.092413 10:0.03521 
-1.0 -0.0 -1.0 1.0 1:3.3942 2:-1.6151 3:-0.26082 4:0.19418 5:-0.092995 6:0.13452 7:-0.074491 8:0.25287 9:0.051282 10:-0.10367 
-1.0 -0.0 -1.0 1.0 1:1.9315 2:-0.76609 3:-1.0773 4:-0.23735 5:0.11837 6:-0.062358 7:0.012371 8:-0.014592 9:0.0093577 10:0.029395 
-1.0 -0.0 -1.0 1.0 1:2.6478 2:-1.2676 3:-0.37156 4:0.022918 5:0.17737 6:-0.0599 7:-0.011472 8:0.022443 9:0.036532 10:-7.4015E-4 
-1.0 -0.0 -1.0 1.0 1:3.9957 2:-1.8824 3:-0.8193 4:0.14282 5:-0.11906 6:-0.098916 7:0.18224 8:-0.046577 9:0.040206 10:0.1115 
-1.0 -1.0 -1.0 1.0 1:4.3647 2:-2.4591 3:-0.87539 4:-0.17869 5:0.1351 6:0.099286 7:0.32252 8:0.048586 9:0.10841 10:-0.010679 
-1.0 -0.0 -1.0 1.0 1:2.5644 2:-0.43323 3:-0.12614 4:0.010626 5:-0.31848 6:0.30814 7:0.15612 8:-0.092202 9:0.014327 10:0.0032778 
-1.0 -0.0 -1.0 1.0 1:2.3286 2:-2.0584 3:-0.21655 4:0.39633 5:0.45284 6:0.020856 7:0.038144 8:0.093471 9:0.092176 10:0.019297 
-1.0 -0.0 -1.0 1.0 1:-0.21673 2:0.48131 3:0.94806 4:-0.18377 5:0.088184 6:-0.024927 7:0.079646 8:0.073117 9:0.086915 10:0.11697 
-1.0 -0.0 -1.0 1.0 1:4.0206 2:-2.6185 3:-0.48758 4:-0.39434 5:-0.19479 6:0.18041 7:-0.03825 8:0.07843 9:0.030531 10:-0.094105 
-1.0 -0.0 -1.0 1.0 1:1.9265 2:-1.9946 3:0.10325 4:0.30378 5:0.25276 6:0.24137 7:0.0031721 8:-0.014777 9:-0.11861 10:0.096352 
-1.0 -0.0 -1.0 1.0 1:3.1184 2:-2.0889 3:-0.17711 4:-0.31269 5:-0.02009 6:-0.066772 7:-0.084748 8:0.19099 9:-0.10822 10:0.080492 
-1.0 -0.0 -1.0 1.0 1:2.5051 2:-1.2184 3:-0.29442 4:-0.27002 5:-0.018715 6:0.19715 7:0.054322 8:0.06783 9:0.025773 10:0.16342 
-1.0 -0.3982282903673071 -0.0 1.0 1:4.431 2:-3.2525 3:0.2314 4:0.36537 5:0.21427 6:0.14771 7:0.16556 8:0.025112 9:-0.0072165 10:0.033069 
-1.0 -0.0 -1.0 1.0 1:2.1311 2:-1.0629 3:0.33537 4:-0.17613 5:0.01705 6:0.17613 7:0.0037008 8:0.011314 9:0.045678 10:-0.047238 
-1.0 -0.0 -1.0 1.0 1:1.7711 2:-2.2301 3:0.13016 4:0.47042 5:0.089611 6:0.10933 7:0.048929 8:0.22152 9:0.0093841 10:0.029659 
-1.0 -0.0 -1.0 1.0 1:2.873 2:-1.765 3:-0.6724 4:0.085038 5:0.11985 6:0.29408 7:0.14734 8:0.068438 9:-0.035845 10:0.18406 
-1.0 -0.0 -1.0 1.0 1:-0.11512 2:0.06019 3:0.22908 4:-0.091647 5:0.04774 6:-0.092625 7:-0.079619 8:0.026143 9:0.06101 10:0.095612 
-1.0 -1.0 -1.0 1.0 1:4.4659 2:-1.7159 3:-0.67835 4:0.13923 5:-0.10822 6:-0.071848 7:-0.27468 8:0.026566 9:-0.062173 10:-0.10983 
-1.0 -0.0 -1.0 1.0 1:2.8495 2:-0.33045 3:-0.40333 4:-0.084906 5:-0.043722 6:0.31047 7:0.2816 8:-0.12686 9:-0.0095427 10:-0.0010838 
-1.0 -0.0 -1.0 1.0 1:2.2474 2:-0.72337 3:-0.28258 4:-0.033386 5:0.10365 6:0.047581 7:-0.17232 8:-0.070949 9:0.20515 10:0.029738 
-1.0 -0.0 -1.0 1.0 1:2.6803 2:-1.5634 3:-0.17526 4:-0.059239 5:-0.014777 6:-0.32361 7:-0.10999 8:-0.10214 9:-0.041872 10:-0.01208 
-1.0 -0.0 -1.0 1.0 1:0.97505 2:-1.0696 3:-0.39744 4:-0.11813 5:-0.020989 6:-0.14938 7:-0.13148 8:5.8155E-4 9:-0.088343 10:-0.047925 
-1.0 -0.0 -1.0 1.0 1:1.9292 2:-0.57912 3:-0.14581 4:-0.34748 5:0.28898 6:0.23706 7:0.024002 8:0.098335 9:0.0765 10:0.14248 
-1.0 -0.0 -1.0 1.0 1:1.1771 2:-0.31684 3:-0.74795 4:0.0021412 5:-0.1115 6:-0.01401 7:-0.10447 8:0.073249 9:0.041449 10:-0.05226 
-1.0 -0.0 -1.0 1.0 1:1.5738 2:-0.23275 3:-0.2051 4:-0.42908 5:-0.10566 6:-0.071213 7:0.043775 8:0.19614 9:0.014935 10:-0.16593 
-1.0 -0.0 -1.0 1.0 1:1.0154 2:0.18742 3:-0.28845 4:0.1438 5:-0.13294 6:0.11356 7:0.018187 8:0.14985 9:-0.0057626 10:-0.17634 
-1.0 -0.0 -1.0 1.0 1:2.013 2:-0.8783 3:0.029738 4:0.33844 5:0.0047053 6:-0.25239 7:-0.1784 8:-0.067275 9:-0.042427 10:-0.11491 
-1.0 -0.0 -1.0 1.0 1:2.2138 2:-1.6138 3:-0.089902 4:0.1563 5:-0.21922 6:0.21723 7:0.14692 8:-0.075786 9:0.14874 10:0.13249 
-1.0 -0.0 -1.0 1.0 1:1.6697 2:-1.2458 3:0.21784 4:0.045467 5:0.17372 6:-0.016468 7:0.032884 8:-0.18485 9:0.13265 10:-0.08406 
-1.0 -0.0 -1.0 1.0 1:-1.1832 2:1.8988 3:-0.30174 4:0.1396 5:0.10891 6:0.15546 7:0.2032 8:-0.024742 9:-0.093206 10:-0.13487 
-1.0 -0.0 -1.0 1.0 1:2.1736 2:-0.75387 3:-0.015411 4:-0.17383 5:-0.30804 6:-0.10888 7:0.063759 8:0.020936 9:-0.062939 10:-0.043114 
-1.0 -0.0 -1.0 1.0 1:1.4074 2:-1.7474 3:-0.24153 4:0.01935 5:0.096326 6:-0.12339 7:-0.24478 8:-0.08755 9:0.18414 10:0.070579 
-1.0 -0.0 -1.0 0.8115065255669069 1:0.18599 2:-0.029553 3:-0.28591 4:-0.060349 5:0.21147 6:0.021015 7:0.27005 8:-0.10745 9:-0.08829 10:0.10143 
-1.0 -0.0 -1.0 1.0 1:2.7424 2:-1.1346 3:-0.45022 4:-0.19847 5:-0.33286 6:0.12361 7:-0.033888 8:-0.11195 9:-0.092863 10:-0.042321 
-1.0 -0.0 -1.0 1.0 1:2.5246 2:-0.34568 3:0.038329 4:0.11388 5:-0.014565 6:-0.1646 7:-0.008036 8:0.087602 9:-9.7806E-4 10:-0.042929 
-1.0 -0.0 -1.0 1.0 1:2.0272 2:-1.5341 3:0.018028 4:0.14621 5:-0.0035686 6:0.10288 7:0.058948 8:7.6659E-4 9:-0.016151 10:-0.042665 
-1.0 -0.0 -1.0 0.0 1:0.9931 2:0.15543 3:0.61412 4:-0.17071 5:0.2253 6:0.26217 7:-0.038726 8:-0.045704 9:-0.20095 10:-0.084166 
-0.0 -0.0 -1.0 0.41548541033669184 1:0.66532 2:-0.35604 3:-1.0363 4:-0.17497 5:0.15303 6:0.14296 7:-0.14734 8:0.18491 9:0.024637 10:0.13682 
-1.0 -0.0 -1.0 1.0 1:2.4713 2:-1.2918 3:-0.083902 4:0.024187 5:0.25408 6:0.011155 7:0.26648 8:0.22242 9:-0.092361 10:-0.12958 
-1.0 -0.0 -1.0 1.0 1:1.3707 2:-0.81367 3:0.067618 4:0.13296 5:0.31969 6:0.031906 7:0.019191 8:-0.19403 9:0.031271 10:0.045519 
-1.0 -0.0 -1.0 1.0 1:0.16624 2:-0.087602 3:-0.10389 4:0.33481 5:0.18631 6:0.17063 7:0.10151 8:-0.0295 9:2.6434E-4 10:0.071398 
-1.0 -0.0 -1.0 1.0 1:1.9626 2:-1.564 3:-0.28017 4:-0.30819 5:0.062754 6:0.11443 7:0.009014 8:0.21673 9:0.082051 10:0.12236 
-1.0 -0.0 -1.0 0.0 1:1.2596 2:0.15845 3:-0.2014 4:-0.15879 5:-0.14235 6:-0.19905 7:0.0028284 8:0.10367 9:-0.118 10:0.060693 
-1.0 -0.0 -1.0 1.0 1:1.9764 2:-0.50486 3:-0.029342 4:0.35139 5:-0.29215 6:-0.086016 7:-0.042665 8:0.062887 9:-0.13912 10:0.024478 
-1.0 -0.0 -1.0 1.0 1:0.75876 2:-1.3113 3:0.91665 4:-0.13391 5:-0.062464 6:-0.071821 7:0.15118 8:0.062622 9:0.066349 10:-0.01705 
-1.0 -0.0 -1.0 1.0 1:2.9106 2:-0.2862 3:-0.79173 4:-0.30663 5:-0.04922 6:-0.0036479 7:-0.078747 8:0.13555 9:0.087682 10:-0.09355 
-1.0 -0.0 -0.9073791907907285 1.0 1:4.0296 2:-1.8835 3:0.21472 4:-0.3798 5:0.09281 6:-0.040656 7:0.20439 8:-0.0039387 9:0.10283 10:-0.027227 
-1.0 -0.0 -1.0 1.0 1:1.8639 2:-0.93325 3:-0.90135 4:-0.1632 5:-0.075998 6:0.047819 7:-0.012688 8:0.12495 9:1.3217E-4 10:-0.057573 
-1.0 -0.0 -1.0 1.0 1:4.3494 2:-2.4641 3:-0.43307 4:-0.053793 5:-0.13135 6:0.05308 7:0.12688 8:0.19662 9:0.14904 10:-0.0065028 
-1.0 -0.0 -1.0 1.0 1:2.2597 2:-0.70188 3:-0.18049 4:-0.018292 5:0.3106 6:-0.086201 7:-0.15075 8:-0.034021 9:0.020936 10:-0.046762 
-1.0 -0.0 -1.0 1.0 1:1.1825 2:-0.96989 3:-0.40309 4:-0.051494 5:-0.14911 6:-0.097066 7:-0.0848 8:-0.11766 9:0.03566 10:0.03032 
-1.0 -0.0 -1.0 1.0 1:0.87156 2:-0.97991 3:-0.14499 4:-0.059609 5:-0.047978 6:-0.037483 7:0.18694 8:0.13352 9:-0.036532 10:-0.10449 
-1.0 -0.0 -1.0 1.0 1:0.14385 2:0.21946 3:-0.44711 4:0.39757 5:-0.039968 6:-0.024425 7:-0.10997 8:-0.045229 9:0.040471 10:-0.093867 
-1.0 -0.0 -1.0 1.0 1:2.1333 2:-1.0458 3:-0.64237 4:-0.039625 5:-0.086069 6:0.289 7:-0.23328 8:0.15519 9:-0.082633 10:-0.2378 
-1.0 -0.0 -1.0 1.0 1:0.49561 2:0.64494 3:-0.59366 4:-0.12844 5:0.041872 6:-0.081549 7:0.17753 8:0.010864 9:0.014803 10:-0.24322 
-1.0 -0.0 -1.0 1.0 1:2.0227 2:-0.83587 3:-0.12628 4:0.16788 5:0.075231 6:-0.050013 7:0.033915 8:0.17618 9:-0.056648 10:-0.0062649 
-1.0 -0.0 -1.0 1.0 1:2.3106 2:-1.0507 3:-0.036241 4:0.016257 5:0.11356 6:0.17957 7:0.15591 8:-0.1391 9:0.22448 10:0.054163 
-1.0 -0.0 -1.0 1.0 1:1.6404 2:-0.90671 3:0.65435 4:0.053978 5:0.057415 6:-0.13902 7:0.079514 8:5.5511E-4 9:0.039783 10:-0.012477 
-0.0 -0.0 -1.0 1.0 1:1.4279 2:-0.95485 3:-0.71319 4:-0.31996 5:-0.002987 6:0.088686 7:0.23444 8:0.021306 9:0.071583 10:-0.13035 
-1.0 -0.0 -1.0 1.0 1:2.5885 2:-0.98713 3:-0.56297 4:0.13505 5:0.11494 6:-0.22992 7:-0.058102 8:0.19075 9:0.11311 10:0.023976 
-1.0 -0.0 -1.0 1.0 1:2.5096 2:-0.15689 3:-0.21721 4:-0.29833 5:0.16926 6:0.24145 7:0.012001 8:-0.072086 9:-0.073037 10:-0.0020619 
-1.0 -0.0 -1.0 1.0 1:0.85022 2:-0.084695 3:-0.47626 4:0.1291 5:0.072799 6:0.0095427 7:0.032408 8:-0.014882 9:0.13791 10:0.08036 
-1.0 -0.0 -1.0 1.0 1:1.8211 2:-0.54031 3:0.44576 4:0.3207 5:-0.043484 6:-0.20336 7:0.049987 8:0.062992 9:0.13902 10:-0.021887 
-1.0 -0.0 -1.0 1.0 1:1.6957 2:-0.7894 3:0.017552 4:0.025667 5:0.2364 6:-0.20637 7:0.068543 8:0.020222 9:0.039572 10:-0.13606 
-1.0 -0.0 -1.0 1.0 1:1.8001 2:-1.9326 3:0.38192 4:0.093021 5:0.12963 6:0.026619 7:0.16712 8:0.015623 9:0.15371 10:0.1474 
-1.0 -0.0 -1.0 1.0 1:-0.4761 2:-0.33159 3:-0.25736 4:0.32532 5:-0.096854 6:-0.10233 7:0.089215 8:0.025509 9:0.13257 10:-0.094581 
-1.0 -0.0 -1.0 1.0 1:2.8175 2:-2.0529 3:-0.45646 4:-0.024002 5:0.077928 6:-0.164 7:0.053582 8:-0.061723 9:0.16368 10:0.095903 
-1.0 -0.0 -1.0 1.0 1:1.4858 2:-1.2018 3:-0.34946 4:-0.044885 5:-0.030293 6:0.061512 7:0.29981 8:0.16394 9:-0.012213 10:-0.095136 
