svm_type c_svc
kernel_type rbf
gamma 0.1
nr_class 5
total_sv 744
rho 0.8488312993527302 0.027342511110852053 -0.13199139222431164 -0.1829325955382755 -0.8481306202457963 -0.8558778342880622 -0.8518573450528024 -0.012554264253036606 -0.03014789447716781 -0.31695105292566805
label 1 2 3 4 5
nr_sv 141 114 18 242 229
SV
0.0 0.0 1.0 1.0 1:-0.45855 2:0.96114 3:-0.40674 4:-0.10622 5:0.031088 6:-0.03886 7:-0.1399 8:0.059585 9:-0.07772 10:0.093264 
0.0 0.0 1.0 1.0 1:-0.60622 2:1.1062 3:-0.062176 4:-0.28497 5:-0.14249 6:-0.13212 7:-0.20466 8:0.0 9:-0.10363 10:0.018135 
0.0 0.0 1.0 1.0 1:-1.5181 2:1.9378 3:0.16839 4:-0.03886 5:-0.090674 6:-0.025907 7:0.028497 8:-0.041451 9:-0.13472 10:-0.07513 
0.0 0.0 1.0 1.0 1:-2.2487 2:1.0933 3:-0.21762 4:0.11658 5:0.1399 6:0.025907 7:-0.049223 8:0.067358 9:0.054404 10:-0.064767 
0.0 0.0 1.0 0.0 1:-0.16062 2:0.72021 3:-0.22539 4:-0.093264 5:-0.34197 6:-0.2228 7:-0.020725 8:0.018135 9:-0.054404 10:-0.07513 
0.0 0.0 1.0 0.0 1:-0.35233 2:0.98187 3:-0.17098 4:-0.34197 5:-0.23316 6:-0.29793 7:0.10104 8:-0.064767 9:0.080311 10:0.093264 
0.0 0.0 1.0 1.0 1:-1.1295 2:1.9016 3:0.098446 4:-0.36269 5:-0.28756 6:-0.15026 7:-0.21762 8:0.0025907 9:-0.095855 10:-0.10363 
0.0 0.0 1.0 0.0 1:0.11917 2:1.101 3:-0.39896 4:-0.32902 5:-0.082902 6:0.041451 7:0.14767 8:-0.012953 9:-0.020725 10:-0.015544 
0.0 0.0 1.0 1.0 1:-0.90674 2:0.86528 3:-0.19948 4:-0.2772 5:-0.2228 6:-0.067358 7:-0.051813 8:0.046632 9:0.012953 10:-0.10363 
0.0 0.0 1.0 1.0 1:-0.65026 2:0.9171 3:-0.22021 4:0.16839 5:-0.11658 6:-0.16062 7:0.090674 8:-0.085492 9:-0.1114 10:-0.036269 
0.0 0.0 1.0 1.0 1:-1.7047 2:1.0777 3:0.082902 4:0.13731 5:-0.025907 6:-0.012953 7:0.041451 8:0.025907 9:-0.051813 10:0.0051813 
0.0 0.0 1.0 1.0 1:-2.1451 2:2.0596 3:0.70984 4:0.054404 5:-0.036269 6:0.095855 7:0.010363 8:0.13731 9:0.010363 10:0.056995 
0.0 0.0 1.0 0.0 1:0.21762 2:-0.12176 3:-0.36269 4:0.11399 5:0.12694 6:0.22021 7:-0.031088 8:0.015544 9:-0.051813 10:0.046632 
0.0 0.0 1.0 0.0 1:0.89119 2:0.7228 3:-0.69171 4:-0.11917 5:0.12953 6:0.051813 7:0.036269 8:0.082902 9:-0.046632 10:-0.059585 
0.0 0.0 1.0 1.0 1:-0.32383 2:0.15803 3:-0.036269 4:-0.059585 5:0.14508 6:-0.24093 7:0.028497 8:-0.03886 9:0.067358 10:-0.17617 
0.0 0.0 1.0 1.0 1:-2.0881 2:1.5622 3:0.14767 4:0.15544 5:0.051813 6:-0.098446 7:0.044041 8:-0.028497 9:-0.16321 10:-0.033679 
0.0 0.0 1.0 0.0 1:-0.059585 2:0.91192 3:-0.4171 4:-0.13212 5:-0.07772 6:0.031088 7:-0.1114 8:-0.046632 9:-0.095855 10:0.049223 
0.0 0.0 1.0 1.0 1:-1.0052 2:1.5933 3:0.025907 4:0.07772 5:-0.036269 6:-0.088083 7:-0.023316 8:0.072539 9:0.0 10:0.0 
0.0 0.0 1.0 1.0 1:-0.30829 2:-0.12953 3:-0.07772 4:-0.31347 5:0.11399 6:0.007772 7:-0.16062 8:0.031088 9:0.010363 10:0.051813 
0.0 0.0 1.0 1.0 1:-0.51554 2:0.7772 3:-0.38342 4:0.082902 5:-0.012953 6:0.07772 7:0.041451 8:-0.046632 9:0.023316 10:-0.023316 
0.0421408771276956 0.0 1.0 1.0 1:-2.9041 2:2.0104 3:0.32383 4:-0.033679 5:0.11917 6:0.041451 7:0.054404 8:-0.12694 9:-0.098446 10:0.072539 
0.0 0.0 0.13542622483411154 1.0 1:-1.101 2:2.0259 3:0.0051813 4:0.088083 5:0.10881 6:-0.12694 7:-0.067358 8:-0.07772 9:-0.12435 10:-0.049223 
0.0 0.0 1.0 1.0 1:-0.53886 2:0.25648 3:-0.34197 4:0.010363 5:-0.2487 6:0.10881 7:0.015544 8:-0.025907 9:-0.056995 10:0.054404 
0.0 0.0 1.0 1.0 1:-0.62176 2:0.69948 3:-0.20725 4:-0.051813 5:-0.20984 6:-0.14508 7:-0.069948 8:-0.14508 9:-0.069948 10:-0.16062 
0.0 0.0 1.0 1.0 1:-0.70725 2:0.34456 3:-0.13731 4:0.18394 5:0.0 6:0.10622 7:-0.064767 8:0.07772 9:-0.10363 10:-0.028497 
0.0 0.0 1.0 1.0 1:-0.92228 2:1.3005 3:-0.17098 4:0.088083 5:0.012953 6:-0.093264 7:0.056995 8:-0.1114 9:-0.031088 10:-0.082902 
0.0 0.0 0.0 1.0 1:-0.88342 2:0.82902 3:0.22021 4:0.18653 5:0.17358 6:0.028497 7:0.088083 8:-0.059585 9:0.020725 10:-0.07772 
0.0 0.0 1.0 1.0 1:-2.4171 2:1.4249 3:0.26943 4:-0.15544 5:-0.012953 6:-0.072539 7:0.041451 8:-0.041451 9:0.098446 10:0.059585 
0.0 0.0 1.0 1.0 1:-1.2642 2:0.81606 3:0.28238 4:0.15026 5:-0.049223 6:-0.12694 7:0.088083 8:0.025907 9:0.064767 10:-0.031088 
0.0 0.0 1.0 1.0 1:-0.3057 2:0.093264 3:-0.29534 4:0.15803 5:0.14508 6:0.16062 7:-0.020725 8:0.028497 9:0.085492 10:0.046632 
0.0 0.0 1.0 1.0 1:-1.3005 2:0.84974 3:-0.044041 4:0.23834 5:0.16839 6:0.041451 7:0.033679 8:-0.064767 9:0.056995 10:-0.025907 
0.0 0.0 1.0 1.0 1:-2.2772 2:1.7694 3:0.53368 4:0.054404 5:0.056995 6:0.072539 7:-0.069948 8:0.010363 9:-0.010363 10:0.059585 
0.0 0.0 1.0 1.0 1:-0.96891 2:1.2591 3:-0.054404 4:-0.13212 5:0.023316 6:-0.18653 7:0.10622 8:-0.07513 9:-0.010363 10:0.049223 
0.0 0.0 1.0 1.0 1:-0.27461 2:0.34974 3:-0.13472 4:-0.054404 5:0.34456 6:-0.028497 7:-0.007772 8:-0.0025907 9:-0.015544 10:-0.085492 
0.0 0.0 1.0 1.0 1:-1.013 2:0.68912 3:0.15544 4:0.10104 5:-0.051813 6:0.007772 7:-0.036269 8:-0.064767 9:-0.1114 10:-0.018135 
1.0 0.6510934404394919 1.0 1.0 1:-3.2824 2:1.4741 3:0.32124 4:0.21762 5:0.11658 6:0.059585 7:-0.062176 8:-0.1399 9:0.082902 10:0.088083 
0.0 0.0 0.0 1.0 1:-1.0181 2:0.87824 3:0.20207 4:0.10881 5:0.023316 6:0.14249 7:0.1399 8:-0.036269 9:0.018135 10:0.082902 
0.0 0.0 1.0 0.11415303840674025 1:-0.41969 2:0.50518 3:-0.36269 4:0.15803 5:0.059585 6:0.085492 7:0.007772 8:-0.0025907 9:-0.036269 10:0.12953 
0.0 0.0 1.0 0.0 1:0.29534 2:-0.18394 3:-0.45337 4:0.012953 5:0.11917 6:-0.093264 7:0.054404 8:-0.072539 9:0.0 10:0.007772 
0.0 0.0 0.0 1.0 1:-1.7409 2:1.386 3:0.65544 4:0.15803 5:0.0051813 6:0.15285 7:-0.19948 8:0.10104 9:0.098446 10:0.088083 
0.0 0.0 1.0 1.0 1:-1.3031 2:1.4352 3:-0.049223 4:0.059585 5:-0.012953 6:0.2513 7:0.054404 8:-0.064767 9:0.0 10:0.080311 
0.0 0.0 1.0 1.0 1:-1.8342 2:1.4067 3:-0.015544 4:-0.1114 5:0.1943 6:0.0051813 7:0.054404 8:-0.025907 9:-0.007772 10:-0.15544 
0.0 0.0 1.0 0.0 1:0.18653 2:0.22798 3:-0.39378 4:-0.23834 5:-0.036269 6:0.07772 7:0.0051813 8:-0.1658 9:0.010363 10:-0.023316 
0.0 0.0 1.0 1.0 1:-0.78238 2:0.96891 3:0.072539 4:-0.020725 5:-0.023316 6:-0.051813 7:0.056995 8:-0.051813 9:-0.080311 10:0.007772 
0.0 0.0 1.0 0.0 1:-0.35751 2:0.64767 3:-0.16839 4:-0.049223 5:0.044041 6:0.069948 7:-0.028497 8:0.036269 9:-0.16062 10:0.012953 
0.0 0.0 1.0 1.0 1:-1.4093 2:0.69689 3:0.20466 4:0.43264 5:0.11399 6:-0.0051813 7:0.069948 8:0.023316 9:0.049223 10:-0.033679 
0.0 0.0 1.0 0.0 1:0.036269 2:0.056995 3:-0.40933 4:0.29016 5:0.054404 6:0.046632 7:0.025907 8:0.10363 9:0.041451 10:0.025907 
0.0 0.0 1.0 1.0 1:-1.2902 2:1.6917 3:0.020725 4:0.093264 5:-0.14767 6:-0.1114 7:-0.15026 8:0.010363 9:-0.085492 10:-0.0051813 
0.0 0.0 1.0 1.0 1:-0.17098 2:0.14508 3:-0.088083 4:0.15544 5:-0.054404 6:-0.098446 7:-0.13212 8:0.25907 9:-0.12176 10:0.0 
0.0 0.0 1.0 1.0 1:-1.3057 2:1.9249 3:-0.32383 4:-0.044041 5:-0.13212 6:0.10622 7:-0.12953 8:-0.12435 9:-0.044041 10:0.082902 
0.0 0.0 1.0 1.0 1:-0.81347 2:1.9093 3:-0.47409 4:-0.13212 5:-0.012953 6:-0.0051813 7:0.07513 8:0.015544 9:-0.025907 10:0.036269 
0.0 0.0 0.0 1.0 1:-0.5 2:0.20207 3:0.20725 4:0.054404 5:-0.059585 6:0.090674 7:-0.007772 8:0.1399 9:0.059585 10:0.031088 
0.32001590091040605 0.10685933791916108 1.0 1.0 1:-0.98187 2:2.2124 3:-0.26166 4:-0.031088 5:-0.051813 6:-0.025907 7:-0.049223 8:-0.049223 9:-0.054404 10:-0.10104 
0.0 0.0 1.0 0.0 1:-0.10881 2:0.67358 3:-0.38083 4:0.025907 5:0.056995 6:-0.12694 7:-0.054404 8:-0.12435 9:0.044041 10:-0.03886 
0.0 0.0 1.0 1.0 1:-2.0363 2:1.3705 3:-0.11399 4:-0.10622 5:-0.020725 6:-0.072539 7:-0.16839 8:0.0 9:-0.020725 10:-0.046632 
0.0 0.0 0.0 1.0 1:-1.2202 2:1.6917 3:0.4171 4:-0.18394 5:-0.17617 6:0.080311 7:0.020725 8:0.056995 9:-0.1114 10:0.018135 
0.0 0.0 1.0 0.0 1:0.80829 2:-0.55959 3:-0.25648 4:-0.044041 5:-0.036269 6:-0.085492 7:0.046632 8:-0.051813 9:-0.010363 10:-0.095855 
0.0 0.0 1.0 1.0 1:-0.7228 2:1.4223 3:-0.47409 4:0.10881 5:0.072539 6:-0.16839 7:0.095855 8:-0.069948 9:0.046632 10:-0.062176 
0.0 1.0 0.0 0.0 1:2.4663 2:-0.74093 3:-0.18912 4:-0.072539 5:-0.16321 6:0.044041 7:0.025907 8:-0.059585 9:-0.046632 10:0.036269 
0.5900313745185185 0.0 1.0 1.0 1:-0.26166 2:-0.5285 3:0.07513 4:0.11917 5:0.18912 6:0.22021 7:0.098446 8:-0.031088 9:-0.020725 10:0.020725 
0.0 0.0 1.0 1.0 1:-1.4508 2:0.75907 3:0.095855 4:0.044041 5:0.046632 6:-0.090674 7:0.14767 8:0.069948 9:0.069948 10:-0.069948 
0.0 0.0 1.0 1.0 1:-0.95078 2:1.101 3:-0.26166 4:-0.064767 5:-0.16062 6:-0.044041 7:0.054404 8:0.090674 9:-0.031088 10:0.018135 
0.0 0.0 1.0 1.0 1:-1.7513 2:2.101 3:-0.062176 4:0.069948 5:0.10622 6:-0.010363 7:-0.11399 8:-0.044041 9:-0.056995 10:-0.12953 
0.0 0.0 1.0 1.0 1:-1.8601 2:1.8109 3:0.13212 4:0.20725 5:0.18394 6:-0.16839 7:0.095855 8:-0.054404 9:-0.1114 10:-0.041451 
0.0 0.0 1.0 1.0 1:-1.0104 2:0.72798 3:-0.11917 4:0.10363 5:0.23316 6:0.10622 7:-0.046632 8:-0.10104 9:-0.072539 10:0.012953 
0.0 0.0 1.0 1.0 1:-0.97668 2:1.1632 3:0.07513 4:0.064767 5:0.3057 6:0.049223 7:0.098446 8:-0.012953 9:-0.018135 10:0.11917 
0.0 0.0 1.0 1.0 1:-1.4275 2:1.6528 3:-0.17098 4:-0.069948 5:-0.17098 6:0.17098 7:-0.025907 8:-0.012953 9:0.033679 10:0.064767 
0.0 0.0 1.0 0.3566785036400771 1:-0.87565 2:1.342 3:0.007772 4:0.023316 5:0.13472 6:0.13212 7:0.020725 8:0.028497 9:0.007772 10:0.031088 
0.0 0.0 1.0 1.0 1:-1.5078 2:1.6917 3:-0.10104 4:0.059585 5:0.13472 6:0.036269 7:-0.015544 8:-0.007772 9:-0.069948 10:-0.018135 
0.0 0.0 0.0 1.0 1:-1.2694 2:1.4793 3:0.26425 4:-0.041451 5:0.012953 6:0.10622 7:0.03886 8:-0.049223 9:0.023316 10:0.0 
0.0 0.0 0.0 1.0 1:-0.91969 2:1.0285 3:0.32642 4:-0.023316 5:0.041451 6:0.018135 7:0.0051813 8:-0.031088 9:-0.16062 10:0.067358 
0.0 0.0 0.0 1.0 1:-0.97927 2:0.9456 3:0.31865 4:-0.023316 5:-0.34974 6:0.0 7:-0.012953 8:-0.012953 9:0.015544 10:0.007772 
0.0 0.0 1.0 1.0 1:-1.7772 2:2.0751 3:-0.067358 4:-0.31088 5:0.082902 6:0.1399 7:-0.018135 8:0.07513 9:-0.069948 10:0.044041 
0.0 0.0 1.0 1.0 1:-0.71503 2:1.4275 3:-0.34715 4:-0.13212 5:-0.15544 6:0.012953 7:0.059585 8:0.015544 9:0.041451 10:0.015544 
0.0 0.0 0.0 1.0 1:-1.228 2:1.0259 3:0.42228 4:-0.010363 5:-0.19948 6:0.007772 7:-0.067358 8:0.018135 9:0.028497 10:-0.067358 
0.0 0.0 1.0 0.0 1:-0.5544 2:1.2409 3:0.033679 4:-0.19948 5:-0.031088 6:-0.054404 7:-0.16839 8:0.095855 9:-0.10622 10:-0.044041 
0.0 0.0 1.0 1.0 1:-0.79275 2:0.8886 3:-0.064767 4:0.046632 5:-0.0051813 6:0.036269 7:-0.10622 8:-0.082902 9:-0.10363 10:0.07772 
0.6125541375017646 0.0 0.0 0.0 1:1.4741 2:0.88601 3:-0.25907 4:-0.3601 5:-0.20984 6:-0.028497 7:0.10881 8:0.041451 9:0.033679 10:0.090674 
0.0 0.0 0.0 1.0 1:-1.3316 2:0.86788 3:0.26166 4:0.1658 5:-0.03886 6:-0.29534 7:-0.16839 8:-0.16839 9:0.090674 10:-0.056995 
0.0 0.0 1.0 0.0 1:0.0051813 2:0.16839 3:-0.17098 4:-0.19171 5:0.17098 6:0.041451 7:-0.015544 8:0.044041 9:0.098446 10:0.049223 
0.0 0.0 1.0 1.0 1:-0.68912 2:1.1606 3:-0.63472 4:-0.25389 5:-0.059585 6:-0.020725 7:0.095855 8:0.03886 9:0.044041 10:-0.020725 
0.0 0.0 1.0 1.0 1:-1.1995 2:0.99223 3:-0.33161 4:0.22539 5:0.069948 6:0.14767 7:-0.095855 8:-0.10622 9:-0.044041 10:-0.11658 
0.0 0.0 1.0 1.0 1:-0.45078 2:0.61658 3:-0.35492 4:-0.067358 5:0.22798 6:-0.15026 7:-0.085492 8:0.049223 9:-0.12435 10:0.041451 
0.0 0.0 1.0 0.0 1:-0.69948 2:1.1425 3:-0.036269 4:-0.049223 5:-0.14767 6:-0.21244 7:0.036269 8:-0.11399 9:-0.0051813 10:-0.080311 
0.0 0.0 1.0 0.0 1:-0.42487 2:0.71503 3:-0.059585 4:0.028497 5:0.020725 6:0.12694 7:-0.07772 8:0.07772 9:-0.07513 10:-0.054404 
0.0 0.0 0.7650868348864415 0.0 1:0.20984 2:0.57772 3:-0.2487 4:-0.082902 5:-0.031088 6:0.11917 7:0.088083 8:0.069948 9:-0.059585 10:-0.10363 
0.0 0.0 0.0 1.0 1:-1.1503 2:1.0803 3:0.41451 4:0.2513 5:0.007772 6:0.03886 7:-0.072539 8:0.082902 9:0.007772 10:-0.0025907 
0.0 0.0 1.0 1.0 1:-0.56477 2:0.91451 3:-0.22798 4:0.041451 5:0.23316 6:-0.10363 7:0.012953 8:-0.13472 9:-0.069948 10:-0.015544 
0.0 0.0 1.0 1.0 1:-1.0803 2:1.7746 3:-0.53109 4:0.069948 5:0.17617 6:0.028497 7:-0.12176 8:-0.018135 9:-0.012953 10:0.046632 
0.0 0.0 1.0 1.0 1:-0.10622 2:-0.43005 3:0.1114 4:0.033679 5:0.023316 6:-0.085492 7:0.16321 8:-0.015544 9:-0.007772 10:-0.049223 
0.0 0.0 1.0 0.0 1:-0.68135 2:1.272 3:-0.088083 4:-0.22798 5:0.088083 6:0.22539 7:0.17098 8:-0.080311 9:0.020725 10:0.0051813 
0.0 0.0 1.0 1.0 1:-1.443 2:1.1062 3:-0.27202 4:-0.11658 5:-0.0051813 6:-0.18394 7:0.051813 8:-0.018135 9:-0.03886 10:0.020725 
0.0 0.0 1.0 1.0 1:-1.1917 2:1.3472 3:-0.22021 4:0.07513 5:-0.012953 6:0.21762 7:-0.036269 8:-0.044041 9:-0.036269 10:0.018135 
0.0 0.0 1.0 1.0 1:-0.70984 2:-0.098446 3:0.023316 4:0.098446 5:-0.023316 6:-0.12435 7:-0.062176 8:0.069948 9:0.041451 10:0.056995 
0.0 0.0 1.0 1.0 1:-1.2591 2:1.2409 3:-0.12176 4:-0.012953 5:0.14249 6:-0.19171 7:-0.1658 8:0.093264 9:0.007772 10:0.0051813 
0.0 0.0 1.0 1.0 1:-0.58549 2:0.67098 3:-0.34197 4:0.17876 5:0.033679 6:0.018135 7:-0.015544 8:-0.11917 9:-0.025907 10:-0.012953 
0.0 0.0 0.8052720176896072 1.0 1:-0.65544 2:0.42746 3:0.21762 4:-0.064767 5:0.033679 6:0.064767 7:-0.10881 8:0.0025907 9:-0.046632 10:-0.03886 
0.0 0.0 1.0 1.0 1:-0.90415 2:0.83938 3:0.10622 4:-0.25389 5:-0.1114 6:0.15285 7:0.049223 8:-0.10363 9:-0.11658 10:0.054404 
0.9597140524261566 1.0 0.0 0.768581148687553 1:2.8627 2:-0.96632 3:-0.45078 4:0.27202 5:0.012953 6:0.064767 7:-0.26166 8:-0.018135 9:0.07772 10:-0.051813 
0.0 0.0 1.0 1.0 1:-1.785 2:1.3187 3:-0.17876 4:0.23057 5:-0.093264 6:-0.10622 7:-0.072539 8:-0.15803 9:0.095855 10:0.054404 
0.0 0.0 1.0 1.0 1:-1.8057 2:1.2202 3:-0.26166 4:0.054404 5:-0.025907 6:-0.049223 7:-0.22798 8:-0.10881 9:-0.023316 10:0.062176 
0.0 0.0 0.0 1.0 1:-1.2642 2:0.62694 3:0.36528 4:0.2487 5:-0.13472 6:0.12953 7:-0.023316 8:0.062176 9:-0.015544 10:0.03886 
0.0 1.0 0.0 0.0 1:2.0181 2:-1.2383 3:-0.012953 4:-0.010363 5:-0.16062 6:0.14508 7:0.12435 8:-0.0025907 9:-0.018135 10:-0.0025907 
0.4411702837822938 0.3106302443719389 1.0 1.0 1:-2.4197 2:2.3083 3:-0.30311 4:-0.046632 5:0.14508 6:-0.018135 7:0.023316 8:0.069948 9:0.018135 10:0.023316 
0.0 0.0 1.0 1.0 1:-1.2098 2:1.7642 3:0.064767 4:0.069948 5:0.18394 6:-0.023316 7:-0.062176 8:0.03886 9:0.041451 10:-0.18394 
0.0 0.0 1.0 1.0 1:-1.3523 2:1.6166 3:-0.07772 4:-0.067358 5:0.10104 6:-0.020725 7:-0.033679 8:0.023316 9:-0.012953 10:-0.007772 
0.0 0.0 1.0 0.0 1:-0.23834 2:1.3005 3:-0.48705 4:0.10104 5:-0.041451 6:-0.13472 7:-0.044041 8:0.064767 9:0.03886 10:-0.10881 
1.0 1.0 0.7649840585680561 0.6898078111648004 1:4.9689 2:-3.6762 3:0.62694 4:0.3342 5:0.11658 6:0.088083 7:0.07772 8:0.0025907 9:-0.072539 10:-0.03886 
0.0 0.0 1.0 1.0 1:-0.54145 2:0.89378 3:-0.062176 4:-0.16321 5:0.25907 6:0.11399 7:0.082902 8:0.12176 9:0.046632 10:0.069948 
0.0 0.0 1.0 0.0 1:-0.29016 2:0.71762 3:-0.19948 4:-0.10881 5:0.17098 6:0.0 7:0.07772 8:-0.049223 9:0.049223 10:-0.088083 
0.0 0.0 1.0 1.0 1:-1.3187 2:1.6736 3:-0.20207 4:-0.085492 5:-0.12176 6:0.072539 7:0.0025907 8:-0.03886 9:-0.10104 10:-0.041451 
0.0 0.0 1.0 1.0 1:-2.3212 2:2.2565 3:-0.31865 4:-0.041451 5:0.16321 6:0.072539 7:0.012953 8:0.051813 9:-0.072539 10:0.046632 
0.0 0.0 1.0 1.0 1:-0.0051813 2:-0.12176 3:-0.1943 4:-0.033679 5:-0.17617 6:-0.023316 7:0.007772 8:0.082902 9:-0.015544 10:-0.080311 
0.0 0.0 1.0 1.0 1:-0.67358 2:0.82124 3:-0.44819 4:0.11658 5:-0.059585 6:0.031088 7:-0.0025907 8:-0.007772 9:0.025907 10:0.067358 
0.0 0.0 1.0 1.0 1:-0.80829 2:0.72021 3:-0.28756 4:0.10104 5:0.051813 6:-0.20207 7:0.067358 8:0.018135 9:0.093264 10:0.082902 
0.0 0.0 1.0 1.0 1:-0.3342 2:0.12435 3:-0.23316 4:-0.015544 5:0.064767 6:-0.1399 7:0.069948 8:-0.051813 9:-0.11399 10:0.007772 
0.0 0.0 1.0 1.0 1:-1.0259 2:0.93264 3:-0.31865 4:0.23834 5:-0.17876 6:0.07513 7:0.010363 8:0.007772 9:0.07513 10:-0.046632 
0.0 0.0 0.0 0.787888372522475 1:-0.98446 2:1.3497 3:0.45337 4:-0.054404 5:0.049223 6:-0.1114 7:-0.11658 8:-0.025907 9:-0.11658 10:-0.010363 
0.0 0.0 1.0 1.0 1:-0.80829 2:0.5 3:0.10622 4:0.11658 5:0.12435 6:0.054404 7:0.085492 8:0.072539 9:0.054404 10:-0.031088 
0.0 0.0 1.0 1.0 1:-0.81606 2:0.18912 3:0.2513 4:-0.023316 5:-0.028497 6:0.11399 7:-0.10622 8:0.0051813 9:0.023316 10:0.046632 
0.0 1.0 0.0 0.0 1:2.1865 2:-1.0181 3:0.023316 4:0.069948 5:0.0 6:-0.07772 7:-0.031088 8:-0.12694 9:0.031088 10:0.0025907 
0.0 0.0 1.0 0.0 1:-0.49741 2:1.4767 3:-0.23316 4:-0.069948 5:-0.11917 6:-0.023316 7:-0.16321 8:0.16321 9:0.025907 10:-0.10104 
0.0 0.0 1.0 1.0 1:-1.6503 2:1.1528 3:-0.1399 4:-0.0051813 5:-0.041451 6:0.28756 7:0.012953 8:-0.03886 9:-0.012953 10:-0.028497 
0.0 0.0 1.0 0.0 1:-0.32124 2:1.3394 3:-0.61399 4:0.10363 5:-0.15026 6:-0.17617 7:-0.064767 8:-0.020725 9:-0.007772 10:-0.0025907 
0.0 0.0 1.0 1.0 1:-1.2124 2:1.3161 3:-0.010363 4:-0.29016 5:0.010363 6:0.0025907 7:0.0 8:-0.007772 9:0.0025907 10:0.12435 
0.0 0.0 1.0 1.0 1:-1.1166 2:0.43782 3:0.26166 4:-0.11658 5:0.007772 6:-0.031088 7:-0.098446 8:-0.1114 9:-0.049223 10:-0.07513 
0.0 0.043733864945920214 0.0 0.0 1:2.0155 2:-0.6399 3:-0.064767 4:0.015544 5:0.13212 6:0.17358 7:0.023316 8:-0.18135 9:-0.10881 10:-0.023316 
0.0 0.0 1.0 1.0 1:-1.1632 2:1.3523 3:-0.18653 4:-0.023316 5:-0.11658 6:-0.015544 7:0.07513 8:0.067358 9:-0.10881 10:-0.062176 
0.0 0.0 1.0 0.0 1:0.10881 2:0.7513 3:-0.07772 4:-0.15026 5:-0.051813 6:-0.12435 7:0.064767 8:0.12953 9:-0.10881 10:-0.031088 
0.03130519299614985 1.0 0.7534146309129323 0.0 1:2.6632 2:-0.34974 3:-0.51554 4:-0.13472 5:0.010363 6:0.023316 7:0.16321 8:0.095855 9:-0.028497 10:0.010363 
0.0 1.0 0.0 0.0 1:2.7979 2:-0.52332 3:-0.34974 4:-0.028497 5:0.020725 6:0.19689 7:0.0051813 8:-0.090674 9:0.095855 10:0.044041 
0.0 0.0 1.0 0.0 1:-0.66062 2:1.1477 3:-0.2772 4:0.39378 5:-0.051813 6:0.020725 7:0.1943 8:0.095855 9:0.049223 10:-0.044041 
0.0 0.0 1.0 1.0 1:-0.62694 2:0.90674 3:-0.27202 4:0.056995 5:0.007772 6:0.025907 7:-0.11399 8:0.10363 9:0.051813 10:-0.007772 
0.0 0.0 1.0 1.0 1:-1.3083 2:2.2694 3:0.12176 4:-0.072539 5:0.082902 6:0.049223 7:-0.023316 8:-0.025907 9:0.036269 10:-0.07513 
0.0 0.0 0.0 1.0 1:-0.99482 2:1.4611 3:0.13472 4:0.10363 5:-0.036269 6:-0.11399 7:-0.025907 8:0.025907 9:-0.082902 10:-0.062176 
0.0 0.0 0.0 1.0 1:-0.84197 2:0.90415 3:0.15285 4:0.0051813 5:-0.16321 6:0.020725 7:0.072539 8:-0.16839 9:-0.059585 10:-0.093264 
0.0 0.0 1.0 1.0 1:-1.8135 2:1.1813 3:0.007772 4:0.28238 5:0.37824 6:0.046632 7:0.080311 8:0.067358 9:0.0 10:0.041451 
0.0 0.0 1.0 1.0 1:-1.0078 2:0.1114 3:0.0 4:0.007772 5:0.25907 6:0.069948 7:0.0 8:0.085492 9:0.059585 10:0.018135 
0.0 0.0 1.0 1.0 1:-1.8109 2:1.4326 3:0.54922 4:0.069948 5:-0.07513 6:-0.051813 7:-0.064767 8:-0.0051813 9:-0.07513 10:0.0051813 
0.0 0.0 1.0 1.0 1:-0.028497 2:-0.53886 3:-0.29534 4:-0.03886 5:-0.18394 6:0.088083 7:0.054404 8:0.11658 9:-0.012953 10:-0.020725 
0.0 0.0 0.0 1.0 1:-0.74093 2:0.84974 3:-0.012953 4:0.17098 5:-0.16062 6:-0.025907 7:-0.098446 8:-0.018135 9:0.044041 10:0.015544 
-0.12512198970659932 0.12578637699845646 0.119416908824384 0.12258575410727063 1:99.6573 2:-23.9642 3:-14.4722 4:-8.4954 5:-5.69 6:-2.9589 7:-3.7875 8:-1.9473 9:-0.63061 10:-0.78647 
-0.01145971028793016 0.011319369250161422 0.010163032161324888 0.008842609891875311 1:85.7077 2:-24.0972 3:-13.1716 4:-6.3185 5:-3.687 6:-1.2395 7:-2.6876 8:-0.21774 9:-0.48009 10:-0.3703 
-0.013964156940964237 0.013899054487722122 0.013107296084431466 0.014474749843626343 1:86.3931 2:-22.8306 3:-14.487 4:-7.9496 5:-4.5793 6:-0.37363 7:-2.9908 8:-0.77355 9:0.90288 10:-0.063867 
-0.0367008026944905 0.0373694939278229 0.035231134102377944 0.03596062015045272 1:91.4529 2:-26.1126 3:-12.9158 4:-6.6583 5:-4.0566 6:-2.7417 7:-2.3214 8:-0.70926 9:-0.61353 10:-0.66133 
-0.14570086088824696 0.14633986174730415 0.1392959594827623 0.14303641606552953 1:78.8719 2:-29.0628 3:-16.6913 4:-2.5035 5:2.2759 6:2.1523 7:-0.20092 8:0.7101 9:0.38025 10:0.14189 
-0.02132652886843387 0.02038301735537956 0.018785267145801594 0.01974033201625945 1:94.6571 2:-24.0871 3:-14.0741 4:-8.0139 5:-4.9472 6:-2.3996 7:-3.4344 8:-0.021533 9:-0.08315 10:-0.65659 
-0.06806782260084747 0.06787860449255369 0.06482847213263097 0.0662642193866413 1:94.4177 2:-29.2732 3:-18.605 4:-5.192 5:-2.3625 6:-0.46931 7:-0.067766 8:-0.20604 9:0.46125 10:-0.59291 
-0.024508776159463536 0.02456079880478767 0.023732567450540656 0.024349790183939138 1:87.8586 2:-20.7951 3:-14.8462 4:-8.2262 5:-3.77 6:-1.8729 7:-2.3347 8:-0.57983 9:-0.20979 10:-0.47125 
-0.0014542545338980944 0.003988391422459094 0.0036918920231549593 0.0012614383622623051 1:81.1279 2:-24.3539 3:-14.0151 4:-5.2144 5:-1.9918 6:-0.052904 7:-1.3978 8:-0.27643 9:-0.26332 10:0.55544 
-0.04628492730371807 0.04732604523426691 0.04499937372930421 0.04591801573618229 1:70.9887 2:-20.1159 3:-12.3528 4:-6.1207 5:-3.0748 6:-1.3156 7:-0.56013 8:0.88409 9:0.63608 10:-0.76073 
-0.08240732867563486 0.08304282312010633 0.07911218591778917 0.08092737552826403 1:82.3578 2:-25.6109 3:-16.8795 4:-6.4641 5:-0.33776 6:1.8245 7:-0.11821 8:0.44736 9:0.6737 10:-0.57007 
-0.02355279647565319 0.023714796616603195 0.0230566859300403 0.023139872810556985 1:89.0584 2:-25.7904 3:-15.8363 4:-6.2525 5:-1.9113 6:-1.3936 7:-2.187 8:0.17527 9:0.47483 10:-0.49314 
-0.01687142719175133 0.017486966243412404 0.01745507342548036 0.018094007684562232 1:85.7903 2:-24.2438 3:-14.3293 4:-8.2531 5:-3.3265 6:-0.45173 7:-2.0382 8:0.61099 9:-0.1675 10:-0.70126 
-0.05204204552634233 0.05282447196639482 0.05006627516375054 0.05134479716466482 1:82.9494 2:-21.9251 3:-15.3332 4:-7.1167 5:-2.9438 6:0.28234 7:-1.4463 8:0.0045264 9:0.59922 10:-0.56672 
-0.07042706427787998 0.07005808217767842 0.06718981415083373 0.06844986790856632 1:99.1311 2:-28.7992 3:-17.6053 4:-7.8231 5:-3.5458 6:-0.77093 7:-2.2026 8:0.38493 9:-0.42857 10:0.33556 
-0.01619936270744828 0.015693242942984784 0.014758564014880772 0.01515716410865789 1:92.637 2:-29.193 3:-16.6909 4:-5.5528 5:-2.0888 6:-0.89173 7:-1.0877 8:0.41073 9:-0.35039 10:-0.3377 
-0.05557345070184808 0.055798294042106865 0.0528856420357599 0.05399306034611204 1:95.1208 2:-29.5532 3:-16.496 4:-7.4814 5:-1.9332 6:-0.62595 7:-0.62368 8:0.24377 9:0.18687 10:-0.62514 
-0.0562349019789767 0.05690595111533587 0.0539870006880434 0.05550690258581809 1:93.6044 2:-27.3724 3:-16.471 4:-8.2778 5:-3.2413 6:-0.41894 7:-1.9758 8:0.42504 9:-0.021298 10:-0.37507 
-0.15101119745020564 0.15164497465380072 0.14418791063242534 0.1479779998767148 1:96.6609 2:-33.402 3:-22.2135 4:-3.8058 5:2.2399 6:2.8732 7:-0.28728 8:0.52677 9:0.50999 10:0.59903 
-0.014922046467454644 0.014987982313896435 0.01334034461413199 0.014958400405998443 1:76.6972 2:-19.3818 3:-11.5333 4:-6.0514 5:-4.677 6:-1.7263 7:-1.9455 8:-0.7056 9:-0.1574 10:-0.36379 
-0.053332159832530104 0.05416590575483839 0.050968282234388394 0.0518311917842596 1:79.2004 2:-18.9333 3:-10.7875 4:-7.0698 5:-4.2198 6:-2.2538 7:-2.3789 8:-0.46306 9:-0.57266 10:-1.0855 
-0.01710963531402554 0.019540309179829157 0.018424947612778086 0.01722325776424163 1:79.8783 2:-22.8023 3:-12.3947 4:-5.3795 5:-2.7181 6:-0.80803 7:-2.3739 8:-0.955 9:0.078231 10:-0.69542 
-0.007249314328514531 0.006896115354386015 0.005516943321807624 0.005741601643650561 1:64.2962 2:-16.5267 3:-10.7921 4:-5.5781 5:-2.7405 6:-0.431 7:-1.7376 8:0.47036 9:0.15628 10:-0.015646 
-0.011276738348287227 0.009640694740057335 0.009511198220025885 0.010744342393547558 1:77.6814 2:-20.9878 3:-13.6183 4:-5.7385 5:-1.959 6:-0.74628 7:-2.0616 8:-0.60317 9:-0.074856 10:-0.38948 
-0.031914415089585 0.03245080300871889 0.03112869877071124 0.031847088803577776 1:69.2155 2:-18.6506 3:-10.4604 4:-5.1029 5:-3.4733 6:0.24736 7:-1.7081 8:-0.47381 9:0.023783 10:0.19409 
-0.022052219210449097 0.021613110380868623 0.020556599073989195 0.020964058869585172 1:64.1106 2:-18.8207 3:-11.4478 4:-3.7026 5:-1.7131 6:-1.1402 7:-1.0777 8:-0.40099 9:-0.091863 10:-0.069885 
-0.015162194034630889 0.013751733356779702 0.014186891695888746 0.013862234050029868 1:78.3861 2:-18.7164 3:-12.892 4:-6.8247 5:-3.9594 6:-1.606 7:-1.973 8:-0.10586 9:-0.26049 10:0.21107 
-0.06368796382590443 0.0640490390360003 0.060676813531768126 0.06274387704625502 1:67.8556 2:-20.5756 3:-10.0119 4:-3.568 5:-1.9294 6:-0.11724 7:-1.767 8:-0.45092 9:0.1787 10:-0.79508 
-0.03129766141789564 0.03203146330710633 0.03075660690996412 0.030604980775637256 1:73.05 2:-23.5778 3:-12.5216 4:-4.676 5:-1.1632 6:0.99477 7:-0.49613 8:0.21102 9:-0.14351 10:-0.37242 
-0.02637110733110414 0.02667761957386147 0.024420639273624256 0.02452639469044377 1:87.7557 2:-22.509 3:-14.0426 4:-8.4377 5:-4.9467 6:-1.2095 7:-1.1406 8:-1.0095 9:0.035767 10:-0.76839 
-0.07764171190696822 0.07855573679345751 0.07461810562792914 0.07619359494056592 1:77.4074 2:-25.429 3:-12.3629 4:-4.9234 5:-0.86138 6:0.42567 7:-0.56855 8:0.23561 9:0.11104 10:0.0618 
-0.08523957577780954 0.08570149714726755 0.08169881484964261 0.08407044764506519 1:87.3011 2:-26.3106 3:-17.9133 4:-6.9013 5:-1.4121 6:0.21402 7:-1.24 8:0.80597 9:0.23213 10:-0.19979 
-0.0271220166297331 0.028245696220541038 0.026851516046505014 0.027888382349753722 1:89.1359 2:-23.5481 3:-15.6593 4:-8.2461 5:-3.716 6:-1.6394 7:-2.6835 8:-0.88739 9:0.095474 10:0.6551 
-0.044481515441699315 0.04516645595439398 0.043020594524844705 0.04436523990332528 1:65.8672 2:-18.7421 3:-11.1846 4:-4.97 5:-1.1608 6:-1.3353 7:-0.74356 8:0.67431 9:0.51379 10:-0.55492 
-0.0920619447302449 0.09228579927292475 0.08727846386808077 0.08969075821280123 1:61.1272 2:-18.519 3:-12.365 4:-3.7344 5:-1.1753 6:0.98888 7:-0.32551 8:0.88658 9:-0.064521 10:0.32902 
-0.01230984818193597 0.011743283095735784 0.01081978593125967 0.011617668552298302 1:65.2562 2:-20.4266 3:-11.4067 4:-5.2434 5:-1.435 6:0.57977 7:-1.0054 8:0.079173 9:0.53145 10:0.036918 
-0.07832213892370989 0.07818052679117221 0.0748265430005284 0.07675894792407525 1:81.8747 2:-18.5181 3:-12.9672 4:-8.2679 5:-4.0198 6:-2.2357 7:-2.6164 8:-0.19349 9:-0.45615 10:-1.0089 
-0.10015721153573401 0.10176078316625267 0.09655374496323348 0.09901246307555248 1:93.4973 2:-30.0697 3:-16.9665 4:-4.6091 5:-0.4758 6:0.47991 7:-0.9068 8:-0.19349 9:-0.40599 10:0.05573 
-0.08517434636093484 0.08574183325300809 0.08168284509188357 0.08301421655262342 1:73.8964 2:-18.2564 3:-9.3743 4:-6.0328 5:-3.6001 6:-1.6849 7:-2.5416 8:-1.2932 9:-0.13755 10:-0.40976 
-0.09735342926014974 0.09821100303211396 0.09388449424967979 0.09591800957343258 1:74.9272 2:-23.5675 3:-15.7251 4:-3.7984 5:-0.98692 6:-0.13066 7:-0.15487 8:1.0523 9:-0.32323 10:-0.35631 
-0.048168356167984185 0.04764104723947049 0.04660405267835062 0.047200565811983494 1:68.8916 2:-16.8096 3:-12.1334 4:-6.3877 5:-3.0284 6:0.060963 7:-2.0299 8:0.41774 9:0.46211 10:-0.15434 
-0.03831280678776346 0.039101644058544105 0.03662387807385514 0.0375333536419599 1:62.8976 2:-17.1693 3:-11.9238 4:-5.4927 5:-1.938 6:0.80717 7:-0.74772 8:-0.45298 9:0.085296 10:0.35733 
-0.05163865369901772 0.05178388149155576 0.04885314532219894 0.05042180595136518 1:73.5693 2:-17.4252 3:-11.6472 4:-6.8304 5:-3.3215 6:-2.1725 7:-1.6279 8:-0.67164 9:-0.56593 10:0.12017 
-0.005121328641491555 0.00476618818255101 0.00405075977482967 0.0035640123371182275 1:69.1613 2:-17.7458 3:-10.6574 4:-6.2248 5:-2.7962 6:-1.2607 7:-1.3412 8:-0.12865 9:-0.6815 10:-0.036813 
-0.0 6.710010726586983E-4 0.001104696979068773 0.0 1:78.6995 2:-20.2342 3:-12.2441 4:-7.0184 5:-3.9655 6:-1.0075 7:-2.1849 8:-1.7124 9:0.051936 10:-0.87091 
-0.01063305628311435 0.011615696929972294 0.009919432334426026 0.010680873002568274 1:79.5123 2:-18.6471 3:-12.3991 4:-7.6574 5:-4.4678 6:-1.1494 7:-2.3278 8:-0.32449 9:-0.025746 10:0.069623 
-0.028078055861842758 0.02772151851909323 0.02718069230908613 0.027609639264735225 1:75.5136 2:-18.5453 3:-10.7151 4:-7.0091 5:-3.8884 6:-1.9295 7:-2.8293 8:0.012245 9:-0.9343 10:-0.91617 
-0.0381613312974036 0.037286433904421074 0.03534932642610406 0.037986444768724474 1:78.82 2:-23.8123 3:-13.646 4:-4.6331 5:-2.5528 6:-0.74647 7:-0.78462 8:0.13755 9:-0.25743 10:0.12292 
-0.0696165499867534 0.06930116371838327 0.06523472186719743 0.06788240393360123 1:74.0789 2:-24.6094 3:-12.3365 4:-3.3585 5:-0.61536 6:-0.14477 7:-0.35222 8:0.38116 9:-0.40824 10:-0.14579 
-0.09844361906265192 0.09741148087108745 0.09177642257323343 0.0940579216175144 1:60.897 2:-16.1175 3:-9.9507 4:-5.197 5:-2.0497 6:-1.6199 7:-0.99772 8:-0.30115 9:-0.32883 10:-0.26654 
-0.03918591883728396 0.04065316388826998 0.03812672057369084 0.03827509307480383 1:82.3518 2:-23.7116 3:-11.9144 4:-6.7273 5:-4.1927 6:-1.7068 7:-1.3031 8:-0.27692 9:-0.14825 10:-1.0224 
-0.017878393881853676 0.017634294401188563 0.01638970667682296 0.017216754399288294 1:76.0069 2:-22.5786 3:-13.7137 4:-5.5446 5:-1.215 6:0.69657 7:-0.21795 8:-0.42818 9:0.08595 10:0.33242 
-0.04163675839895648 0.04226113166619242 0.04002688498385234 0.04068999526059094 1:64.7371 2:-21.0745 3:-11.4948 4:-3.088 5:-1.7081 6:0.40641 7:-1.5332 8:0.3175 9:0.38231 10:-0.11115 
-0.0049458476582296155 0.005277090379761318 0.004198473487370795 0.0055849068175529175 1:81.5238 2:-22.1612 3:-13.5398 4:-8.4633 5:-3.9174 6:-0.69173 7:-1.4204 8:-0.21821 9:-0.18872 10:-0.40984 
-5.740901512140541E-4 9.858936797235175E-4 0.0 7.222093773535255E-4 1:70.2128 2:-18.3256 3:-12.4196 4:-6.2736 5:-2.1892 6:-0.1983 7:-0.92789 8:-0.3017 9:0.35526 10:-0.79241 
-0.08595937066326093 0.08640224928176429 0.08243886864221883 0.08503757563365433 1:66.502 2:-16.8478 3:-8.9683 4:-5.5941 5:-3.6334 6:-1.2781 7:-2.2383 8:-0.40908 9:0.49696 10:-0.53776 
-0.026693917771742622 0.027462822618364052 0.02598340753794507 0.027321490067709467 1:86.891 2:-25.0508 3:-13.6954 4:-6.7495 5:-3.4548 6:-1.0304 7:-1.9444 8:-0.84349 9:0.27159 10:0.17779 
-0.031567165038654 0.03171448511635354 0.030711476283914317 0.031877908399569554 1:83.8036 2:-26.8452 3:-15.0331 4:-4.3485 5:-2.3943 6:-0.15947 7:-0.918 8:-0.36251 9:0.46204 10:-0.42936 
-0.0012450660457826097 6.886562305181389E-4 6.152355776515637E-4 5.459812639680338E-4 1:68.3113 2:-20.3105 3:-11.9177 4:-3.6777 5:-0.37276 6:0.37242 7:-1.3802 8:0.50628 9:-0.041026 10:-0.31075 
-0.04617854008177044 0.04532709919108839 0.04391068047339734 0.045274934288571315 1:71.3715 2:-20.8564 3:-10.5053 4:-6.2543 5:-1.5172 6:-0.74257 7:-1.1611 8:0.3321 9:-0.32355 10:-0.42818 
-8.31526512699741E-4 0.0024271104423447356 0.0027060550705515435 0.0015591953177907208 1:75.9178 2:-20.0904 3:-13.4415 4:-6.1447 5:-2.574 6:-0.5585 7:-0.72496 8:-0.13527 9:-0.75298 10:0.26402 
-0.06433817744730225 0.06488473715387115 0.061703999478975556 0.06292532655983345 1:78.4853 2:-21.964 3:-13.5517 4:-8.0893 5:-2.034 6:-0.19474 7:-1.5402 8:0.82556 9:0.33367 10:-0.23598 
-0.05345639418827619 0.05382225630575212 0.05111597973627008 0.052205946235723555 1:83.8649 2:-22.351 3:-14.8669 4:-7.525 5:-3.6144 6:-1.7763 7:-2.5689 8:-0.27376 9:1.8264 10:-0.76279 
-0.03370433637787846 0.03364200195653616 0.03222721480044229 0.03214649584754501 1:89.2574 2:-25.5324 3:-14.538 4:-7.9275 5:-4.0475 6:-0.20908 7:-2.2687 8:0.93574 9:0.019545 10:0.24715 
-0.028301705840361752 0.028893926787373937 0.02861825828266197 0.02893071893811401 1:94.805 2:-25.0417 3:-14.1122 4:-7.666 5:-4.265 6:-0.7428 7:-2.6187 8:-0.68718 9:-0.89375 10:-0.33867 
-0.018975276315961256 0.01832830511434783 0.017143893298920986 0.01884999601036057 1:80.754 2:-20.9963 3:-11.2511 4:-6.9513 5:-4.0788 6:-1.4118 7:-1.5532 8:-1.6013 9:-0.075929 10:-0.53794 
-0.013405167193473334 0.013016779659892045 0.012345363859939989 0.011810685187539006 1:82.3737 2:-21.7389 3:-11.6445 4:-7.6294 5:-2.5591 6:-2.2532 7:-2.3936 8:0.054239 9:-0.57611 10:-0.34809 
-0.0934811976034096 0.0935796038278923 0.08884781363850566 0.09110901414815278 1:97.002 2:-27.7165 3:-17.6573 4:-5.0431 5:-4.2502 6:-0.40484 7:-2.1297 8:-1.1604 9:0.053166 10:-0.5169 
-0.030773157233248315 0.031916420736354485 0.029489788286817607 0.03090071118437418 1:72.1692 2:-21.1716 3:-11.6115 4:-4.869 5:-2.009 6:-1.1007 7:-1.6005 8:-1.01 9:-0.022632 10:-1.0112 
-0.08107982038677486 0.08185512411404537 0.07684244260784838 0.07995747948974524 1:67.5304 2:-15.2523 3:-11.4907 4:-6.5665 5:-3.7534 6:-0.90994 7:-2.0124 8:-0.30304 9:0.1079 10:-0.36381 
-0.04936222222258055 0.04900916201413418 0.04511345627853057 0.04771144391175584 1:90.6024 2:-21.9144 3:-13.4808 4:-8.0797 5:-5.3898 6:-1.8696 7:-3.1297 8:-0.80623 9:-0.72541 10:-1.1066 
-0.0031202480660367333 0.0025590906068414395 0.0019759635160555462 0.002181605692752954 1:80.8055 2:-22.1549 3:-13.2762 4:-5.0433 5:-3.2996 6:-0.94587 7:-2.0658 8:0.33038 9:-0.39676 10:-0.36886 
-0.05194889000814108 0.051868337707648045 0.04868070580592878 0.050126512068976795 1:81.3234 2:-27.3683 3:-13.1821 4:-3.2932 5:-0.98339 6:-0.23977 7:-0.96183 8:0.31227 9:-0.057823 10:-0.015463 
-0.0073663705513053665 0.0072672393450944625 0.007004530569472823 0.007585430911469955 1:73.5364 2:-23.1765 3:-12.4767 4:-4.4318 5:-0.88409 6:0.80939 7:-1.4046 8:0.94613 9:-0.14927 10:-0.63223 
-0.031413094597212386 0.03138978378052102 0.030277394914662154 0.030713606752671353 1:83.1692 2:-21.4266 3:-11.1071 4:-6.6056 5:-4.1783 6:-2.37 7:-2.4306 8:-0.80434 9:-0.57593 10:-0.35502 
-0.05442791747318002 0.05361892006405377 0.050794800462938626 0.05260672964349334 1:73.4384 2:-20.3447 3:-14.2128 4:-4.8423 5:-1.6141 6:0.68244 7:-1.1673 8:0.055338 9:0.017949 10:-0.12295 
-0.024247247017093413 0.022239970340620262 0.021745620503169555 0.023215315439959087 1:80.5869 2:-24.0923 3:-11.8527 4:-6.1828 5:-2.7655 6:-1.0165 7:-1.8667 8:0.23969 9:-0.34958 10:0.06057 
-0.0709293761714701 0.07110634965388235 0.06764117693630652 0.06933191810628804 1:98.1087 2:-28.7342 3:-14.6788 4:-6.9935 5:-4.2567 6:-1.3142 7:-1.8663 8:-0.8719 9:-1.093 10:0.052695 
-0.028321629582024065 0.028590959563928736 0.027115669315637705 0.028329793740842858 1:81.6353 2:-18.9726 3:-11.9485 4:-6.5487 5:-3.4789 6:-2.1969 7:-2.7317 8:-1.2784 9:-0.15696 10:-0.47172 
-0.020790098201276655 0.02123485975813001 0.020352729522677873 0.02117760389692487 1:79.551 2:-21.1837 3:-12.8231 4:-7.0965 5:-2.8662 6:-1.9053 7:-1.8385 8:1.366 9:-0.78519 10:-0.73658 
-0.008365346744441733 0.008085676891686712 0.007570769043693412 0.007656787218211197 1:98.0796 2:-26.0147 3:-15.9258 4:-8.0877 5:-4.0127 6:-2.227 7:-2.6618 8:-0.51366 9:-0.38765 10:-0.55958 
-0.006366557462387772 0.006149823547148944 0.005484417774244132 0.0041826826523163555 1:84.8247 2:-24.1451 3:-16.0345 4:-7.2085 5:-3.3097 6:-0.39594 7:-1.5987 8:0.4011 9:0.64882 10:-0.47122 
-0.017002559247437956 0.017811983987637198 0.017137996571220445 0.018201425645228073 1:91.6894 2:-25.5809 3:-14.8967 4:-7.4074 5:-5.2337 6:-1.2507 7:-1.2175 8:-0.23299 9:0.098221 10:-0.7231 
-0.09554888472940677 0.09601809561922374 0.09060709832439402 0.09321238685891774 1:82.4257 2:-27.993 3:-17.4014 4:-5.6841 5:-1.2926 6:1.7199 7:-0.45348 8:1.3433 9:0.30398 10:0.53145 
-0.03271793831207583 0.03289441716299692 0.03143306876333522 0.031824864634708384 1:75.6058 2:-22.3658 3:-11.2658 4:-6.0389 5:-2.8522 6:-0.90824 7:-1.7855 8:0.2039 9:-0.32454 10:-0.57274 
-0.04007710756408974 0.03887501824036756 0.03660529747771656 0.03925984971430859 1:81.7387 2:-24.1185 3:-15.1932 4:-6.2439 5:-1.3675 6:0.32098 7:-2.021 8:0.16253 9:0.38025 10:0.075563 
-0.032998721246910355 0.03335915007930802 0.03231032734590596 0.032817218826694194 1:68.4647 2:-21.597 3:-12.1896 4:-3.5993 5:-1.1974 6:1.0019 7:-0.6753 8:-0.32357 9:-0.086159 10:0.12444 
-0.11132208672210546 0.11210024397280492 0.10579780852359646 0.10883263568697842 1:86.0992 2:-28.3342 3:-14.0833 4:-3.7778 5:-0.98566 6:-0.17221 7:-1.3666 8:0.59218 9:-0.27135 10:-0.12208 
-0.022177141640507197 0.021900963078920012 0.02093489175992861 0.023328245546851287 1:83.3637 2:-23.6585 3:-12.3942 4:-5.6963 5:-2.9426 6:-1.3008 7:-1.5919 8:0.21499 9:-0.65693 10:-0.19995 
-0.07397826279071042 0.07394556897153295 0.06965806688264956 0.07217599084180534 1:76.1965 2:-19.0455 3:-13.3963 4:-7.7438 5:-3.2959 6:0.42815 7:-2.378 8:0.017713 9:-0.13713 10:-0.53142 
-0.08228129893744959 0.08259088708405614 0.07894632582945682 0.08089839409710334 1:82.1422 2:-28.5755 3:-12.6139 4:-3.9319 5:-1.0175 6:0.31693 7:-1.1445 8:-0.33043 9:0.40638 10:-0.86222 
-0.08047145570512748 0.08135746475303159 0.07732692531278604 0.07933456576120526 1:88.4409 2:-20.2887 3:-13.1567 4:-8.4834 5:-4.6587 6:-2.4913 7:-3.0057 8:0.13291 9:-0.48629 10:-0.45803 
-0.0012859436252807832 0.0015924140652665752 0.0029806564992196187 0.0018669297561553124 1:90.2261 2:-22.2114 3:-13.0683 4:-7.702 5:-4.658 6:-2.4304 7:-2.5102 8:-1.1479 9:-0.63038 10:-0.97954 
-0.005181657389656375 0.004891521301032942 0.004147339069627587 0.004618127002663107 1:71.3129 2:-19.6972 3:-11.8209 4:-6.3273 5:-3.9913 6:-1.0907 7:-1.5319 8:0.28378 9:0.35264 10:0.34482 
-0.06495884771422666 0.06600365388424229 0.06273854695497522 0.06492924902662948 1:96.3834 2:-23.988 3:-15.0919 4:-9.0081 5:-4.9887 6:-2.4422 7:-2.6231 8:-0.58673 9:-0.82009 10:-0.69322 
-0.01817507025551443 0.018248611263411305 0.01732730087789364 0.018202671210752086 1:85.3537 2:-21.995 3:-11.5862 4:-7.267 5:-4.057 6:-1.4152 7:-2.6138 8:-0.40686 9:-0.47425 10:-0.88558 
-0.061795454804183914 0.0633253339619073 0.06058577186140324 0.0615285398872457 1:93.0263 2:-23.3845 3:-13.8576 4:-9.1145 5:-5.8052 6:-2.5389 7:-2.9115 8:-0.98098 9:-0.12632 10:-0.82658 
-0.04564599218471468 0.045795994553499794 0.043453904618605155 0.04543229999496793 1:85.6434 2:-21.7644 3:-12.3598 4:-7.153 5:-5.0386 6:-1.9239 7:-2.7867 8:-1.2802 9:0.63247 10:-1.0301 
-0.004218118411872055 0.005139836772531488 0.00411275598354079 0.005547217171107344 1:97.245 2:-28.8948 3:-15.7273 4:-7.1982 5:-3.6781 6:-0.75678 7:-2.6799 8:0.67742 9:-0.21784 10:-0.44448 
-0.029487076928967116 0.028073362277085612 0.026645483471332856 0.027564301506158184 1:89.4267 2:-23.7416 3:-14.322 4:-8.3653 5:-2.4493 6:-1.8464 7:-2.7794 8:0.17527 9:-0.11279 10:-0.54801 
-0.02499414720202624 0.024905674052620484 0.023632114355956066 0.025572551485937074 1:60.8094 2:-16.3225 3:-10.2803 4:-5.2621 5:-2.6785 6:-1.2295 7:-1.1171 8:0.40222 9:-0.15672 10:-0.44537 
-0.08637731110873095 0.08703689711763096 0.08217796364116867 0.08512511574828241 1:100.4158 2:-28.0641 3:-16.0479 4:-8.531 5:-4.6215 6:-1.5925 7:-2.4497 8:-0.42323 9:0.096442 10:-1.0547 
-0.08059546799617247 0.08049024940777114 0.07615287838570602 0.07828390068049652 1:92.3033 2:-26.9267 3:-13.1031 4:-6.0498 5:-4.3268 6:-1.8059 7:-2.7087 8:-1.2807 9:-0.31763 10:-0.80387 
-0.029713655785269504 0.03008663703625839 0.028098626965207457 0.02952174427042026 1:76.6643 2:-21.3449 3:-10.8874 4:-5.703 5:-3.3436 6:-0.57637 7:-2.2757 8:-0.58707 9:-0.085348 10:-0.46041 
-0.02949479522439096 0.02833007527001635 0.02646996234435688 0.027100333030756228 1:92.9419 2:-24.5143 3:-15.5008 4:-8.3445 5:-4.6677 6:-1.2419 7:-1.9827 8:-1.6476 9:-0.082025 10:-0.56384 
-0.0658100802426836 0.06550024589472754 0.06198680293385651 0.0639825853437186 1:90.2057 2:-27.0397 3:-16.919 4:-7.5931 5:-2.3674 6:-0.38074 7:-1.4861 8:1.6672 9:-0.2601 10:0.049817 
-0.01911697826095325 0.018556914378790614 0.017533480437608443 0.01923593149873033 1:85.63 2:-24.1342 3:-15.5506 4:-6.7705 5:-3.6537 6:0.093694 7:-1.1912 8:-0.14519 9:0.27752 10:-0.82287 
-0.0610313781623088 0.06115721394394739 0.058621023480760114 0.05988185784082275 1:72.3443 2:-18.7306 3:-13.6453 4:-7.1095 5:-2.0032 6:-0.28341 7:-1.1596 8:0.45319 9:-0.32538 10:0.46408 
-0.0905609428192282 0.09138804803593141 0.08608745887698084 0.0888532673847536 1:67.2406 2:-21.8976 3:-12.6955 4:-3.8789 5:-0.45118 6:1.1217 7:-0.4741 8:1.1975 9:-0.50604 10:0.028257 
-0.13510664274160303 0.13582075791069093 0.128988020229028 0.13264950669184633 1:61.9837 2:-22.8304 3:-10.9972 4:-1.7598 5:0.17996 6:1.5843 7:-0.22755 8:0.27658 9:-0.15555 10:0.11154 
-0.0413955225236045 0.04114358063997684 0.03983479738403373 0.04106632645011118 1:63.1658 2:-17.9701 3:-12.353 4:-5.5711 5:-2.5786 6:-0.19074 7:-0.16039 8:1.0074 9:-0.32637 10:-0.10086 
-0.033140626741909616 0.033789367417774274 0.03116465798927174 0.03222532936676318 1:88.4863 2:-24.8014 3:-16.2855 4:-7.6235 5:-2.1426 6:-0.36277 7:-0.69082 8:-0.32865 9:-0.50003 10:0.36062 
-0.007256758270757568 0.006514367848917615 0.006992738834546475 0.006456157356552639 1:82.246 2:-21.0532 3:-13.7822 4:-8.2779 5:-4.2762 6:-1.4647 7:-1.989 8:0.72198 9:-0.071376 10:-0.25272 
-8.207115401692117E-4 0.002278990842967177 0.003451422822479289 0.0020524554189142426 1:61.8196 2:-16.7434 3:-9.6833 4:-4.7898 5:-2.3499 6:-0.53885 7:-1.4007 8:-0.11028 9:-0.51109 10:-0.36156 
-0.0 -0.30963424639717835 0.01444417852978976 0.017296372155524018 1:5.8756 2:-2.7746 3:-1.4922 4:-0.92228 5:0.73057 6:-0.29275 7:0.48187 8:0.36788 9:-0.31865 10:0.010363 
-0.0 -0.18792581533805766 0.0 0.0 1:5.171 2:-2.8109 3:0.35751 4:-0.52591 5:0.45337 6:-0.3057 7:0.082902 8:0.093264 9:-0.24352 10:0.007772 
-1.0 -0.0 0.0 0.0 1:3.4585 2:-2.0803 3:-0.21503 4:-0.33938 5:0.12176 6:-0.10363 7:0.046632 8:0.11399 9:-0.24352 10:-0.007772 
-1.0 -1.0 1.0 1.0 1:2.1503 2:-1.2565 3:-0.98705 4:-0.34197 5:0.32124 6:0.2228 7:-0.062176 8:0.37047 9:-0.14767 10:-0.069948 
-0.3869215064088175 -0.0 0.0 0.0 1:3.6554 2:-2.0233 3:-0.49482 4:-0.14249 5:0.20207 6:-0.16062 7:0.090674 8:0.15285 9:-0.18394 10:-0.007772 
-1.0 -0.0 0.0 0.0 1:3.2202 2:-1.7591 3:-0.22021 4:-0.29016 5:0.49482 6:-0.044041 7:0.067358 8:0.067358 9:-0.19171 10:-0.010363 
-0.34137853249673084 -0.5634239096818229 0.3082594929652554 0.27797000276240974 1:9.1425 2:-5.4249 3:-0.51295 4:-0.036269 5:0.29534 6:0.0025907 7:0.12435 8:0.20725 9:-0.064767 10:0.028497 
-1.0 -0.0 1.0 1.0 1:2.6295 2:-0.79534 3:-0.80311 4:-0.37047 5:0.55699 6:-0.10104 7:0.16062 8:0.18135 9:-0.12694 10:0.036269 
-1.0 -0.21384964852927674 0.4459248323703069 0.4768870066109336 1:2.5492 2:-0.85751 3:-0.97409 4:-0.54145 5:0.54663 6:-0.22798 7:0.028497 8:0.12953 9:-0.29534 10:0.051813 
-0.0 -0.0 0.049963140766558084 0.026678683497456914 1:6.4041 2:-3.0829 3:-0.91451 4:-1.0518 5:0.92228 6:-0.03886 7:0.23834 8:0.3886 9:-0.17876 10:-0.0051813 
-0.5979924939600246 -0.09297775377445067 0.09542719285756748 0.026491331499499948 1:6.4249 2:-4.5959 3:0.069948 4:-0.14249 5:0.5285 6:-0.0025907 7:0.11917 8:0.17617 9:-0.11399 10:-0.028497 
-0.0 -0.0 0.19289611483813612 0.2724134327500563 1:5.4119 2:-3.8472 3:-0.044041 4:-0.07513 5:0.31606 6:0.062176 7:0.15285 8:0.1114 9:-0.028497 10:0.11917 
-0.0 -0.0 0.03513267295693777 0.018187600263549514 1:6.7953 2:-3.7409 3:-1.6269 4:-0.12953 5:0.46114 6:-0.17098 7:-0.031088 8:0.4171 9:-0.11658 10:-0.028497 
-0.0 -0.5328904717904135 0.0 0.0 1:4.6088 2:-1.0104 3:-1.5803 4:-0.31865 5:0.34456 6:-0.036269 7:0.069948 8:0.32124 9:-0.16062 10:0.0051813 
-0.2959076999921612 -0.6972754983806252 0.39870642790131117 0.4214222341930638 1:8.1528 2:-3.6658 3:-1.3782 4:-0.70984 5:0.66839 6:0.17358 7:0.28756 8:0.29275 9:-0.098446 10:0.07513 
-1.0 -0.0 0.0 0.0 1:3.7124 2:-1.6347 3:-0.65544 4:-0.067358 5:0.26943 6:-0.20984 7:0.20725 8:0.1658 9:-0.23575 10:-0.062176 
-0.3013733568266031 -0.8234448790483263 0.37628886100448394 0.40428225411391655 1:8.4223 2:-5.7202 3:-0.023316 4:0.18653 5:0.028497 6:-0.069948 7:0.19171 8:0.18135 9:-0.10622 10:-0.015544 
-0.1887432979921749 -0.5981127070323352 0.0 0.0 1:4.013 2:-3.2202 3:0.098446 4:0.041451 5:0.31088 6:-0.062176 7:0.090674 8:0.2487 9:-0.023316 10:0.085492 
-1.0 -0.0 -0.0 1.0 1:-1.8679 2:1.6114 3:0.090674 4:-0.007772 5:-0.18912 6:0.012953 7:0.0051813 8:-0.0051813 9:-0.049223 10:-0.085492 
-1.0 -0.0 -0.0 1.0 1:-0.94819 2:0.59585 3:-0.046632 4:-0.080311 5:-0.054404 6:-0.18394 7:0.025907 8:0.19689 9:-0.10363 10:0.062176 
-1.0 -0.0 -0.0 1.0 1:-0.30311 2:0.29793 3:-0.072539 4:0.10622 5:0.26425 6:-0.1114 7:0.051813 8:0.041451 9:-0.033679 10:-0.051813 
-1.0 -0.0 -0.0 1.0 1:-2.0052 2:2.2591 3:-0.093264 4:-0.12953 5:0.17617 6:-0.051813 7:-0.082902 8:-0.023316 9:-0.07772 10:-0.15026 
-1.0 -0.0 -0.0 1.0 1:-0.78497 2:0.41451 3:-0.10104 4:-0.033679 5:0.12176 6:-0.0051813 7:0.067358 8:0.12953 9:-0.13472 10:0.051813 
-1.0 -0.0 -0.0 1.0 1:-1.4352 2:1.5207 3:-0.41969 4:-0.15285 5:-0.17098 6:-0.007772 7:0.044041 8:0.067358 9:-0.023316 10:-0.10622 
-0.9110809230905147 -1.0 -0.7984766297103418 1.0 1:-6.715 2:3.5337 3:0.0 4:0.095855 5:0.10363 6:0.041451 7:0.0025907 8:0.023316 9:-0.023316 10:-0.051813 
-0.0 -0.0 -0.0 1.0 1:-1.5933 2:1.3187 3:-0.48187 4:-0.012953 5:-0.21244 6:0.080311 7:0.10881 8:0.010363 9:-0.23057 10:-0.088083 
-0.0 -0.0 -0.0 1.0 1:-1.4974 2:1.6114 3:-0.4715 4:-0.16321 5:0.049223 6:-0.17876 7:-0.095855 8:0.098446 9:-0.15026 10:-0.07513 
-1.0 -0.0 -0.0 1.0 1:-1.0492 2:0.40674 3:0.095855 4:-0.16321 5:-0.13731 6:-0.12694 7:-0.028497 8:0.21762 9:-0.1943 10:-0.062176 
-1.0 -0.0 -0.0 0.0 1:-0.60881 2:0.71244 3:-0.60622 4:-0.036269 5:0.23834 6:0.080311 7:-0.025907 8:0.18394 9:-0.10881 10:0.015544 
-1.0 -0.0 -0.0 1.0 1:-1.4326 2:1.3938 3:-0.098446 4:0.069948 5:-0.1943 6:-0.10622 7:0.14508 8:0.07513 9:-0.15026 10:-0.0025907 
-1.0 -0.0 -0.0 1.0 1:-2.4845 2:1.8679 3:0.29275 4:-0.093264 5:-0.069948 6:0.015544 7:0.29793 8:-0.0051813 9:-0.028497 10:-0.072539 
-0.0 -0.0 -0.0 1.0 1:-2.6088 2:1.3912 3:-0.22798 4:-0.072539 5:0.10363 6:-0.059585 7:0.11917 8:0.20725 9:-0.10881 10:-0.056995 
-0.0 -0.0 -0.0 1.0 1:-2.013 2:1.4689 3:-0.088083 4:-0.19171 5:0.12953 6:-0.015544 7:0.090674 8:0.056995 9:-0.20207 10:-0.059585 
-0.0 -0.0 -0.0 1.0 1:-1.987 2:1.1632 3:-0.31606 4:0.062176 5:0.036269 6:0.064767 7:0.028497 8:0.10104 9:-0.07772 10:0.025907 
-0.0 -0.0 -0.06601277849417529 1.0 1:-3.544 2:2.7461 3:-0.83161 4:-0.10104 5:0.10363 6:-0.16062 7:0.069948 8:0.12694 9:-0.12176 10:0.020725 
-0.0 -0.0 -0.0 1.0 1:-3.5622 2:1.5363 3:-0.11658 4:0.059585 5:0.093264 6:-0.12953 7:0.14508 8:0.14249 9:-0.049223 10:0.07513 
-0.0 -0.0 -0.0 1.0 1:-3.4301 2:1.8083 3:-0.0025907 4:0.007772 5:0.32383 6:-0.054404 7:-0.0051813 8:0.16839 9:-0.036269 10:-0.059585 
-0.0 -0.0 -0.0 1.0 1:-3.2358 2:1.8187 3:-0.33679 4:0.062176 5:0.18394 6:0.007772 7:0.046632 8:0.085492 9:-0.1658 10:-0.13731 
-1.0 -0.0 -0.0 1.0 1:-1.7228 2:1.1813 3:0.29016 4:0.03886 5:0.07772 6:0.033679 7:0.090674 8:0.07513 9:0.0025907 10:-0.051813 
-1.0 -0.0 -0.0 1.0 1:-1.9922 2:1.5959 3:0.27461 4:-0.33679 5:-0.12694 6:0.12435 7:0.095855 8:0.14767 9:-0.10104 10:-0.10622 
-0.0 -0.0 -0.0 1.0 1:-2.285 2:1.0907 3:-0.26425 4:0.072539 5:-0.13472 6:-0.10622 7:-0.046632 8:0.10104 9:-0.051813 10:-0.0025907 
-0.0 -0.0 -0.0 1.0 1:-2.8782 2:1.9145 3:-0.21762 4:0.054404 5:0.26425 6:-0.14767 7:0.15285 8:0.12176 9:-0.11399 10:-0.03886 
-0.0 -0.0 -0.0 1.0 1:-3.1036 2:1.3705 3:0.03886 4:-0.012953 5:0.14767 6:0.1943 7:-0.010363 8:0.14767 9:-0.17876 10:-0.051813 
-0.0 -0.0 -0.0 1.0 1:-1.7824 2:0.89378 3:-0.098446 4:-0.093264 5:0.25648 6:-0.059585 7:0.28497 8:0.098446 9:0.088083 10:-0.012953 
-1.0 -0.0 -0.0 1.0 1:-0.72798 2:0.67617 3:0.35233 4:0.12435 5:0.028497 6:-0.12953 7:-0.088083 8:0.19171 9:-0.18653 10:-0.095855 
-0.0 -0.42062057262213237 -0.28842746102320765 1.0 1:-4.2021 2:1.5933 3:0.3342 4:-0.10363 5:-0.11917 6:-0.069948 7:0.051813 8:-0.046632 9:-0.12694 10:-0.080311 
-0.0 -0.0 -0.0 0.2998844694802594 1:-3.3549 2:1.829 3:-0.61399 4:0.093264 5:0.34197 6:-0.13212 7:-0.010363 8:0.15026 9:-0.10104 10:0.051813 
-0.0 -0.0 -0.0 1.0 1:-3.0052 2:2.0285 3:-0.5 4:0.028497 5:0.14767 6:0.051813 7:0.059585 8:0.20984 9:-0.12176 10:0.010363 
-0.0 -0.0 -0.0 1.0 1:-3.0751 2:1.5155 3:-0.43005 4:-0.031088 5:0.085492 6:0.21762 7:0.015544 8:-0.010363 9:0.0051813 10:-0.098446 
-0.0 -0.0 -0.0 1.0 1:-4.171 2:2.5052 3:-0.21762 4:0.054404 5:0.046632 6:0.072539 7:-0.20466 8:0.067358 9:-0.031088 10:0.023316 
-1.0 -0.0 -0.0 1.0 1:-2.1762 2:2.3135 3:-0.12176 4:0.049223 5:-0.059585 6:-0.1399 7:0.010363 8:0.14249 9:-0.098446 10:-0.041451 
-0.0 -0.0 -0.0 0.815547086997282 1:-2.114 2:1.044 3:-0.49223 4:0.18135 5:0.093264 6:0.025907 7:-0.10622 8:0.1658 9:-0.049223 10:0.0025907 
-0.0 -0.0 -0.0 1.0 1:-3.1036 2:1.7202 3:-0.30311 4:0.2487 5:0.064767 6:0.020725 7:-0.07513 8:0.10881 9:0.062176 10:-0.028497 
-0.0 -0.0 -0.0 1.0 1:-2.8627 2:1.7953 3:-0.61658 4:0.15285 5:0.2513 6:0.0025907 7:0.12435 8:0.020725 9:-0.020725 10:-0.064767 
-0.0 -0.0 -0.0 1.0 1:-3.8705 2:2.9974 3:-0.17617 4:-0.12694 5:0.13472 6:-0.056995 7:0.090674 8:0.036269 9:-0.036269 10:-0.028497 
-0.0 -0.0 -0.0 1.0 1:-3.5052 2:2.1373 3:-0.53368 4:-0.13472 5:-0.0025907 6:-0.018135 7:0.080311 8:0.046632 9:-0.11658 10:-0.0025907 
-1.0 -0.0 -0.0 0.3997379234886958 1:-0.36788 2:0.58031 3:-0.29793 4:-0.07513 5:0.041451 6:-0.10881 7:0.028497 8:0.090674 9:-0.088083 10:-0.012953 
-1.0 -0.0 -0.0 1.0 1:-2.0389 2:1.2228 3:0.10622 4:0.0 5:0.18653 6:-0.18912 7:0.041451 8:0.13731 9:0.056995 10:-0.007772 
-0.0 -0.0 -0.0 1.0 1:-2.4974 2:2.1554 3:-0.57513 4:-0.07513 5:0.10881 6:-0.025907 7:0.03886 8:0.018135 9:-0.14767 10:-0.036269 
-1.0 -0.0 -0.0 1.0 1:-2.1425 2:1.4922 3:0.18912 4:-0.30052 5:0.2772 6:0.054404 7:-0.093264 8:0.049223 9:-0.10363 10:-0.036269 
-1.0 -0.0 -0.0 1.0 1:-0.47668 2:0.43264 3:-0.2487 4:0.018135 5:0.19689 6:-0.059585 7:0.054404 8:0.18135 9:0.020725 10:-0.036269 
-0.0 -0.0 -0.0 1.0 1:-2.7876 2:0.95596 3:-0.20207 4:0.080311 5:0.18912 6:0.036269 7:0.072539 8:0.088083 9:-0.010363 10:0.036269 
-1.0 -0.0 -0.0 1.0 1:-2.1995 2:1.3135 3:0.028497 4:-0.12694 5:-0.21762 6:0.069948 7:0.054404 8:0.046632 9:-0.010363 10:-0.010363 
-0.0 -0.0 -0.0 1.0 1:-3.3316 2:2.3005 3:-0.24352 4:0.007772 5:0.11917 6:0.24352 7:0.028497 8:0.11658 9:-0.0025907 10:0.012953 
-0.0 -0.0 -0.0 1.0 1:-2.5311 2:1.7694 3:-0.31347 4:-0.015544 5:-0.049223 6:-0.13731 7:0.0 8:-0.007772 9:-0.031088 10:-0.028497 
-0.0 -0.0 -0.0 1.0 1:-2.2902 2:1.3031 3:-0.38083 4:-0.07513 5:0.10881 6:-0.072539 7:0.10104 8:0.095855 9:0.041451 10:0.036269 
-0.0 -0.0 -0.0 1.0 1:-1.5 2:1.0544 3:-0.36269 4:0.064767 5:0.059585 6:-0.049223 7:-0.059585 8:0.11399 9:-0.16062 10:-0.0025907 
-1.0 -0.14067982313096475 -1.0 0.0 1:0.59326 2:-0.16839 3:-0.49223 4:-0.22539 5:0.18653 6:0.015544 7:0.033679 8:0.085492 9:-0.13731 10:0.015544 
-0.0 -0.0 -0.0 1.0 1:-3.0233 2:2.1788 3:-0.23057 4:0.036269 5:-0.010363 6:-0.098446 7:-0.051813 8:-0.015544 9:-0.11399 10:-0.095855 
-0.0 -0.4505714165720282 -0.0 1.0 1:-6.4067 2:3.4301 3:0.19171 4:0.15285 5:0.10881 6:0.036269 7:-0.028497 8:0.041451 9:-0.12435 10:-0.033679 
-0.0 -0.0 -0.0 1.0 1:-1.7047 2:0.79275 3:-0.21244 4:-0.24352 5:-0.023316 6:-0.15285 7:0.059585 8:0.14249 9:-0.10104 10:-0.044041 
-0.0 -0.0 -0.0 1.0 1:-3.8161 2:1.9689 3:0.14249 4:-0.072539 5:0.07513 6:0.085492 7:-0.088083 8:0.20725 9:0.010363 10:-0.14508 
-0.0 -0.0 -0.0 1.0 1:-3.3601 2:1.2435 3:0.29793 4:0.07513 5:0.17098 6:0.07772 7:0.07772 8:0.010363 9:0.054404 10:-0.03886 
-1.0 -0.0 -0.0 0.0 1:-0.10622 2:-0.15803 3:-0.41192 4:-0.34197 5:0.1658 6:-0.059585 7:0.07513 8:0.29016 9:-0.033679 10:-0.12953 
-1.0 -0.0 -0.0 1.0 1:-0.89637 2:1.4689 3:-0.38601 4:-0.19948 5:0.093264 6:-0.16321 7:0.18135 8:0.0 9:-0.044041 10:-0.07772 
-1.0 -0.0 -0.0 1.0 1:-0.83679 2:0.62694 3:-0.1114 4:0.082902 5:0.12953 6:-0.088083 7:0.0 8:0.15285 9:-0.044041 10:-0.031088 
-1.0 -0.0 -0.0 0.0 1:-0.66062 2:1.4845 3:-0.99741 4:-0.012953 5:-0.072539 6:-0.15803 7:0.044041 8:0.010363 9:-0.093264 10:0.0025907 
-0.0 -0.0 -0.0 1.0 1:-5.7021 2:2.8653 3:-0.093264 4:0.10881 5:0.17098 6:0.015544 7:0.049223 8:0.13731 9:-0.007772 10:0.023316 
-0.0 -0.7850178002377388 -0.21879268946128377 1.0 1:-2.9508 2:2.8523 3:-0.43523 4:-0.35233 5:-0.1114 6:-0.028497 7:-0.07772 8:0.11658 9:-0.090674 10:0.015544 
-0.0 -0.0 -0.0 1.0 1:-1.7124 2:0.18653 3:-0.37824 4:0.059585 5:-0.12435 6:0.015544 7:0.018135 8:-0.015544 9:-0.012953 10:-0.023316 
-0.0 -0.0 -0.0 1.0 1:-4.6399 2:2.9482 3:-0.18653 4:-0.26943 5:0.11658 6:0.1114 7:0.12176 8:0.062176 9:-0.17876 10:0.010363 
-0.0 -0.0 -0.0 1.0 1:-2.1736 2:1.7021 3:-0.46373 4:-0.12953 5:0.18135 6:-0.054404 7:-0.044041 8:0.17876 9:0.018135 10:0.064767 
-0.0 -0.0 -0.0 1.0 1:-2.3627 2:1.5751 3:-0.082902 4:0.007772 5:0.27202 6:-0.15544 7:0.1114 8:0.17358 9:-0.22021 10:-0.046632 
-1.0 -0.0 -0.0 0.0 1:-1.0622 2:1.5492 3:-0.53109 4:-0.36788 5:-0.049223 6:0.088083 7:0.07772 8:0.088083 9:-0.041451 10:-0.0051813 
-1.0 -0.0 -0.0 1.0 1:-1.2927 2:1.785 3:-0.53886 4:0.18912 5:0.18653 6:0.10104 7:-0.033679 8:0.19171 9:-0.11917 10:0.044041 
-1.0 -0.0 -0.0 1.0 1:-1.4819 2:1.4508 3:-0.29275 4:-0.095855 5:0.16839 6:-0.010363 7:-0.11399 8:0.10881 9:-0.12176 10:-0.098446 
-0.0 -0.0 -0.0 1.0 1:-2.8912 2:1.513 3:-0.11917 4:0.072539 5:0.10363 6:-0.0051813 7:0.11658 8:0.23575 9:-0.072539 10:-0.0025907 
-0.0 -0.0 -0.0 1.0 1:-1.671 2:0.62435 3:-0.23834 4:0.018135 5:-0.054404 6:-0.049223 7:0.14767 8:0.028497 9:-0.064767 10:-0.062176 
-1.0 -0.0 -0.0 1.0 1:-1.6554 2:0.51813 3:-0.2513 4:0.23316 5:-0.11399 6:-0.020725 7:0.088083 8:0.064767 9:0.020725 10:-0.051813 
-0.0 -0.0 -0.0 1.0 1:-2.3264 2:1.7746 3:-0.45337 4:-0.14249 5:-0.059585 6:0.13212 7:-0.13472 8:0.10363 9:-0.14508 10:0.023316 
-1.0 -0.0 -0.0 1.0 1:-1.3238 2:0.86269 3:-0.16062 4:0.056995 5:-0.15285 6:-0.031088 7:0.056995 8:0.051813 9:-0.0051813 10:-0.14249 
-1.0 -0.0 -0.0 1.0 1:0.58808 2:0.63212 3:0.080311 4:-0.10104 5:0.098446 6:-0.11917 7:-0.03886 8:-0.033679 9:-0.098446 10:0.044041 
-0.0 -0.0 -0.0 1.0 1:-2.0725 2:2.0389 3:-0.58549 4:-0.15285 5:0.17358 6:-0.20984 7:0.025907 8:-0.036269 9:-0.18912 10:0.054404 
-1.0 -0.0 -0.0 1.0 1:-0.65544 2:0.95855 3:-0.23834 4:-0.041451 5:-0.12435 6:-0.16839 7:0.080311 8:0.24352 9:-0.028497 10:0.007772 
-0.0 -0.0 -0.0 1.0 1:-2.6813 2:1.6528 3:-0.046632 4:-0.059585 5:0.22539 6:-0.054404 7:-0.07513 8:0.1114 9:-0.062176 10:0.010363 
-0.0 -0.0 -0.0 1.0 1:-1.7021 2:1.1917 3:-0.39637 4:0.069948 5:-0.11917 6:0.11917 7:-0.041451 8:0.21503 9:-0.059585 10:-0.033679 
-1.0 -0.0 -0.0 1.0 1:-1.1969 2:0.75389 3:-0.18135 4:-0.12694 5:-0.025907 6:-0.067358 7:0.072539 8:-0.020725 9:-0.098446 10:0.015544 
-1.0 -0.0 -0.0 1.0 1:-0.71762 2:0.46114 3:-0.29275 4:-0.18653 5:-0.041451 6:-0.049223 7:0.069948 8:0.033679 9:-0.03886 10:-0.085492 
-1.0 -0.0 -0.0 0.0 1:-1.1451 2:1.8575 3:-0.64767 4:-0.45337 5:-0.13212 6:0.10881 7:0.059585 8:0.085492 9:0.056995 10:-0.0051813 
-1.0 -0.0 -0.0 1.0 1:-1.715 2:1.8912 3:-0.24352 4:-0.11399 5:0.028497 6:0.010363 7:0.082902 8:0.18912 9:-0.010363 10:-0.025907 
-1.0 -0.0 -0.0 1.0 1:-2.2409 2:1.9896 3:-0.10622 4:0.088083 5:-0.10622 6:-0.12694 7:0.03886 8:-0.036269 9:-0.072539 10:-0.033679 
-1.0 -0.0 -0.0 0.0 1:-0.86528 2:0.65544 3:-0.31606 4:-0.34715 5:0.29016 6:-0.07513 7:-0.20207 8:0.18912 9:-0.059585 10:-0.093264 
-0.0 -0.0 -0.0 1.0 1:-1.9637 2:1.0751 3:-0.11658 4:-0.12694 5:0.095855 6:0.025907 7:0.056995 8:0.13472 9:-0.10881 10:-0.0025907 
-1.0 -0.0 -0.0 1.0 1:-1.3808 2:0.78238 3:-0.42746 4:0.27979 5:-0.12694 6:-0.20725 7:0.15026 8:0.064767 9:-0.098446 10:0.033679 
-0.0 -0.0 -0.0 1.0 1:-2.5337 2:1.6606 3:-0.43264 4:-0.14508 5:-0.067358 6:-0.21762 7:0.012953 8:0.056995 9:-0.18912 10:-0.095855 
-0.0 -0.0 -0.0 1.0 1:-5.3161 2:2.8938 3:0.36528 4:0.054404 5:-0.18912 6:-0.17876 7:0.095855 8:0.19171 9:-0.069948 10:-0.064767 
-1.0 -0.6058257771313112 -0.0 0.0 1:0.4171 2:1.0155 3:-0.37565 4:-0.4715 5:-0.018135 6:-0.0025907 7:-0.059585 8:0.15026 9:-0.062176 10:0.0025907 
-1.0 -0.0 -0.0 1.0 1:-0.88083 2:0.87824 3:-0.28756 4:-0.23575 5:-0.10881 6:0.10881 7:-0.13472 8:-0.023316 9:-0.16321 10:-0.10363 
-1.0 -0.0 -0.42929113642769207 1.0 1:0.62694 2:0.085492 3:-0.26425 4:-0.067358 5:0.025907 6:-0.12435 7:0.025907 8:0.054404 9:0.025907 10:0.0 
-0.0 -0.0 -0.0 1.0 1:-2.1839 2:0.58031 3:-0.27979 4:0.38342 5:0.095855 6:0.12694 7:0.10104 8:0.15544 9:-0.085492 10:-0.015544 
-0.0 -0.0 -0.0 1.0 1:-2.4948 2:1.4819 3:-0.10104 4:0.023316 5:0.12694 6:0.088083 7:-0.14249 8:0.082902 9:-0.1399 10:-0.15026 
-0.0 -0.0 -0.0 1.0 1:-2.6891 2:1.4171 3:-0.13472 4:-0.10363 5:-0.16321 6:0.015544 7:0.14767 8:0.2513 9:-0.015544 10:0.067358 
-1.0 -0.0 -0.0 1.0 1:-0.69171 2:0.50259 3:-0.14767 4:0.15026 5:-0.051813 6:0.12435 7:-0.0051813 8:0.080311 9:-0.10622 10:-0.044041 
-0.0 -0.0 -0.0 1.0 1:-3.3342 2:2.0725 3:-0.26684 4:0.028497 5:0.12176 6:0.21762 7:0.13472 8:0.090674 9:-0.046632 10:0.067358 
-0.0 -0.0 -0.0 1.0 1:-2.6036 2:2.1632 3:-0.12176 4:-0.32642 5:0.19948 6:-0.15285 7:0.044041 8:0.26425 9:-0.13212 10:-0.07772 
-0.0 -0.0 -0.0 1.0 1:-3.0466 2:1.4378 3:0.31606 4:-0.15544 5:0.07513 6:0.0051813 7:0.054404 8:0.072539 9:-0.12435 10:0.0025907 
-1.0 -0.0 -0.0 0.0 1:-0.90674 2:-0.015544 3:-0.36788 4:0.1114 5:0.1399 6:-0.11658 7:0.14508 8:0.23057 9:0.044041 10:-0.025907 
-0.0 -0.0 -0.0 1.0 1:-3.4715 2:2.1088 3:0.023316 4:0.018135 5:-0.046632 6:0.20466 7:-0.025907 8:-0.015544 9:0.054404 10:-0.036269 
-0.0 -0.0 -0.11604221907364615 1.0 1:-3.4819 2:3.0959 3:-0.34715 4:-0.10363 5:0.12953 6:-0.10881 7:0.080311 8:0.025907 9:-0.11658 10:-0.0025907 
-0.0 -0.0 -0.0 1.0 1:-1.772 2:0.50518 3:-0.34197 4:0.23057 5:-0.11658 6:0.018135 7:-0.13212 8:0.14767 9:-0.11658 10:-0.11399 
-0.0 -0.0 -0.0 1.0 1:-3.6269 2:1.3523 3:-0.35751 4:0.020725 5:0.10363 6:-0.088083 7:-0.012953 8:0.059585 9:0.067358 10:-0.025907 
-0.0 -0.0 -0.0 1.0 1:-2.9171 2:2.3161 3:-0.30829 4:-0.049223 5:0.23834 6:0.085492 7:-0.1114 8:0.090674 9:-0.07772 10:-0.056995 
-0.0 -0.0 -0.0 1.0 1:-2.5674 2:1.9197 3:-0.34974 4:-0.24352 5:-0.11658 6:0.059585 7:-0.023316 8:0.13212 9:-0.07513 10:-0.064767 
-0.0 -0.0 -0.0 1.0 1:-4.7979 2:3.1295 3:-0.37306 4:0.1114 5:0.082902 6:-0.0025907 7:-0.046632 8:0.010363 9:-0.007772 10:0.03886 
-0.0 -0.0 -0.0 1.0 1:-3.3782 2:1.3135 3:-0.12435 4:-0.080311 5:-0.10622 6:0.03886 7:0.049223 8:0.13212 9:-0.007772 10:0.028497 
-0.0 -0.0 -0.0 1.0 1:-1.9508 2:2.3057 3:-0.54922 4:0.044041 5:-0.069948 6:0.13731 7:0.095855 8:0.044041 9:-0.064767 10:-0.10363 
-0.0 -0.0 -0.0 1.0 1:-2.2746 2:1.6839 3:-0.40155 4:0.064767 5:0.054404 6:0.15544 7:0.07772 8:0.16321 9:0.0051813 10:0.025907 
-0.0 -0.0 -0.0 1.0 1:-4.5 2:2.3756 3:0.093264 4:0.020725 5:0.21762 6:0.025907 7:0.14767 8:0.028497 9:-0.03886 10:0.0051813 
-0.0 -0.0 -0.0 1.0 1:-2.4585 2:1.443 3:-0.21503 4:-0.064767 5:-0.036269 6:-0.10104 7:0.049223 8:0.20984 9:0.010363 10:-0.007772 
-0.0 -0.0 -0.0 1.0 1:-2.3057 2:1.5674 3:-0.47668 4:-0.1114 5:-0.020725 6:-0.090674 7:-0.012953 8:0.16321 9:-0.046632 10:0.012953 
-0.0 -0.0 -0.0 1.0 1:-2.842 2:2.3782 3:-0.72539 4:0.051813 5:0.20207 6:-0.051813 7:0.19171 8:0.07772 9:0.0051813 10:0.023316 
-0.0 -0.0 -0.0 1.0 1:-1.8342 2:0.69689 3:-0.10363 4:0.054404 5:0.3057 6:-0.18653 7:0.080311 8:0.15285 9:-0.020725 10:-0.015544 
-0.0 -0.0 -0.0 1.0 1:-2.601 2:2.2953 3:-0.42487 4:-0.10104 5:0.31606 6:-0.13212 7:-0.16062 8:0.064767 9:-0.056995 10:0.007772 
-0.0 -0.0 -0.0 1.0 1:-2.1813 2:1.4715 3:-0.21244 4:-0.14767 5:0.012953 6:-0.033679 7:-0.10363 8:0.19948 9:-0.059585 10:0.13212 
-0.0 -0.0 -0.0 1.0 1:-2.5207 2:1.9922 3:-0.28497 4:0.17358 5:0.22021 6:-0.056995 7:0.0 8:0.080311 9:-0.13731 10:-0.13212 
-0.0 -0.0 -0.0 1.0 1:-3.215 2:2.2487 3:-0.33679 4:0.23316 5:-0.17876 6:-0.21244 7:-0.028497 8:0.036269 9:-0.10363 10:0.0025907 
-0.0 -0.0 -0.0 1.0 1:-1.7694 2:2.0285 3:-0.42746 4:0.049223 5:0.37565 6:-0.20207 7:-0.046632 8:0.067358 9:-0.15026 10:-0.028497 
-0.0 -0.0 -0.0 1.0 1:-2.4378 2:1.3342 3:-0.33938 4:-0.054404 5:0.14508 6:-0.049223 7:0.015544 8:0.025907 9:-0.11917 10:0.095855 
-1.0 -0.0 -0.0 1.0 1:-0.18394 2:0.75648 3:0.088083 4:-0.28756 5:0.031088 6:0.18135 7:0.17876 8:0.14249 9:-0.082902 10:0.012953 
-1.0 -0.0 -0.0 1.0 1:-1.6503 2:1.4715 3:-0.049223 4:-0.15544 5:0.20207 6:-0.036269 7:-0.10363 8:0.10363 9:-0.12176 10:0.046632 
-0.0 -0.0 -0.0 1.0 1:-2.7254 2:1.9922 3:0.012953 4:-0.15803 5:0.033679 6:-0.2513 7:-0.082902 8:0.1114 9:-0.2487 10:0.0051813 
-0.0 -0.0 -0.0 1.0 1:-1.9767 2:1.158 3:-0.41192 4:0.049223 5:0.069948 6:-0.095855 7:0.049223 8:0.19171 9:0.15026 10:-0.07513 
-0.0 -0.0 -0.0 1.0 1:-2.5 2:1.4534 3:0.064767 4:0.17876 5:0.2228 6:-0.033679 7:-0.088083 8:0.16062 9:-0.1658 10:-0.07513 
-0.0 -0.0 -0.0 1.0 1:-2.1891 2:0.96891 3:-0.3886 4:0.11658 5:0.16062 6:0.023316 7:-0.14508 8:0.15544 9:-0.13212 10:-0.020725 
-1.0 -0.0 -0.0 1.0 1:-1.2047 2:0.59326 3:-0.10104 4:-0.007772 5:0.18653 6:0.12176 7:0.020725 8:0.18912 9:-0.064767 10:0.018135 
-1.0 -0.0 -0.0 1.0 1:-0.27461 2:0.97927 3:-0.046632 4:-0.069948 5:-0.025907 6:0.12435 7:0.17098 8:-0.036269 9:-0.095855 10:-0.090674 
-0.0 -0.0 -0.0 1.0 1:-2.0389 2:0.87565 3:-0.31088 4:0.054404 5:-0.010363 6:-0.049223 7:-0.16839 8:0.20466 9:-0.14767 10:-0.028497 
-1.0 -0.0 -0.0 1.0 1:-1.3472 2:1.4145 3:-0.15285 4:0.22539 5:-0.23575 6:0.054404 7:0.10363 8:0.03886 9:-0.13472 10:-0.07772 
-1.0 -0.0 -0.0 1.0 1:-1.1114 2:0.85233 3:-0.18394 4:0.12953 5:0.14249 6:-0.15544 7:0.0 8:0.12694 9:-0.20466 10:-0.14249 
-1.0 -0.0 -0.0 1.0 1:-1.4689 2:1.6788 3:-0.082902 4:0.062176 5:0.085492 6:-0.033679 7:0.10363 8:0.090674 9:0.0051813 10:-0.041451 
-0.0 -0.0 -0.0 1.0 1:-2.8627 2:1.0155 3:0.054404 4:0.34456 5:0.10104 6:-0.072539 7:0.031088 8:0.12176 9:-0.020725 10:0.028497 
-1.0 -0.0 -0.0 0.0 1:-0.83161 2:1.1321 3:-0.62694 4:-0.072539 5:0.10622 6:-0.056995 7:-0.082902 8:0.26684 9:0.020725 10:0.090674 
-0.0 -0.0 -0.0 1.0 1:-2.6839 2:2.013 3:-0.064767 4:-0.007772 5:0.24352 6:-0.088083 7:-0.044041 8:0.033679 9:-0.090674 10:0.051813 
-1.0 -0.0 -0.0 1.0 1:-1.8446 2:1.6244 3:-0.054404 4:-0.10622 5:0.056995 6:-0.059585 7:-0.028497 8:0.16062 9:-0.046632 10:-0.007772 
-1.0 -0.0 -0.0 0.8832297825450526 1:-0.56477 2:1.0674 3:-0.25648 4:-0.18394 5:0.14508 6:-0.023316 7:0.0 8:0.14767 9:-0.13212 10:-0.098446 
-1.0 -0.0 -0.0 1.0 1:-1.5622 2:0.93782 3:-0.17876 4:-0.025907 5:-0.15544 6:0.056995 7:-0.018135 8:0.18912 9:-0.082902 10:0.031088 
-0.0 -0.0 -0.0 1.0 1:-2.7694 2:2.6762 3:-0.48964 4:-0.046632 5:0.15026 6:-0.07772 7:0.028497 8:-0.064767 9:-0.067358 10:-0.10363 
-1.0 -0.0 -0.0 1.0 1:-1.2902 2:1.5337 3:-0.1943 4:0.0051813 5:-0.14508 6:0.21503 7:-0.018135 8:0.015544 9:-0.095855 10:0.012953 
-0.9841308993572038 -0.0 -0.0 0.0 1:-1.013 2:1.2202 3:-0.67098 4:0.015544 5:0.16839 6:-0.062176 7:0.0051813 8:0.059585 9:-0.12694 10:-0.025907 
-0.0 -0.0 -0.0 1.0 1:-2.6943 2:1.6658 3:-0.29793 4:0.13731 5:-0.13472 6:-0.012953 7:0.18653 8:0.0025907 9:-0.031088 10:0.080311 
-0.0 -0.0 -0.0 1.0 1:-1.5829 2:1.456 3:-0.46114 4:-0.14508 5:-0.018135 6:-0.17617 7:0.010363 8:-0.067358 9:-0.044041 10:-0.036269 
-1.0 -0.0 -0.0 1.0 1:-0.85751 2:1.1036 3:0.069948 4:-0.27461 5:-0.11917 6:-0.095855 7:-0.0051813 8:0.098446 9:-0.12176 10:-0.044041 
-0.0 -0.0 -0.0 1.0 1:-2.9741 2:1.6606 3:-0.2487 4:-0.1399 5:0.088083 6:-0.10622 7:-0.11658 8:0.2228 9:-0.067358 10:-0.095855 
-0.0 -0.0 -0.0 1.0 1:-3.5699 2:1.9819 3:-0.090674 4:0.17617 5:-0.033679 6:0.082902 7:0.18135 8:0.12435 9:-0.072539 10:-0.095855 
-1.0 -0.0 -0.0 1.0 1:-1.0155 2:1.0415 3:-0.24611 4:-0.21244 5:-0.22021 6:-0.14767 7:0.0051813 8:0.025907 9:-0.051813 10:0.10622 
-0.0 -0.0 -0.0 1.0 1:-3.4093 2:1.9663 3:-0.12953 4:0.023316 5:0.12176 6:-0.072539 7:0.007772 8:0.059585 9:-0.062176 10:-0.025907 
-0.0 -0.0 -0.0 1.0 1:-3.228 2:2.0622 3:-0.51036 4:-0.15026 5:0.15803 6:-0.1399 7:0.056995 8:0.12435 9:0.023316 10:0.007772 
-1.0 -0.0 -0.0 1.0 1:-1.1347 2:1.2772 3:-0.32124 4:-0.082902 5:0.20207 6:0.018135 7:-0.012953 8:0.095855 9:-0.031088 10:0.031088 
-1.0 -0.0 -0.0 1.0 1:-1.1554 2:1.3886 3:-0.16321 4:0.015544 5:0.0025907 6:-0.010363 7:0.033679 8:0.069948 9:-0.13212 10:0.031088 
-1.0 -0.0 -0.0 0.0 1:-1.1036 2:1.1166 3:-0.48705 4:-0.17098 5:0.093264 6:-0.22798 7:-0.07513 8:0.07772 9:0.0025907 10:-0.018135 
-0.0 -0.10336242945400487 -0.0 0.0 1:-1.601 2:1.2746 3:-1.1425 4:0.082902 5:0.18653 6:0.27461 7:0.082902 8:-0.046632 9:0.010363 10:0.0051813 
-1.0 -0.0 -0.0 1.0 1:-2.1036 2:1.7047 3:-0.25907 4:0.072539 5:0.033679 6:0.07772 7:-0.067358 8:0.11399 9:0.015544 10:-0.015544 
-0.0 -0.0 -0.0 1.0 1:-1.6658 2:0.069948 3:-0.14508 4:0.044041 5:0.14508 6:-0.028497 7:0.088083 8:0.16062 9:-0.095855 10:0.046632 
-0.0 -0.0 -0.0 1.0 1:-2.7073 2:1.2073 3:-0.15285 4:0.11658 5:0.1399 6:0.031088 7:-0.12694 8:0.020725 9:-0.19171 10:0.018135 
-0.0 -0.0 -0.0 1.0 1:-2.4404 2:1.4637 3:-0.1943 4:-0.046632 5:-0.088083 6:-0.020725 7:0.07772 8:0.10104 9:-0.054404 10:-0.13731 
-1.0 -0.0 -0.0 1.0 1:-1.2202 2:0.55181 3:-0.015544 4:-0.27979 5:-0.21503 6:0.067358 7:-0.007772 8:0.015544 9:-0.080311 10:0.041451 
-1.0 -0.0 -0.0 1.0 1:-1.6451 2:1.5674 3:-0.059585 4:0.007772 5:0.062176 6:-0.14249 7:-0.13212 8:-0.10363 9:-0.049223 10:-0.088083 
-1.0 -0.0 -0.0 1.0 1:-0.31865 2:0.11658 3:-0.015544 4:-0.41969 5:0.37824 6:-0.072539 7:-0.098446 8:-0.012953 9:-0.23057 10:-0.07772 
-1.0 -0.0 -0.0 1.0 1:-1.1917 2:1.8731 3:-0.25389 4:-0.24352 5:-0.031088 6:-0.095855 7:0.18653 8:0.16062 9:-0.13212 10:0.10881 
-1.0 -0.0 -0.0 1.0 1:-1.3653 2:1.1451 3:-0.26425 4:0.12176 5:0.28497 6:-0.25648 7:-0.031088 8:0.2228 9:-0.041451 10:-0.0051813 
-1.0 -0.8914846818794003 -0.0 1.0 1:0.25389 2:-0.6114 3:-0.082902 4:-0.0051813 5:0.20207 6:-0.059585 7:0.023316 8:0.18653 9:-0.085492 10:0.025907 
-1.0 -0.0 -0.0 0.29959697854046197 1:-0.15285 2:0.68653 3:-0.34456 4:0.12176 5:0.25907 6:0.046632 7:-0.11399 8:0.17358 9:-0.1114 10:0.0051813 
-1.0 -0.0 -0.0 1.0 1:-1.3005 2:1.4378 3:-0.51036 4:-0.095855 5:0.054404 6:0.023316 7:-0.067358 8:0.049223 9:-0.064767 10:0.033679 
-1.0 -0.0 -0.0 1.0 1:-1.3549 2:1.1632 3:-0.27202 4:-0.023316 5:0.020725 6:0.020725 7:-0.12176 8:-0.07513 9:-0.090674 10:-0.0051813 
-0.0 -0.0 -0.0 1.0 1:-2.0259 2:1.0544 3:-0.088083 4:-0.015544 5:0.15285 6:-0.046632 7:0.054404 8:0.17617 9:-0.10104 10:-0.025907 
-1.0 -0.0 -0.0 1.0 1:0.007772 2:0.39896 3:-0.12435 4:-0.12694 5:0.27979 6:-0.15285 7:-0.0025907 8:0.10622 9:-0.098446 10:-0.056995 
-1.0 -0.0 -0.0 0.0 1:-1.1995 2:0.93523 3:-0.51295 4:0.11658 5:0.10363 6:-0.046632 7:0.07513 8:0.12176 9:0.054404 10:-0.062176 
-1.0 -0.0 -0.0 1.0 1:0.40674 2:0.30052 3:-0.059585 4:-0.056995 5:-0.049223 6:-0.11917 7:0.064767 8:0.23834 9:-0.21762 10:0.0 
-1.0 -0.0 -0.0 1.0 1:-1.2979 2:0.49741 3:-0.27202 4:0.17358 5:0.080311 6:-0.1114 7:0.080311 8:0.090674 9:-0.088083 10:0.033679 
-1.0 -0.0 -0.0 0.0 1:-0.68653 2:0.4171 3:-0.3886 4:-0.049223 5:0.10363 6:-0.18653 7:0.015544 8:0.18135 9:-0.018135 10:0.020725 
-0.0 -0.0 -0.0 1.0 1:-5.9119 2:3.8238 3:-0.11399 4:0.015544 5:0.0 6:0.07772 7:0.0051813 8:0.054404 9:-0.090674 10:-0.0051813 
-1.0 -0.0 -0.0 1.0 1:-0.29016 2:-0.62435 3:-0.15544 4:0.0025907 5:0.095855 6:0.067358 7:0.13472 8:-0.031088 9:-0.17876 10:0.0025907 
-1.0 -0.0 -0.0 1.0 1:-1.3005 2:1.2021 3:-0.26166 4:-0.23316 5:0.10881 6:0.046632 7:0.098446 8:0.085492 9:-0.085492 10:0.10104 
-0.0 -0.0 -0.0 1.0 1:-1.8187 2:1.7798 3:-0.61658 4:0.11658 5:0.049223 6:-0.020725 7:0.0051813 8:0.095855 9:-0.088083 10:-0.0051813 
-0.0 -0.0 -0.0 1.0 1:-3.342 2:2.1269 3:0.15803 4:-0.28497 5:-0.082902 6:0.088083 7:0.14249 8:0.19171 9:-0.033679 10:-0.095855 
-1.0 -0.0 -0.0 0.0 1:-0.46891 2:0.45078 3:-0.43264 4:0.069948 5:0.007772 6:-0.0025907 7:0.054404 8:0.13212 9:-0.11399 10:-0.028497 
-1.0 -0.0 -0.0 1.0 1:-1.4819 2:1.728 3:-0.55699 4:0.11658 5:-0.098446 6:-0.059585 7:0.07772 8:0.033679 9:-0.12953 10:-0.14508 
-0.7483060049633954 -0.0 -0.0 1.0 1:-2.0959 2:2.0 3:-0.064767 4:-0.41192 5:0.15026 6:0.031088 7:-0.082902 8:0.062176 9:-0.11399 10:-0.012953 
-0.7751894896096361 -0.0 -0.0 1.0 1:-2.0855 2:0.64508 3:-0.0051813 4:0.21762 5:0.012953 6:0.044041 7:0.059585 8:0.098446 9:-0.090674 10:-0.044041 
-0.0 -0.0 -0.0 0.3420872800555801 1:-2.3057 2:2.114 3:-0.56736 4:-0.13212 5:0.21762 6:0.072539 7:0.010363 8:0.22539 9:-0.10881 10:0.036269 
-1.0 -0.0 -0.0 1.0 1:-0.95596 2:0.4171 3:-0.2228 4:-0.11399 5:0.19689 6:0.080311 7:-0.0051813 8:0.13731 9:0.0051813 10:0.018135 
-0.0 -0.0 -0.0 1.0 1:-3.8135 2:2.0984 3:0.12435 4:-0.015544 5:0.12953 6:-0.17617 7:-0.13212 8:0.13472 9:-0.007772 10:-0.088083 
-0.0 -0.0 -0.0 1.0 1:-3.1995 2:2.5104 3:-0.40674 4:0.14508 5:0.19689 6:0.0025907 7:-0.041451 8:0.17098 9:-0.10104 10:-0.049223 
-0.0 -0.0 -0.0 1.0 1:-2.9041 2:1.8964 3:-0.31606 4:-0.1399 5:0.34456 6:-0.062176 7:-0.16839 8:0.17617 9:-0.1399 10:-0.062176 
-0.0 -0.0 -0.0 1.0 1:-3.5933 2:2.285 3:-0.29793 4:0.12694 5:0.21503 6:-0.028497 7:0.0 8:-0.033679 9:-0.13731 10:0.015544 
-0.0 -0.0 -0.0 1.0 1:-2.5104 2:0.70207 3:-0.041451 4:0.044041 5:0.16321 6:-0.12694 7:-0.07772 8:0.18135 9:-0.018135 10:0.020725 
-0.0 -0.0 -0.0 1.0 1:-1.6088 2:0.59585 3:-0.10881 4:-0.21762 5:-0.020725 6:-0.0051813 7:-0.028497 8:0.1399 9:-0.14249 10:0.056995 
-1.0 -0.0 -0.0 1.0 1:-1.3368 2:0.75648 3:-0.10104 4:-0.24611 5:-0.036269 6:-0.18912 7:-0.10363 8:0.0 9:-0.031088 10:-0.098446 
-0.0 -0.0 -0.0 1.0 1:-2.5699 2:1.3964 3:-0.20466 4:-0.14767 5:0.025907 6:0.23057 7:0.082902 8:0.18135 9:-0.010363 10:-0.007772 
-0.0 -0.0 -0.0 1.0 1:-2.5415 2:1.0337 3:-0.054404 4:0.19948 5:0.072539 6:-0.010363 7:0.059585 8:0.18653 9:-0.098446 10:0.051813 
-1.0 -0.0 -0.0 1.0 1:-0.49223 2:1.3523 3:-0.25389 4:-0.036269 5:0.11658 6:-0.090674 7:0.10363 8:0.11658 9:-0.095855 10:0.056995 
-0.0 -0.0 -0.0 1.0 1:-2.1269 2:1.8523 3:-0.16062 4:-0.11917 5:-0.015544 6:-0.10363 7:0.12435 8:0.12694 9:-0.1943 10:0.025907 
-1.0 -0.0 -1.0 1.0 1:0.54922 2:-0.23834 3:-0.085492 4:-0.21503 5:0.085492 6:-0.056995 7:-0.16062 8:0.20984 9:-0.03886 10:-0.036269 
-0.0 -0.0 -0.0 1.0 1:-2.5311 2:1.9016 3:-0.2228 4:-0.21503 5:0.03886 6:-0.028497 7:-0.031088 8:0.041451 9:-0.018135 10:-0.018135 
-1.0 -0.0 -0.0 0.0 1:-0.18653 2:-0.16839 3:-0.45078 4:-0.069948 5:0.12694 6:-0.059585 7:0.0025907 8:0.012953 9:-0.088083 10:-0.007772 
-0.4969163743714258 -0.0 -0.0 1.0 1:-2.8497 2:2.6399 3:0.054404 4:-0.14249 5:0.15803 6:0.028497 7:0.19171 8:0.16839 9:-0.07772 10:0.020725 
-0.0 -0.0 -0.0 1.0 1:-3.4093 2:2.4715 3:-0.010363 4:-0.13212 5:0.27202 6:-0.069948 7:0.049223 8:0.036269 9:0.059585 10:0.012953 
-0.0 -0.0 -0.0 1.0 1:-2.1606 2:1.3057 3:-0.080311 4:-0.11917 5:-0.15803 6:-0.031088 7:-0.085492 8:0.17098 9:-0.14508 10:-0.049223 
-0.0 -0.0 -0.0 1.0 1:-2.4948 2:1.5674 3:-0.23834 4:0.07513 5:0.11658 6:-0.072539 7:0.072539 8:0.19689 9:-0.0025907 10:-0.028497 
-0.0 -0.0 -0.0 1.0 1:-3.8679 2:3.0959 3:-0.07772 4:-0.069948 5:0.088083 6:-0.098446 7:0.080311 8:0.21503 9:-0.082902 10:0.0 
-1.0 -0.0 -0.0 1.0 1:-0.51295 2:0.3342 3:0.1114 4:0.010363 5:0.018135 6:-0.069948 7:-0.033679 8:-0.044041 9:-0.054404 10:-0.015544 
-1.0 -0.0 -0.0 0.0 1:-0.32124 2:0.031088 3:-0.32642 4:-0.21244 5:0.10881 6:-0.10363 7:0.020725 8:0.14508 9:0.090674 10:-0.069948 
-0.9807968452463038 -0.0 -0.0 1.0 1:-1.7927 2:2.013 3:-0.4715 4:-0.046632 5:-0.025907 6:-0.041451 7:0.036269 8:0.069948 9:0.028497 10:0.007772 
-1.0 -0.0 -0.0 1.0 1:-1.7176 2:1.671 3:-0.38601 4:-0.10104 5:-0.0051813 6:0.0025907 7:-0.051813 8:0.023316 9:-0.067358 10:0.059585 
-1.0 -0.0 -0.0 1.0 1:-1.3342 2:1.6088 3:-0.13731 4:-0.13731 5:-0.082902 6:0.007772 7:0.098446 8:0.29275 9:-0.033679 10:-0.14249 
-1.0 -0.0 -0.0 1.0 1:-0.44041 2:0.74093 3:-0.29275 4:-0.1114 5:0.049223 6:-0.064767 7:0.028497 8:0.03886 9:-0.044041 10:0.046632 
-1.0 -0.0 -0.0 0.0 1:-0.47668 2:0.55181 3:-0.77461 4:-0.24611 5:0.064767 6:-0.10881 7:-0.1658 8:-0.059585 9:-0.12694 10:-0.051813 
-1.0 -0.0 -0.0 0.0 1:-0.98187 2:0.9456 3:-0.46632 4:0.010363 5:0.18653 6:0.07772 7:-0.036269 8:0.088083 9:-0.020725 10:-0.0025907 
-0.0 -0.0 -0.0 1.0 1:-2.171 2:0.79534 3:-0.028497 4:-0.12435 5:-0.025907 6:-0.15285 7:-0.012953 8:0.025907 9:0.018135 10:-0.033679 
-0.0 -0.0 -0.0 1.0 1:-2.7047 2:0.7487 3:-0.015544 4:0.10363 5:0.12176 6:0.15803 7:-0.041451 8:0.32383 9:-0.19689 10:-0.11399 
-1.0 -0.0 -0.0 1.0 1:0.30829 2:0.40415 3:-0.3057 4:-0.056995 5:-0.041451 6:-0.080311 7:-0.033679 8:0.21503 9:0.07513 10:0.033679 
-0.0 -0.0 -0.0 1.0 1:-1.8523 2:0.83161 3:-0.16321 4:-0.044041 5:0.018135 6:-0.11658 7:0.20725 8:-0.098446 9:-0.13472 10:-0.054404 
-0.0 -0.0 -0.0 1.0 1:-1.9922 2:1.1425 3:-0.098446 4:-0.064767 5:0.036269 6:-0.28238 7:-0.23316 8:0.018135 9:-0.062176 10:-0.07772 
-1.0 -0.0 -0.0 1.0 1:-1.2772 2:0.7513 3:-0.036269 4:-0.010363 5:0.069948 6:0.07513 7:0.090674 8:0.067358 9:-0.007772 10:0.025907 
-1.0 -0.0 -0.0 1.0 1:-0.36269 2:0.9715 3:-0.28497 4:0.07772 5:0.0025907 6:-0.2228 7:0.095855 8:0.11399 9:-0.080311 10:-0.015544 
-1.0 -0.0 -0.0 0.0 1:0.29016 2:0.79534 3:-0.43005 4:-0.067358 5:0.23057 6:0.069948 7:0.16839 8:0.036269 9:-0.0051813 10:-0.0025907 
-1.0 -0.0 -0.0 1.0 1:-0.59845 2:1.0233 3:-0.18135 4:0.031088 5:0.064767 6:-0.051813 7:0.25907 8:0.051813 9:-0.080311 10:-0.12953 
-1.0 -0.0 -0.0 0.0 1:0.20984 2:-0.40415 3:-0.3886 4:-0.049223 5:-0.10104 6:-0.025907 7:0.095855 8:0.088083 9:-0.025907 10:-0.18912 
-1.0 -0.0 -0.0 0.0 1:0.34715 2:0.70725 3:-0.75389 4:-0.07513 5:0.14249 6:-0.062176 7:0.012953 8:0.028497 9:-0.062176 10:0.049223 
-1.0 -0.0 -0.0 1.0 1:-0.8342 2:0.96114 3:0.20466 4:-0.056995 5:0.072539 6:-0.07513 7:0.14249 8:0.041451 9:-0.11399 10:-0.036269 
-0.0 -0.0 -0.0 1.0 1:-3.0492 2:2.3135 3:-0.19948 4:-0.07772 5:0.10622 6:0.010363 7:-0.010363 8:0.028497 9:-0.10881 10:0.023316 
-1.0 -0.0 -0.0 1.0 1:-0.80311 2:1.4197 3:-0.38601 4:-0.13212 5:0.033679 6:-0.095855 7:0.090674 8:-0.028497 9:-0.072539 10:-0.090674 
-0.0 -0.0 -0.0 1.0 1:-3.1658 2:1.9663 3:0.044041 4:0.028497 5:0.11917 6:0.10104 7:-0.012953 8:0.0025907 9:-0.067358 10:-0.067358 
-1.0 -0.0 -0.0 1.0 1:-1.8627 2:2.0285 3:-0.22798 4:-0.067358 5:0.095855 6:0.025907 7:-0.12176 8:0.049223 9:-0.062176 10:-0.0051813 
-1.0 -0.0 -0.0 0.0 1:0.53368 2:0.10363 3:-0.47927 4:-0.007772 5:-0.012953 6:-0.21503 7:0.07772 8:0.044041 9:-0.0051813 10:-0.10363 
-1.0 -0.0 -0.0 0.0 1:-1.1088 2:1.5415 3:-0.59585 4:0.1943 5:0.072539 6:-0.20984 7:0.14767 8:0.11917 9:-0.064767 10:-0.069948 
-1.0 -0.0 -0.0 1.0 1:-0.093264 2:-0.064767 3:-0.24611 4:0.15285 5:0.1399 6:0.036269 7:0.03886 8:0.046632 9:-0.10622 10:-0.028497 
-1.0 -0.0 -0.0 1.0 1:-0.16062 2:1.1813 3:-0.17617 4:-0.12435 5:-0.11658 6:0.046632 7:-0.098446 8:0.1114 9:-0.082902 10:0.012953 
-1.0 -0.0 -0.0 1.0 1:0.17876 2:0.24352 3:-0.12694 4:-0.0025907 5:-0.023316 6:-0.1114 7:0.11658 8:0.067358 9:-0.14508 10:-0.031088 
-0.0 -0.0 -0.0 1.0 1:-3.1347 2:1.8316 3:0.19171 4:0.007772 5:0.023316 6:-0.082902 7:0.018135 8:0.044041 9:0.010363 10:0.0 
-0.0 -0.0 -0.0 1.0 1:-4.4145 2:3.171 3:-0.42228 4:0.069948 5:0.015544 6:0.041451 7:0.14508 8:-0.031088 9:-0.036269 10:0.028497 
-1.0 -0.0 -0.0 1.0 1:-1.5259 2:1.3497 3:-0.25389 4:-0.13212 5:-0.059585 6:-0.056995 7:0.054404 8:-0.10363 9:-0.10104 10:-0.028497 
-0.0 -0.0 -0.0 1.0 1:-3.1373 2:1.6762 3:-0.07772 4:0.07513 5:-0.10881 6:-0.025907 7:0.1943 8:0.051813 9:0.036269 10:-0.13731 
-0.0 -0.0 -0.0 1.0 1:-2.6088 2:1.9974 3:-0.093264 4:-0.13731 5:0.018135 6:-0.24611 7:0.031088 8:0.018135 9:-0.049223 10:0.0051813 
-1.0 -0.0 -0.0 1.0 1:-0.95078 2:1.4119 3:-0.42746 4:0.0051813 5:0.10104 6:0.044041 7:0.10363 8:-0.064767 9:-0.093264 10:-0.015544 
-1.0 -0.0 -0.0 1.0 1:-2.0751 2:1.342 3:0.0051813 4:-0.051813 5:0.064767 6:0.020725 7:0.0051813 8:-0.020725 9:-0.0051813 10:-0.033679 
-0.3277632302526688 -0.0 -0.0 1.0 1:-5.0233 2:3.1269 3:0.16321 4:0.2513 5:0.007772 6:0.059585 7:0.059585 8:0.080311 9:-0.020725 10:-0.07513 
-1.0 -0.36694956856881483 -0.0 1.0 1:-1.8834 2:-0.033679 3:0.26684 4:-0.044041 5:0.07772 6:-0.1114 7:0.17876 8:0.012953 9:-0.041451 10:-0.023316 
-0.0 -0.0 -0.0 1.0 1:-2.6891 2:1.5855 3:-0.13212 4:0.10881 5:-0.22021 6:0.028497 7:0.16062 8:0.069948 9:-0.10363 10:0.07772 
-1.0 -0.0 -0.0 1.0 1:-0.84456 2:1.6995 3:-0.098446 4:0.0 5:-0.18135 6:-0.056995 7:-0.015544 8:0.023316 9:-0.093264 10:0.025907 
-1.0 -0.0 -0.0 -1.0 1:-1.3549 2:1.5855 3:-0.059585 4:-0.58549 5:0.2513 6:-0.007772 7:-0.025907 8:0.062176 9:0.0051813 10:0.031088 
-1.0 -0.0 -0.0 -0.0 1:-1.2228 2:1.3031 3:0.30052 4:-0.036269 5:0.03886 6:-0.093264 7:-0.20207 8:0.0 9:-0.031088 10:-0.093264 
-0.0 -0.0 -0.0 -1.0 1:-2.544 2:1.3497 3:-0.21503 4:-0.17098 5:0.018135 6:0.010363 7:0.19948 8:0.12953 9:0.03886 10:-0.07513 
-0.0 -0.0 -0.0 -1.0 1:-2.5311 2:1.3472 3:0.10363 4:-0.28497 5:0.07513 6:-0.18394 7:-0.049223 8:0.090674 9:-0.082902 10:-0.036269 
-0.0 -0.0 -0.0 -1.0 1:-3.443 2:1.9819 3:-0.1658 4:0.10104 5:0.27979 6:-0.028497 7:-0.11399 8:0.059585 9:0.041451 10:0.025907 
-0.0 -0.0 -0.0 -1.0 1:-2.6839 2:2.0337 3:-0.085492 4:0.15544 5:0.046632 6:-0.12435 7:-0.07513 8:0.080311 9:-0.16321 10:-0.062176 
-0.0 -0.0 -0.0 -1.0 1:-2.2876 2:1.3653 3:0.031088 4:0.056995 5:0.056995 6:-0.056995 7:-0.067358 8:0.080311 9:0.0 10:-0.036269 
-0.0 -0.0 -0.0 -1.0 1:-2.5285 2:0.57513 3:0.12694 4:0.22798 5:0.080311 6:0.015544 7:-0.056995 8:-0.036269 9:0.0051813 10:-0.046632 
-0.0 -0.0 -0.0 -1.0 1:-2.285 2:2.0311 3:-0.16321 4:-0.27202 5:-0.1399 6:-0.10622 7:-0.14508 8:0.062176 9:-0.072539 10:0.007772 
-0.0 -0.0 -0.0 -1.0 1:-2.8342 2:2.3238 3:-0.2228 4:-0.30311 5:-0.025907 6:-0.049223 7:0.0 8:0.046632 9:-0.10622 10:0.020725 
-0.0 -0.0 -0.0 -1.0 1:-2.2902 2:2.0648 3:-0.42228 4:-0.033679 5:0.1658 6:0.19689 7:0.0025907 8:-0.015544 9:-0.041451 10:0.036269 
-1.0 -0.0 -0.0 -0.0 1:-1.3808 2:1.101 3:0.35751 4:0.054404 5:-0.088083 6:-0.07772 7:-0.23575 8:0.10622 9:-0.069948 10:-0.16839 
-1.0 -0.0 -0.0 -1.0 1:0.15544 2:0.41192 3:-0.067358 4:-0.07513 5:0.11658 6:0.03886 7:0.023316 8:0.056995 9:-0.049223 10:0.010363 
-0.0 -0.5649924348928068 -0.07538027076756994 -1.0 1:-5.9249 2:3.2953 3:-0.2228 4:0.046632 5:0.07513 6:-0.13212 7:-0.023316 8:-0.054404 9:0.020725 10:-0.069948 
-0.0 -0.0 -0.0 -1.0 1:-3.1451 2:2.2124 3:-0.14508 4:-0.13731 5:0.007772 6:0.064767 7:0.16062 8:0.0 9:-0.080311 10:-0.033679 
-1.0 -0.0 -0.0 -1.0 1:-1.6192 2:1.7565 3:-0.26166 4:0.033679 5:-0.11399 6:-0.12176 7:-0.13472 8:-0.015544 9:-0.080311 10:-0.028497 
-1.0 -0.0 -0.0 -1.0 1:-1.4637 2:1.0492 3:-0.23057 4:-0.10622 5:0.12176 6:-0.072539 7:-0.10104 8:0.090674 9:0.051813 10:-0.020725 
-0.0 -0.0 -0.0 -1.0 1:-2.7591 2:1.228 3:0.051813 4:-0.054404 5:0.2228 6:-0.26684 7:0.020725 8:0.025907 9:-0.14508 10:0.07772 
-1.0 -0.0 -0.0 -1.0 1:-1.9249 2:0.8057 3:0.098446 4:0.23057 5:0.13472 6:0.036269 7:0.10104 8:0.033679 9:-0.010363 10:-0.069948 
-1.0 -0.0 -0.0 -1.0 1:-1.1736 2:0.8057 3:0.23834 4:0.012953 5:0.14767 6:-0.17098 7:0.067358 8:0.051813 9:-0.046632 10:-0.20984 
-1.0 -0.0 -0.0 -1.0 1:-1.5233 2:0.91192 3:0.067358 4:-0.39637 5:-0.007772 6:-0.046632 7:-0.010363 8:0.007772 9:0.19171 10:0.0 
-1.0 -0.0 -0.0 -1.0 1:-0.52332 2:0.81606 3:-0.27461 4:0.0051813 5:0.0051813 6:0.012953 7:-0.080311 8:0.1943 9:-0.025907 10:-0.031088 
-1.0 -0.0 -0.0 -1.0 1:-1.1036 2:1.0959 3:-0.39378 4:0.21244 5:-0.07513 6:0.051813 7:0.020725 8:-0.12176 9:0.020725 10:0.072539 
-1.0 -0.0 -0.0 -1.0 1:-0.89119 2:1.0881 3:-0.10622 4:-0.11399 5:0.031088 6:-0.041451 7:-0.0051813 8:0.059585 9:0.1399 10:-0.14249 
-1.0 -0.0 -0.0 -1.0 1:-1.4456 2:1.4482 3:-0.028497 4:0.056995 5:-0.046632 6:0.012953 7:-0.0025907 8:-0.044041 9:0.007772 10:-0.020725 
-1.0 -0.0 -0.0 -1.0 1:-1.114 2:0.15803 3:-0.33161 4:-0.015544 5:0.14249 6:0.0025907 7:0.093264 8:0.049223 9:-0.13212 10:-0.11917 
-1.0 -0.0 -0.0 -1.0 1:-0.87306 2:0.28238 3:0.19689 4:-0.2228 5:0.15544 6:-0.062176 7:-0.1399 8:-0.028497 9:0.095855 10:0.07513 
-0.0 -0.0 -0.0 -1.0 1:-2.6658 2:2.4352 3:-0.54922 4:-0.049223 5:-0.062176 6:0.051813 7:-0.080311 8:0.07513 9:-0.1114 10:-0.10622 
-0.0 -0.0 -0.0 -1.0 1:-2.8938 2:1.6606 3:-0.5829 4:-0.10363 5:-0.054404 6:-0.10363 7:-0.07772 8:0.018135 9:-0.14767 10:0.069948 
-0.0 -0.0 -0.0 -0.575775622593497 1:-4.2927 2:2.1632 3:0.18653 4:-0.028497 5:0.031088 6:0.17876 7:0.0025907 8:0.044041 9:0.007772 10:-0.088083 
-0.0 -0.0 -0.0 -1.0 1:-3.5855 2:1.4611 3:-0.2228 4:0.085492 5:-0.018135 6:-0.1399 7:0.062176 8:0.11658 9:0.020725 10:0.049223 
-0.0 -0.0 -0.0 -1.0 1:-2.3446 2:1.6917 3:-0.52332 4:0.14249 5:0.049223 6:0.16839 7:-0.007772 8:0.025907 9:-0.025907 10:-0.046632 
-0.0 -0.0 -0.0 -1.0 1:-2.8912 2:1.2979 3:0.056995 4:-0.24611 5:-0.064767 6:0.03886 7:-0.10881 8:0.085492 9:-0.16062 10:0.010363 
-1.0 -0.0 -0.0 -1.0 1:-0.84715 2:0.61399 3:-0.088083 4:0.15544 5:-0.23057 6:0.10363 7:-0.0051813 8:0.093264 9:0.069948 10:-0.023316 
-0.0 -0.0 -0.0 -1.0 1:-1.7539 2:1.1088 3:-0.28497 4:-0.067358 5:0.10881 6:0.082902 7:-0.046632 8:0.07772 9:-0.12435 10:-0.018135 
-0.0 -0.0 -0.0 -1.0 1:-3.1658 2:1.9715 3:0.051813 4:-0.26684 5:0.10622 6:-0.067358 7:-0.015544 8:0.082902 9:-0.07772 10:-0.10622 
-1.0 -0.0 -0.0 -1.0 1:-1.3135 2:1.4637 3:-0.30052 4:-0.033679 5:0.12176 6:-0.054404 7:0.046632 8:0.031088 9:-0.056995 10:0.056995 
-0.0 -0.0 -0.0 -1.0 1:-4.7927 2:2.7461 3:0.13472 4:0.093264 5:-0.13472 6:0.10363 7:0.033679 8:-0.0025907 9:-0.051813 10:-0.07772 
-1.0 -0.0 -0.0 -1.0 1:-0.77979 2:0.39119 3:0.31865 4:0.18135 5:0.13212 6:0.0025907 7:-0.15285 8:-0.028497 9:-0.049223 10:0.0025907 
-1.0 -0.0 -0.0 -1.0 1:-1.456 2:1.2979 3:-0.40674 4:-0.051813 5:-0.025907 6:-0.10104 7:-0.080311 8:0.015544 9:-0.10881 10:0.07513 
-1.0 -0.0 -0.0 -1.0 1:-1.3497 2:1.2539 3:0.012953 4:-0.041451 5:0.0025907 6:-0.0051813 7:-0.17876 8:-0.088083 9:-0.020725 10:-0.054404 
-0.0 -0.0018258712412152493 -0.0 -1.0 1:-5.0492 2:1.842 3:0.30829 4:0.15285 5:0.072539 6:0.088083 7:0.11658 8:0.033679 9:-0.041451 10:0.041451 
-0.0 -0.0 -0.0 -1.0 1:-4.4197 2:2.7435 3:-0.11917 4:0.12176 5:0.090674 6:-0.19948 7:-0.1114 8:0.031088 9:-0.054404 10:0.03886 
-0.4112164655587672 -0.0 -0.0 -0.0 1:-2.3756 2:1.9508 3:0.098446 4:0.17617 5:-0.090674 6:-0.069948 7:-0.007772 8:0.069948 9:-0.010363 10:-0.11399 
-1.0 -0.0 -0.0 -1.0 1:-1.7668 2:0.87565 3:-0.37565 4:0.36788 5:0.17617 6:-0.03886 7:0.020725 8:0.049223 9:0.028497 10:-0.067358 
-1.0 -0.0 -0.0 -1.0 1:-0.94301 2:0.54922 3:-0.46114 4:0.30311 5:0.13212 6:-0.07772 7:-0.056995 8:0.13731 9:0.0 10:-0.025907 
-0.0 -0.0 -0.0 -1.0 1:-2.785 2:1.2746 3:-0.095855 4:0.19171 5:0.1943 6:-0.21244 7:0.11917 8:0.041451 9:-0.14508 10:-0.025907 
-0.0 -0.0 -0.0 -1.0 1:-4.0984 2:1.9585 3:0.19689 4:0.13212 5:0.15803 6:0.020725 7:0.0051813 8:-0.031088 9:-0.15544 10:0.007772 
-1.0 -0.0 -0.0 -1.0 1:-1.4378 2:0.45337 3:-0.11917 4:0.088083 5:-0.025907 6:-0.007772 7:-0.0051813 8:-0.056995 9:0.054404 10:-0.020725 
-0.0 -0.0 -0.0 -1.0 1:-2.6891 2:0.96632 3:0.1943 4:0.23057 5:0.26166 6:0.090674 7:-0.0051813 8:0.054404 9:0.023316 10:0.015544 
-1.0 -0.0 -0.0 -1.0 1:-0.97927 2:1.0933 3:-0.94819 4:-0.15803 5:0.10104 6:0.036269 7:0.15803 8:0.088083 9:0.12694 10:-0.020725 
-1.0 -0.0 -0.0 -1.0 1:-1.0181 2:1.3264 3:-0.16062 4:-0.26166 5:-0.018135 6:-0.046632 7:-0.067358 8:0.0 9:-0.023316 10:-0.028497 
-1.0 -0.0 -0.0 -1.0 1:-0.78497 2:0.33938 3:-0.19948 4:-0.036269 5:0.044041 6:-0.07772 7:-0.018135 8:-0.056995 9:-0.072539 10:0.059585 
-0.0 -0.0 -0.0 -1.0 1:-4.3083 2:2.443 3:-0.28756 4:0.35233 5:0.098446 6:0.041451 7:0.098446 8:0.049223 9:0.13472 10:-0.11917 
-0.0 -0.0 -0.0 -1.0 1:-2.8705 2:2.0 3:-0.35492 4:-0.11658 5:0.12953 6:0.098446 7:-0.059585 8:0.0 9:0.010363 10:0.07772 
-1.0 -0.0 -0.0 -1.0 1:-1.456 2:0.32383 3:0.25389 4:-0.33938 5:-0.082902 6:-0.049223 7:0.15285 8:-0.0025907 9:-0.082902 10:-0.098446 
-1.0 -0.0 -0.0 -1.0 1:-0.85751 2:0.97927 3:0.067358 4:0.007772 5:-0.049223 6:0.007772 7:-0.090674 8:-0.051813 9:-0.033679 10:-0.031088 
-0.0 -0.0 -0.0 -1.0 1:-3.6347 2:2.5544 3:0.0025907 4:-0.20725 5:0.033679 6:0.085492 7:0.0051813 8:0.033679 9:-0.018135 10:-0.036269 
-1.0 -0.0 -0.0 -1.0 1:-1.5596 2:1.1062 3:0.007772 4:-0.10622 5:0.11399 6:0.082902 7:-0.07772 8:-0.11399 9:-0.20466 10:-0.11399 
-1.0 -0.0 -0.0 -1.0 1:-2.0803 2:2.3472 3:-0.21762 4:-0.015544 5:0.0051813 6:0.049223 7:0.010363 8:0.15803 9:-0.07513 10:-0.1114 
-0.0 -0.0 -0.0 -1.0 1:-4.4974 2:2.6554 3:-0.34715 4:-0.12435 5:0.23057 6:0.13731 7:-0.12176 8:-0.051813 9:-0.046632 10:-0.046632 
-0.0 -0.0 -0.0 -1.0 1:-2.6166 2:1.6554 3:0.069948 4:0.028497 5:0.12176 6:0.028497 7:0.056995 8:0.062176 9:0.007772 10:-0.19948 
-0.0 -0.0 -0.1758283388621258 -1.0 1:-4.1684 2:1.6218 3:0.46114 4:0.012953 5:0.20725 6:0.036269 7:0.064767 8:0.15285 9:-0.049223 10:-0.07513 
-1.0 -0.0 -0.0 -1.0 1:-1.5207 2:0.58549 3:0.13472 4:-0.010363 5:-0.028497 6:-0.12694 7:-0.007772 8:0.090674 9:-0.044041 10:-0.044041 
-0.0 -0.0 -0.0 -1.0 1:-2.3523 2:0.67358 3:0.11658 4:0.2772 5:0.0025907 6:-0.033679 7:0.17617 8:0.12694 9:0.028497 10:-0.0025907 
-0.0 -0.0 -0.0 -1.0 1:-3.2565 2:1.3886 3:0.062176 4:0.14508 5:-0.031088 6:0.088083 7:0.036269 8:0.090674 9:-0.10104 10:-0.093264 
-1.0 -0.0 -0.0 -1.0 1:-0.93782 2:0.78238 3:-0.48705 4:0.051813 5:-0.025907 6:0.0025907 7:-0.10622 8:-0.090674 9:0.028497 10:-0.033679 
-0.185969336307509 -0.0 -0.0 -1.0 1:-2.0104 2:1.8523 3:-0.098446 4:-0.28756 5:0.31347 6:-0.044041 7:-0.041451 8:-0.020725 9:-0.093264 10:-0.085492 
-0.0 -0.0 -0.0 -1.0 1:-2.4845 2:1.6062 3:-0.12953 4:-0.29016 5:-0.17098 6:-0.056995 7:-0.12694 8:-0.007772 9:0.033679 10:-0.046632 
-0.0 -0.0 -0.0 -1.0 1:-2.228 2:2.5259 3:-0.66321 4:-0.19948 5:-0.064767 6:-0.085492 7:-0.054404 8:0.007772 9:-0.025907 10:-0.010363 
-1.0 -0.0 -0.0 -1.0 1:-1.4197 2:0.83938 3:-0.25389 4:0.20984 5:-0.023316 6:-0.07513 7:0.18135 8:0.015544 9:0.069948 10:0.0 
-0.0 -0.0 -0.0 -1.0 1:-2.2642 2:1.3523 3:0.1658 4:0.018135 5:0.031088 6:0.10881 7:-0.10363 8:0.15285 9:-0.015544 10:-0.044041 
-1.0 -0.0 -0.0 -1.0 1:-1.7746 2:1.4585 3:0.067358 4:-0.28238 5:0.054404 6:-0.07772 7:-0.085492 8:-0.015544 9:0.020725 10:-0.028497 
-1.0 -0.0 -0.0 -1.0 1:-1.1166 2:0.16321 3:0.24611 4:0.007772 5:-0.093264 6:-0.11917 7:0.028497 8:0.15026 9:0.054404 10:-0.018135 
-1.0 -0.0 -0.0 -1.0 1:-1.5648 2:1.3472 3:-0.54663 4:-0.28238 5:0.03886 6:-0.07513 7:0.059585 8:0.028497 9:0.095855 10:-0.14249 
-0.0 -0.0 -0.0 -1.0 1:-2.5052 2:2.1373 3:0.085492 4:-0.29534 5:0.023316 6:0.12435 7:-0.093264 8:0.12953 9:-0.093264 10:-0.010363 
-1.0 -0.0 -0.0 -1.0 1:-1.3187 2:1.1451 3:-0.07513 4:0.27202 5:0.15026 6:-0.0051813 7:0.12694 8:-0.041451 9:0.0025907 10:-0.07513 
-0.0 -0.0 -0.0 -1.0 1:-2.0233 2:1.5285 3:-0.23575 4:-0.098446 5:-0.046632 6:-0.036269 7:-0.028497 8:0.044041 9:-0.13212 10:-0.031088 
-0.0 -0.0 -0.0 -1.0 1:-2.7617 2:2.2461 3:-0.1943 4:-0.13472 5:0.080311 6:-0.10363 7:0.10881 8:0.13472 9:-0.023316 10:-0.028497 
-1.0 -0.0 -0.0 -1.0 1:-0.88601 2:1.3083 3:-0.088083 4:0.10881 5:0.2228 6:-0.023316 7:-0.0051813 8:0.11658 9:-0.018135 10:-0.015544 
-0.0 -0.0 -0.0 -1.0 1:-2.3938 2:1.1503 3:-0.010363 4:0.051813 5:0.085492 6:0.036269 7:-0.07772 8:-0.11917 9:-0.17876 10:0.041451 
-0.0 -0.0 -0.0 -1.0 1:-3.4896 2:2.4637 3:-0.1399 4:0.0051813 5:0.18912 6:-0.10363 7:0.044041 8:-0.0051813 9:-0.023316 10:0.020725 
-1.0 -0.0 -0.0 -1.0 1:-0.83161 2:1.0648 3:0.31865 4:-0.16839 5:-0.12953 6:-0.028497 7:0.015544 8:-0.0051813 9:0.015544 10:0.098446 
-1.0 -0.0 -0.0 -1.0 1:-1.2098 2:1.0907 3:-0.15544 4:-0.033679 5:-0.046632 6:0.018135 7:-0.1399 8:-0.095855 9:-0.15026 10:-0.19171 
-0.0 -0.0 -0.0 -1.0 1:-2.2798 2:2.2435 3:-0.61399 4:0.041451 5:0.041451 6:-0.051813 7:0.031088 8:0.020725 9:-0.051813 10:0.028497 
-1.0 -1.0 -1.0 -1.0 1:1.3575 2:-0.19948 3:-0.24093 4:-0.051813 5:-0.22539 6:0.049223 7:0.12176 8:-0.0051813 9:0.023316 10:-0.059585 
-1.0 -0.0 -0.0 -1.0 1:-0.18394 2:0.0 3:0.23057 4:0.067358 5:0.11399 6:0.056995 7:0.0 8:-0.064767 9:0.072539 10:0.046632 
-0.0 -0.0 -0.0 -1.0 1:-2.1477 2:1.456 3:-0.37047 4:0.17876 5:-0.054404 6:0.13731 7:0.085492 8:0.14249 9:-0.036269 10:0.010363 
-0.0 -0.0 -0.0 -1.0 1:-2.2487 2:1.6088 3:-0.22539 4:-0.11917 5:-0.046632 6:0.031088 7:-0.20725 8:0.10881 9:-0.007772 10:-0.13472 
-0.0 -0.0 -0.0 -1.0 1:-3.8575 2:2.7176 3:-0.27979 4:0.11399 5:-0.095855 6:-0.046632 7:-0.13212 8:0.10363 9:0.03886 10:-0.018135 
-0.0 -0.0 -0.0 -1.0 1:-2.7539 2:0.97409 3:0.30052 4:-0.051813 5:0.054404 6:0.093264 7:0.14508 8:0.07513 9:-0.020725 10:0.012953 
-1.0 -0.0 -0.0 -1.0 1:-0.85233 2:1.0181 3:-0.015544 4:0.07513 5:0.0025907 6:-0.13731 7:-0.059585 8:0.10622 9:-0.012953 10:-0.067358 
-0.0 -0.0 -0.0 -1.0 1:-3.4896 2:2.6192 3:-0.3601 4:-0.11399 5:-0.15285 6:0.051813 7:-0.10622 8:0.082902 9:-0.012953 10:0.13731 
-0.13910384374360552 -0.0 -0.0 -1.0 1:-2.0984 2:1.5026 3:0.16321 4:-0.16839 5:0.07513 6:-0.03886 7:-0.046632 8:-0.041451 9:-0.056995 10:-0.062176 
-0.0 -0.0 -0.0 -0.052398116242452095 1:-3.3161 2:2.1736 3:0.12176 4:-0.12953 5:0.16839 6:0.16321 7:0.03886 8:0.0025907 9:-0.049223 10:-0.028497 
-0.0 -0.0 -0.0 -1.0 1:-2.6606 2:1.1114 3:-0.098446 4:0.020725 5:0.046632 6:-0.072539 7:-0.21244 8:0.010363 9:-0.046632 10:-0.0025907 
-1.0 -0.0 -0.0 -1.0 1:-1.9016 2:0.98446 3:0.10881 4:0.22798 5:0.07772 6:0.095855 7:0.085492 8:0.10104 9:0.069948 10:-0.085492 
-0.0 -0.0 -0.0 -1.0 1:-2.0596 2:2.0725 3:-0.53368 4:-0.25389 5:-0.007772 6:-0.072539 7:0.11399 8:0.10104 9:-0.080311 10:0.067358 
-0.0 -0.0 -0.0 -1.0 1:-3.0104 2:1.9067 3:-0.069948 4:0.27461 5:0.10363 6:0.1399 7:-0.07513 8:0.085492 9:0.0 10:-0.07513 
-0.0 -0.0 -0.0 -1.0 1:-2.2953 2:0.51813 3:0.30829 4:-0.085492 5:0.11917 6:-0.069948 7:0.067358 8:-0.044041 9:-0.07772 10:0.036269 
-0.0 -0.0 -0.0 -1.0 1:-2.7668 2:2.7591 3:-0.37565 4:0.080311 5:0.093264 6:-0.10104 7:-0.13212 8:0.085492 9:0.012953 10:-0.051813 
-0.0 -0.0 -0.0 -1.0 1:-5.1192 2:3.329 3:0.16839 4:0.18394 5:0.21762 6:-0.020725 7:0.085492 8:0.046632 9:-0.010363 10:-0.095855 
-0.0 -0.0 -0.0 -1.0 1:-4.2798 2:3.0415 3:-0.072539 4:0.036269 5:0.13212 6:0.056995 7:-0.11917 8:0.056995 9:-0.010363 10:0.031088 
-1.0 -0.0 -0.0 -0.0 1:-2.1891 2:1.4611 3:0.20207 4:0.30311 5:0.012953 6:-0.090674 7:0.12435 8:0.062176 9:0.015544 10:-0.007772 
-0.0 -0.0 -0.0 -1.0 1:-2.9223 2:1.9456 3:-0.13472 4:0.010363 5:0.036269 6:0.080311 7:0.10104 8:0.0051813 9:-0.020725 10:0.018135 
-0.0 -0.0 -0.0 -1.0 1:-2.2617 2:1.7098 3:-0.1399 4:0.26166 5:-0.15026 6:-0.088083 7:0.16839 8:0.10881 9:-0.19948 10:-0.023316 
-1.0 -0.0 -0.0 -0.0 1:-1.7746 2:1.3161 3:0.21762 4:-0.10104 5:-0.21503 6:-0.03886 7:0.03886 8:-0.049223 9:-0.031088 10:-0.03886 
-1.0 -0.0 -0.0 -1.0 1:-1.4301 2:0.70466 3:0.090674 4:0.13731 5:0.13212 6:-0.20207 7:-0.11917 8:0.064767 9:0.033679 10:-0.007772 
-1.0 -0.0 -0.0 -1.0 1:-1.6917 2:1.6788 3:-0.010363 4:0.13472 5:0.2228 6:-0.023316 7:0.015544 8:-0.015544 9:-0.11399 10:-0.051813 
-1.0 -0.0 -0.0 -1.0 1:-0.56736 2:1.0518 3:-0.26425 4:-0.085492 5:0.12435 6:-0.03886 7:0.095855 8:0.12953 9:-0.11399 10:-0.051813 
-0.0 -0.0 -0.0 -1.0 1:-4.0155 2:2.5777 3:-0.03886 4:0.041451 5:0.17617 6:-0.067358 7:-0.062176 8:0.007772 9:-0.11658 10:-0.015544 
-0.0 -0.0 -0.0 -1.0 1:-3.0907 2:1.6166 3:-0.1114 4:0.12176 5:-0.1658 6:0.090674 7:0.056995 8:0.13212 9:-0.010363 10:0.1114 
-1.0 -0.0 -0.0 -1.0 1:-0.96373 2:0.29016 3:0.044041 4:-0.23316 5:-0.080311 6:-0.025907 7:-0.015544 8:0.23316 9:0.15026 10:-0.028497 
-0.0 -0.0 -0.0 -1.0 1:-2.6218 2:1.3083 3:-0.28238 4:-0.025907 5:0.056995 6:-0.031088 7:-0.12176 8:0.018135 9:-0.041451 10:0.049223 
-0.0 -0.0 -0.0 -1.0 1:-3.4301 2:1.9585 3:0.054404 4:0.031088 5:0.19171 6:-0.19948 7:0.067358 8:0.023316 9:-0.023316 10:-0.0051813 
-0.0 -0.0 -0.0 -1.0 1:-2.4793 2:1.6399 3:-0.1943 4:-0.049223 5:0.13731 6:-0.15285 7:-0.095855 8:0.062176 9:0.11658 10:-0.031088 
-1.0 -0.0 -0.0 -1.0 1:-1.3083 2:0.98187 3:-0.14508 4:-0.082902 5:0.0025907 6:-0.14249 7:-0.054404 8:0.069948 9:-0.041451 10:-0.025907 
-1.0 -0.0 -0.0 -1.0 1:-0.54922 2:0.71762 3:0.046632 4:-0.12953 5:0.036269 6:-0.069948 7:-0.072539 8:0.088083 9:-0.059585 10:0.023316 
-0.0 -0.0 -0.0 -1.0 1:-3.1425 2:2.1269 3:-0.18394 4:0.16321 5:0.28238 6:-0.15026 7:0.10881 8:0.14508 9:-0.085492 10:-0.03886 
-1.0 -0.0 -0.0 -1.0 1:-1.4819 2:0.9171 3:-0.11917 4:0.19689 5:0.098446 6:0.090674 7:-0.062176 8:-0.064767 9:0.069948 10:-0.10104 
-1.0 -0.0 -0.0 -1.0 1:-1.513 2:1.2513 3:0.098446 4:0.11658 5:0.07513 6:0.023316 7:0.044041 8:0.025907 9:-0.0051813 10:0.010363 
-0.0 -0.0 -0.0 -1.0 1:-2.2824 2:2.0155 3:-0.22798 4:0.023316 5:0.044041 6:-0.07772 7:0.098446 8:0.0 9:0.16062 10:-0.007772 
-1.0 -0.0 -0.0 -0.0 1:-2.0699 2:1.842 3:0.093264 4:0.064767 5:0.095855 6:0.046632 7:0.028497 8:-0.080311 9:-0.11917 10:0.0051813 
-0.0 -0.0 -0.0 -1.0 1:-2.4041 2:1.9715 3:-0.40155 4:-0.080311 5:0.03886 6:0.072539 7:0.025907 8:-0.023316 9:0.007772 10:-0.072539 
-0.0 -0.0 -0.0 -1.0 1:-3.0751 2:2.1943 3:-0.072539 4:0.062176 5:0.19689 6:-0.036269 7:-0.10363 8:-0.064767 9:-0.07513 10:-0.064767 
-1.0 -0.0 -0.0 -1.0 1:-1.829 2:1.456 3:-0.19171 4:-0.085492 5:0.056995 6:0.03886 7:-0.20984 8:-0.044041 9:-0.098446 10:-0.028497 
-0.0 -0.0 -0.0 -1.0 1:-3.8523 2:2.2824 3:0.10622 4:-0.088083 5:0.095855 6:-0.010363 7:0.059585 8:0.010363 9:0.023316 10:-0.10363 
-0.0 -0.0 -0.0 -1.0 1:-2.7746 2:1.3394 3:-0.22539 4:-0.044041 5:0.0 6:0.018135 7:0.10622 8:-0.049223 9:-0.044041 10:0.012953 
-0.0 -0.0 -0.0 -1.0 1:-3.7461 2:2.2668 3:-0.062176 4:0.23575 5:0.11658 6:-0.054404 7:0.028497 8:0.22539 9:0.046632 10:-0.010363 
-0.0 -0.0 -0.0 -1.0 1:-3.1762 2:2.487 3:0.046632 4:-0.11399 5:-0.031088 6:0.07772 7:-0.046632 8:0.26684 9:-0.088083 10:-0.16839 
-0.0 -0.0 -0.0 -1.0 1:-2.9041 2:1.8497 3:-0.19948 4:0.10363 5:-0.16839 6:-0.072539 7:-0.0025907 8:-0.033679 9:0.046632 10:-0.020725 
-0.0 -0.0 -0.0 -1.0 1:-3.5881 2:2.4611 3:-0.4171 4:0.11658 5:-0.20725 6:0.17876 7:-0.072539 8:-0.054404 9:0.018135 10:-0.10363 
-1.0 -0.0 -0.0 -1.0 1:-1.9482 2:2.044 3:-0.3886 4:-0.067358 5:-0.15285 6:-0.10881 7:-0.10104 8:0.12176 9:-0.059585 10:0.015544 
-0.9808192288117641 -1.0 -0.7307789753730847 -1.0 1:-6.2383 2:2.9456 3:0.39896 4:-0.0025907 5:0.21244 6:-0.10104 7:0.072539 8:-0.093264 9:0.0 10:-0.031088 
-0.0 -0.0 -0.0 -1.0 1:-2.7824 2:1.7902 3:-0.19171 4:-0.11658 5:0.044041 6:0.085492 7:-0.18394 8:0.03886 9:-0.11658 10:0.064767 
-1.0 -0.0 -0.0 -1.0 1:-2.114 2:1.5492 3:0.10622 4:0.0 5:0.07772 6:-0.025907 7:0.049223 8:0.046632 9:-0.10622 10:-0.028497 
-0.0 -0.0 -0.0 -1.0 1:-2.6839 2:2.0155 3:-0.26166 4:-0.03886 5:-0.15803 6:-0.18912 7:-0.12694 8:0.007772 9:-0.033679 10:-0.056995 
-0.0 -0.0 -0.0 -1.0 1:-2.2746 2:1.057 3:0.010363 4:0.098446 5:0.28497 6:-0.020725 7:-0.007772 8:0.067358 9:-0.031088 10:0.0051813 
-1.0 -0.0 -0.0 -1.0 1:-0.81865 2:1.2694 3:0.13212 4:0.012953 5:-0.056995 6:-0.15803 7:-0.07513 8:0.072539 9:-0.015544 10:0.051813 
-0.0 -0.0 -0.0 -1.0 1:-2.3964 2:1.5492 3:0.16839 4:-0.11399 5:-0.1114 6:0.031088 7:0.2228 8:0.028497 9:-0.11917 10:-0.012953 
-0.0 -0.0 -0.0 -1.0 1:-1.9041 2:1.0155 3:-0.2228 4:0.17876 5:0.10363 6:-0.1114 7:-0.13472 8:0.028497 9:-0.062176 10:-0.028497 
-0.0 -0.0 -0.0 -1.0 1:-3.1632 2:2.3394 3:-0.12694 4:-0.21503 5:-0.10104 6:-0.056995 7:-0.067358 8:-0.012953 9:-0.11917 10:0.051813 
-0.0 -0.0 -0.0 -1.0 1:-2.0933 2:1.4223 3:-0.2772 4:-0.12176 5:-0.11658 6:-0.16321 7:-0.03886 8:0.018135 9:-0.023316 10:0.0 
-1.0 -0.0 -0.0 -0.0 1:-1.8446 2:1.7228 3:0.13731 4:-0.17098 5:-0.054404 6:0.020725 7:-0.1399 8:-0.10622 9:-0.10104 10:-0.0025907 
-1.0 -0.0 -0.0 -1.0 1:-0.45855 2:0.31606 3:-0.63472 4:0.18912 5:0.028497 6:0.13212 7:-0.028497 8:-0.14508 9:0.0025907 10:0.082902 
-1.0 -0.6008138969350875 -0.0 -0.0 1:-1.2617 2:2.5959 3:0.036269 4:-0.088083 5:-0.13472 6:0.033679 7:-0.13731 8:-0.093264 9:0.080311 10:-0.012953 
-1.0 -0.0 -0.0 -1.0 1:-2.0855 2:1.2047 3:0.082902 4:0.13731 5:0.069948 6:-0.033679 7:-0.007772 8:0.015544 9:0.067358 10:-0.0025907 
-1.0 -0.0 -0.0 -1.0 1:-0.50777 2:0.37824 3:0.14249 4:-0.044041 5:0.19948 6:-0.10104 7:-0.010363 8:0.067358 9:-0.064767 10:-0.015544 
-1.0 -0.0 -0.0 -1.0 1:-1.829 2:2.3523 3:-0.18653 4:-0.16062 5:0.18912 6:0.18653 7:-0.1114 8:0.023316 9:0.036269 10:0.059585 
-0.0 -0.0 -0.0 -1.0 1:-3.9741 2:2.601 3:-0.18653 4:0.1658 5:-0.031088 6:-0.072539 7:-0.041451 8:0.095855 9:0.088083 10:-0.1399 
-1.0 -0.0 -0.0 -1.0 1:0.018135 2:0.81347 3:-0.48187 4:0.21762 5:-0.18653 6:0.07513 7:-0.0025907 8:0.098446 9:-0.12953 10:0.025907 
-1.0 -0.0 -0.0 -1.0 1:-0.20466 2:0.70725 3:-0.090674 4:-0.16321 5:0.07513 6:-0.069948 7:-0.072539 8:0.064767 9:-0.054404 10:-0.18135 
-1.0 -0.0 -0.0 -0.0 1:-2.1554 2:1.3705 3:0.24611 4:-0.12176 5:-0.23834 6:0.16321 7:-0.07513 8:0.051813 9:-0.11917 10:0.069948 
-0.0 -0.0 -0.0 -1.0 1:-2.0751 2:1.2953 3:-0.41451 4:0.025907 5:-0.088083 6:0.0 7:-0.025907 8:0.015544 9:-0.064767 10:0.012953 
-1.0 -0.0 -0.41832757189966535 -1.0 1:0.43523 2:0.095855 3:-0.24611 4:0.14508 5:0.1399 6:-0.041451 7:-0.020725 8:-0.054404 9:-0.15544 10:0.062176 
-1.0 -0.0 -0.0 -1.0 1:-0.54404 2:0.25389 3:0.080311 4:0.036269 5:-0.046632 6:0.0 7:0.049223 8:0.093264 9:-0.11399 10:0.012953 
-1.0 -0.0 -0.0 -1.0 1:-0.8057 2:1.4922 3:0.023316 4:-0.22021 5:-0.44041 6:0.0051813 7:-0.044041 8:-0.054404 9:-0.10104 10:0.11399 
-0.0 -0.0 -0.0 -1.0 1:-2.6839 2:1.6503 3:-0.29275 4:0.14508 5:-0.054404 6:-0.020725 7:-0.059585 8:0.036269 9:-0.046632 10:0.015544 
-0.0 -0.0 -0.0 -1.0 1:-2.1943 2:1.671 3:-0.2772 4:0.14767 5:-0.072539 6:0.015544 7:-0.012953 8:0.07772 9:-0.064767 10:-0.11399 
-1.0 -0.0 -0.0 -1.0 1:-1.4845 2:0.51036 3:0.07513 4:-0.20984 5:0.17876 6:0.07513 7:0.10622 8:0.018135 9:0.033679 10:-0.046632 
-1.0 -0.0 -0.0 -1.0 1:-0.98187 2:0.84715 3:-0.24093 4:0.10881 5:0.25907 6:-0.29275 7:-0.13472 8:-0.036269 9:-0.07513 10:0.031088 
-1.0 -0.0 -0.0 -1.0 1:-0.25648 2:0.8601 3:-0.24611 4:-0.20207 5:-0.085492 6:0.046632 7:-0.03886 8:0.11917 9:-0.0051813 10:0.064767 
-0.0 -0.0 -0.0 -1.0 1:-2.671 2:2.2979 3:-0.35492 4:0.12176 5:0.21503 6:0.007772 7:0.098446 8:0.054404 9:-0.031088 10:-0.051813 
-0.0 -0.0 -0.0 -1.0 1:-2.3756 2:2.3005 3:-0.25389 4:0.15544 5:0.28497 6:-0.049223 7:0.028497 8:0.067358 9:-0.044041 10:-0.093264 
-1.0 -0.322868591332192 -0.45589013792016847 -1.0 1:-2.3938 2:2.9611 3:-0.56736 4:0.020725 5:-0.1943 6:-0.1658 7:-0.1114 8:-0.069948 9:-0.15803 10:0.033679 
-1.0 -0.0 -0.0 -1.0 1:-0.87565 2:1.4845 3:-0.38601 4:0.12953 5:0.025907 6:-0.12176 7:0.080311 8:0.0 9:-0.085492 10:-0.020725 
-1.0 -0.0 -0.0 -1.0 1:-0.37824 2:-0.15285 3:0.55959 4:-0.059585 5:0.012953 6:-0.03886 7:0.11917 8:-0.033679 9:0.0 10:0.015544 
-0.0 -0.0 -0.0 -1.0 1:-2.4016 2:1.5518 3:-0.19171 4:0.028497 5:0.16062 6:0.18653 7:0.069948 8:0.093264 9:-0.036269 10:0.012953 
-1.0 -0.0 -0.0 -1.0 1:-0.9715 2:1.2073 3:-0.23316 4:0.056995 5:-0.062176 6:-0.10104 7:-0.023316 8:0.020725 9:-0.14767 10:-0.10881 
-0.0 -0.0 -0.0 -1.0 1:-2.4301 2:2.0052 3:-0.20466 4:0.18135 5:0.090674 6:0.14249 7:-0.0051813 8:0.044041 9:-0.11399 10:-0.0025907 
-1.0 -0.0 -0.0 -1.0 1:-1.6036 2:1.5984 3:-0.49223 4:-0.031088 5:-0.18653 6:-0.0051813 7:-0.07513 8:0.07513 9:-0.046632 10:-0.007772 
-0.0 -0.0 -0.0 -1.0 1:-2.5518 2:1.6477 3:-0.26166 4:0.37306 5:-0.023316 6:0.069948 7:-0.13731 8:0.085492 9:-0.018135 10:0.14508 
-0.0 -0.0 -0.0 -1.0 1:-3.7876 2:3.0389 3:-0.46632 4:0.22539 5:0.23834 6:-0.031088 7:0.041451 8:0.1114 9:-0.088083 10:-0.093264 
-0.0 -0.0 -0.0 -1.0 1:-2.1192 2:1.4948 3:-0.12176 4:-0.049223 5:0.16321 6:-0.051813 7:0.012953 8:0.10622 9:-0.059585 10:-0.036269 
-1.0 -0.0 -0.0 -1.0 1:-0.48446 2:0.20725 3:-0.41969 4:0.18653 5:-0.085492 6:0.16062 7:0.093264 8:0.19171 9:-0.07513 10:-0.012953 
-0.0 -0.0 -0.0 -1.0 1:-3.0078 2:1.4249 3:-0.049223 4:0.12694 5:0.056995 6:-0.018135 7:0.023316 8:0.044041 9:0.095855 10:-0.054404 
-0.0 -0.0 -0.0 -1.0 1:-2.5803 2:1.9145 3:-0.41192 4:0.018135 5:-0.18912 6:-0.088083 7:-0.059585 8:0.0 9:0.015544 10:-0.098446 
-0.0 -0.0 -0.0 -0.41190978227138203 1:-2.6373 2:1.6425 3:0.098446 4:-0.069948 5:-0.15544 6:-0.07772 7:-0.12953 8:0.085492 9:0.015544 10:-0.13472 
-0.0 -0.0 -0.0 -1.0 1:-2.0933 2:1.6062 3:-0.19171 4:-0.080311 5:-0.29534 6:-0.059585 7:0.041451 8:-0.069948 9:-0.051813 10:-0.018135 
-0.0 -0.0 -0.0 -1.0 1:-3.0959 2:2.101 3:0.0051813 4:-0.07513 5:0.095855 6:0.044041 7:-0.067358 8:0.072539 9:0.051813 10:0.067358 
-0.0 -0.0 -0.0 -1.0 1:-2.6813 2:2.7098 3:-0.3057 4:0.10881 5:-0.14508 6:-0.095855 7:0.0025907 8:-0.090674 9:-0.22539 10:0.0025907 
-0.0 -0.0 -0.0 -1.0 1:-2.2176 2:1.0984 3:-0.15285 4:0.062176 5:0.22539 6:0.12694 7:0.049223 8:0.028497 9:-0.098446 10:-0.007772 
-0.0 -0.0 -0.0 -1.0 1:-2.2409 2:2.114 3:-0.3057 4:-0.21762 5:0.049223 6:0.0 7:0.10622 8:0.03886 9:0.0025907 10:0.088083 
-1.0 -0.0 -0.0 -1.0 1:-1.342 2:1.1373 3:-0.37565 4:-0.17876 5:0.007772 6:0.007772 7:-0.16062 8:0.0051813 9:-0.041451 10:0.044041 
-0.0 -0.7336365846944373 -0.0 -1.0 1:-2.4715 2:0.3601 3:-0.28238 4:-0.088083 5:0.12694 6:-0.0025907 7:0.049223 8:0.080311 9:-0.012953 10:-0.010363 
-1.0 -0.0 -0.0 -1.0 1:-1.8238 2:1.658 3:0.067358 4:-0.12694 5:-0.11399 6:0.11658 7:0.007772 8:0.080311 9:0.010363 10:-0.090674 
-1.0 -0.0 -0.0 -1.0 1:-2.0363 2:1.7073 3:0.036269 4:0.0025907 5:0.025907 6:-0.044041 7:0.028497 8:0.018135 9:-0.010363 10:-0.067358 
-0.0 -0.0 -0.0 -1.0 1:-2.3627 2:0.7772 3:0.20207 4:-0.26425 5:0.093264 6:-0.13472 7:-0.012953 8:-0.018135 9:-0.19171 10:0.0051813 
-1.0 -0.0 -0.0 -1.0 1:-0.89637 2:0.85751 3:0.18912 4:0.041451 5:0.044041 6:0.12694 7:0.25648 8:0.12435 9:-0.012953 10:0.11917 
-0.0 -0.0 -0.0 -1.0 1:-2.785 2:1.2772 3:-0.080311 4:0.010363 5:0.088083 6:0.098446 7:-0.054404 8:0.2228 9:-0.007772 10:0.007772 
-0.0 -0.0 -0.0 -1.0 1:-2.5674 2:1.4767 3:0.056995 4:0.2772 5:0.12953 6:-0.010363 7:0.085492 8:0.044041 9:-0.036269 10:-0.020725 
-0.0 -0.0 -0.0 -1.0 1:-2.6347 2:2.0492 3:-0.39119 4:0.10881 5:-0.12435 6:0.036269 7:-0.046632 8:0.10622 9:-0.082902 10:0.088083 
-1.0 -0.4793064598477949 -1.0 -1.0 1:0.59326 2:-0.53109 3:0.082902 4:0.16839 5:-0.012953 6:-0.17098 7:-0.018135 8:0.067358 9:-0.095855 10:-0.051813 
-0.0 -0.0 -0.0 -1.0 1:-2.0622 2:1.6917 3:-0.16062 4:-0.19171 5:-0.41451 6:-0.056995 7:0.018135 8:0.11399 9:-0.010363 10:-0.018135 
-1.0 -0.0 -0.0 -1.0 1:-1.0104 2:1.3756 3:0.24093 4:-0.044041 5:-0.16062 6:0.0025907 7:0.025907 8:0.056995 9:0.007772 10:-0.067358 
-0.0 -0.0 -0.0 -1.0 1:-4.4508 2:3.2746 3:-0.041451 4:-0.095855 5:0.10881 6:0.051813 7:-0.010363 8:0.093264 9:0.088083 10:0.0025907 
-0.0 -0.0 -0.0 -1.0 1:-2.7435 2:1.9145 3:-0.13731 4:0.049223 5:-0.056995 6:-0.12435 7:0.21762 8:0.0 9:0.067358 10:0.059585 
