svm_type c_svc
kernel_type rbf
gamma 0.1
nr_class 5
total_sv 508
rho 0.8761291379717583 0.7129918569477725 0.08309382326903314 0.3282565515236698 -0.44170317070230053 -0.8648102367278924 -0.8773795350469569 -0.6911585068268263 -0.7169593324283906 -0.06618869839223433
label 1 2 3 4 5
nr_sv 142 144 63 24 135
SV
0.0 0.0 0.0 1.0 1:-1.4819 2:1.2824 3:-0.36269 4:-0.14767 5:0.21244 6:0.17876 7:-0.0051813 8:-0.11399 9:-0.12694 10:-0.015544 
0.0 0.0 0.0 1.0 1:-1.772 2:0.63212 3:0.74611 4:0.34456 5:-0.025907 6:0.16839 7:-0.010363 8:-0.023316 9:-0.033679 10:0.041451 
0.0 0.0 0.0 1.0 1:-0.82642 2:0.37565 3:0.20725 4:0.17358 5:0.018135 6:0.26684 7:0.0 8:0.10622 9:0.007772 10:-0.095855 
0.0 0.0 0.0 1.0 1:-0.97409 2:0.24093 3:-0.0025907 4:0.33938 5:-0.1943 6:-0.010363 7:0.067358 8:0.1114 9:-0.0025907 10:0.028497 
0.0 0.0 0.0 1.0 1:-0.43005 2:0.48705 3:-0.049223 4:-0.025907 5:0.023316 6:0.13212 7:-0.051813 8:-0.07513 9:-0.14767 10:-0.095855 
0.0 0.0 0.0 1.0 1:2.1891 2:-0.72798 3:-0.48446 4:-0.018135 5:-0.23575 6:-0.15026 7:-0.11917 8:0.056995 9:0.012953 10:-0.10104 
0.0 0.0 0.0 1.0 1:0.2487 2:0.29793 3:-0.20207 4:-0.38342 5:-0.14508 6:0.12435 7:-0.064767 8:0.18653 9:0.041451 10:0.041451 
0.0 0.0 0.0 1.0 1:-1.7668 2:1.5648 3:0.40155 4:-0.020725 5:0.11917 6:0.13472 7:0.069948 8:0.17358 9:0.072539 10:-0.031088 
0.0 0.0 0.0 1.0 1:-0.7772 2:0.49741 3:-0.70466 4:-0.018135 5:0.015544 6:-0.10104 7:-0.11917 8:0.033679 9:0.03886 10:-0.067358 
0.0 0.0 0.0 1.0 1:-0.15285 2:0.61658 3:-0.65803 4:-0.11658 5:0.085492 6:-0.095855 7:-0.082902 8:-0.031088 9:-0.082902 10:0.012953 
0.32855422714233445 0.30522498265586906 1.0 0.0 1:4.6554 2:-1.1891 3:-0.87565 4:0.046632 5:-0.07772 6:0.03886 7:0.0051813 8:0.0051813 9:-0.15544 10:0.051813 
0.0 0.0 0.0 1.0 1:-1.3368 2:1.4119 3:-0.59845 4:-0.11917 5:0.27979 6:0.036269 7:-0.1114 8:0.18653 9:0.020725 10:0.090674 
0.0 0.0 0.0 1.0 1:-1.829 2:0.71244 3:-0.57772 4:0.11658 5:0.062176 6:-0.0051813 7:0.049223 8:0.072539 9:-0.07513 10:-0.020725 
0.0 0.0 0.0 1.0 1:-1.0959 2:0.77979 3:-0.25907 4:-0.059585 5:0.21762 6:-0.14767 7:0.11399 8:0.012953 9:0.098446 10:0.0051813 
0.7060953319466414 0.6731163723651148 0.0881768529628375 0.0 1:-0.61399 2:-0.67098 3:0.85233 4:0.26166 5:0.07772 6:0.37306 7:0.10622 8:-0.031088 9:0.0051813 10:0.14767 
0.0 0.0 0.0 1.0 1:0.52332 2:-0.42228 3:-0.20725 4:-0.15544 5:0.012953 6:0.0025907 7:0.07513 8:0.15544 9:0.010363 10:-0.031088 
0.0 0.0 0.0 1.0 1:-2.6865 2:1.7953 3:-0.74611 4:0.046632 5:-0.041451 6:-0.031088 7:-0.0051813 8:0.018135 9:-0.1114 10:0.20725 
0.0 0.0 0.0 1.0 1:-0.92746 2:0.45596 3:-0.14508 4:0.064767 5:0.023316 6:0.051813 7:0.11917 8:-0.12176 9:-0.072539 10:-0.085492 
0.0 0.0 0.0 1.0 1:0.29534 2:-0.20984 3:-0.71503 4:-0.16321 5:-0.26684 6:-0.012953 7:0.031088 8:0.13212 9:0.03886 10:0.020725 
0.0 0.0 0.0 1.0 1:-2.0674 2:1.829 3:-0.07513 4:0.20984 5:0.13731 6:-0.015544 7:0.10622 8:0.046632 9:0.031088 10:-0.025907 
0.5746033932082965 0.48284302950451397 0.25949712012419535 1.0 1:-1.715 2:2.2098 3:-1.0233 4:-0.30829 5:0.16839 6:-0.090674 7:0.051813 8:0.025907 9:-0.12694 10:0.007772 
0.0 0.0 0.0 1.0 1:-0.62435 2:0.26684 3:-0.11399 4:-0.082902 5:-0.19171 6:0.19948 7:0.10881 8:0.046632 9:0.051813 10:-0.007772 
0.0 0.0 1.0 1.0 1:2.9352 2:-0.68135 3:-1.2876 4:0.064767 5:0.20466 6:-0.049223 7:-0.046632 8:0.059585 9:-0.020725 10:0.14767 
0.0 0.0 0.0 1.0 1:-1.4534 2:0.098446 3:-0.010363 4:0.12694 5:0.17876 6:0.056995 7:0.036269 8:-0.088083 9:-0.007772 10:0.12694 
0.0 0.0 0.0 1.0 1:-0.19689 2:1.1606 3:-0.56477 4:-0.044041 5:-0.059585 6:-0.16839 7:-0.031088 8:-0.015544 9:0.07513 10:-0.056995 
0.0 0.0 0.0 1.0 1:-1.2798 2:1.3238 3:0.059585 4:-0.10622 5:-0.23057 6:0.028497 7:-0.010363 8:0.2228 9:0.03886 10:0.028497 
0.0 0.0 0.0 1.0 1:-1.9067 2:0.91192 3:0.2513 4:0.30829 5:-0.07513 6:0.044041 7:-0.16062 8:-0.023316 9:-0.015544 10:0.12953 
0.0 0.0 0.0 1.0 1:0.60104 2:-1.2487 3:-0.25907 4:0.069948 5:0.20725 6:0.098446 7:0.095855 8:0.064767 9:0.072539 10:-0.03886 
0.0 0.0 0.0 1.0 1:-0.91192 2:0.18135 3:0.39637 4:0.088083 5:0.33938 6:-0.098446 7:0.093264 8:-0.0025907 9:-0.16321 10:-0.082902 
0.0 0.0 0.0 1.0 1:0.48187 2:0.3601 3:-0.39119 4:-0.29275 5:0.15026 6:-0.21244 7:-0.012953 8:0.041451 9:-0.17098 10:0.0051813 
0.0 0.0 0.0 1.0 1:-1.228 2:0.89896 3:0.34715 4:-0.03886 5:0.007772 6:0.049223 7:-0.21503 8:0.1658 9:0.12694 10:0.18135 
0.0 0.0 0.0 0.7606550421855847 1:1.3368 2:-0.99223 3:-0.18135 4:0.095855 5:0.12953 6:0.11658 7:-0.10622 8:0.080311 9:-0.064767 10:-0.036269 
0.0 0.0 0.0 1.0 1:-0.64767 2:0.10363 3:-0.60881 4:-0.17358 5:0.19689 6:-0.10363 7:-0.093264 8:-0.11917 9:0.0025907 10:-0.072539 
0.0 0.0 0.0 1.0 1:-1.0363 2:0.18135 3:-0.064767 4:0.23057 5:-0.07772 6:0.12953 7:-0.031088 8:0.19171 9:-0.062176 10:-0.007772 
0.0 0.0 0.0 0.951410986569268 1:-0.47409 2:-0.48705 3:0.12176 4:0.24093 5:0.20725 6:0.059585 7:0.085492 8:-0.036269 9:-0.07513 10:0.028497 
0.0 0.0 0.0 1.0 1:0.054404 2:-0.16321 3:-0.34715 4:-0.21244 5:0.098446 6:-0.015544 7:-0.11917 8:0.044041 9:-0.080311 10:-0.028497 
0.0 0.0 0.0 1.0 1:-1.1503 2:0.78238 3:-0.067358 4:0.18394 5:0.20984 6:0.03886 7:0.29275 8:-0.028497 9:-0.015544 10:-0.093264 
0.0 0.0 0.738814249989417 0.0 1:3.4534 2:-1.3057 3:-0.8057 4:0.010363 5:0.19171 6:-0.17876 7:0.033679 8:-0.14767 9:-0.15544 10:0.16321 
0.0 0.0 0.0 1.0 1:0.20725 2:0.45855 3:-0.48964 4:0.18135 5:0.018135 6:0.072539 7:-0.072539 8:0.082902 9:-0.020725 10:0.010363 
0.22262348840904728 0.1972456673642316 0.0 1.0 1:1.1917 2:-1.3964 3:-0.77461 4:0.31606 5:0.29793 6:-0.056995 7:0.11917 8:0.12953 9:0.098446 10:-0.015544 
0.0 0.0 0.0 1.0 1:0.52073 2:-0.17876 3:-0.49482 4:-0.023316 5:0.10104 6:0.10622 7:0.085492 8:0.03886 9:-0.049223 10:-0.15803 
0.0 0.0 0.0 1.0 1:-0.13472 2:0.18394 3:-0.29275 4:-0.18653 5:-0.025907 6:0.07513 7:0.064767 8:0.0051813 9:-0.015544 10:0.11658 
0.0 0.0 0.0 1.0 1:-2.0415 2:1.9793 3:-0.24352 4:0.012953 5:-0.025907 6:-0.059585 7:0.018135 8:-0.13472 9:0.012953 10:0.012953 
0.0 0.0 0.0 1.0 1:-1.4974 2:1.6528 3:-0.03886 4:-0.046632 5:-0.093264 6:-0.082902 7:0.033679 8:-0.095855 9:0.044041 10:0.033679 
0.0 0.0 0.0 1.0 1:1.4948 2:-0.62694 3:-0.14508 4:0.47409 5:0.15026 6:-0.051813 7:-0.13731 8:0.22021 9:-0.056995 10:-0.10363 
0.4642825739577786 0.41816512500366865 0.0 0.0 1:1.6554 2:1.0959 3:-0.03886 4:-0.22798 5:-0.023316 6:-0.031088 7:-0.010363 8:-0.12694 9:-0.036269 10:0.15026 
0.0 0.0 0.0 1.0 1:1.0078 2:-0.46114 3:-0.95855 4:0.12694 5:0.12435 6:-0.049223 7:0.033679 8:0.020725 9:-0.044041 10:-0.049223 
0.0 0.0 0.0 1.0 1:-1.0492 2:0.70466 3:-0.19689 4:-0.30311 5:-0.082902 6:0.17358 7:0.12435 8:0.018135 9:0.072539 10:-0.03886 
0.0 0.0 1.0 0.0 1:4.7746 2:-2.1192 3:-0.52591 4:0.098446 5:0.24093 6:0.062176 7:0.018135 8:0.049223 9:-0.018135 10:-0.0025907 
0.0 0.0 0.0 0.5603216072223056 1:0.28497 2:-0.42228 3:-0.43523 4:-0.054404 5:-0.033679 6:0.18394 7:0.0 8:-0.062176 9:0.0025907 10:0.095855 
0.0 0.0 0.0 1.0 1:-0.6399 2:0.68135 3:-0.10622 4:0.17098 5:-0.10363 6:0.082902 7:-0.18394 8:0.18394 9:-0.025907 10:0.07513 
0.6644625841037277 0.6089306490904888 0.3417594084020178 0.2207353020085138 1:3.9275 2:-2.8627 3:0.033679 4:0.33679 5:0.18394 6:-0.090674 7:0.018135 8:-0.044041 9:-0.082902 10:-0.082902 
0.0 0.0 0.0 1.0 1:-0.74352 2:1.1684 3:-0.18394 4:-0.24093 5:-0.036269 6:0.069948 7:-0.098446 8:0.21762 9:0.012953 10:0.015544 
0.0 0.0 0.0 1.0 1:0.55959 2:0.12176 3:-0.23316 4:0.020725 5:0.033679 6:0.0 7:-0.21244 8:0.11399 9:-0.07513 10:-0.049223 
0.0 0.0 0.0 1.0 1:-1.6166 2:1.0285 3:-0.31088 4:0.07513 5:-0.19948 6:-0.085492 7:0.012953 8:0.23834 9:0.12176 10:0.018135 
0.0 0.0 0.0 1.0 1:-0.33679 2:1.2021 3:-0.41451 4:-0.18653 5:-0.10881 6:0.25907 7:-0.085492 8:0.031088 9:0.03886 10:0.14249 
0.0 0.0 0.0 1.0 1:-0.088083 2:-0.067358 3:-0.69948 4:0.3342 5:0.3342 6:0.072539 7:0.15803 8:0.012953 9:-0.023316 10:-0.007772 
0.0 0.0 0.0 1.0 1:2.8912 2:-1.0389 3:-0.94041 4:-0.10104 5:-0.34715 6:0.067358 7:0.007772 8:0.12435 9:0.062176 10:0.010363 
0.0 0.0 0.0 1.0 1:-0.26943 2:0.31865 3:-0.44819 4:0.27202 5:0.18135 6:0.14767 7:-0.041451 8:-0.044041 9:-0.069948 10:0.10363 
0.0 0.0 0.0 1.0 1:-1.1218 2:1.2539 3:-0.2487 4:0.015544 5:0.088083 6:-0.041451 7:-0.090674 8:0.40933 9:0.098446 10:0.080311 
0.0 0.0 0.0 1.0 1:-0.12176 2:0.90155 3:-0.53109 4:0.062176 5:0.064767 6:-0.080311 7:-0.023316 8:-0.020725 9:-0.093264 10:0.095855 
0.0 0.0 0.0 1.0 1:-1.0389 2:1.728 3:-0.42228 4:0.17876 5:-0.10881 6:0.088083 7:-0.12435 8:0.0051813 9:0.082902 10:0.0051813 
0.9440387035421234 0.859034910804895 1.0 0.6513302990232283 1:5.0777 2:-2.5674 3:-0.93264 4:0.15026 5:0.11399 6:0.30829 7:0.17098 8:0.028497 9:-0.044041 10:-0.044041 
0.0 0.0 0.0 1.0 1:0.12953 2:-0.16839 3:-0.86269 4:0.31865 5:0.041451 6:0.010363 7:0.20207 8:0.25907 9:-0.082902 10:0.0 
0.0 0.0 0.0 0.2990006755797839 1:2.3964 2:-1.3031 3:-0.44301 4:0.13472 5:-0.023316 6:0.023316 7:0.090674 8:0.049223 9:-0.046632 10:0.085492 
0.0 0.0 0.0 1.0 1:0.1399 2:-0.59845 3:-0.012953 4:0.31088 5:0.072539 6:-0.11658 7:0.11917 8:0.1943 9:-0.033679 10:0.069948 
0.0 0.0 0.0 1.0 1:-0.6114 2:1.0959 3:-0.59585 4:0.17098 5:-0.082902 6:0.080311 7:-0.085492 8:0.18394 9:-0.051813 10:-0.15026 
0.0 0.0 0.0 1.0 1:-1.6606 2:0.82124 3:0.32124 4:0.32124 5:0.025907 6:0.012953 7:0.12694 8:0.051813 9:0.033679 10:0.085492 
0.0 0.0 0.0 1.0 1:1.272 2:-0.91451 3:-0.79016 4:0.40155 5:0.067358 6:0.3057 7:-0.018135 8:0.044041 9:-0.072539 10:-0.054404 
0.0 0.0 0.0 1.0 1:-1.6606 2:0.57513 3:-0.20725 4:-0.17617 5:0.031088 6:0.010363 7:0.0025907 8:-0.054404 9:0.041451 10:0.093264 
0.0 0.0 0.0 1.0 1:-0.87824 2:1.3472 3:-0.49482 4:0.036269 5:0.22021 6:0.16839 7:-0.036269 8:0.13212 9:0.0051813 10:0.054404 
0.0 0.0 0.0 1.0 1:-1.1865 2:0.60622 3:0.14249 4:-0.054404 5:-0.056995 6:0.17358 7:-0.023316 8:-0.07513 9:-0.025907 10:0.018135 
0.0 0.0 0.0 1.0 1:0.62953 2:0.19948 3:-0.73834 4:0.27461 5:0.27979 6:0.31865 7:0.056995 8:0.14767 9:0.015544 10:0.010363 
0.0 0.0 0.0 1.0 1:-1.6554 2:1.9171 3:0.13212 4:0.033679 5:-0.20725 6:0.054404 7:0.028497 8:0.0 9:-0.010363 10:-0.064767 
0.0 0.0 0.0 1.0 1:-1.4275 2:0.95337 3:-0.15544 4:-0.0051813 5:0.17876 6:-0.10363 7:0.036269 8:0.0 9:0.031088 10:-0.031088 
0.0 0.0 0.0 1.0 1:-1.3938 2:0.78756 3:0.38342 4:-0.10881 5:-0.093264 6:-0.12694 7:0.17358 8:0.0025907 9:-0.033679 10:0.1399 
1.0 1.0 0.7442962784928601 1.0 1:-3.8212 2:2.2098 3:0.22539 4:0.22539 5:-0.19948 6:0.062176 7:-0.14249 8:0.16839 9:0.020725 10:0.10881 
0.0 0.0 0.0 1.0 1:-1.0725 2:0.74611 3:-0.13212 4:0.072539 5:0.0025907 6:-0.025907 7:0.1114 8:0.036269 9:0.0 10:0.03886 
0.0 0.0 0.0 1.0 1:2.4301 2:-0.23575 3:-1.1788 4:0.59326 5:0.3057 6:-0.012953 7:0.012953 8:0.018135 9:-0.080311 10:-0.041451 
0.0 0.0 0.0 1.0 1:-0.13731 2:-0.015544 3:-0.63472 4:0.064767 5:0.067358 6:0.095855 7:-0.062176 8:0.072539 9:0.098446 10:-0.085492 
0.0 0.0 0.0 1.0 1:-1.2176 2:0.50518 3:-0.10363 4:0.18394 5:0.15544 6:-0.24352 7:-0.093264 8:0.031088 9:0.12435 10:-0.13472 
0.0 0.0 0.0 1.0 1:-0.30829 2:0.83938 3:-0.13731 4:0.21503 5:-0.29016 6:0.010363 7:0.046632 8:0.012953 9:-0.007772 10:-0.088083 
0.0 0.0 0.0 1.0 1:-0.8057 2:1.1218 3:0.15803 4:-0.23575 5:0.2513 6:-0.064767 7:-0.15544 8:-0.023316 9:-0.17358 10:-0.11658 
0.0 0.0 0.0 0.21123687536930633 1:0.031088 2:0.062176 3:0.13731 4:-0.056995 5:-0.059585 6:0.018135 7:0.07513 8:0.20207 9:0.028497 10:0.018135 
0.0 0.0 0.0 1.0 1:0.1114 2:0.27202 3:-0.18135 4:0.16321 5:-0.054404 6:0.07772 7:0.018135 8:0.1399 9:-0.072539 10:-0.13731 
0.0 0.0 0.0 1.0 1:-0.76166 2:1.2202 3:0.2772 4:0.16839 5:-0.18653 6:0.24352 7:-0.15544 8:-0.051813 9:-0.072539 10:0.041451 
0.0 0.0 0.0 1.0 1:-0.27979 2:0.63212 3:-0.46632 4:-0.20207 5:-0.19689 6:-0.056995 7:0.064767 8:0.14249 9:0.051813 10:-0.031088 
0.0 0.0 0.0 1.0 1:1.8446 2:-0.65026 3:-0.74611 4:-0.012953 5:-0.0051813 6:0.082902 7:0.20725 8:0.041451 9:-0.051813 10:-0.023316 
0.0 0.0 0.0 1.0 1:1.4637 2:-0.43782 3:-0.32642 4:0.15285 5:-0.046632 6:0.028497 7:0.16062 8:0.13731 9:-0.015544 10:-0.028497 
0.0 0.0 0.0 1.0 1:1.4249 2:-0.085492 3:-0.74352 4:-0.018135 5:0.15026 6:-0.056995 7:0.082902 8:0.21762 9:-0.14767 10:-0.1114 
0.0 0.0 0.0 1.0 1:-0.054404 2:0.62953 3:0.020725 4:-0.082902 5:-0.054404 6:-0.082902 7:-0.046632 8:0.07772 9:-0.07513 10:-0.007772 
0.0 0.0 0.0 1.0 1:1.013 2:-0.18653 3:-0.54145 4:-0.088083 5:-0.044041 6:-0.10104 7:0.090674 8:0.11399 9:0.028497 10:0.028497 
0.0 0.0 0.0 1.0 1:-0.61917 2:0.99223 3:0.31088 4:0.21244 5:-0.45855 6:-0.30311 7:-0.1943 8:0.025907 9:0.051813 10:-0.085492 
0.0 0.0 0.0 1.0 1:0.7228 2:-0.1399 3:-0.23316 4:0.007772 5:0.0051813 6:0.13212 7:0.080311 8:0.069948 9:-0.13472 10:0.067358 
0.0 0.0 0.0 1.0 1:-1.0155 2:0.71762 3:-0.17098 4:-0.10363 5:0.025907 6:-0.12694 7:-0.23057 8:0.010363 9:0.17617 10:0.10363 
0.0 0.0 0.0 1.0 1:-0.26166 2:0.70207 3:-0.46891 4:0.085492 5:0.18912 6:-0.18653 7:0.036269 8:0.041451 9:-0.0025907 10:0.031088 
0.0 0.0 0.0 1.0 1:0.5 2:0.74611 3:-0.48446 4:-0.044041 5:-0.24093 6:-0.010363 7:0.15544 8:-0.11399 9:-0.090674 10:-0.059585 
0.0 0.0 0.0 1.0 1:0.55699 2:-0.18394 3:-0.50518 4:-0.023316 5:-0.2487 6:0.14767 7:-0.056995 8:0.12176 9:0.03886 10:-0.12953 
0.7305205857271206 0.688355753021815 0.4674875727733331 1.0 1:0.98964 2:1.0725 3:-1.7876 4:-0.15803 5:-0.098446 6:0.044041 7:0.023316 8:0.007772 9:-0.10881 10:0.033679 
0.0 0.0 1.0 0.0 1:3.8834 2:-1.9585 3:-0.50518 4:-0.1114 5:-0.044041 6:0.080311 7:-0.098446 8:0.056995 9:0.049223 10:0.15285 
0.0 0.0 0.0 1.0 1:1.8705 2:-0.43782 3:-0.79534 4:-0.023316 5:0.1943 6:-0.067358 7:0.0025907 8:0.0025907 9:-0.10881 10:0.020725 
0.0 0.0 1.0 0.0 1:3.829 2:-1.6917 3:-1.2591 4:0.2228 5:-0.031088 6:-0.041451 7:-0.051813 8:0.10881 9:0.036269 10:-0.025907 
0.0 0.0 0.0 1.0 1:-0.82383 2:0.97668 3:-0.85492 4:0.13731 5:0.19171 6:0.1399 7:0.023316 8:-0.12435 9:0.072539 10:-0.072539 
0.0 0.0 0.0 1.0 1:1.4301 2:-0.5285 3:-0.28497 4:-0.12176 5:0.010363 6:0.031088 7:0.056995 8:0.085492 9:-0.19948 10:-0.020725 
0.0 0.0 0.0 1.0 1:-0.87824 2:1.3472 3:-0.028497 4:0.13212 5:0.15803 6:0.054404 7:0.10104 8:-0.03886 9:-0.12694 10:-0.090674 
0.0 0.0 0.0 1.0 1:0.062176 2:-0.29793 3:-0.76425 4:0.48964 5:0.062176 6:0.11399 7:-0.17876 8:0.049223 9:0.036269 10:0.018135 
0.0 0.0 0.0 1.0 1:-1.1788 2:0.76425 3:-0.22021 4:-0.010363 5:0.11917 6:-0.093264 7:-0.049223 8:-0.018135 9:0.051813 10:0.051813 
0.0 0.0 0.0 1.0 1:-1.2047 2:0.23057 3:-0.007772 4:0.10881 5:0.025907 6:0.085492 7:0.12176 8:-0.14508 9:-0.012953 10:-0.010363 
0.0 0.0 0.0 1.0 1:-0.27461 2:0.61917 3:-0.12694 4:0.11399 5:0.0 6:0.1399 7:-0.018135 8:0.082902 9:-0.015544 10:-0.018135 
0.0 0.0 1.0 0.0 1:4.2332 2:-2.0596 3:-0.94819 4:0.60622 5:0.34197 6:0.13731 7:0.10104 8:0.010363 9:-0.023316 10:-0.10104 
0.0 0.0 0.0 1.0 1:0.15285 2:-0.31865 3:-0.23057 4:-0.054404 5:0.095855 6:-0.10881 7:0.090674 8:0.080311 9:-0.046632 10:0.041451 
0.0 0.0 0.0 1.0 1:2.1295 2:-1.7617 3:-0.15026 4:-0.023316 5:-0.036269 6:-0.062176 7:0.1114 8:0.090674 9:0.010363 10:0.012953 
0.0 0.0 0.0 0.15536733732839303 1:-0.87565 2:1.0207 3:-0.07772 4:-0.015544 5:0.049223 6:-0.1399 7:0.015544 8:-0.10363 9:0.015544 10:0.095855 
0.0 0.0 0.0 1.0 1:-0.71503 2:0.74352 3:-0.32642 4:-0.044041 5:0.28497 6:-0.067358 7:0.028497 8:0.025907 9:0.028497 10:-0.010363 
0.0 0.0 0.0 1.0 1:0.76425 2:-0.55699 3:-0.20466 4:0.12435 5:-0.19171 6:-0.056995 7:-0.054404 8:0.10104 9:-0.15803 10:-0.069948 
0.0 0.0 0.0 1.0 1:-1.2098 2:1.3187 3:-0.21503 4:0.082902 5:-0.29275 6:-0.14249 7:-0.19948 8:0.046632 9:-0.007772 10:0.13731 
0.0 0.0 0.0 1.0 1:2.3834 2:-1.8316 3:-0.21244 4:0.32383 5:0.14249 6:0.033679 7:0.12435 8:0.11658 9:-0.0025907 10:-0.028497 
0.0 0.0 0.0 1.0 1:0.031088 2:-0.21762 3:-0.3342 4:0.18135 5:0.15803 6:0.093264 7:0.033679 8:0.036269 9:-0.15544 10:-0.082902 
0.0 0.0 0.0 1.0 1:0.41451 2:1.3005 3:-0.38342 4:0.11658 5:0.033679 6:0.044041 7:-0.080311 8:0.044041 9:-0.023316 10:-0.049223 
0.0 0.0 0.0 1.0 1:-0.033679 2:-0.86528 3:0.10881 4:0.080311 5:0.067358 6:-0.14249 7:-0.069948 8:0.16062 9:-0.072539 10:-0.12435 
0.0 0.0 0.0 1.0 1:0.0051813 2:-0.062176 3:0.0025907 4:-0.24611 5:-0.10104 6:-0.0051813 7:-0.19171 8:0.18653 9:0.0 10:-0.051813 
0.0 0.0 0.0 1.0 1:-1.1762 2:0.87565 3:0.45855 4:-0.07513 5:0.1399 6:0.20207 7:-0.15544 8:-0.051813 9:-0.098446 10:-0.11399 
0.0 0.0 0.0 1.0 1:1.1269 2:-0.32902 3:-0.61658 4:0.07513 5:-0.28238 6:-0.11658 7:0.064767 8:0.095855 9:0.0 10:0.095855 
0.0 0.0 0.0 1.0 1:-0.30829 2:0.6658 3:-0.095855 4:0.39378 5:0.16321 6:0.03886 7:0.19948 8:0.15026 9:0.0 10:0.028497 
0.0 0.0 0.0 1.0 1:-0.44301 2:0.68394 3:-0.25389 4:0.30052 5:-0.22798 6:-0.19171 7:-0.067358 8:0.031088 9:0.044041 10:0.0051813 
0.0 0.0 0.0 1.0 1:0.61917 2:0.72798 3:-0.57513 4:-0.14508 5:-0.036269 6:0.16839 7:0.10622 8:0.17098 9:-0.0025907 10:-0.12953 
0.0 0.0 0.0 1.0 1:-1.4793 2:0.051813 3:0.48964 4:0.2487 5:0.090674 6:0.064767 7:-0.064767 8:0.12694 9:-0.0025907 10:0.07772 
0.0 0.0 0.0 0.7819622652940117 1:-0.89119 2:-0.2772 3:-0.012953 4:-0.11917 5:0.11917 6:0.051813 7:-0.11917 8:0.088083 9:0.19948 10:0.0025907 
0.0 0.0 0.0 1.0 1:0.22798 2:-0.51554 3:-0.19948 4:-0.044041 5:-0.17617 6:0.031088 7:0.093264 8:0.07772 9:0.054404 10:-0.1399 
0.0 0.0 0.0 1.0 1:-0.66062 2:0.7772 3:-0.56736 4:0.036269 5:0.067358 6:0.046632 7:0.018135 8:-0.0051813 9:-0.0025907 10:0.015544 
0.07088848899337218 0.0574903656885057 0.44167132576185786 0.0 1:3.2927 2:-0.44301 3:-1.1269 4:0.32902 5:0.24352 6:0.27202 7:-0.020725 8:0.093264 9:0.036269 10:0.051813 
0.0 0.0 0.0 0.7359621846177297 1:1.0803 2:0.19689 3:-0.58549 4:0.26166 5:0.018135 6:0.17098 7:-0.15026 8:0.093264 9:-0.0051813 10:0.093264 
0.0 0.0 0.0 1.0 1:0.39119 2:1.0078 3:-0.51554 4:0.067358 5:-0.0051813 6:0.062176 7:-0.049223 8:0.12176 9:0.041451 10:-0.067358 
0.0 0.0 0.0 1.0 1:-1.3497 2:1.2979 3:0.051813 4:0.21503 5:0.080311 6:-0.020725 7:0.018135 8:0.069948 9:-0.007772 10:-0.025907 
0.0 0.0 0.0 1.0 1:-2.0466 2:1.7461 3:-0.32124 4:-0.18394 5:-0.22021 6:0.1943 7:-0.07772 8:0.1399 9:-0.069948 10:0.14508 
0.0 0.0 0.0 1.0 1:-0.40674 2:0.23057 3:-0.50518 4:-0.14508 5:0.26943 6:-0.088083 7:-0.080311 8:0.16321 9:-0.10104 10:-0.0025907 
0.0 0.0 0.0 1.0 1:1.0984 2:-0.54922 3:-0.43523 4:-0.14767 5:0.12435 6:0.19689 7:0.015544 8:0.11917 9:-0.10622 10:0.03886 
0.38229793507242527 0.3093657473713873 0.41009288857923615 1.0 1:-2.0233 2:-0.20207 3:0.38083 4:0.38601 5:0.031088 6:0.095855 7:0.32902 8:0.041451 9:0.12694 10:-0.10363 
0.0 0.0 0.0 0.017791074994082487 1:1.1166 2:-0.89896 3:-0.49482 4:0.072539 5:0.090674 6:-0.17876 7:0.20466 8:0.072539 9:0.069948 10:0.041451 
0.0 0.0 0.0 1.0 1:-0.45337 2:0.73057 3:0.025907 4:0.082902 5:0.14249 6:0.11399 7:-0.059585 8:0.07513 9:-0.10104 10:-0.054404 
0.0 0.0 0.0 1.0 1:0.21244 2:-0.49223 3:-0.43782 4:0.41969 5:0.17358 6:0.025907 7:-0.080311 8:-0.082902 9:-0.082902 10:0.046632 
0.0 0.0 0.0 1.0 1:-0.33938 2:0.52591 3:-0.041451 4:-0.007772 5:-0.13212 6:-0.023316 7:0.12694 8:0.090674 9:0.015544 10:-0.13212 
-0.12368327396473378 0.5582722475495927 0.13519218630625568 0.1225143620700489 1:122.7207 2:-5.2871 3:-11.5887 4:-9.476 5:-7.675 6:-5.707 7:-5.1667 8:-4.3527 9:-3.1808 10:-3.3206 
-0.05279867934815259 0.23801730717117936 0.0574413298403275 0.05218679066639128 1:76.2778 2:5.2518 3:-12.3384 4:-10.4322 5:-8.0023 6:-5.9998 7:-3.4961 8:-2.1878 9:-1.1475 10:-1.3638 
-0.028837646522131957 0.12656133782448573 0.03070288753178729 0.02739759435040014 1:74.0678 2:12.0715 3:-11.3786 4:-10.27 5:-7.7232 6:-5.4834 7:-4.494 8:-3.5032 9:-2.4588 10:-2.1146 
-0.0631005038169268 0.284160805457655 0.06879958032383351 0.06270473632658197 1:83.9554 2:3.69 3:-11.3605 4:-9.4902 5:-7.8825 6:-4.9807 7:-4.3285 8:-3.5993 9:-2.2214 10:-1.5334 
-0.11907841972588679 0.5353255399653956 0.1296694119679671 0.11754618444490322 1:50.495 2:15.0833 3:-11.8767 4:-13.8908 5:-11.4677 6:-6.2784 7:-3.6496 8:0.74924 9:0.68307 10:0.17899 
-0.03947732721698998 0.17867153595930818 0.04402045065397123 0.04051935379088588 1:76.5615 2:11.5245 3:-10.8108 4:-9.9693 5:-8.2296 6:-6.0921 7:-5.2953 8:-3.9339 9:-2.4995 10:-2.2387 
-0.009232286011629454 0.04324535360569254 0.010508992288600097 0.00972457862745045 1:77.4637 2:4.3381 3:-10.0522 4:-9.3564 5:-7.2461 6:-5.2327 7:-4.5224 8:-3.3601 9:-2.0342 10:-2.098 
-0.07480628362263579 0.33606771395879775 0.08145777821399354 0.07348898848939843 1:71.855 2:12.4529 3:-12.8673 4:-14.932 5:-10.4791 6:-7.0681 7:-5.5969 8:-2.8178 9:-0.97807 10:-0.94398 
-0.05949003140979576 0.264514692266602 0.06557137227987953 0.05973058916593521 1:73.9864 2:8.8645 3:-8.2263 4:-9.3481 5:-7.4031 6:-5.9305 7:-4.7143 8:-3.586 9:-2.608 10:-2.6142 
-0.008857670288309465 0.03851752082885929 0.008929718276889301 0.008043878863365488 1:70.8183 2:8.973 3:-11.3169 4:-10.7435 5:-8.1919 6:-5.0615 7:-4.2572 8:-2.0355 9:-1.2854 10:-1.2468 
-0.006662957828405192 0.03051614887817114 0.0074257969345544765 0.006757494240465905 1:60.0591 2:9.0865 3:-10.7136 4:-9.0041 5:-7.445 6:-5.3246 7:-4.2362 8:-2.8937 9:-1.3959 10:-1.6323 
-0.10678358792058329 0.4809882973288537 0.11606199211318624 0.10598839109132105 1:54.5028 2:13.9615 3:-11.2482 4:-13.076 5:-10.8267 6:-6.4631 7:-4.518 8:-2.3956 9:-0.94461 10:-0.23498 
-0.04206614379183515 0.1906740605791326 0.04632435945611215 0.04256819444600551 1:75.5542 2:9.5666 3:-11.6475 4:-12.2427 5:-9.0341 6:-5.961 7:-5.1264 8:-2.0822 9:-0.52159 10:-2.2833 
-0.05041897177476034 0.2277920182258725 0.05429219968694083 0.049730614524268475 1:68.533 2:10.4578 3:-9.7949 4:-10.2112 5:-9.0559 6:-6.9185 7:-5.0519 8:-4.0456 9:-1.9467 10:-2.2951 
-0.04483304776541521 0.20037306767595495 0.049035081948014834 0.0439388487513916 1:84.7942 2:8.8408 3:-12.8017 4:-12.126 5:-10.1091 6:-7.2715 7:-5.6892 8:-3.7789 9:-2.3392 10:-2.2454 
-0.07897214406727154 0.35411037054532846 0.08589000701937616 0.07706744834745886 1:76.9952 2:12.6209 3:-13.6251 4:-12.8293 5:-10.3986 6:-6.831 7:-5.248 8:-2.2692 9:-0.46303 10:-2.7065 
-0.07732755768550853 0.3498030513799516 0.08443332628773931 0.07731199224312008 1:81.7365 2:10.4204 3:-12.9385 4:-14.0722 5:-10.2013 6:-7.1735 7:-5.2346 8:-3.0339 9:-2.1707 10:-2.0128 
-0.02545553186786803 0.11721622216763058 0.027732441974413047 0.02513074020304696 1:85.662 2:10.7347 3:-14.0344 4:-11.8806 5:-9.6654 6:-7.1032 7:-5.9635 8:-3.5133 9:-2.3945 10:-2.6274 
-0.06276278962522958 0.28283796613562484 0.06845606086276035 0.06223660578758194 1:72.5914 2:13.5448 3:-12.2973 4:-12.9077 5:-9.6643 6:-7.5805 7:-5.8267 8:-3.5422 9:-1.5224 10:-2.1472 
-0.0989311770882108 0.4462620861229676 0.10827975256692693 0.0974986728528964 1:68.2559 2:15.8443 3:-14.0484 4:-16.3912 5:-12.701 6:-9.1133 7:-5.0449 8:-1.1448 9:0.76345 10:0.15733 
-0.04605854210711322 0.19872860086571595 0.05038329957941787 0.04559148326511397 1:73.0248 2:6.0812 3:-9.2188 4:-7.4869 5:-5.8197 6:-4.4965 7:-3.8915 8:-2.8602 9:-2.3538 10:-1.9123 
-0.011786301095500884 0.04873339975051151 0.01273147332799682 0.01182049130285986 1:56.515 2:12.1293 3:-9.017 4:-8.6493 5:-6.8025 6:-5.347 7:-4.7186 8:-3.2996 9:-1.5553 10:-2.1643 
-0.018625656416633003 0.08224644849795518 0.020141843384425054 0.018315444131499752 1:59.595 2:10.9985 3:-8.6558 4:-9.8323 5:-7.5139 6:-5.041 7:-4.6632 8:-3.1505 9:-1.8148 10:-0.98946 
-0.007165506542588003 0.03266368382736561 0.008123484115089485 0.0074520005176715205 1:67.9087 2:10.1222 3:-12.1743 4:-10.0542 5:-7.5076 6:-5.1379 7:-3.359 8:-2.0933 9:-1.1711 10:-1.6588 
-0.064796034180162 0.290978324222907 0.07098519199312044 0.06413075815887019 1:55.6322 2:5.8661 3:-10.2345 4:-8.9785 5:-5.7236 6:-4.0434 7:-3.4908 8:-1.2167 9:-0.75578 10:-0.99563 
-0.009036303348900137 0.03769763150039264 0.009681309604192216 0.008800019187412422 1:48.3583 2:13.1311 3:-8.9776 4:-9.489 5:-6.7283 6:-4.4623 7:-3.0038 8:-1.8076 9:-0.66455 10:-0.87708 
-0.05503853222109704 0.24843589772919866 0.06029745091846502 0.05489119266235364 1:56.9303 2:9.5109 3:-12.1084 4:-11.1098 5:-7.3028 6:-4.9349 7:-3.0364 8:-2.0879 9:-1.1436 10:-1.2345 
-0.015050857019404867 0.06619285271091523 0.015442561989413937 0.013602970003666127 1:76.553 2:9.9993 3:-12.4404 4:-9.8384 5:-7.3734 6:-6.0439 7:-4.1605 8:-3.2033 9:-2.0145 10:-2.2263 
-0.0499453097190098 0.22387409161909153 0.054018595603254754 0.04907617015711032 1:63.8784 2:8.9312 3:-9.293 4:-7.6721 5:-5.1718 6:-3.9317 7:-4.0045 8:-2.6161 9:-2.2892 10:-1.5355 
-0.026824660701344653 0.11818528525046376 0.028577827481351428 0.02631200736948537 1:75.5725 2:7.8242 3:-11.8471 4:-8.8528 5:-8.2626 6:-5.8583 7:-4.7952 8:-3.7588 9:-2.8021 10:-2.09 
-0.05499892105774135 0.2511201420418932 0.06079376168658484 0.055334875625951734 1:68.5803 2:6.2407 3:-11.8603 4:-10.5003 5:-8.8061 6:-5.3102 7:-3.1058 8:-1.8231 9:-1.0865 10:-1.4507 
-0.08705114642210994 0.3937314981034844 0.09523265767770081 0.08641808088154522 1:72.6557 2:8.2734 3:-10.6722 4:-12.837 5:-9.9392 6:-7.3027 7:-5.3232 8:-2.4054 9:-1.6709 10:-1.5996 
-0.009907933911797243 0.05089827424634351 0.013525270786361687 0.011011269558718534 1:90.186 2:4.2193 3:-11.7161 4:-10.055 5:-7.442 6:-6.2776 7:-5.057 8:-3.4062 9:-2.9812 10:-2.7439 
-0.07064495710890206 0.3182347642559826 0.07780127021040874 0.07004469501901807 1:48.3725 2:8.5808 3:-8.1566 4:-9.2543 5:-6.9106 6:-5.6938 7:-4.3918 8:-1.6732 9:-0.74982 10:-1.1577 
-0.005191468475673047 0.028766219318063363 0.005282604430611253 0.004530711588430341 1:73.7166 2:7.1774 3:-8.4315 4:-8.624 5:-7.3389 6:-5.2218 7:-4.4484 8:-3.995 9:-2.0045 10:-2.3958 
-0.0760394569423821 0.341497638903925 0.08284364269452305 0.0751954727123873 1:68.9634 2:15.903 3:-14.5311 4:-14.4866 5:-11.3019 6:-7.1459 7:-4.5206 8:-0.99487 9:-0.47862 10:0.39825 
-0.03523221553946767 0.1613849604530362 0.04026891800017282 0.03588894958072174 1:66.9801 2:7.208 3:-9.6349 4:-7.2991 5:-5.5789 6:-3.7063 7:-3.6353 8:-2.6564 9:-2.057 10:-1.6926 
-0.04345372995228422 0.19442618711194218 0.04824680265052683 0.04229268744805636 1:52.7627 2:9.539 3:-7.542 4:-7.5658 5:-7.4611 6:-4.9508 7:-3.6127 8:-2.9569 9:-2.0111 10:-1.0361 
-0.013224168338469379 0.05675409796647015 0.013084619000691605 0.01192857976238209 1:64.3542 2:7.3815 3:-8.3086 4:-7.1216 5:-5.9385 6:-4.42 7:-4.0465 8:-3.0066 9:-2.105 10:-2.2154 
-0.028125281975962937 0.12875126828124586 0.0318487910874814 0.02883683444001702 1:64.0521 2:10.5105 3:-9.5109 4:-7.6028 5:-6.6992 6:-5.2853 7:-3.9698 8:-3.2425 9:-2.545 10:-2.338 
-0.09058612010443276 0.41064973809921235 0.09958664261689473 0.08965252714705951 1:59.1969 2:13.1162 3:-8.7881 4:-7.399 5:-6.0525 6:-4.2836 7:-3.7792 8:-2.8769 9:-2.5951 10:-2.6793 
-0.02632133186160347 0.11630198039320243 0.028601734449871935 0.025510544362173093 1:54.1238 2:8.6869 3:-10.45 4:-8.6083 5:-6.976 6:-4.2446 7:-3.3714 8:-0.9365 9:-1.1169 10:-0.86905 
-0.044326873788630684 0.19991851936347965 0.04818530652934875 0.043522619043220384 1:55.7743 2:11.5052 3:-10.9389 4:-11.6636 5:-8.2475 6:-5.0982 7:-3.2598 8:-0.83323 9:-0.55691 10:-0.66889 
-0.04997129042982785 0.22165006739278056 0.05318303937558025 0.04834549302711019 1:68.7416 2:4.565 3:-9.1151 4:-8.4771 5:-5.6653 6:-3.9911 7:-3.5031 8:-2.669 9:-2.0587 10:-1.8418 
-0.04067408483122042 0.1826709669901039 0.04378539965893848 0.0399816259426717 1:52.2625 2:6.1241 3:-8.2457 4:-7.426 5:-5.6547 6:-3.493 7:-2.6706 8:-1.8741 9:-1.3693 10:-1.8468 
-0.025586183376198543 0.11569527693916676 0.027493622509781906 0.025171021516683902 1:79.8572 2:4.9553 3:-12.0442 4:-8.8609 5:-6.1228 6:-4.7906 7:-3.8583 8:-2.9096 9:-1.8804 10:-2.0108 
-0.005337448612163464 0.022935928444813722 0.00621936566050202 0.005120263531291329 1:60.6064 2:6.0651 3:-8.8801 4:-8.4052 5:-5.9147 6:-3.9054 7:-3.7254 8:-2.3952 9:-1.7494 10:-1.1693 
-0.029056937072381182 0.12733226138912251 0.03030400867996889 0.02730953635188706 1:77.6369 2:7.3877 3:-9.6525 4:-8.6134 5:-6.8994 6:-5.5229 7:-4.4123 8:-3.3658 9:-2.5974 10:-2.3031 
-0.03351823307623014 0.14945024963269407 0.03629596887357223 0.03214854894334175 1:63.5153 2:5.6313 3:-9.9255 4:-9.5208 5:-7.0446 6:-4.8624 7:-3.3905 8:-2.1474 9:-1.6527 10:-1.5005 
-0.047348288461944055 0.2138908420647079 0.05141243749235924 0.04706280758973266 1:59.0036 2:9.1253 3:-8.9856 4:-10.6588 5:-8.4079 6:-5.935 7:-4.5115 8:-2.3778 9:-1.0037 10:-0.74872 
-0.014836117316081875 0.06750528257012975 0.01598559370976206 0.014757025037012947 1:54.4972 2:6.9492 3:-9.7524 4:-9.5715 5:-6.3829 6:-4.1083 7:-3.7496 8:-0.90293 9:-0.59024 10:-0.83668 
-0.0 0.0012448650441603242 0.0 0.0 1:61.1779 2:8.636 3:-10.2882 4:-9.7504 5:-6.8959 6:-4.8336 7:-3.3807 8:-2.0288 9:-1.5654 10:-0.27483 
-0.039304791417583036 0.17537378447562296 0.04278986264170688 0.03868423047266479 1:67.8257 2:8.8422 3:-8.2389 4:-8.7015 5:-7.7418 6:-5.8287 7:-4.6266 8:-2.9367 9:-1.974 10:-2.1649 
-0.04914081463408328 0.22335873071946313 0.0539162704834426 0.04883100734636239 1:55.8879 2:7.7694 3:-8.3923 4:-6.7557 5:-4.7918 6:-3.7341 7:-2.6051 8:-2.1706 9:-1.7748 10:-1.6302 
-0.003595892124639487 0.01915865455650177 0.00392114001630483 0.0036226541323421974 1:56.8062 2:10.0874 3:-8.1443 4:-8.901 5:-6.6714 6:-5.5506 7:-4.1584 8:-3.0511 9:-1.9043 10:-1.5936 
-0.008390880086171022 0.03921577123866806 0.009247486159927142 0.00846210429927656 1:60.5277 2:10.3189 3:-10.4202 4:-8.9615 5:-7.0518 6:-4.1996 7:-3.6525 8:-2.9703 9:-1.6297 10:-1.8418 
-0.0306947048908002 0.1421098585611401 0.03443596631954447 0.031765928193869884 1:65.3229 2:11.1844 3:-12.2445 4:-12.5877 5:-8.7211 6:-5.9838 7:-4.0009 8:-2.234 9:-1.2898 10:-1.3633 
-0.05540999285474762 0.24604921338413707 0.059917264512789135 0.05487594478030447 1:49.3513 2:12.3963 3:-9.9162 4:-10.2042 5:-7.7387 6:-4.7859 7:-3.7128 8:-1.1967 9:0.017242 10:-1.1082 
-0.029940044842391104 0.13890500650245574 0.03293802851277274 0.030130725095244094 1:55.0794 2:13.7739 3:-8.6104 4:-10.0105 5:-7.6144 6:-5.5691 7:-4.1016 8:-2.6655 9:-1.8709 10:-1.7105 
-8.531979657384614E-4 0.00470405689254819 8.497567751424352E-4 7.15346728456621E-4 1:50.9122 2:13.0021 3:-9.1936 4:-8.9576 5:-6.3272 6:-4.9984 7:-4.272 8:-2.2437 9:-1.2952 10:-1.138 
-0.05310264893027212 0.23610872665009983 0.05685976273251187 0.05210723178242356 1:66.2221 2:5.1676 3:-11.7676 4:-9.4637 5:-6.8255 6:-4.4288 7:-3.6328 8:-1.8155 9:-1.9372 10:-1.1975 
-0.0017333044145800111 0.010531351846611607 0.001643212840612751 0.0026909428066288184 1:52.623 2:8.568 3:-7.4756 4:-8.4845 5:-7.0106 6:-5.074 7:-3.9103 8:-2.0914 9:-1.8513 10:-1.4911 
-0.07503287025829823 0.3391842346513743 0.0822026663347019 0.07492605243298923 1:60.9649 2:6.419 3:-6.7335 4:-7.5417 5:-6.1791 6:-4.3547 7:-3.5648 8:-2.7447 9:-1.8791 10:-1.7182 
-0.0437029444522045 0.20016343940964526 0.04875202822249719 0.044257795098705754 1:66.7357 2:4.8653 3:-8.6635 4:-7.966 5:-7.4502 6:-4.8904 7:-4.3837 8:-2.5644 9:-1.6833 10:-2.0268 
-0.01980920559927571 0.09125060021604117 0.022085023429580047 0.0198376866266701 1:64.164 2:8.9574 3:-8.381 4:-8.9203 5:-8.0355 6:-5.6249 7:-4.6791 8:-3.2584 9:-2.0348 10:-1.6789 
-0.011147822017952579 0.04543258211718296 0.010865165709104906 0.009804637611100125 1:65.3893 2:11.2747 3:-11.6115 4:-9.8666 5:-7.6302 6:-5.7181 7:-4.6211 8:-3.4075 9:-1.958 10:-1.3115 
-0.029032916198988595 0.13896790965576938 0.03444132459032047 0.0296758656253164 1:88.9408 2:0.9439 3:-10.9007 4:-9.1704 5:-6.9967 6:-5.4853 7:-4.8025 8:-3.6558 9:-2.4761 10:-2.5037 
-0.050385780913959566 0.22597246437920707 0.055386731694472426 0.050423590260091494 1:84.882 2:7.6013 3:-11.5723 4:-8.3274 5:-7.0237 6:-5.1836 7:-4.6178 8:-3.7177 9:-2.8872 10:-2.6137 
-0.009505391199070262 0.04567578394303199 0.011637995195746272 0.011133437543896629 1:76.502 2:7.8982 3:-11.2128 4:-8.7143 5:-6.3276 6:-5.2001 7:-4.2242 8:-3.3843 9:-2.172 10:-2.1946 
-0.09819355096448341 0.4416439690764 0.10701295743348677 0.09699426685938213 1:99.4148 2:-1.41 3:-9.9575 4:-9.1015 5:-7.4458 6:-5.5848 7:-4.8014 8:-4.0329 9:-2.9255 10:-2.8829 
-0.01207707829294749 0.058452140479867624 0.013504265502116659 0.01270706220965697 1:80.8853 2:9.1944 3:-11.8763 4:-11.3351 5:-8.4551 6:-6.3855 7:-4.9891 8:-3.1967 9:-1.7233 10:-1.7832 
-0.030670752172959247 0.14038685896419367 0.033528514774495685 0.030772340932149943 1:73.9358 2:11.4033 3:-10.728 4:-8.8078 5:-7.0568 6:-5.5354 7:-4.615 8:-3.6926 9:-2.2235 10:-2.3125 
-0.024587053704036244 0.11980096864259107 0.02735052154996362 0.02498773007229469 1:73.0408 2:4.3643 3:-9.9538 4:-8.1348 5:-6.3183 6:-4.5876 7:-3.8102 8:-3.2279 9:-1.8502 10:-1.8576 
-0.06664608779165773 0.3014626084571491 0.07318344015154311 0.0665846743774778 1:78.3309 2:12.5191 3:-13.5167 4:-12.3447 5:-8.8326 6:-6.3946 7:-4.2822 8:-2.5971 9:-2.0988 10:-1.1309 
-0.06211631921167673 0.2761155705230259 0.06623418929695347 0.05990112367698707 1:69.3189 2:13.4892 3:-10.5846 4:-9.8131 5:-7.161 6:-5.4731 7:-4.1195 8:-2.8441 9:-2.473 10:-2.3834 
-0.0293994407241987 0.13360891766262048 0.03178576905630365 0.029294608714840995 1:59.229 2:6.0543 3:-8.5647 4:-8.176 5:-6.4778 6:-4.6092 7:-3.4729 8:-1.8045 9:-0.80887 10:-1.1326 
-0.040375213577053676 0.17914434943677587 0.04398375840762613 0.03935685284339311 1:56.1148 2:10.1939 3:-7.5459 4:-7.7087 5:-6.3173 6:-4.8408 7:-2.8402 8:-2.4055 9:-1.8768 10:-1.8739 
-0.09943158486355966 0.4472508775021385 0.10916253141725357 0.0990820873444342 1:94.752 2:4.1593 3:-11.5274 4:-9.045 5:-7.5372 6:-6.0405 7:-4.799 8:-3.7008 9:-2.9436 10:-2.6359 
-0.019788593259989128 0.09024640013375151 0.021281787385910342 0.019987626539296692 1:79.3642 2:6.9894 3:-10.1814 4:-11.147 5:-8.3187 6:-5.5966 7:-4.4134 8:-2.8923 9:-1.8476 10:-2.1564 
-0.06718716515604811 0.3025976162636404 0.0731926090853021 0.06661701899328575 1:61.1332 2:11.9198 3:-13.3701 4:-13.0337 5:-8.7456 6:-5.2641 7:-3.1339 8:-1.2334 9:-0.54437 10:-0.83658 
-0.011168637535563042 0.05581450280089456 0.01227531067745528 0.011165617827145185 1:72.8194 2:7.8958 3:-10.7004 4:-8.6069 5:-5.9237 6:-4.7537 7:-3.9631 8:-2.3612 9:-2.3606 10:-2.424 
-0.0037239615640388287 0.019517083146364383 0.004692593150263461 0.004655494703081327 1:63.7281 2:6.7966 3:-11.1043 4:-9.0425 5:-6.7798 6:-5.317 7:-3.9356 8:-2.1743 9:-1.1656 10:-1.7187 
-0.07415720540704078 0.33258523922280314 0.08125920427556349 0.07366868923651733 1:79.4343 2:2.8851 3:-10.9267 4:-8.0422 5:-6.4863 6:-4.5896 7:-4.2693 8:-3.0731 9:-2.3085 10:-2.1677 
-0.045362954710127634 0.20453121192717266 0.04977129242192795 0.04495111814756545 1:56.0404 2:9.4919 3:-9.5471 4:-10.4016 5:-7.7404 6:-6.0089 7:-3.8881 8:-1.6454 9:0.48412 10:-0.37841 
-0.028352874623634988 0.12837685320982856 0.031259430657442855 0.028430469807976325 1:60.7852 2:13.27 3:-10.6435 4:-10.5727 5:-8.0478 6:-5.5772 7:-3.4249 8:-2.8595 9:-1.768 10:-1.0252 
-0.0032898007944171174 0.014114780601005936 0.0028005987671631187 0.0029518174048552693 1:60.6655 2:7.14 3:-9.6188 4:-8.6322 5:-5.8038 6:-4.7254 7:-3.7649 8:-2.411 9:-1.0127 10:-1.9494 
-0.05301331485902031 0.240965328937419 0.0586781009101903 0.05315334291682397 1:70.269 2:10.9013 3:-12.3256 4:-9.1051 5:-6.5572 6:-5.299 7:-3.6948 8:-3.1233 9:-2.4067 10:-2.5429 
-0.05782486766647176 0.25938778652722444 0.062493169236078255 0.05644074014491341 1:88.56 2:8.2915 3:-13.6325 4:-11.8626 5:-8.4682 6:-6.7745 7:-5.1654 8:-2.5065 9:-2.3737 10:-2.2947 
-0.006976471216356431 0.03734202690531194 0.008537338337004818 0.007662129124356065 1:80.5429 2:7.0067 3:-9.92 4:-9.1036 5:-8.0667 6:-6.3366 7:-4.9438 8:-3.735 9:-2.4449 10:-2.7378 
-0.028544975958379577 0.12785698798818113 0.030953226740296318 0.027862782847942646 1:79.872 2:3.6953 3:-10.5466 4:-9.7583 5:-8.0582 6:-5.144 7:-4.7694 8:-3.5183 9:-2.2887 10:-2.2703 
-0.018031835112882522 0.08592931265027288 0.020846365364813647 0.018520624644233253 1:64.7604 2:11.9369 3:-10.7833 4:-10.1173 5:-7.5423 6:-5.502 7:-4.1313 8:-2.4517 9:-0.71855 10:-2.1245 
-0.03713664876480045 0.16893943177443194 0.04157721798112645 0.03655131594293835 1:91.3925 2:7.2638 3:-11.707 4:-10.4193 5:-8.6897 6:-6.982 7:-4.5679 8:-3.4552 9:-2.1817 10:-2.3716 
-0.01749933035992265 0.07548501667851178 0.01931754704138557 0.016982478165423535 1:79.6232 2:6.7051 3:-10.9533 4:-10.7308 5:-8.201 6:-6.7058 7:-4.7518 8:-3.582 9:-2.3426 10:-1.998 
-0.014415777058834782 0.060403714315167556 0.015710011017888197 0.013769627424809732 1:80.2605 2:8.52 3:-12.1087 4:-10.4309 5:-8.5568 6:-5.3402 7:-4.175 8:-3.3633 9:-2.4764 10:-2.647 
-0.09731508152026296 0.43923346853864353 0.10629928635310658 0.09641503819268527 1:99.9387 2:0.098823 3:-12.4494 4:-10.7823 5:-8.4019 6:-6.0105 7:-4.8914 8:-3.2039 9:-2.722 10:-2.8625 
-0.04369514779959571 0.19480644783568118 0.04643939155752337 0.042588566850541465 1:86.4016 2:4.8528 3:-10.7668 4:-9.8291 5:-7.7483 6:-6.2881 7:-4.7812 8:-3.5517 9:-2.6091 10:-2.4987 
-0.01347937637120288 0.06223873732880922 0.015760392311363797 0.013930228032142394 1:86.0969 2:4.2609 3:-10.7491 4:-8.9194 5:-6.7768 6:-5.1367 7:-4.8755 8:-3.8636 9:-2.7872 10:-2.3609 
-0.03419578309542112 0.15113232483874947 0.03723914071653586 0.034048216739837656 1:81.9529 2:8.3297 3:-9.6375 4:-9.0263 5:-7.2509 6:-5.4163 7:-4.4049 8:-3.5549 9:-2.6748 10:-2.3486 
-0.08645748669672544 0.3884947418158126 0.09410360815371042 0.08505413169908631 1:61.8589 2:12.0817 3:-13.7775 4:-12.83 5:-10.0665 6:-6.6485 7:-4.1782 8:-3.3747 9:-0.73043 10:-0.036107 
-0.018502541226074944 0.08474593481262446 0.020817935794308906 0.019560872636884753 1:86.8207 2:8.8951 3:-12.838 4:-12.6479 5:-9.2608 6:-6.6826 7:-4.8482 8:-3.1687 9:-2.5846 10:-1.8303 
-0.014201765198982813 0.06697920503220087 0.015765847713056114 0.01358940771518728 1:76.5959 2:9.7965 3:-10.374 4:-10.3064 5:-8.0611 6:-5.7499 7:-5.5099 8:-4.4983 9:-2.7736 10:-2.4133 
-0.044551807001312366 0.20205342574260662 0.04895590508079945 0.04410623182732618 1:75.4728 2:5.805 3:-11.685 4:-11.1465 5:-8.4576 6:-5.3604 7:-4.819 8:-2.4368 9:-0.15751 10:-1.4868 
-0.0469875220412147 0.21266365587006256 0.050996782838520646 0.04627117096186035 1:49.5482 2:9.6264 3:-8.2919 4:-10.8585 5:-7.2209 6:-5.0105 7:-2.8233 8:-1.7367 9:-1.3194 10:-1.0325 
-0.04748881860080639 0.20620679399372455 0.048845125035447176 0.046109742114415854 1:90.045 2:2.5856 3:-11.5359 4:-8.9876 5:-7.2407 6:-5.1773 7:-4.7588 8:-3.0601 9:-2.4901 10:-2.1657 
-0.012670047449362424 0.056482481433973206 0.014227969633449106 0.012400331057643234 1:70.8084 2:9.7284 3:-10.6089 4:-10.7094 5:-7.6259 6:-5.6729 7:-4.5432 8:-2.097 9:-0.81324 10:-2.0473 
-0.042130347905639576 0.18560483759739768 0.04527633433367725 0.040387415458468114 1:67.6819 2:12.3823 3:-12.6273 4:-12.0923 5:-9.1962 6:-6.8392 7:-4.292 8:-1.8928 9:-0.83192 10:-0.531 
-0.04608486466862103 0.205056753255629 0.04946010549103807 0.04487557397947131 1:61.2002 2:13.2934 3:-10.6583 4:-10.1901 5:-7.9903 6:-5.9401 7:-3.9883 8:-1.7614 9:-1.0237 10:-1.5828 
-0.011653658395661749 0.05367838766248175 0.011913091486218184 0.010866521170733001 1:92.6988 2:4.6277 3:-12.4473 4:-9.7938 5:-7.2556 6:-5.7794 7:-4.803 8:-3.3338 9:-2.2497 10:-2.8038 
-0.0223560618514616 0.09668693222542703 0.024438812218574177 0.02221382449933976 1:71.0633 2:8.0334 3:-11.6414 4:-8.5047 5:-6.4486 6:-4.8955 7:-3.9859 8:-2.6664 9:-2.0138 10:-1.5921 
-0.04735624788864197 0.2139218349248277 0.05144313717093407 0.046970198754983816 1:51.8046 2:10.9274 3:-8.7199 4:-7.1912 5:-5.7581 6:-4.0135 7:-3.3218 8:-2.0505 9:-1.5013 10:-1.2788 
-0.030516220439436463 0.13929151064306933 0.03330179938636196 0.029835089025153146 1:85.1233 2:9.4302 3:-11.7748 4:-10.3679 5:-8.3126 6:-5.9445 7:-4.8148 8:-4.1389 9:-2.8116 10:-2.7636 
-0.06654560194306113 0.2986321886491825 0.0720874027063178 0.06510222181273197 1:67.0256 2:8.5372 3:-12.1924 4:-11.8992 5:-9.4229 6:-5.1363 7:-4.0081 8:-1.4473 9:-0.72164 10:-0.38299 
-0.0702752986419081 0.31499783160471845 0.07629734001313448 0.06889048830287546 1:62.8212 2:8.4916 3:-11.1467 4:-10.9489 5:-7.875 6:-5.0749 7:-2.9395 8:-0.98004 9:-0.2516 10:-0.96709 
-0.050191061056701174 0.22604341370815953 0.05449591719433543 0.048905411906225604 1:82.8488 2:6.0042 3:-9.5245 4:-7.7417 5:-6.5423 6:-5.1628 7:-4.5752 8:-3.405 9:-2.9858 10:-2.6246 
-0.025995150039458716 0.11694649998405593 0.02865766032791537 0.025569552587566394 1:59.072 2:7.0695 3:-9.4464 4:-7.6828 5:-6.3133 6:-4.9292 7:-3.2153 8:-2.0842 9:-2.1342 10:-0.99042 
-0.043966424699080915 0.19492462510912884 0.04659909025261203 0.04310463236635249 1:90.3204 2:6.959 3:-11.6919 4:-11.0918 5:-8.7483 6:-7.0031 7:-5.7915 8:-4.0834 9:-3.2692 10:-2.7654 
-0.010541765186016067 0.047744843537354725 0.010324274907314157 0.009743449150677375 1:68.9348 2:9.1159 3:-9.5907 4:-8.5671 5:-6.3491 6:-4.4272 7:-3.7339 8:-2.5967 9:-2.247 10:-2.0871 
-0.01744198652503671 0.08204680178566973 0.020992770777906275 0.018618663464339723 1:67.6001 2:12.5693 3:-9.5237 4:-9.0366 5:-7.6564 6:-5.8651 7:-4.5207 8:-3.5871 9:-2.3324 10:-2.1004 
-0.03995519959996856 0.18014355737470697 0.04371599660718818 0.03942350208815902 1:70.2166 2:5.6712 3:-9.6984 4:-8.7089 5:-7.8285 6:-5.6977 7:-4.9686 8:-3.2148 9:-2.4194 10:-2.7333 
-0.04074212604735489 0.1859646653375983 0.044914709763505124 0.041393673846047 1:91.3937 2:7.3512 3:-12.4515 4:-9.8007 5:-7.3174 6:-5.7487 7:-5.1468 8:-3.7431 9:-2.9111 10:-2.7436 
-0.017450254926803247 0.07999550384367579 0.019330649662279473 0.017346975874689356 1:49.5333 2:10.8836 3:-8.0803 4:-8.2742 5:-6.5267 6:-3.7856 7:-2.9513 8:-2.5069 9:-1.5476 10:-1.2945 
-0.015921494698609408 0.06854667040422807 0.0165193515263237 0.015309513703103406 1:91.39 2:5.2539 3:-11.0458 4:-9.0841 5:-7.0872 6:-5.544 7:-4.9116 8:-3.7745 9:-3.058 10:-2.7294 
-0.05414876536460014 0.23888980355942369 0.05844165921076515 0.053321165112054814 1:73.3447 2:4.4041 3:-9.6336 4:-9.5297 5:-7.8565 6:-4.5186 7:-3.8955 8:-2.4783 9:-1.4429 10:-1.2269 
-0.08615157273894265 0.38380985608024604 0.09236956934147922 0.08495366217398732 1:88.0665 2:0.65366 3:-9.6885 4:-8.3851 5:-6.4257 6:-4.8093 7:-3.89 8:-3.0091 9:-2.7955 10:-2.2205 
-0.05039169727867212 0.22787123318233837 0.054707599798175105 0.0495648916730064 1:55.335 2:13.8249 3:-10.2995 4:-8.6388 5:-6.4267 6:-4.5296 7:-3.8404 8:-2.087 9:-1.7627 10:-1.8923 
-0.0319606054291049 0.1433684292865208 0.03474301992858124 0.031207284293106763 1:81.5946 2:11.2928 3:-12.5609 4:-11.9665 5:-9.6051 6:-7.0412 7:-5.1794 8:-3.449 9:-2.1177 10:-2.2362 
-0.06013513417093895 0.2688397917115184 0.06551055427280893 0.059643873778505184 1:52.6811 2:6.2539 3:-7.34 4:-6.5736 5:-5.3112 6:-3.6173 7:-3.2305 8:-2.3403 9:-2.0054 10:-1.4451 
-0.09353778692345914 0.4213555946079952 0.10235361714938493 0.09268572026781706 1:87.7229 2:12.4037 3:-13.437 4:-10.8673 5:-8.8097 6:-6.4283 7:-5.5015 8:-3.6812 9:-2.8456 10:-2.8126 
-0.03642136900342973 0.16606241339075065 0.03937079479547859 0.035938726304416004 1:80.4416 2:8.3248 3:-11.682 4:-9.9904 5:-7.5732 6:-4.4264 7:-4.3554 8:-3.1314 9:-2.5362 10:-1.3489 
-0.006977839907330159 0.03246055050327728 0.007752131068176888 0.007190832456233002 1:69.4186 2:5.0677 3:-11.125 4:-8.5761 5:-6.1646 6:-4.3709 7:-3.4411 8:-2.9398 9:-1.9507 10:-1.9268 
-0.0175289258954111 0.07748836496511241 0.0192338428208484 0.017642777579902624 1:62.2653 2:6.8708 3:-8.7011 4:-9.1022 5:-7.8037 6:-5.3919 7:-3.9611 8:-3.1063 9:-1.2177 10:-1.403 
-0.006656330924071696 0.027691375621352345 0.006471973913210038 0.006116136404519522 1:84.4811 2:8.5361 3:-12.2608 4:-10.2788 5:-8.2904 6:-6.2271 7:-4.697 8:-3.6769 9:-3.4438 10:-2.3525 
-0.06363743162710889 0.28808213343699896 0.06916778882686551 0.06349575728658992 1:68.6057 2:14.7689 3:-13.676 4:-12.921 5:-9.3851 6:-6.7897 7:-5.1916 8:-2.9759 9:-1.5016 10:-1.4055 
-0.01763826990549117 0.07907263980206009 0.018861398012852748 0.017089283198912435 1:58.3507 2:11.5576 3:-11.4546 4:-10.3896 5:-8.5799 6:-5.966 7:-4.0544 8:-2.874 9:-1.4907 10:-1.62 
-0.08988244990567262 0.4057177437492627 0.09833413395687873 0.08929166010987365 1:50.502 2:14.0915 3:-7.5463 4:-8.0717 5:-8.1358 6:-5.1336 7:-4.543 8:-2.9723 9:-2.3088 10:-2.2692 
-0.11312644092208747 0.5091164055913862 0.12349789878626462 0.11183740485314544 1:41.5348 2:13.5216 3:-11.3867 4:-10.8474 5:-7.4416 6:-4.2158 7:-3.8485 8:-1.94 9:-0.29029 10:-0.26102 
-0.10358075491275773 0.46828755622515483 0.11349814074759731 0.10283898633742082 1:44.5832 2:9.8568 3:-10.7917 4:-10.355 5:-7.2296 6:-3.8896 7:-2.755 8:-0.28409 9:0.053611 10:-0.024359 
-0.077261941102924 0.3495179407780459 0.0844898075942529 0.07673266354709879 1:45.5898 2:12.0066 3:-8.3557 4:-9.341 5:-7.0197 6:-5.4069 7:-3.3948 8:-2.4838 9:-1.693 10:-1.7499 
-0.020179029549480847 0.09354922756319212 0.02290342561157372 0.020521538600761502 1:68.4024 2:13.0092 3:-12.1877 4:-11.6904 5:-9.5333 6:-6.6421 7:-5.0362 8:-3.2707 9:-1.9649 10:-2.4886 
-0.04705187519492851 0.20999358370451146 0.05024721744498176 0.046366104328991485 1:64.354 2:11.9283 3:-9.1879 4:-9.6214 5:-7.9418 6:-5.6377 7:-4.539 8:-3.7623 9:-2.4104 10:-2.0898 
-0.007256569118479392 0.03836853510246393 0.008778521521745604 0.007473634008103966 1:47.9958 2:12.9107 3:-10.2562 4:-9.9325 5:-7.2376 6:-5.4013 7:-4.135 8:-1.927 9:-0.77915 10:-1.1945 
-0.1207747097244066 0.544510456336546 0.13191040485768663 0.11964652109475271 1:40.4727 2:10.1866 3:-7.3001 4:-6.8727 5:-6.1349 6:-3.9526 7:-3.2587 8:-2.2162 9:-1.2291 10:-1.1997 
-0.10726231457142227 0.4841374237668376 0.11698976025516244 0.10634081930055922 1:46.6545 2:16.5414 3:-9.1729 4:-10.164 5:-8.1319 6:-5.4268 7:-4.6523 8:-2.3037 9:-0.52943 10:-1.5107 
-0.04804573491732937 0.21264708902649654 0.05252890695795866 0.047186587146471067 1:53.4183 2:14.3616 3:-9.9688 4:-9.9352 5:-7.7414 6:-5.8067 7:-3.7222 8:-2.0392 9:-1.9067 10:-1.2967 
-0.21801088106667438 -1.0 0.2344102417072101 0.21508754578608633 1:49.1218 2:-19.6295 3:-5.4171 4:-3.6192 5:-1.6347 6:0.007772 7:-0.45855 8:0.36528 9:-0.072539 10:-0.10104 
-0.16874052372278464 -0.8487828250657972 0.18016721545145917 0.16627913456022247 1:62.1062 2:-36.4352 3:-2.1762 4:2.329 5:2.1606 6:0.69171 7:0.21762 8:0.18135 9:0.056995 10:-0.012953 
-0.07249805344087444 -0.3424010025547095 0.07666764818028814 0.07209551040583531 1:48.5622 2:-21.5337 3:-2.4948 4:-1.3731 5:-0.82124 6:-0.095855 7:-0.96891 8:-0.12176 9:-0.29534 10:-0.29275 
-0.14444321088010328 -0.7224319286980757 0.15513748357194493 0.1411880953106689 1:69.4456 2:-39.215 3:-2.5259 4:2.0233 5:1.1295 6:0.51813 7:-0.24611 8:0.51036 9:0.020725 10:0.041451 
-0.07026260213600856 -0.355960696776027 0.07824132968068992 0.07208288095057098 1:53.6269 2:-29.1736 3:-0.82383 4:-0.062176 5:0.30829 6:0.31088 7:-0.34197 8:0.48187 9:-0.098446 10:-0.43005 
-0.18737744089683264 -0.9414582826413807 0.2019046369107312 0.18460583079542112 1:67.7358 2:-40.3601 3:-1.0285 4:1.5026 5:2.3161 6:0.93782 7:0.13472 8:0.49741 9:0.26943 10:-0.028497 
-0.14086939919676092 -0.7088603718962537 0.15221026905967655 0.13942742994567653 1:58.6762 2:-32.0181 3:-0.79275 4:-0.76166 5:0.31347 6:0.3886 7:-0.47409 8:0.20207 9:-0.33161 10:0.098446 
-0.13907258407467576 -0.7002134768176753 0.15058068550035214 0.13699883409274494 1:62.8005 2:-31.3523 3:-5.7513 4:0.049223 5:1.0777 6:0.47668 7:-0.8057 8:0.8342 9:0.26166 10:-0.036269 
-0.12021186678222348 -0.6042245138357473 0.12819555329711024 0.11892340605443003 1:62.7591 2:-32.8264 3:-4.5389 4:0.012953 5:0.9715 6:0.75389 7:-0.66321 8:0.65026 9:0.088083 10:-0.15803 
-0.19359891752415573 -0.9722017773547539 0.20776125862572223 0.19122608475150066 1:59.2876 2:-28.6762 3:-5.4249 4:-0.91192 5:0.64508 6:0.75389 7:-0.81865 8:0.51554 9:0.085492 10:0.018135 
-0.08258001386625534 -0.41241732203129433 0.08899753514337533 0.08142667854088025 1:60.0699 2:-31.4067 3:-5.2824 4:0.34197 5:1.2953 6:0.86269 7:-0.067358 8:0.43005 9:0.12953 10:-0.028497 
-0.2610760914775149 -1.0 0.28114115252916083 0.25761421541490354 1:78.9715 2:-46.6839 3:-3.5881 4:3.3834 5:2.6192 6:1.2979 7:-0.13212 8:0.44819 9:-0.1399 10:0.033679 
-0.07103389251349443 -0.3568715633633107 0.07798160900010039 0.07111135391681932 1:50.7254 2:-29.0 3:-1.0725 4:0.30311 5:0.74352 6:0.54145 7:-0.31865 8:0.65285 9:0.18135 10:-0.062176 
-0.06104055856098243 -0.30905973798345077 0.06602678988468991 0.059862365985326786 1:44.9352 2:-25.4456 3:-1.3601 4:0.44301 5:0.54404 6:0.18394 7:-0.40674 8:0.27461 9:0.15803 10:0.007772 
-0.15946088462529792 -0.7991893119158187 0.17196472165397966 0.1579991828627113 1:45.5803 2:-25.228 3:0.6114 4:-0.58808 5:0.30311 6:-0.051813 7:-0.6114 8:0.28238 9:-0.23057 10:-0.23057 
-0.08305093391109933 -0.4136702073936157 0.08895668570458543 0.08092437885518347 1:49.1606 2:-25.9223 3:-4.5777 4:0.4171 5:0.61399 6:0.7513 7:-0.3886 8:0.64249 9:0.033679 10:-0.18653 
-0.008628764908407652 -0.04783939442088882 0.010160697600727265 0.009001083053961122 1:58.658 2:-31.5777 3:-2.8808 4:0.90674 5:0.41451 6:0.55181 7:-0.48964 8:0.53368 9:-0.15285 10:-0.27979 
-0.15900138887331478 -0.7997593308529393 0.17132625324415143 0.1572311896207072 1:49.7513 2:-27.7642 3:-3.7539 4:2.1684 5:1.4352 6:0.33161 7:0.13472 8:0.51036 9:-0.082902 10:-0.044041 
-0.20528269494201304 -1.0 0.22063588293616698 0.20171375819385612 1:66.1399 2:-36.3005 3:-2.4922 4:1.614 5:1.5104 6:0.39637 7:-0.54404 8:0.29275 9:0.12435 10:-0.36269 
-0.05163334635793017 -0.26524678761652165 0.054882076683624756 0.05026780663496351 1:45.4456 2:-22.3109 3:-1.1295 4:-1.329 5:-0.21244 6:0.080311 7:-0.71762 8:0.54663 9:0.07513 10:-0.023316 
-0.03662851589316677 -0.19901845301180304 0.04000418697005621 0.0383093564640567 1:44.0777 2:-21.0984 3:-3.9326 4:-0.29275 5:0.33161 6:0.18653 7:-0.2513 8:0.20466 9:0.064767 10:-0.30052 
-0.04293769890915702 -0.21163838055981649 0.045622855880725975 0.041103640165625406 1:41.5155 2:-19.7461 3:-3.6036 4:-0.57772 5:0.2772 6:-0.29534 7:-0.5285 8:0.3057 9:0.025907 10:-0.19948 
-0.06667560622567366 -0.33521583228002133 0.07154903733592563 0.06528907923516182 1:46.7565 2:-26.6813 3:-0.6658 4:-0.26425 5:0.76684 6:0.33161 7:-0.43782 8:0.51554 9:0.03886 10:-0.072539 
-0.03521656115849882 -0.18558373822231825 0.03899761181979475 0.033814044436563 1:42.3834 2:-21.557 3:-2.1917 4:-0.37047 5:0.29016 6:-0.080311 7:-0.60363 8:0.046632 9:-0.023316 10:0.13212 
-0.19435327243153958 -0.9722205836391609 0.20889843059425847 0.19139838725329103 1:54.158 2:-28.5751 3:-5.013 4:1.6658 5:1.1995 6:0.98187 7:-0.20466 8:0.62953 9:-0.062176 10:0.17617 
-0.17425532669403232 -0.8813539205693165 0.18839551782709393 0.17247751505034986 1:39.1606 2:-19.1813 3:-2.3731 4:-1.0648 5:-0.26684 6:0.028497 7:-0.57513 8:0.23834 9:-0.064767 10:-0.23575 
-0.08425877768644505 -0.41934065531962117 0.08767196954307681 0.08089190244674571 1:49.9819 2:-27.6166 3:-0.33161 4:0.57772 5:0.43782 6:0.26684 7:-0.44301 8:0.41451 9:0.067358 10:-0.17876 
-0.05503056821837701 -0.2771823732524811 0.059722702065639066 0.05459714875506169 1:47.3627 2:-23.8705 3:-3.0181 4:0.49741 5:-0.40933 6:0.33938 7:-0.25907 8:-0.22021 9:-0.1399 10:-0.069948 
-0.03924090119789764 -0.17864606819996443 0.04176563671841393 0.03617507067357201 1:45.4896 2:-21.1477 3:-4.215 4:-1.3161 5:-0.59326 6:0.57772 7:-0.12694 8:0.15285 9:0.20725 10:0.046632 
-0.16954224670830143 -0.8356654253507122 0.18506596548638052 0.16969584968780307 1:44.5181 2:-17.5777 3:-4.1839 4:-2.5104 5:-0.84197 6:-0.53368 7:-1.101 8:0.18653 9:-0.059585 10:-0.36269 
-0.032470375989100186 -0.16661768170543936 0.034523106678572446 0.031105370784098363 1:49.3187 2:-22.987 3:-4.956 4:-2.1295 5:-0.73834 6:0.15285 7:0.22798 8:0.54145 9:0.010363 10:0.26684 
-0.10998015617312958 -0.5501030984364972 0.11748789520557407 0.10743399340634974 1:57.8627 2:-29.6088 3:-1.8523 4:-0.73057 5:-0.26425 6:-0.041451 7:-0.67358 8:0.30052 9:0.067358 10:-0.38342 
-0.0 -0.002522196647721589 0.0 0.0 1:48.4145 2:-19.9793 3:-4.5389 4:-2.6943 5:-0.94819 6:-0.4456 7:-1.1218 8:0.67876 9:0.45855 10:-0.38342 
-0.025865857486287676 -0.14241863537813465 0.02897220529268578 0.026821937550270243 1:41.4145 2:-17.0674 3:-3.285 4:-2.5933 5:-0.72798 6:-0.20207 7:-0.90155 8:0.7772 9:-0.26684 10:-0.19171 
-0.08441661600070935 -0.4257720179493784 0.09332887819825593 0.08476559262944067 1:55.1088 2:-26.4741 3:-2.7047 4:-1.6373 5:-0.018135 6:0.39119 7:-0.56995 8:0.12435 9:-0.33161 10:-0.3057 
-0.026749331968479378 -0.13080485614553308 0.02941094513056501 0.02753511300062306 1:50.7306 2:-24.5026 3:-3.3497 4:-2.2358 5:0.12694 6:0.20466 7:-0.82124 8:0.88083 9:-0.16062 10:-0.12435 
-0.040856064274225105 -0.20689030773390923 0.04468059943210628 0.03983518551440961 1:49.5415 2:-23.158 3:-5.0544 4:-1.487 5:0.52332 6:0.25648 7:-0.55699 8:0.14249 9:0.056995 10:-0.020725 
-0.027989405724588405 -0.1443888164217308 0.028414508527776626 0.02558874364818716 1:50.4223 2:-22.5881 3:-3.2591 4:-2.3187 5:-0.76166 6:-0.25648 7:-0.59585 8:0.42228 9:0.067358 10:-0.25907 
-0.1631775956001493 -0.8085563631478344 0.1743451782864887 0.15938309552333627 1:40.1606 2:-16.9145 3:-3.2772 4:-2.1839 5:-0.8601 6:-0.90933 7:-0.58031 8:0.89896 9:-0.069948 10:-0.3886 
-0.2603499746596579 -1.0 0.2802922038870844 0.25669865058667557 1:74.9197 2:-44.3031 3:-3.2824 4:3.4948 5:1.7902 6:1.2073 7:-0.21244 8:0.18912 9:0.14508 10:0.07772 
-0.050795902704415696 -0.2664107105075375 0.054834457140580016 0.05184801882545641 1:47.7824 2:-21.899 3:-4.9352 4:-0.98964 5:-0.45596 6:0.43523 7:-0.14767 8:0.74352 9:-0.3057 10:-0.28756 
-0.008234890274118885 -0.035051567740797845 0.00850301957711416 0.008892127821895692 1:41.2228 2:-19.4715 3:-2.0984 4:-1.2228 5:0.2772 6:0.28238 7:-0.5544 8:0.21762 9:-0.067358 10:-0.26425 
-0.06621352467206472 -0.3301412732700058 0.06780190452224562 0.06263187610241729 1:54.0959 2:-26.7902 3:-1.8731 4:-1.5104 5:-0.14508 6:0.095855 7:-0.60622 8:0.12176 9:-0.12694 10:-0.15285 
-0.021683954666880445 -0.10179175551095351 0.019214677076015266 0.018936494057961002 1:50.8834 2:-24.6658 3:-1.987 4:-0.45337 5:-0.028497 6:-0.13212 7:-0.99223 8:0.22798 9:0.062176 10:-0.12176 
-0.07115501141624621 -0.3463102846392363 0.07272376972750223 0.06860341072339225 1:59.9456 2:-34.443 3:0.072539 4:1.5466 5:1.1218 6:0.43782 7:-0.14508 8:0.64767 9:0.056995 10:-0.23057 
-0.04305036466173289 -0.22203903461137228 0.049772462582894944 0.044986105355683946 1:50.0803 2:-26.0285 3:-0.93782 4:-0.44819 5:0.80829 6:-0.22539 7:-0.56477 8:0.43523 9:0.19171 10:-0.28497 
-0.05277187914770579 -0.26505288122610626 0.05515444144739058 0.050061590944285875 1:53.2565 2:-29.9456 3:-1.4249 4:1.0803 5:1.1114 6:0.38083 7:-0.4456 8:0.15285 9:0.056995 10:-0.32642 
-0.0214908688221701 -0.11498316594193067 0.022334557094135 0.019581964043341307 1:44.9508 2:-18.1736 3:-3.7047 4:-2.0622 5:-1.4456 6:-0.33679 7:-1.1218 8:0.20466 9:-0.098446 10:-0.5544 
-0.1473537041248226 -0.7291294819070497 0.15731256489442738 0.14554671749968698 1:43.0959 2:-22.6218 3:-2.443 4:0.81606 5:0.19689 6:0.4456 7:-0.32124 8:0.39896 9:0.082902 10:-0.028497 
-0.01462793073828626 -0.07545518125608373 0.01738689719932526 0.01608981917116297 1:53.0725 2:-25.044 3:-3.6399 4:-0.52591 5:-0.34197 6:-0.57772 7:-0.58549 8:0.12435 9:0.28756 10:-0.33161 
-0.010348738524514692 -0.06304505011538758 0.008590407753310537 0.008419345816449323 1:44.5052 2:-17.8497 3:-4.0881 4:-2.728 5:-0.63731 6:-0.75907 7:-0.62435 8:0.48705 9:-0.15544 10:-0.31606 
-0.0135198906650284 -0.12578250034456961 0.01580998220539784 0.01362417650877528 1:47.6943 2:-20.772 3:-3.6477 4:-3.0104 5:-1.5285 6:-0.15026 7:-1.1632 8:0.38342 9:0.12953 10:-0.12176 
-0.01843063888812437 -0.09653171934427465 0.01998028393991185 0.01809077639920874 1:52.2694 2:-25.842 3:-4.7487 4:0.55959 5:-0.14767 6:0.49482 7:-0.50518 8:0.59326 9:-0.062176 10:-0.049223 
-0.1771520773071503 -0.8890193662693441 0.18961584371793375 0.17317675440640476 1:53.9482 2:-24.4508 3:-5.0933 4:-1.9637 5:-0.36788 6:0.67617 7:-0.5285 8:0.67358 9:-0.24611 10:0.0 
-0.035251581813683305 -0.18516212594914 0.04113243294854496 0.03639618682862746 1:50.443 2:-23.4637 3:-2.4741 4:-1.2902 5:-0.87824 6:0.046632 7:-0.79793 8:0.093264 9:-0.12435 10:-0.044041 
-0.0579567041531278 -0.2758931499951293 0.0630099225243565 0.05823091277589997 1:45.3109 2:-20.2021 3:-2.3238 4:-1.8005 5:-0.44819 6:-0.44819 7:-0.68653 8:0.77461 9:-0.30311 10:-0.2772 
-0.037278119563427026 -0.18251715976076643 0.03962005664928983 0.037339198248944085 1:51.5466 2:-23.4171 3:-5.101 4:-0.98446 5:-0.24093 6:0.39637 7:-0.70984 8:0.15026 9:0.015544 10:0.10622 
-0.037091368123942724 -0.19568331757555518 0.04028194270372612 0.037984879156532286 1:69.4249 2:-38.7902 3:-2.2358 4:1.8446 5:1.6269 6:0.26684 7:-0.59067 8:0.22539 9:-0.07513 10:-0.14767 
-0.013491076541368033 -0.07011409043697528 0.014352953950931434 0.013788013317969411 1:56.0725 2:-28.1788 3:-3.7228 4:0.14508 5:1.1036 6:0.21503 7:-0.37565 8:0.69171 9:0.17358 10:-0.15544 
-0.16105788494534468 -0.8117830781707862 0.1748457401153022 0.15960400355336954 1:59.6347 2:-36.4041 3:0.082902 4:1.8964 5:1.2902 6:0.86788 7:-0.059585 8:0.53886 9:0.095855 10:-0.046632 
-0.19504581128321877 -0.9821778014701087 0.2108010866728842 0.19340935857054273 1:55.5699 2:-33.1632 3:-1.8135 4:1.7228 5:1.7124 6:1.1684 7:-0.072539 8:0.49741 9:-0.015544 10:-0.049223 
-0.058151499691592584 -0.2898047492451499 0.0619060077471909 0.056815891846962695 1:55.842 2:-31.601 3:-0.45596 4:1.044 5:0.35492 6:0.36269 7:-0.40933 8:0.50518 9:-0.095855 10:-0.24352 
-0.019750277384703707 -0.10829115403755468 0.024461186350588957 0.020506005826154212 1:61.2176 2:-34.9534 3:-0.87306 4:1.4378 5:0.77461 6:0.51036 7:-0.1943 8:0.010363 9:0.0 10:0.031088 
-1.0 -0.48035252164517933 -0.4364444228057657 1.0 1:4.0415 2:-2.0337 3:-0.81865 4:-0.39896 5:0.81606 6:-0.12694 7:0.20207 8:0.3057 9:-0.50777 10:-0.082902 
-0.0 -0.0 -0.0 0.16056650553321017 1:9.4171 2:-3.5544 3:-2.013 4:-0.56218 5:0.28756 6:-0.20207 7:0.29016 8:-0.025907 9:-0.31865 10:0.1114 
-1.0 -0.17793936091630697 -0.16304582231729786 1.0 1:3.956 2:-0.96373 3:-1.8938 4:0.22021 5:-0.13472 6:-0.098446 7:0.12176 8:0.0051813 9:-0.15544 10:0.095855 
-0.0 -0.04054048965997755 -0.03625239443961317 0.0 1:6.2565 2:-2.8057 3:-2.5829 4:0.23575 5:0.010363 6:-0.26943 7:0.012953 8:0.25907 9:-0.12176 10:0.093264 
-0.833748770637113 -0.0 -0.0 0.0 1:5.7927 2:-1.9482 3:-1.0078 4:-0.27979 5:0.42487 6:-0.023316 7:0.046632 8:0.082902 9:-0.18653 10:0.051813 
-0.0 -0.0 -0.0 0.12354373903707186 1:8.329 2:-3.2539 3:-2.4145 4:-0.46373 5:0.70207 6:-0.10622 7:0.012953 8:0.15803 9:-0.32383 10:0.012953 
-1.0 -0.0 -0.0 0.0 1:5.2073 2:-2.5285 3:-1.4352 4:0.21762 5:0.43523 6:-0.17876 7:-0.031088 8:0.29016 9:-0.30052 10:0.10363 
-0.21860315653369947 -0.4328835888421739 -0.3917532934911224 0.22194424010765298 1:12.5181 2:-6.1554 3:-1.2332 4:0.10104 5:0.13731 6:-0.10363 7:0.23057 8:-0.049223 9:-0.11917 10:0.072539 
-0.2525134315962072 -0.45042589976900055 -0.40880924185716744 0.20481318036812401 1:10.3342 2:-6.6062 3:-0.036269 4:0.10104 5:0.46632 6:-0.28756 7:0.27979 8:0.12694 9:-0.10881 10:0.21244 
-0.14855875252352696 -0.6362105257473765 -0.5789630333210102 0.2731498118640223 1:7.4896 2:-4.0674 3:-0.25648 4:-0.47668 5:0.069948 6:0.044041 7:-0.064767 8:0.10622 9:-0.29016 10:0.0051813 
-1.0 -0.4647080104231788 -0.4201373402452794 0.0 1:5.2228 2:-3.4223 3:-0.64508 4:-0.38083 5:0.3342 6:-0.03886 7:0.028497 8:0.18135 9:-0.0051813 10:0.0 
-0.4162976133292147 -0.6652809505633968 -0.6023149066180422 0.24518057151459938 1:10.2202 2:-4.2254 3:-2.0881 4:-1.0777 5:0.74352 6:-0.14508 7:-0.044041 8:0.33161 9:-0.2772 10:0.23316 
-0.4414833858240068 -0.9300345034749808 -0.8431612440016505 0.47965471912707497 1:12.0078 2:-7.4378 3:-0.51036 4:0.17617 5:0.78497 6:0.007772 7:-0.007772 8:0.16062 9:-0.26943 10:0.085492 
-1.0 -0.0 -0.0 0.35287236216470363 1:4.3446 2:-1.5699 3:-0.87824 4:-0.26425 5:0.34715 6:-0.14508 7:0.098446 8:0.051813 9:-0.16062 10:-0.085492 
-1.0 -0.0 -0.0 0.0 1:4.0674 2:-1.3031 3:-2.3575 4:-0.41969 5:0.44301 6:-0.17876 7:0.20466 8:0.24611 9:-0.28756 10:-0.020725 
-1.0 -0.0 -0.0 0.0 1:4.7461 2:-1.487 3:-1.4171 4:-0.18394 5:0.59326 6:0.03886 7:0.0051813 8:0.19689 9:-0.27461 10:0.007772 
-0.0 -0.1156013681362979 -0.10399614333180232 0.018179201396450073 1:7.9793 2:-4.1295 3:-1.0 4:-1.386 5:0.55699 6:-0.28756 7:0.10622 8:0.11399 9:-0.3601 10:0.1658 
-0.14666957755806492 -0.37485112205481397 -0.34152139396646053 0.17237033505873914 1:11.4041 2:-5.5674 3:-2.4534 4:-0.57254 5:0.60363 6:0.088083 7:0.15285 8:0.16839 9:-0.22021 10:0.051813 
-0.026470047484294146 -0.0 -0.0 0.0 1:5.7461 2:-3.4741 3:-0.5829 4:-0.67876 5:0.49223 6:-0.010363 7:0.064767 8:0.32124 9:-0.3342 10:0.11658 
-1.0 -0.8024895864970162 -0.7252735615363544 0.9654779016914615 1:4.0984 2:-0.23057 3:-2.0881 4:-0.47668 5:0.46632 6:-0.090674 7:0.044041 8:0.11917 9:-0.34456 10:-0.033679 
-0.0 -0.0 -0.0 0.06012089762852703 1:8.3264 2:-4.9275 3:-0.8342 4:-0.34197 5:0.24093 6:0.17098 7:0.29793 8:0.10622 9:-0.43782 10:0.098446 
-0.00745096159962725 -0.0 -0.0 0.0 1:9.3782 2:-4.2228 3:-1.8601 4:0.33938 5:0.67358 6:-0.072539 7:0.0 8:0.072539 9:-0.20466 10:0.067358 
-0.0 -0.46057429868879657 -0.4187260429274728 0.0 1:5.3083 2:-0.76425 3:-2.9896 4:-0.23575 5:0.55699 6:-0.41192 7:-0.18394 8:0.033679 9:-0.22539 10:0.23316 
-0.0 -0.6123604285903228 -0.5555469189281819 0.0 1:7.8575 2:-2.0699 3:-2.1088 4:-0.17358 5:0.40933 6:0.082902 7:0.031088 8:0.15026 9:-0.3057 10:0.13472 
-1.0 -0.18444173126477523 -0.16937015474296824 -0.3062568155845461 1:2.1891 2:-1.6762 3:-0.42228 4:-0.40933 5:0.21244 6:-0.15026 7:0.10363 8:0.33938 9:-0.059585 10:0.018135 
-1.0 -0.0 -0.0 -0.0 1:0.45596 2:0.46891 3:-0.66321 4:0.30311 5:-0.18653 6:0.10622 7:-0.23575 8:0.090674 9:-0.025907 10:-0.085492 
-1.0 -0.0 -0.0 -0.0 1:-1.0855 2:1.4404 3:-0.25907 4:-0.19689 5:-0.10363 6:-0.012953 7:-0.010363 8:0.17098 9:-0.27202 10:0.07772 
-1.0 -0.0 -0.0 -0.0 1:1.0337 2:-0.75907 3:-0.81088 4:0.080311 5:-0.1399 6:-0.007772 7:0.049223 8:0.049223 9:-0.1943 10:-0.1399 
-1.0 -0.0 -0.0 -0.0 1:-1.5 2:0.82902 3:-0.085492 4:-0.24093 5:0.098446 6:0.18394 7:-0.033679 8:0.2513 9:-0.29275 10:0.059585 
-1.0 -0.0 -0.0 -0.0 1:-1.1658 2:0.50518 3:-0.34197 4:0.33679 5:-0.10363 6:-0.054404 7:-0.015544 8:0.11658 9:-0.12953 10:0.10104 
-1.0 -0.0 -0.0 -0.0 1:-0.90415 2:-0.10104 3:0.11399 4:0.18135 5:-0.21762 6:-0.10622 7:0.11658 8:0.049223 9:-0.041451 10:-0.046632 
-1.0 -0.0 -0.0 -0.0 1:-0.24352 2:0.52591 3:-0.25648 4:0.30829 5:0.12694 6:-0.098446 7:-0.054404 8:0.21503 9:-0.046632 10:0.015544 
-0.30709098728936746 -1.0 -1.0 -0.7537791983760312 1:-6.1606 2:2.7876 3:-0.1114 4:-0.080311 5:-0.16062 6:-0.21762 7:0.007772 8:0.25648 9:-0.24611 10:-0.046632 
-1.0 -0.0 -0.0 -1.0 1:2.2953 2:-0.015544 3:-0.9171 4:-0.25907 5:0.29793 6:-0.031088 7:-0.20207 8:0.22021 9:-0.025907 10:-0.041451 
-0.7063750814450775 -0.0 -0.0 -0.0 1:-1.4948 2:0.46632 3:-0.2513 4:0.53627 5:-0.056995 6:0.20725 7:-0.028497 8:0.098446 9:-0.25389 10:-0.051813 
-1.0 -0.0 -0.0 -0.0 1:-1.5751 2:0.48705 3:-0.0051813 4:0.36269 5:-0.093264 6:0.37824 7:0.19171 8:0.1399 9:-0.11917 10:-0.10622 
-1.0 -0.0 -0.0 -0.0 1:-0.051813 2:0.84197 3:-0.23316 4:-0.0051813 5:0.27461 6:0.093264 7:0.015544 8:0.11917 9:-0.13212 10:-0.10881 
-1.0 -0.0 -0.0 -0.0 1:0.62176 2:0.45596 3:-0.20984 4:0.033679 5:-0.48446 6:0.025907 7:0.12176 8:0.11399 9:-0.31088 10:-0.007772 
-1.0 -0.0 -0.0 -0.0 1:-1.4974 2:0.93264 3:-0.39896 4:0.12176 5:-0.31865 6:0.07513 7:-0.1114 8:0.10104 9:0.007772 10:-0.098446 
-1.0 -0.0 -0.0 -0.0 1:1.0959 2:-0.18135 3:0.036269 4:-0.1399 5:0.051813 6:0.2228 7:0.0025907 8:0.21244 9:-0.24611 10:-0.051813 
-1.0 -0.7549533439797329 -0.6930738686729239 -0.0 1:1.7876 2:0.51554 3:-1.5363 4:-0.23575 5:-0.062176 6:0.0 7:0.10104 8:0.22021 9:-0.16839 10:-0.056995 
-1.0 -0.0 -0.0 -0.0 1:1.0181 2:-1.1606 3:-0.54145 4:-0.07513 5:0.041451 6:-0.054404 7:0.11658 8:0.13731 9:-0.16321 10:0.007772 
-1.0 -0.0 -0.0 -0.0 1:-0.031088 2:-1.0544 3:0.069948 4:0.031088 5:-0.17358 6:0.03886 7:-0.041451 8:0.23834 9:-0.12694 10:-0.07513 
-1.0 -0.0 -0.0 -0.0 1:-0.36788 2:0.062176 3:-0.11399 4:-0.080311 5:-0.18394 6:0.11917 7:-0.054404 8:-0.012953 9:0.082902 10:-0.049223 
-1.0 -0.0 -0.0 -0.0 1:-1.2228 2:0.83938 3:-0.22798 4:-0.015544 5:-0.080311 6:0.0051813 7:-0.054404 8:0.22798 9:-0.17358 10:-0.14508 
-1.0 -0.0 -0.0 -0.0 1:1.4301 2:-0.35233 3:-1.2176 4:0.015544 5:0.16839 6:0.095855 7:-0.14249 8:0.085492 9:-0.17358 10:0.036269 
-1.0 -0.0 -0.0 -0.0 1:-0.81088 2:1.3756 3:-0.35751 4:-0.23834 5:0.031088 6:0.023316 7:0.064767 8:0.18653 9:-0.18394 10:-0.031088 
-1.0 -0.4130930568014855 -0.373711897615269 -0.0 1:-0.085492 2:-1.3212 3:0.16321 4:0.32902 5:-0.15544 6:0.069948 7:-0.10104 8:0.10363 9:-0.18912 10:-0.028497 
-1.0 -0.0 -0.0 -0.0 1:-1.0803 2:0.73834 3:-0.49223 4:0.025907 5:-0.098446 6:-0.11658 7:0.0051813 8:0.0 9:-0.20984 10:0.033679 
-1.0 -0.0 -0.0 -0.0 1:0.95078 2:-0.32902 3:-1.1062 4:0.007772 5:0.033679 6:0.1399 7:-0.15285 8:0.12176 9:-0.23834 10:0.062176 
-1.0 -0.0 -0.0 -0.0 1:-1.6632 2:2.0803 3:0.010363 4:0.15544 5:0.18653 6:-0.088083 7:-0.19948 8:0.17876 9:-0.23316 10:-0.036269 
-1.0 -0.0 -0.0 -0.0 1:-1.215 2:0.31347 3:0.37047 4:0.031088 5:-0.015544 6:0.17358 7:-0.10622 8:0.036269 9:-0.080311 10:-0.12435 
-1.0 -0.0 -0.0 -0.0 1:-1.5518 2:1.0233 3:-0.29275 4:-0.018135 5:-0.16321 6:0.0 7:-0.007772 8:0.12176 9:0.025907 10:-0.025907 
-1.0 -0.0 -0.0 -0.0 1:-1.0415 2:0.51554 3:-0.49741 4:-0.033679 5:-0.30829 6:0.20207 7:-0.080311 8:0.2487 9:-0.049223 10:-0.018135 
-1.0 -0.0 -0.0 -0.0 1:-1.5881 2:1.0751 3:-0.2772 4:0.1114 5:0.062176 6:0.036269 7:0.044041 8:0.072539 9:-0.020725 10:-0.028497 
-0.38495212915929816 -0.5616447991745253 -0.4866635313665896 -0.2132242421309281 1:-4.7461 2:3.7073 3:-0.082902 4:0.19948 5:0.056995 6:-0.18912 7:0.11658 8:0.07513 9:-0.1114 10:-0.049223 
-1.0 -0.0 -0.0 -0.0 1:0.50259 2:-0.19689 3:-0.46114 4:-0.11917 5:0.018135 6:0.12176 7:0.12176 8:0.23834 9:-0.067358 10:-0.044041 
-1.0 -0.0 -0.0 -0.0 1:-0.3342 2:0.91969 3:-0.93523 4:-0.13212 5:0.14508 6:-0.059585 7:-0.12176 8:0.12176 9:-0.32642 10:0.093264 
-1.0 -0.0 -0.0 -0.0 1:-1.7902 2:0.80311 3:-0.24093 4:0.031088 5:0.10363 6:-0.2487 7:0.072539 8:0.25648 9:-0.062176 10:0.044041 
-1.0 -0.3748406351681358 -0.34443380275717184 -0.0 1:1.8057 2:-2.0596 3:-0.62435 4:0.65544 5:-0.023316 6:0.10104 7:0.2228 8:0.10363 9:-0.015544 10:-0.010363 
-1.0 -0.0 -0.0 -0.0 1:-0.62435 2:1.5803 3:-1.1813 4:-0.10622 5:0.007772 6:0.03886 7:-0.072539 8:0.090674 9:-0.041451 10:0.054404 
-1.0 -0.0 -0.0 -0.0 1:-0.10363 2:0.41451 3:0.32902 4:0.064767 5:0.10881 6:-0.19171 7:-0.049223 8:0.033679 9:-0.20466 10:0.11658 
-1.0 -0.0 -0.0 -0.0 1:-1.0078 2:0.85751 3:-0.35492 4:-0.07513 5:0.03886 6:-0.13731 7:-0.056995 8:0.15285 9:0.025907 10:-0.056995 
-0.3789753248691012 -0.25347872338788574 -0.17122349330237147 -0.0 1:-5.5337 2:2.0881 3:-0.041451 4:0.26425 5:0.26166 6:0.07772 7:0.080311 8:0.17358 9:0.054404 10:-0.046632 
-1.0 -0.0 -0.0 -0.0 1:0.77202 2:-0.35751 3:-0.26684 4:0.4171 5:-0.12176 6:-0.031088 7:0.095855 8:0.26943 9:-0.14767 10:-0.046632 
-1.0 -0.0 -0.0 -0.0 1:-0.30311 2:-0.29016 3:-0.80829 4:-0.37047 5:0.0051813 6:0.12176 7:-0.031088 8:0.2487 9:-0.088083 10:0.033679 
-1.0 -0.0 -0.0 -0.0 1:-1.3497 2:1.1554 3:-0.21762 4:-0.033679 5:-0.13731 6:-0.03886 7:0.27202 8:0.012953 9:-0.049223 10:-0.07772 
-1.0 -0.0 -0.0 -0.0 1:-0.8886 2:0.062176 3:0.059585 4:0.43264 5:-0.093264 6:0.067358 7:-0.14508 8:0.17098 9:-0.17358 10:0.012953 
-1.0 -0.0 -0.0 -0.0 1:0.9456 2:-0.85492 3:-0.21244 4:0.1114 5:0.0 6:-0.18135 7:-0.15026 8:0.19948 9:0.049223 10:0.069948 
-0.6159669466452907 -0.0 -0.0 -0.0 1:-1.8627 2:2.2073 3:-0.21503 4:-0.19948 5:-0.11658 6:-0.0051813 7:-0.062176 8:0.30052 9:0.028497 10:0.085492 
-1.0 -0.0 -0.0 -0.0 1:1.101 2:-1.013 3:-0.26943 4:0.085492 5:0.12435 6:0.0025907 7:0.046632 8:0.27461 9:-0.18653 10:-0.018135 
-1.0 -0.0 -0.0 -0.0 1:0.5544 2:-0.2513 3:-0.26943 4:0.2513 5:-0.069948 6:-0.028497 7:0.056995 8:-0.018135 9:-0.054404 10:-0.085492 
-0.0 -0.43178362547416166 -0.4154791686744602 -0.46316235864367217 1:-2.2202 2:2.6503 3:-1.4326 4:-0.020725 5:-0.12953 6:0.13472 7:0.21762 8:0.093264 9:-0.32124 10:-0.059585 
-0.7203460033623893 -0.0 -0.0 -0.0 1:-1.8679 2:0.34974 3:0.010363 4:0.0051813 5:0.19171 6:0.13731 7:-0.044041 8:0.29534 9:-0.25907 10:0.12694 
-1.0 -0.0 -0.0 -0.0 1:-0.78497 2:1.0622 3:-0.33679 4:-0.39637 5:0.059585 6:0.10622 7:0.049223 8:0.38083 9:-0.098446 10:0.059585 
-1.0 -0.0 -0.0 -0.0 1:1.544 2:-0.73316 3:-1.329 4:0.07772 5:0.062176 6:-0.025907 7:0.072539 8:0.23316 9:-0.088083 10:-0.012953 
-1.0 -0.0 -0.0 -0.0 1:0.0 2:0.3601 3:-0.52332 4:0.28756 5:0.088083 6:0.12953 7:0.025907 8:0.17876 9:-0.15026 10:0.018135 
-1.0 -0.0 -0.0 -0.0 1:-0.32642 2:0.79016 3:-0.82383 4:0.46632 5:-0.03886 6:0.15285 7:0.031088 8:0.15026 9:-0.11917 10:-0.10363 
-1.0 -0.0 -0.0 -0.0 1:-1.0104 2:-0.37047 3:0.29016 4:0.28238 5:0.064767 6:0.13212 7:0.059585 8:0.36269 9:-0.3886 10:-0.1114 
-1.0 -0.0 -0.0 -0.0 1:-0.45078 2:-0.30311 3:-0.33161 4:0.24611 5:0.14767 6:0.010363 7:0.090674 8:0.48964 9:-0.095855 10:0.023316 
-1.0 -0.0 -0.0 -0.0 1:0.75648 2:-0.38083 3:-0.37047 4:-0.056995 5:0.015544 6:-0.031088 7:-0.020725 8:-0.025907 9:-0.18653 10:-0.069948 
-1.0 -0.0 -0.0 -0.0 1:-1.7642 2:1.5181 3:-0.39637 4:-0.19689 5:-0.10104 6:0.07513 7:-0.11658 8:0.064767 9:-0.049223 10:-0.064767 
-1.0 -0.0 -0.0 -0.0 1:-1.329 2:2.0155 3:-0.93264 4:0.054404 5:0.34456 6:0.3342 7:-0.012953 8:0.03886 9:-0.085492 10:-0.10622 
-1.0 -0.0 -0.0 -0.0 1:-1.7435 2:1.4611 3:-0.44819 4:0.062176 5:-0.046632 6:-0.049223 7:0.025907 8:0.19689 9:0.069948 10:-0.025907 
-1.0 -0.0 -0.0 -0.0 1:-0.20725 2:0.64249 3:-0.07772 4:-0.18394 5:-0.031088 6:-0.17617 7:-0.090674 8:0.1658 9:-0.24352 10:0.072539 
-1.0 -0.0 -0.0 -0.0 1:-1.1218 2:-0.080311 3:0.39896 4:-0.13731 5:-0.088083 6:0.020725 7:0.18912 8:0.14767 9:-0.30052 10:-0.044041 
-1.0 -0.0 -0.0 -0.0 1:-0.4171 2:0.47927 3:-0.3342 4:-0.054404 5:0.0 6:-0.12435 7:-0.044041 8:0.23834 9:-0.1114 10:-0.028497 
-1.0 -0.0 -0.0 -0.0 1:1.013 2:0.48446 3:-1.3238 4:0.24352 5:0.26425 6:0.10104 7:0.031088 8:0.36788 9:-0.29793 10:0.012953 
-1.0 -0.0 -0.0 -0.0 1:-1.114 2:0.78756 3:-0.55959 4:-0.2487 5:-0.067358 6:0.1114 7:-0.093264 8:0.14508 9:-0.10622 10:-0.13731 
-0.5723211087464618 -0.0 -0.0 -0.0 1:-1.158 2:1.0389 3:-0.62176 4:-0.20725 5:-0.14249 6:-0.080311 7:0.21503 8:0.19171 9:-0.15285 10:0.22539 
-1.0 -0.0 -0.0 -0.0 1:-1.842 2:0.96891 3:-0.60881 4:-0.17358 5:0.59585 6:-0.36788 7:-0.20207 8:0.14508 9:-0.046632 10:-0.067358 
-1.0 -0.0 -0.0 -0.0 1:-0.88601 2:0.67876 3:-0.31606 4:-0.088083 5:0.067358 6:-0.085492 7:-0.17098 8:0.11658 9:-0.056995 10:-0.098446 
-1.0 -0.0 -0.0 -0.0 1:-0.051813 2:0.13212 3:-0.49741 4:-0.23834 5:0.028497 6:0.095855 7:0.1658 8:0.17098 9:-0.15285 10:-0.12694 
-1.0 -0.0 -0.0 -0.0 1:0.84715 2:-0.17098 3:-0.14767 4:0.0 5:0.025907 6:0.028497 7:-0.059585 8:0.24093 9:-0.18135 10:0.13212 
-1.0 -0.0 -0.0 -0.0 1:-2.3497 2:1.0078 3:-0.095855 4:0.37047 5:0.03886 6:-0.0051813 7:-0.072539 8:0.088083 9:-0.031088 10:0.007772 
-1.0 -0.0 -0.0 -0.0 1:-1.1658 2:1.5544 3:-0.40155 4:0.14249 5:-0.11917 6:-0.023316 7:0.19948 8:0.1114 9:-0.12694 10:0.10881 
-1.0 -0.0 -0.0 -0.0 1:-1.3782 2:0.73057 3:0.53109 4:0.064767 5:0.1399 6:-0.012953 7:-0.012953 8:0.18135 9:0.054404 10:-0.07772 
-1.0 -0.0 -0.0 -0.0 1:0.75389 2:0.70984 3:-0.36788 4:0.2487 5:0.17617 6:-0.1658 7:0.054404 8:0.34456 9:-0.21762 10:-0.044041 
-1.0 -0.0 -0.0 -0.0 1:-0.64767 2:1.1477 3:-0.54663 4:0.10881 5:-0.10622 6:0.13731 7:-0.19171 8:0.17098 9:-0.15026 10:0.012953 
-1.0 -0.0 -0.0 -0.0 1:-0.58549 2:0.18394 3:0.22539 4:-0.13212 5:-0.12694 6:-0.10104 7:0.015544 8:0.17358 9:-0.11399 10:0.010363 
-1.0 -0.0 -0.0 -0.0 1:-1.5699 2:1.2953 3:0.007772 4:0.10881 5:0.19689 6:-0.16321 7:-0.07772 8:0.28497 9:-0.15803 10:-0.10881 
-1.0 -0.0 -0.0 -0.0 1:-2.2668 2:1.9663 3:0.080311 4:-0.088083 5:0.031088 6:-0.25648 7:0.044041 8:-0.14249 9:-0.093264 10:-0.10881 
-1.0 -0.0 -0.0 -0.0 1:-1.329 2:1.9456 3:-0.68653 4:0.072539 5:0.018135 6:0.056995 7:-0.15026 8:0.10622 9:-0.13472 10:0.17617 
-1.0 -0.0 -0.0 -0.0 1:-1.0026 2:0.51295 3:-0.38342 4:0.069948 5:-0.051813 6:-0.069948 7:0.11658 8:0.12953 9:0.088083 10:-0.036269 
-1.0 -0.0 -0.0 -0.0 1:-1.5674 2:1.3523 3:0.11917 4:0.34456 5:-0.033679 6:-0.056995 7:-0.072539 8:0.031088 9:-0.041451 10:0.051813 
-1.0 -0.0 -0.0 -0.0 1:-0.94041 2:-0.064767 3:-0.32642 4:0.059585 5:-0.33938 6:0.15285 7:0.10881 8:0.10622 9:-0.10622 10:-0.093264 
-0.0 -0.5370515001224409 -0.4757568547168512 -0.08486251967470267 1:-1.1244 2:2.1762 3:-1.5751 4:-0.007772 5:-0.23316 6:-0.041451 7:0.044041 8:0.13472 9:-0.085492 10:-0.044041 
-1.0 -0.0 -0.0 -0.0 1:-1.0959 2:0.92228 3:-0.32902 4:-0.12953 5:0.0051813 6:0.080311 7:-0.064767 8:0.012953 9:-0.35751 10:-0.023316 
-1.0 -0.0 -0.0 -0.0 1:1.9741 2:-0.61399 3:-0.098446 4:-0.012953 5:-0.43523 6:-0.15544 7:0.056995 8:0.13472 9:-0.031088 10:-0.023316 
-1.0 -0.0 -0.0 -0.0 1:1.3212 2:0.20725 3:-1.0777 4:0.17617 5:-0.1114 6:-0.12435 7:-0.049223 8:0.27979 9:-0.088083 10:0.010363 
-1.0 -0.0 -0.0 -0.0 1:-0.48446 2:1.7332 3:-0.35233 4:-0.23575 5:-0.19948 6:0.049223 7:0.17876 8:0.23575 9:-0.17876 10:-0.069948 
-1.0 -0.0 -0.0 -0.0 1:1.4041 2:-0.76425 3:-0.98964 4:0.054404 5:-0.19689 6:-0.062176 7:0.07772 8:0.30311 9:-0.30052 10:-0.13212 
-1.0 -0.0 -0.0 -0.0 1:0.57513 2:0.29534 3:-0.88083 4:0.0051813 5:-0.015544 6:0.095855 7:0.07513 8:0.2772 9:-0.22798 10:-0.064767 
-1.0 -0.0 -0.0 -0.0 1:0.7772 2:0.37824 3:-0.58031 4:0.25907 5:-0.025907 6:0.046632 7:-0.010363 8:0.1658 9:-0.23575 10:-0.093264 
-1.0 -0.0 -0.0 -0.0 1:1.0337 2:0.033679 3:-0.46373 4:0.1658 5:0.13212 6:-0.13472 7:-0.018135 8:0.3342 9:-0.2228 10:-0.010363 
-1.0 -0.0 -0.0 -0.0 1:-0.26943 2:-0.32383 3:-0.49223 4:0.056995 5:0.012953 6:0.32124 7:0.010363 8:0.14767 9:-0.21503 10:0.028497 
-1.0 -0.0 -0.0 -0.0 1:-0.29534 2:-0.07772 3:-0.036269 4:0.17617 5:-0.1658 6:0.051813 7:0.012953 8:0.10363 9:-0.056995 10:-0.028497 
-1.0 -0.0 -0.0 -0.0 1:0.54145 2:0.095855 3:-0.090674 4:-0.19171 5:0.18653 6:-0.046632 7:-0.023316 8:0.28497 9:-0.2513 10:-0.10622 
-0.41402616132425163 -0.0 -0.0 -0.0 1:-1.1839 2:1.1425 3:-0.40155 4:0.03886 5:-0.082902 6:-0.018135 7:0.007772 8:0.24352 9:-0.17358 10:-0.015544 
-1.0 -0.0 -0.0 -1.0 1:2.1684 2:-0.95337 3:-1.2487 4:-0.15803 5:0.062176 6:0.018135 7:0.093264 8:0.15026 9:-0.012953 10:-0.056995 
-1.0 -0.0 -0.0 -0.0 1:0.83938 2:-0.52591 3:-0.3886 4:0.1399 5:-0.059585 6:0.080311 7:0.15803 8:0.15803 9:-0.07513 10:-0.051813 
-1.0 -0.0 -0.0 -0.0 1:-1.9715 2:1.7176 3:-0.10104 4:-0.12694 5:-0.10363 6:-0.012953 7:-0.015544 8:-0.010363 9:-0.11399 10:0.15285 
-1.0 -0.0 -0.0 -0.0 1:-0.33161 2:1.1218 3:-0.15026 4:-0.10104 5:-0.067358 6:-0.036269 7:-0.090674 8:0.35492 9:-0.31606 10:0.025907 
-1.0 -0.0 -0.0 -0.0 1:0.86269 2:-0.40933 3:-0.95855 4:0.3601 5:-0.062176 6:0.18912 7:0.090674 8:0.082902 9:-0.2228 10:0.023316 
-1.0 -0.0 -0.0 -0.0 1:-0.36788 2:-0.27979 3:0.40155 4:-0.098446 5:-0.19171 6:0.093264 7:0.082902 8:-0.054404 9:-0.036269 10:-0.054404 
-1.0 -0.08257408399258302 -0.07511981604020769 -0.0 1:-1.1244 2:2.2306 3:-0.13731 4:-0.16062 5:-0.090674 6:0.054404 7:0.020725 8:0.018135 9:-0.2228 10:-0.020725 
-1.0 -0.0 -0.0 -0.0 1:-1.1373 2:-0.21503 3:-0.025907 4:0.064767 5:-0.085492 6:0.07513 7:0.046632 8:0.15285 9:-0.20207 10:-0.072539 
-1.0 -0.0 -0.0 -0.0 1:-1.0751 2:0.24352 3:-0.093264 4:-0.054404 5:-0.03886 6:0.098446 7:-0.069948 8:0.24611 9:-0.19948 10:0.007772 
-1.0 -0.0 -0.0 -0.0 1:-1.1347 2:1.0829 3:0.028497 4:0.14508 5:-0.20466 6:-0.082902 7:-0.025907 8:0.22539 9:-0.24611 10:-0.044041 
-1.0 -0.0 -0.0 -0.0 1:-0.39637 2:-0.010363 3:-0.53886 4:0.35492 5:-0.34715 6:0.0051813 7:0.010363 8:0.21503 9:-0.11917 10:-0.080311 
-1.0 -0.0 -0.0 -0.0 1:-0.36269 2:0.82124 3:-0.87047 4:-0.11917 5:-0.0025907 6:0.17617 7:0.0025907 8:0.07772 9:-0.16839 10:0.056995 
-1.0 -0.0 -0.0 -0.0 1:1.9016 2:-0.79793 3:0.049223 4:-0.031088 5:-0.1114 6:0.24093 7:-0.028497 8:0.19948 9:-0.10363 10:-0.085492 
-1.0 -0.0 -0.0 -0.0 1:-0.73316 2:0.18912 3:0.43005 4:0.36269 5:0.088083 6:-0.14508 7:-0.19171 8:0.18394 9:-0.20466 10:-0.11658 
-1.0 -0.0 -0.0 -0.0 1:0.31088 2:-0.25907 3:-0.18135 4:0.020725 5:-0.080311 6:-0.085492 7:-0.25389 8:0.18912 9:-0.10104 10:-0.010363 
-1.0 -0.0 -0.0 -0.0 1:-0.56477 2:0.60363 3:-0.31347 4:-0.010363 5:-0.39896 6:-0.23316 7:0.082902 8:0.31347 9:0.015544 10:-0.11658 
-1.0 -0.0 -0.0 -0.0 1:-0.67098 2:0.020725 3:-0.15026 4:0.069948 5:0.088083 6:0.010363 7:-0.095855 8:0.16062 9:-0.17617 10:0.07772 
-1.0 -0.0 -0.0 -0.0 1:-1.044 2:1.5596 3:-0.51295 4:-0.26166 5:0.11658 6:0.033679 7:0.18653 8:0.26166 9:-0.090674 10:-0.082902 
-1.0 -0.0 -0.0 -0.0 1:0.52073 2:-0.5 3:-0.63731 4:-0.32902 5:-0.069948 6:0.20207 7:0.23834 8:0.41969 9:-0.29275 10:-0.10363 
-1.0 -0.7038637860296411 -0.6423285450533329 -1.0 1:2.4819 2:-1.7461 3:-0.58031 4:0.3342 5:0.0051813 6:0.07772 7:-0.090674 8:0.45078 9:-0.07772 10:-0.13212 
-1.0 -0.0 -0.0 -0.0 1:-0.23834 2:0.10622 3:-0.61399 4:-0.0025907 5:-0.07513 6:0.16839 7:0.23057 8:0.39896 9:-0.051813 10:-0.03886 
-1.0 -0.0 -0.0 -0.0 1:-0.76684 2:0.38601 3:-0.0051813 4:0.028497 5:-0.33679 6:-0.07513 7:0.095855 8:0.23575 9:-0.16321 10:-0.044041 
-1.0 -0.0 -0.0 -0.0 1:-0.79275 2:1.2591 3:-0.4715 4:0.095855 5:-0.3057 6:0.1114 7:-0.18135 8:0.22021 9:-0.1114 10:-0.13472 
-1.0 -0.0 -0.0 -0.0 1:-0.98446 2:0.68912 3:0.046632 4:0.16839 5:0.059585 6:-0.067358 7:0.03886 8:0.03886 9:-0.23057 10:0.059585 
-1.0 -0.0 -0.0 -0.0 1:1.1295 2:-0.14767 3:-0.5285 4:-0.012953 5:-0.17617 6:-0.036269 7:0.041451 8:0.098446 9:-0.32902 10:-0.15285 
-1.0 -0.0 -0.0 -0.0 1:-0.98964 2:1.2358 3:0.0025907 4:0.15544 5:0.03886 6:0.1114 7:-0.025907 8:0.3057 9:-0.033679 10:-0.14767 
-1.0 -0.0 -0.0 -0.0 1:-1.4456 2:0.99482 3:0.32383 4:0.1399 5:0.14249 6:-0.1114 7:-0.028497 8:0.082902 9:-0.19948 10:-0.054404 
-0.6885779582374967 -0.7291309771658887 -0.675388937403069 -0.24943021883710792 1:-2.0959 2:0.41969 3:0.31347 4:0.44301 5:-0.059585 6:0.24093 7:0.012953 8:0.26943 9:-0.18912 10:0.028497 
-1.0 -0.0 -0.0 -0.0 1:0.95855 2:0.68135 3:-0.37824 4:-0.10881 5:-0.056995 6:-0.18912 7:-0.046632 8:0.033679 9:-0.2487 10:0.069948 
-1.0 -0.0 -0.0 -0.0 1:0.77979 2:0.088083 3:-0.67098 4:0.29534 5:0.10881 6:-0.085492 7:-0.036269 8:0.27202 9:-0.13212 10:0.028497 
-0.5571419491134729 -0.0 -0.0 -0.0 1:0.32383 2:-0.0051813 3:-0.77461 4:0.14249 5:-0.25648 6:0.0025907 7:0.10363 8:0.46891 9:-0.14767 10:-0.064767 
-1.0 -0.0 -0.0 -0.0 1:0.73834 2:-0.17358 3:-0.064767 4:-0.044041 5:-0.20466 6:0.085492 7:0.18135 8:0.16839 9:-0.1943 10:0.0051813 
-1.0 -0.0 -0.0 -0.0 1:-0.68912 2:0.7772 3:-0.37565 4:0.3342 5:0.031088 6:0.18653 7:-0.098446 8:0.22539 9:-0.19689 10:0.031088 
-1.0 -0.0 -0.0 -0.0 1:0.13731 2:-0.42746 3:-0.6114 4:0.33938 5:0.13212 6:0.36788 7:0.044041 8:0.095855 9:-0.023316 10:-0.069948 
-1.0 -0.0 -0.0 -0.0 1:-1.0751 2:1.2021 3:-0.58031 4:0.22798 5:-0.23057 6:-0.020725 7:0.085492 8:0.03886 9:-0.14249 10:0.036269 
-1.0 -0.0 -0.0 -0.0 1:-2.044 2:0.93264 3:0.47409 4:0.20725 5:-0.18653 6:0.080311 7:0.16062 8:0.12694 9:-0.11917 10:-0.088083 
-1.0 -0.0 -0.0 -0.0 1:-0.30311 2:0.072539 3:-0.28756 4:0.39119 5:-0.1658 6:0.3601 7:0.19948 8:0.12176 9:-0.072539 10:0.064767 
-1.0 -0.0 -0.0 -0.0 1:0.10881 2:0.89378 3:-0.19948 4:0.17098 5:0.064767 6:-0.062176 7:0.13212 8:0.18653 9:-0.19171 10:0.028497 
-1.0 -0.0 -0.0 -0.0 1:-2.0415 2:1.1762 3:0.34197 4:0.33938 5:-0.25389 6:0.18135 7:-0.033679 8:0.07513 9:-0.049223 10:0.031088 
-0.0 -0.0 -0.0 -0.2071581122446488 1:-2.7383 2:0.92746 3:0.32902 4:0.39896 5:-0.12694 6:0.007772 7:0.1943 8:0.12953 9:-0.10881 10:-0.21762 
